{"model_type": "xgboost_tier_specific", "tier": "tier2", "test_year": 2025, "train_years_list": [2021, 2022, 2023, 2024], "mae_ktc": 329.0323700984767, "signed_error": -127.02677683815813, "r2_score": 0.8267626979898548, "n_train_samples": 184, "n_test_samples": 52, "n_features": 148, "feature_names": ["start_ktc", "ktc_30d_trend", "ktc_90d_trend", "age_factor", "years_exp_normalized", "fp_normalized", "games_played_factor", "fp_per_game", "prior_fp_normalized", "prior_fp_per_game", "fp_per_game_change", "fp_change_yoy", "position_rank_normalized", "ktc_volatility", "is_breakout_candidate", "is_qb", "is_rb", "is_wr", "is_te", "receptions_normalized", "targets_normalized", "receiving_yards_normalized", "receiving_tds_normalized", "yards_per_target", "target_share", "carries_normalized", "rushing_yards_normalized", "rushing_tds_normalized", "yards_per_carry", "passing_yards_normalized", "passing_tds_normalized", "interceptions_normalized", "draft_round_value", "draft_pick_value", "age_fp_interaction", "cliff_years_penalty", "age_exp_gap", "snap_pct_normalized", "fp_per_snap", "elite_youth_premium", "fp_trajectory", "qb_td_int_ratio", "qb_rushing_bonus", "qb_age_premium", "qb_efficiency", "is_elite_tier", "elite_age_interaction", "elite_trajectory_interaction", "elite_volatility_dampener", "efficiency_volume", "workload_intensity", "td_conversion_rate", "trajectory_cliff_interaction", "draft_performance_ratio", "yoy_decline_severity", "games_played_collapse", "gap_year_penalty", "qb_age_cliff_40plus", "elite_partial_season_resilience", "career_prime_factor", "red_zone_targets_norm", "red_zone_touches_norm", "red_zone_efficiency_norm", "air_yards_normalized", "yac_normalized", "yac_per_rec_norm", "air_yards_per_tgt_norm", "drop_rate_normalized", "receiving_fd_norm", "rushing_fd_norm", "broken_tackles_norm", "rush_share_norm", "completion_rate_norm", "sack_rate_norm", "passing_fd_norm", "weekly_fp_cv", "momentum_ratio", "boom_rate", "bust_rate", "last_4_vs_season", "max_games_missed_streak", "ktc_weekly_volatility", "team_pass_factor", "team_rush_factor", "opportunity_ceiling", "rush_opportunity", "team_volume_combined", "snap_trend", "snap_collapse", "snap_consistency", "ktc_trend_acceleration", "mid_season_correction", "ktc_momentum", "pff_grade_normalized", "pff_has_data", "pff_grade_confidence", "pff_position_grade", "pff_grade_divergence", "pff_grade_trajectory", "pff_wr_separation", "pff_wr_contested_catch", "pff_rb_elusive_rating", "pff_rb_receiving_grade", "pff_qb_accuracy", "pff_qb_pressure_grade", "pff_grade_volatility", "pff_youth_premium", "pff_decline_alert", "pff_grade_snap_divergence", "pff_elite_indicator", "pff_bust_risk", "pff_breakout_probability", "pff_dynasty_score", "veteran_decline_risk", "rb_age_penalty", "wr_te_age_penalty", "age_31_plus_flag", "age_decline_signal", "value_depreciation_risk", "veteran_with_declining_fp", "mid_tier_depreciation_signal", "snap_pct_decline", "starter_to_backup_risk", "mid_tier_regression_factor", "qb_stability_premium", "qb_scarcity_factor", "rb_accelerated_decline", "position_cliff_multiplier", "elite_young_upside", "elite_momentum_amplifier", "breakout_trajectory", "tier2_hope_discount", "non_starter_depreciation", "one_hit_wonder_risk", "peak_season_risk", "buy_low_recovery", "te_upside_amplifier", "te_elite_ceiling", "te_breakout_indicator", "breakout_potential_ceiling", "rookie_draft_capital_ceiling", "momentum_ceiling_amplifier", "young_elite_ceiling_boost", "career_trajectory_boost", "veteran_steep_decline", "veteran_qb_cliff", "aging_value_compression", "position_age_interaction"], "ensemble_weights": {"xgboost": 0.4, "lightgbm": 0.6}, "xgboost_model": {"n_estimators": 450, "base_score": 0.4345529, "trees": [{"nodeid": 0, "depth": 0, "split": "f139", "split_condition": 0.00035892037, "yes": 1, "no": 2, "missing": 2, "children": [{"nodeid": 1, "depth": 1, "split": "f91", "split_condition": 0.125849709, "yes": 3, "no": 4, "missing": 4, "children": [{"nodeid": 3, "depth": 2, "split": "f90", "split_condition": -0.0817685649, "yes": 7, "no": 8, "missing": 8, "children": [{"nodeid": 7, "depth": 3, "split": "f112", "split_condition": 0.395942867, "yes": 15, "no": 16, "missing": 16, "children": [{"nodeid": 15, "leaf": -0.00222349097}, {"nodeid": 16, "leaf": -0.000325016154}]}, {"nodeid": 8, "depth": 3, "split": "f97", "split_condition": 0.387208343, "yes": 17, "no": 18, "missing": 18, "children": [{"nodeid": 17, "leaf": 0.00260020886}, {"nodeid": 18, "leaf": 0.000329596776}]}]}, {"nodeid": 4, "depth": 2, "split": "f51", "split_condition": 0.077922076, "yes": 9, "no": 10, "missing": 10, "children": [{"nodeid": 9, "depth": 3, "split": "f136", "split_condition": 0.217199996, "yes": 19, "no": 20, "missing": 20, "children": [{"nodeid": 19, "leaf": -0.00331316097}, {"nodeid": 20, "leaf": -0.000513171253}]}, {"nodeid": 10, "depth": 3, "split": "f8", "split_condition": 0.338750005, "yes": 21, "no": 22, "missing": 22, "children": [{"nodeid": 21, "leaf": -0.000299162522}, {"nodeid": 22, "leaf": 0.00164348795}]}]}]}, {"nodeid": 2, "depth": 1, "split": "f123", "split_condition": 0.0491999984, "yes": 5, "no": 6, "missing": 6, "children": [{"nodeid": 5, "depth": 2, "split": "f118", "split_condition": 0.0334693454, "yes": 11, "no": 12, "missing": 12, "children": [{"nodeid": 11, "leaf": 0.00146549742}, {"nodeid": 12, "depth": 3, "split": "f76", "split_condition": 0.0960000008, "yes": 23, "no": 24, "missing": 24, "children": [{"nodeid": 23, "leaf": 0.00168279908}, {"nodeid": 24, "leaf": 0.00508746831}]}]}, {"nodeid": 6, "depth": 2, "split": "f9", "split_condition": 0.432666659, "yes": 13, "no": 14, "missing": 14, "children": [{"nodeid": 13, "depth": 3, "split": "f34", "split_condition": 0.058600001, "yes": 25, "no": 26, "missing": 26, "children": [{"nodeid": 25, "leaf": -0.00140490197}, {"nodeid": 26, "leaf": -0.000144801626}]}, {"nodeid": 14, "depth": 3, "split": "f79", "split_condition": 0.32100001, "yes": 27, "no": 28, "missing": 28, "children": [{"nodeid": 27, "leaf": 3.33966927e-05}, {"nodeid": 28, "leaf": 0.00247000298}]}]}]}]}, {"nodeid": 0, "depth": 0, "split": "f139", "split_condition": 0.00035892037, "yes": 1, "no": 2, "missing": 2, "children": [{"nodeid": 1, "depth": 1, "split": "f0", "split_condition": 0.469546944, "yes": 3, "no": 4, "missing": 4, "children": [{"nodeid": 3, "depth": 2, "split": "f91", "split_condition": 0.0772482678, "yes": 7, "no": 8, "missing": 8, "children": [{"nodeid": 7, "depth": 3, "split": "f76", "split_condition": 0.312999994, "yes": 15, "no": 16, "missing": 16, "children": [{"nodeid": 15, "leaf": -0.00228357338}, {"nodeid": 16, "leaf": 0.000122211757}]}, {"nodeid": 8, "depth": 3, "split": "f136", "split_condition": 0.217199996, "yes": 17, "no": 18, "missing": 18, "children": [{"nodeid": 17, "leaf": -0.00387645932}, {"nodeid": 18, "leaf": -0.00102570129}]}]}, {"nodeid": 4, "depth": 2, "split": "f1", "split_condition": 0.0201999992, "yes": 9, "no": 10, "missing": 10, "children": [{"nodeid": 9, "depth": 3, "split": "f81", "split_condition": 0.388000011, "yes": 19, "no": 20, "missing": 20, "children": [{"nodeid": 19, "leaf": 0.00182943128}, {"nodeid": 20, "leaf": 1.84222044e-05}]}, {"nodeid": 10, "depth": 3, "split": "f91", "split_condition": 0.112689607, "yes": 21, "no": 22, "missing": 22, "children": [{"nodeid": 21, "leaf": -0.000558015774}, {"nodeid": 22, "leaf": -0.00260513905}]}]}]}, {"nodeid": 2, "depth": 1, "split": "f9", "split_condition": 0.420235306, "yes": 5, "no": 6, "missing": 6, "children": [{"nodeid": 5, "depth": 2, "split": "f34", "split_condition": 0.0603, "yes": 11, "no": 12, "missing": 12, "children": [{"nodeid": 11, "depth": 3, "split": "f0", "split_condition": 0.438543856, "yes": 23, "no": 24, "missing": 24, "children": [{"nodeid": 23, "leaf": -0.00151950528}, {"nodeid": 24, "leaf": -0.00052271632}]}, {"nodeid": 12, "leaf": 0.000533366168}]}, {"nodeid": 6, "depth": 2, "split": "f7", "split_condition": 0.557230771, "yes": 13, "no": 14, "missing": 14, "children": [{"nodeid": 13, "depth": 3, "split": "f2", "split_condition": 0.0210999995, "yes": 25, "no": 26, "missing": 26, "children": [{"nodeid": 25, "leaf": 0.00259695482}, {"nodeid": 26, "leaf": 0.000573124154}]}, {"nodeid": 14, "depth": 3, "split": "f108", "split_condition": 0.500999987, "yes": 27, "no": 28, "missing": 28, "children": [{"nodeid": 27, "leaf": 0.00502808765}, {"nodeid": 28, "leaf": 0.00118591124}]}]}]}]}, {"nodeid": 0, "depth": 0, "split": "f92", "split_condition": 0.00861189794, "yes": 1, "no": 2, "missing": 2, "children": [{"nodeid": 1, "depth": 1, "split": "f0", "split_condition": 0.513251305, "yes": 3, "no": 4, "missing": 4, "children": [{"nodeid": 3, "depth": 2, "split": "f91", "split_condition": 0.0906154662, "yes": 7, "no": 8, "missing": 8, "children": [{"nodeid": 7, "depth": 3, "split": "f39", "split_condition": 6.98418371e-05, "yes": 15, "no": 16, "missing": 16, "children": [{"nodeid": 15, "leaf": -0.0013127313}, {"nodeid": 16, "leaf": 0.000676221971}]}, {"nodeid": 8, "depth": 3, "split": "f81", "split_condition": 0.43599999, "yes": 17, "no": 18, "missing": 18, "children": [{"nodeid": 17, "leaf": -0.00167227047}, {"nodeid": 18, "leaf": -0.00351841724}]}]}, {"nodeid": 4, "depth": 2, "split": "f92", "split_condition": -0.10716965, "yes": 9, "no": 10, "missing": 10, "children": [{"nodeid": 9, "depth": 3, "split": "f37", "split_condition": 0.714999974, "yes": 19, "no": 20, "missing": 20, "children": [{"nodeid": 19, "leaf": -0.00187891151}, {"nodeid": 20, "leaf": 0.000241026457}]}, {"nodeid": 10, "depth": 3, "split": "f11", "split_condition": 0.237200007, "yes": 21, "no": 22, "missing": 22, "children": [{"nodeid": 21, "leaf": 0.000571010925}, {"nodeid": 22, "leaf": 0.0026652771}]}]}]}, {"nodeid": 2, "depth": 1, "split": "f81", "split_condition": 0.368999988, "yes": 5, "no": 6, "missing": 6, "children": [{"nodeid": 5, "depth": 2, "split": "f38", "split_condition": 0.519440114, "yes": 11, "no": 12, "missing": 12, "children": [{"nodeid": 11, "leaf": 0.000716569135}, {"nodeid": 12, "depth": 3, "split": "f0", "split_condition": 0.478947908, "yes": 23, "no": 24, "missing": 24, "children": [{"nodeid": 23, "leaf": 0.0009405663}, {"nodeid": 24, "leaf": 0.00258549396}]}]}, {"nodeid": 6, "depth": 2, "split": "f120", "split_condition": 0.246984705, "yes": 13, "no": 14, "missing": 14, "children": [{"nodeid": 13, "depth": 3, "split": "f92", "split_condition": 0.0478483289, "yes": 25, "no": 26, "missing": 26, "children": [{"nodeid": 25, "leaf": 0.00176001131}, {"nodeid": 26, "leaf": 0.00566183543}]}, {"nodeid": 14, "leaf": 0.00139143667}]}]}]}, {"nodeid": 0, "depth": 0, "split": "f39", "split_condition": 0.000114795919, "yes": 1, "no": 2, "missing": 2, "children": [{"nodeid": 1, "depth": 1, "split": "f0", "split_condition": 0.490249038, "yes": 3, "no": 4, "missing": 4, "children": [{"nodeid": 3, "depth": 2, "split": "f90", "split_condition": -0.0222972967, "yes": 7, "no": 8, "missing": 8, "children": [{"nodeid": 7, "depth": 3, "split": "f51", "split_condition": 0.0299999993, "yes": 15, "no": 16, "missing": 16, "children": [{"nodeid": 15, "leaf": -0.00351856183}, {"nodeid": 16, "leaf": -0.00143291405}]}, {"nodeid": 8, "depth": 3, "split": "f10", "split_condition": -0.051282052, "yes": 17, "no": 18, "missing": 18, "children": [{"nodeid": 17, "leaf": -0.00154043094}, {"nodeid": 18, "leaf": 0.00136002875}]}]}, {"nodeid": 4, "depth": 2, "split": "f10", "split_condition": -0.0141333332, "yes": 9, "no": 10, "missing": 10, "children": [{"nodeid": 9, "depth": 3, "split": "f13", "split_condition": 0.161500007, "yes": 19, "no": 20, "missing": 20, "children": [{"nodeid": 19, "leaf": 0.000296342885}, {"nodeid": 20, "leaf": -0.00246394984}]}, {"nodeid": 10, "depth": 3, "split": "f78", "split_condition": 0.25, "yes": 21, "no": 22, "missing": 22, "children": [{"nodeid": 21, "leaf": 0.00267396471}, {"nodeid": 22, "leaf": 5.99686246e-05}]}]}]}, {"nodeid": 2, "depth": 1, "split": "f81", "split_condition": 0.35800001, "yes": 5, "no": 6, "missing": 6, "children": [{"nodeid": 5, "depth": 2, "split": "f39", "split_condition": 0.0013166531, "yes": 11, "no": 12, "missing": 12, "children": [{"nodeid": 11, "depth": 3, "split": "f1", "split_condition": 0.0744000003, "yes": 23, "no": 24, "missing": 24, "children": [{"nodeid": 23, "leaf": 0.000624441542}, {"nodeid": 24, "leaf": -0.00058919104}]}, {"nodeid": 12, "depth": 3, "split": "f108", "split_condition": 0.405666679, "yes": 25, "no": 26, "missing": 26, "children": [{"nodeid": 25, "leaf": 0.00242417329}, {"nodeid": 26, "leaf": 0.00092498475}]}]}, {"nodeid": 6, "depth": 2, "split": "f38", "split_condition": 0.502821505, "yes": 13, "no": 14, "missing": 14, "children": [{"nodeid": 13, "leaf": 0.00105574867}, {"nodeid": 14, "depth": 3, "split": "f118", "split_condition": 0.0334693454, "yes": 27, "no": 28, "missing": 28, "children": [{"nodeid": 27, "leaf": 0.00119845546}, {"nodeid": 28, "leaf": 0.00462687388}]}]}]}]}, {"nodeid": 0, "depth": 0, "split": "f92", "split_condition": -0.0560880043, "yes": 1, "no": 2, "missing": 2, "children": [{"nodeid": 1, "depth": 1, "split": "f0", "split_condition": 0.506050587, "yes": 3, "no": 4, "missing": 4, "children": [{"nodeid": 3, "depth": 2, "split": "f92", "split_condition": -0.204780534, "yes": 7, "no": 8, "missing": 8, "children": [{"nodeid": 7, "depth": 3, "split": "f26", "split_condition": 0.343888879, "yes": 15, "no": 16, "missing": 16, "children": [{"nodeid": 15, "leaf": -0.0034768607}, {"nodeid": 16, "leaf": -0.00130146719}]}, {"nodeid": 8, "depth": 3, "split": "f120", "split_condition": 0.240138009, "yes": 17, "no": 18, "missing": 18, "children": [{"nodeid": 17, "leaf": -0.000531761965}, {"nodeid": 18, "leaf": -0.00254404522}]}]}, {"nodeid": 4, "depth": 2, "split": "f90", "split_condition": -0.0841126814, "yes": 9, "no": 10, "missing": 10, "children": [{"nodeid": 9, "depth": 3, "split": "f76", "split_condition": 0.400000006, "yes": 19, "no": 20, "missing": 20, "children": [{"nodeid": 19, "leaf": -0.00149545015}, {"nodeid": 20, "leaf": -0.000128491069}]}, {"nodeid": 10, "depth": 3, "split": "f79", "split_condition": 0.541000009, "yes": 21, "no": 22, "missing": 22, "children": [{"nodeid": 21, "leaf": 0.000204107215}, {"nodeid": 22, "leaf": 0.00193044788}]}]}]}, {"nodeid": 2, "depth": 1, "split": "f39", "split_condition": 0.0123051479, "yes": 5, "no": 6, "missing": 6, "children": [{"nodeid": 5, "depth": 2, "split": "f0", "split_condition": 0.413241327, "yes": 11, "no": 12, "missing": 12, "children": [{"nodeid": 11, "depth": 3, "split": "f10", "split_condition": -0.0307999998, "yes": 23, "no": 24, "missing": 24, "children": [{"nodeid": 23, "leaf": -0.00189847895}, {"nodeid": 24, "leaf": 9.3469549e-05}]}, {"nodeid": 12, "depth": 3, "split": "f92", "split_condition": 0.0647234023, "yes": 25, "no": 26, "missing": 26, "children": [{"nodeid": 25, "leaf": 0.00132020761}, {"nodeid": 26, "leaf": 0.00311879697}]}]}, {"nodeid": 6, "depth": 2, "split": "f81", "split_condition": 0.316000015, "yes": 13, "no": 14, "missing": 14, "children": [{"nodeid": 13, "leaf": 0.00190665422}, {"nodeid": 14, "leaf": 0.0054389732}]}]}]}, {"nodeid": 0, "depth": 0, "split": "f92", "split_condition": -0.0560880043, "yes": 1, "no": 2, "missing": 2, "children": [{"nodeid": 1, "depth": 1, "split": "f0", "split_condition": 0.506050587, "yes": 3, "no": 4, "missing": 4, "children": [{"nodeid": 3, "depth": 2, "split": "f91", "split_condition": 0.149974719, "yes": 7, "no": 8, "missing": 8, "children": [{"nodeid": 7, "depth": 3, "split": "f120", "split_condition": 0.250285029, "yes": 15, "no": 16, "missing": 16, "children": [{"nodeid": 15, "leaf": -0.00114560348}, {"nodeid": 16, "leaf": -0.00290828804}]}, {"nodeid": 8, "leaf": -0.0039599468}]}, {"nodeid": 4, "depth": 2, "split": "f1", "split_condition": 0.00529999984, "yes": 9, "no": 10, "missing": 10, "children": [{"nodeid": 9, "depth": 3, "split": "f76", "split_condition": 0.137999997, "yes": 17, "no": 18, "missing": 18, "children": [{"nodeid": 17, "leaf": -0.000411956775}, {"nodeid": 18, "leaf": 0.00111903483}]}, {"nodeid": 10, "depth": 3, "split": "f37", "split_condition": 0.689999998, "yes": 19, "no": 20, "missing": 20, "children": [{"nodeid": 19, "leaf": -0.00234573311}, {"nodeid": 20, "leaf": -0.000319469138}]}]}]}, {"nodeid": 2, "depth": 1, "split": "f96", "split_condition": 0.301333338, "yes": 5, "no": 6, "missing": 6, "children": [{"nodeid": 5, "depth": 2, "split": "f1", "split_condition": 0.0309999995, "yes": 11, "no": 12, "missing": 12, "children": [{"nodeid": 11, "leaf": -0.00225161714}, {"nodeid": 12, "leaf": -0.000128666696}]}, {"nodeid": 6, "depth": 2, "split": "f39", "split_condition": 0.0123051479, "yes": 13, "no": 14, "missing": 14, "children": [{"nodeid": 13, "depth": 3, "split": "f0", "split_condition": 0.486548662, "yes": 21, "no": 22, "missing": 22, "children": [{"nodeid": 21, "leaf": 0.000747744169}, {"nodeid": 22, "leaf": 0.0023227965}]}, {"nodeid": 14, "leaf": 0.00395456282}]}]}]}, {"nodeid": 0, "depth": 0, "split": "f92", "split_condition": -0.0040854807, "yes": 1, "no": 2, "missing": 2, "children": [{"nodeid": 1, "depth": 1, "split": "f92", "split_condition": -0.178536639, "yes": 3, "no": 4, "missing": 4, "children": [{"nodeid": 3, "depth": 2, "split": "f112", "split_condition": 0.478666663, "yes": 7, "no": 8, "missing": 8, "children": [{"nodeid": 7, "depth": 3, "split": "f123", "split_condition": 0.0705509558, "yes": 13, "no": 14, "missing": 14, "children": [{"nodeid": 13, "leaf": -0.00167157676}, {"nodeid": 14, "leaf": -0.00337540708}]}, {"nodeid": 8, "depth": 3, "split": "f13", "split_condition": 0.117799997, "yes": 15, "no": 16, "missing": 16, "children": [{"nodeid": 15, "leaf": 0.000113268834}, {"nodeid": 16, "leaf": -0.000999699812}]}]}, {"nodeid": 4, "depth": 2, "split": "f0", "split_condition": 0.521452129, "yes": 9, "no": 10, "missing": 10, "children": [{"nodeid": 9, "depth": 3, "split": "f39", "split_condition": 6.98418371e-05, "yes": 17, "no": 18, "missing": 18, "children": [{"nodeid": 17, "leaf": -0.00131094665}, {"nodeid": 18, "leaf": 0.000962061982}]}, {"nodeid": 10, "depth": 3, "split": "f1", "split_condition": -0.0588999987, "yes": 19, "no": 20, "missing": 20, "children": [{"nodeid": 19, "leaf": -0.000428542262}, {"nodeid": 20, "leaf": 0.00129436934}]}]}]}, {"nodeid": 2, "depth": 1, "split": "f92", "split_condition": 0.227564096, "yes": 5, "no": 6, "missing": 6, "children": [{"nodeid": 5, "depth": 2, "split": "f78", "split_condition": 0.222000003, "yes": 11, "no": 12, "missing": 12, "children": [{"nodeid": 11, "depth": 3, "split": "f108", "split_condition": 0.517333329, "yes": 21, "no": 22, "missing": 22, "children": [{"nodeid": 21, "leaf": 0.00294675282}, {"nodeid": 22, "leaf": 0.00114373886}]}, {"nodeid": 12, "depth": 3, "split": "f6", "split_condition": 1, "yes": 23, "no": 24, "missing": 24, "children": [{"nodeid": 23, "leaf": 4.42808196e-05}, {"nodeid": 24, "leaf": 0.00266803894}]}]}, {"nodeid": 6, "leaf": 0.00523753325}]}]}, {"nodeid": 0, "depth": 0, "split": "f39", "split_condition": 0.000114795919, "yes": 1, "no": 2, "missing": 2, "children": [{"nodeid": 1, "depth": 1, "split": "f0", "split_condition": 0.490249038, "yes": 3, "no": 4, "missing": 4, "children": [{"nodeid": 3, "depth": 2, "split": "f7", "split_condition": 0.65625, "yes": 7, "no": 8, "missing": 8, "children": [{"nodeid": 7, "depth": 3, "split": "f139", "split_condition": 0.00035892037, "yes": 15, "no": 16, "missing": 16, "children": [{"nodeid": 15, "leaf": -0.00256108982}, {"nodeid": 16, "leaf": 9.04147309e-05}]}, {"nodeid": 8, "depth": 3, "split": "f7", "split_condition": 0.76352942, "yes": 17, "no": 18, "missing": 18, "children": [{"nodeid": 17, "leaf": 0.000139430937}, {"nodeid": 18, "leaf": 0.00224043196}]}]}, {"nodeid": 4, "depth": 2, "split": "f90", "split_condition": -0.0841126814, "yes": 9, "no": 10, "missing": 10, "children": [{"nodeid": 9, "depth": 3, "split": "f75", "split_condition": 0.42899999, "yes": 19, "no": 20, "missing": 20, "children": [{"nodeid": 19, "leaf": -0.00212278729}, {"nodeid": 20, "leaf": -0.000595613441}]}, {"nodeid": 10, "depth": 3, "split": "f96", "split_condition": 0.505333304, "yes": 21, "no": 22, "missing": 22, "children": [{"nodeid": 21, "leaf": 0.000362555496}, {"nodeid": 22, "leaf": 0.00196339726}]}]}]}, {"nodeid": 2, "depth": 1, "split": "f39", "split_condition": 0.0123051479, "yes": 5, "no": 6, "missing": 6, "children": [{"nodeid": 5, "depth": 2, "split": "f37", "split_condition": 0.864000022, "yes": 11, "no": 12, "missing": 12, "children": [{"nodeid": 11, "depth": 3, "split": "f81", "split_condition": 0.391000003, "yes": 23, "no": 24, "missing": 24, "children": [{"nodeid": 23, "leaf": 0.00122640131}, {"nodeid": 24, "leaf": 0.00311374012}]}, {"nodeid": 12, "leaf": -0.000219604961}]}, {"nodeid": 6, "depth": 2, "split": "f81", "split_condition": 0.316000015, "yes": 13, "no": 14, "missing": 14, "children": [{"nodeid": 13, "leaf": 0.0017295368}, {"nodeid": 14, "leaf": 0.0045079533}]}]}]}, {"nodeid": 0, "depth": 0, "split": "f92", "split_condition": -0.154882908, "yes": 1, "no": 2, "missing": 2, "children": [{"nodeid": 1, "depth": 1, "split": "f123", "split_condition": 0.15050225, "yes": 3, "no": 4, "missing": 4, "children": [{"nodeid": 3, "depth": 2, "split": "f106", "split_condition": 0.225714281, "yes": 7, "no": 8, "missing": 8, "children": [{"nodeid": 7, "depth": 3, "split": "f0", "split_condition": 0.543454349, "yes": 15, "no": 16, "missing": 16, "children": [{"nodeid": 15, "leaf": -0.00228600157}, {"nodeid": 16, "leaf": -0.000462737604}]}, {"nodeid": 8, "depth": 3, "split": "f1", "split_condition": 0.0346000008, "yes": 17, "no": 18, "missing": 18, "children": [{"nodeid": 17, "leaf": -0.000431165769}, {"nodeid": 18, "leaf": 0.000476483576}]}]}, {"nodeid": 4, "depth": 2, "split": "f66", "split_condition": 0.336666673, "yes": 9, "no": 10, "missing": 10, "children": [{"nodeid": 9, "leaf": -0.00377970049}, {"nodeid": 10, "leaf": -0.00165002071}]}]}, {"nodeid": 2, "depth": 1, "split": "f92", "split_condition": 0.0105051212, "yes": 5, "no": 6, "missing": 6, "children": [{"nodeid": 5, "depth": 2, "split": "f0", "split_condition": 0.532253206, "yes": 11, "no": 12, "missing": 12, "children": [{"nodeid": 11, "depth": 3, "split": "f20", "split_condition": 0.316666663, "yes": 19, "no": 20, "missing": 20, "children": [{"nodeid": 19, "leaf": 0.000936412718}, {"nodeid": 20, "leaf": -0.00103180553}]}, {"nodeid": 12, "depth": 3, "split": "f76", "split_condition": 0.140000001, "yes": 21, "no": 22, "missing": 22, "children": [{"nodeid": 21, "leaf": -0.000179046503}, {"nodeid": 22, "leaf": 0.00174503541}]}]}, {"nodeid": 6, "depth": 2, "split": "f76", "split_condition": 0.197999999, "yes": 13, "no": 14, "missing": 14, "children": [{"nodeid": 13, "depth": 3, "split": "f23", "split_condition": 0.574479163, "yes": 23, "no": 24, "missing": 24, "children": [{"nodeid": 23, "leaf": 0.00182519085}, {"nodeid": 24, "leaf": 0.000387035805}]}, {"nodeid": 14, "depth": 3, "split": "f28", "split_condition": 1.35833335, "yes": 25, "no": 26, "missing": 26, "children": [{"nodeid": 25, "leaf": 0.00347302691}, {"nodeid": 26, "leaf": 0.000630276394}]}]}]}]}, {"nodeid": 0, "depth": 0, "split": "f92", "split_condition": 0.00861189794, "yes": 1, "no": 2, "missing": 2, "children": [{"nodeid": 1, "depth": 1, "split": "f0", "split_condition": 0.52735275, "yes": 3, "no": 4, "missing": 4, "children": [{"nodeid": 3, "depth": 2, "split": "f92", "split_condition": -0.204780534, "yes": 7, "no": 8, "missing": 8, "children": [{"nodeid": 7, "depth": 3, "split": "f96", "split_condition": 0.573333323, "yes": 15, "no": 16, "missing": 16, "children": [{"nodeid": 15, "leaf": -0.00309489993}, {"nodeid": 16, "leaf": -0.000562287576}]}, {"nodeid": 8, "depth": 3, "split": "f118", "split_condition": 0.0873647332, "yes": 17, "no": 18, "missing": 18, "children": [{"nodeid": 17, "leaf": -0.000243577073}, {"nodeid": 18, "leaf": -0.00157014315}]}]}, {"nodeid": 4, "depth": 2, "split": "f92", "split_condition": -0.193643302, "yes": 9, "no": 10, "missing": 10, "children": [{"nodeid": 9, "depth": 3, "split": "f37", "split_condition": 0.573000014, "yes": 19, "no": 20, "missing": 20, "children": [{"nodeid": 19, "leaf": -0.00222159526}, {"nodeid": 20, "leaf": -0.000332123658}]}, {"nodeid": 10, "depth": 3, "split": "f1", "split_condition": -0.0666999966, "yes": 21, "no": 22, "missing": 22, "children": [{"nodeid": 21, "leaf": -0.000376300915}, {"nodeid": 22, "leaf": 0.00148598349}]}]}]}, {"nodeid": 2, "depth": 1, "split": "f0", "split_condition": 0.519351959, "yes": 5, "no": 6, "missing": 6, "children": [{"nodeid": 5, "depth": 2, "split": "f2", "split_condition": 0.180899993, "yes": 11, "no": 12, "missing": 12, "children": [{"nodeid": 11, "depth": 3, "split": "f8", "split_condition": 0.528750002, "yes": 23, "no": 24, "missing": 24, "children": [{"nodeid": 23, "leaf": 0.00246306066}, {"nodeid": 24, "leaf": 0.000984196318}]}, {"nodeid": 12, "leaf": -2.9290868e-05}]}, {"nodeid": 6, "depth": 2, "split": "f20", "split_condition": 0.866666675, "yes": 13, "no": 14, "missing": 14, "children": [{"nodeid": 13, "leaf": 0.00509421341}, {"nodeid": 14, "leaf": 0.00179079745}]}]}]}, {"nodeid": 0, "depth": 0, "split": "f92", "split_condition": -0.0040854807, "yes": 1, "no": 2, "missing": 2, "children": [{"nodeid": 1, "depth": 1, "split": "f0", "split_condition": 0.496149629, "yes": 3, "no": 4, "missing": 4, "children": [{"nodeid": 3, "depth": 2, "split": "f39", "split_condition": 6.98418371e-05, "yes": 7, "no": 8, "missing": 8, "children": [{"nodeid": 7, "depth": 3, "split": "f28", "split_condition": 0.841611505, "yes": 15, "no": 16, "missing": 16, "children": [{"nodeid": 15, "leaf": -0.00234660879}, {"nodeid": 16, "leaf": -0.000529498269}]}, {"nodeid": 8, "depth": 3, "split": "f93", "split_condition": 0.551999986, "yes": 17, "no": 18, "missing": 18, "children": [{"nodeid": 17, "leaf": 0.00104456511}, {"nodeid": 18, "leaf": -0.00012194139}]}]}, {"nodeid": 4, "depth": 2, "split": "f91", "split_condition": 0.123028688, "yes": 9, "no": 10, "missing": 10, "children": [{"nodeid": 9, "depth": 3, "split": "f1", "split_condition": 0.0144999996, "yes": 19, "no": 20, "missing": 20, "children": [{"nodeid": 19, "leaf": 0.0015259994}, {"nodeid": 20, "leaf": 4.19331482e-05}]}, {"nodeid": 10, "depth": 3, "split": "f1", "split_condition": -0.0215000007, "yes": 21, "no": 22, "missing": 22, "children": [{"nodeid": 21, "leaf": -0.000542458904}, {"nodeid": 22, "leaf": -0.00217398978}]}]}]}, {"nodeid": 2, "depth": 1, "split": "f39", "split_condition": 0.0123051479, "yes": 5, "no": 6, "missing": 6, "children": [{"nodeid": 5, "depth": 2, "split": "f49", "split_condition": 0.520340562, "yes": 11, "no": 12, "missing": 12, "children": [{"nodeid": 11, "depth": 3, "split": "f90", "split_condition": 0.0804638714, "yes": 23, "no": 24, "missing": 24, "children": [{"nodeid": 23, "leaf": 0.000907418667}, {"nodeid": 24, "leaf": 0.00267057959}]}, {"nodeid": 12, "leaf": 0.00299956766}]}, {"nodeid": 6, "depth": 2, "split": "f37", "split_condition": 0.734000027, "yes": 13, "no": 14, "missing": 14, "children": [{"nodeid": 13, "leaf": 0.00129104755}, {"nodeid": 14, "depth": 3, "split": "f90", "split_condition": 0.00705183111, "yes": 25, "no": 26, "missing": 26, "children": [{"nodeid": 25, "leaf": 0.00209777686}, {"nodeid": 26, "leaf": 0.0054432624}]}]}]}]}, {"nodeid": 0, "depth": 0, "split": "f92", "split_condition": -0.0560880043, "yes": 1, "no": 2, "missing": 2, "children": [{"nodeid": 1, "depth": 1, "split": "f0", "split_condition": 0.469546944, "yes": 3, "no": 4, "missing": 4, "children": [{"nodeid": 3, "depth": 2, "split": "f28", "split_condition": 0.711363614, "yes": 7, "no": 8, "missing": 8, "children": [{"nodeid": 7, "depth": 3, "split": "f9", "split_condition": 0.41624999, "yes": 15, "no": 16, "missing": 16, "children": [{"nodeid": 15, "leaf": -0.00147277117}, {"nodeid": 16, "leaf": -0.00350138475}]}, {"nodeid": 8, "depth": 3, "split": "f3", "split_condition": 0.333333343, "yes": 17, "no": 18, "missing": 18, "children": [{"nodeid": 17, "leaf": 3.59331207e-05}, {"nodeid": 18, "leaf": -0.00150142412}]}]}, {"nodeid": 4, "depth": 2, "split": "f92", "split_condition": -0.147444546, "yes": 9, "no": 10, "missing": 10, "children": [{"nodeid": 9, "depth": 3, "split": "f11", "split_condition": 0.268000007, "yes": 19, "no": 20, "missing": 20, "children": [{"nodeid": 19, "leaf": -0.00152170099}, {"nodeid": 20, "leaf": -0.000256225991}]}, {"nodeid": 10, "depth": 3, "split": "f18", "split_condition": 1, "yes": 21, "no": 22, "missing": 22, "children": [{"nodeid": 21, "leaf": 0.000743255892}, {"nodeid": 22, "leaf": -0.00111503911}]}]}]}, {"nodeid": 2, "depth": 1, "split": "f123", "split_condition": 0.0888992921, "yes": 5, "no": 6, "missing": 6, "children": [{"nodeid": 5, "depth": 2, "split": "f139", "split_condition": 0.00560999988, "yes": 11, "no": 12, "missing": 12, "children": [{"nodeid": 11, "depth": 3, "split": "f37", "split_condition": 0.70599997, "yes": 23, "no": 24, "missing": 24, "children": [{"nodeid": 23, "leaf": 0}, {"nodeid": 24, "leaf": 0.00189705798}]}, {"nodeid": 12, "depth": 3, "split": "f4", "split_condition": 0.300000012, "yes": 25, "no": 26, "missing": 26, "children": [{"nodeid": 25, "leaf": 0.00495111477}, {"nodeid": 26, "leaf": 0.00225672848}]}]}, {"nodeid": 6, "depth": 2, "split": "f92", "split_condition": 0.00861189794, "yes": 13, "no": 14, "missing": 14, "children": [{"nodeid": 13, "depth": 3, "split": "f0", "split_condition": 0.485048503, "yes": 27, "no": 28, "missing": 28, "children": [{"nodeid": 27, "leaf": -0.00120144035}, {"nodeid": 28, "leaf": 0.00058804499}]}, {"nodeid": 14, "depth": 3, "split": "f5", "split_condition": 0.414499998, "yes": 29, "no": 30, "missing": 30, "children": [{"nodeid": 29, "leaf": 0.00186134037}, {"nodeid": 30, "leaf": 0}]}]}]}]}, {"nodeid": 0, "depth": 0, "split": "f92", "split_condition": -0.0560880043, "yes": 1, "no": 2, "missing": 2, "children": [{"nodeid": 1, "depth": 1, "split": "f0", "split_condition": 0.496149629, "yes": 3, "no": 4, "missing": 4, "children": [{"nodeid": 3, "depth": 2, "split": "f39", "split_condition": 6.98418371e-05, "yes": 7, "no": 8, "missing": 8, "children": [{"nodeid": 7, "depth": 3, "split": "f59", "split_condition": 0.875, "yes": 15, "no": 16, "missing": 16, "children": [{"nodeid": 15, "leaf": -0.0029228155}, {"nodeid": 16, "leaf": -0.00167239702}]}, {"nodeid": 8, "leaf": 0.000703825091}]}, {"nodeid": 4, "depth": 2, "split": "f92", "split_condition": -0.166095436, "yes": 9, "no": 10, "missing": 10, "children": [{"nodeid": 9, "depth": 3, "split": "f77", "split_condition": 0.111000001, "yes": 17, "no": 18, "missing": 18, "children": [{"nodeid": 17, "leaf": -0.00161981478}, {"nodeid": 18, "leaf": -0.000467028294}]}, {"nodeid": 10, "depth": 3, "split": "f93", "split_condition": 0.515999973, "yes": 19, "no": 20, "missing": 20, "children": [{"nodeid": 19, "leaf": -1.97242844e-05}, {"nodeid": 20, "leaf": 0.00127001852}]}]}]}, {"nodeid": 2, "depth": 1, "split": "f123", "split_condition": 0.0753157064, "yes": 5, "no": 6, "missing": 6, "children": [{"nodeid": 5, "depth": 2, "split": "f139", "split_condition": 0.00258356938, "yes": 11, "no": 12, "missing": 12, "children": [{"nodeid": 11, "depth": 3, "split": "f132", "split_condition": 0.100000001, "yes": 21, "no": 22, "missing": 22, "children": [{"nodeid": 21, "leaf": 0.00179519563}, {"nodeid": 22, "leaf": -0.000200055903}]}, {"nodeid": 12, "depth": 3, "split": "f81", "split_condition": 0.381000012, "yes": 23, "no": 24, "missing": 24, "children": [{"nodeid": 23, "leaf": 0.00193568354}, {"nodeid": 24, "leaf": 0.00412973762}]}]}, {"nodeid": 6, "depth": 2, "split": "f92", "split_condition": 0.00861189794, "yes": 13, "no": 14, "missing": 14, "children": [{"nodeid": 13, "depth": 3, "split": "f13", "split_condition": 0.116899997, "yes": 25, "no": 26, "missing": 26, "children": [{"nodeid": 25, "leaf": -0.00150859635}, {"nodeid": 26, "leaf": 0.000526935502}]}, {"nodeid": 14, "depth": 3, "split": "f7", "split_condition": 0.481777787, "yes": 27, "no": 28, "missing": 28, "children": [{"nodeid": 27, "leaf": 0.00145052106}, {"nodeid": 28, "leaf": -0.000122623023}]}]}]}]}, {"nodeid": 0, "depth": 0, "split": "f92", "split_condition": -0.0560880043, "yes": 1, "no": 2, "missing": 2, "children": [{"nodeid": 1, "depth": 1, "split": "f92", "split_condition": -0.204780534, "yes": 3, "no": 4, "missing": 4, "children": [{"nodeid": 3, "depth": 2, "split": "f91", "split_condition": 0.150057003, "yes": 7, "no": 8, "missing": 8, "children": [{"nodeid": 7, "depth": 3, "split": "f91", "split_condition": 0.0410318226, "yes": 15, "no": 16, "missing": 16, "children": [{"nodeid": 15, "leaf": -5.73326979e-05}, {"nodeid": 16, "leaf": -0.00178309612}]}, {"nodeid": 8, "leaf": -0.00336118438}]}, {"nodeid": 4, "depth": 2, "split": "f120", "split_condition": 0.240138009, "yes": 9, "no": 10, "missing": 10, "children": [{"nodeid": 9, "depth": 3, "split": "f10", "split_condition": -0.0980862752, "yes": 17, "no": 18, "missing": 18, "children": [{"nodeid": 17, "leaf": -0.000491547922}, {"nodeid": 18, "leaf": 0.000513406645}]}, {"nodeid": 10, "depth": 3, "split": "f102", "split_condition": 0.363999993, "yes": 19, "no": 20, "missing": 20, "children": [{"nodeid": 19, "leaf": -0.000430656713}, {"nodeid": 20, "leaf": -0.0023491953}]}]}]}, {"nodeid": 2, "depth": 1, "split": "f92", "split_condition": 0.105192766, "yes": 5, "no": 6, "missing": 6, "children": [{"nodeid": 5, "depth": 2, "split": "f112", "split_condition": 0.275276184, "yes": 11, "no": 12, "missing": 12, "children": [{"nodeid": 11, "leaf": -0.00138583663}, {"nodeid": 12, "depth": 3, "split": "f19", "split_condition": 0.625, "yes": 21, "no": 22, "missing": 22, "children": [{"nodeid": 21, "leaf": 0.00116546277}, {"nodeid": 22, "leaf": 0.00243228581}]}]}, {"nodeid": 6, "depth": 2, "split": "f76", "split_condition": 0.128000006, "yes": 13, "no": 14, "missing": 14, "children": [{"nodeid": 13, "leaf": 0.000671587419}, {"nodeid": 14, "depth": 3, "split": "f63", "split_condition": -0.0213333331, "yes": 23, "no": 24, "missing": 24, "children": [{"nodeid": 23, "leaf": 0.00142513879}, {"nodeid": 24, "leaf": 0.00482790777}]}]}]}]}, {"nodeid": 0, "depth": 0, "split": "f92", "split_condition": -0.0500305407, "yes": 1, "no": 2, "missing": 2, "children": [{"nodeid": 1, "depth": 1, "split": "f120", "split_condition": 0.250285029, "yes": 3, "no": 4, "missing": 4, "children": [{"nodeid": 3, "depth": 2, "split": "f92", "split_condition": -0.195932642, "yes": 7, "no": 8, "missing": 8, "children": [{"nodeid": 7, "depth": 3, "split": "f112", "split_condition": 0.394400001, "yes": 15, "no": 16, "missing": 16, "children": [{"nodeid": 15, "leaf": -0.00251258118}, {"nodeid": 16, "leaf": -0.000823609007}]}, {"nodeid": 8, "depth": 3, "split": "f120", "split_condition": 0.191971198, "yes": 17, "no": 18, "missing": 18, "children": [{"nodeid": 17, "leaf": 0.000677030999}, {"nodeid": 18, "leaf": -0.000336840225}]}]}, {"nodeid": 4, "depth": 2, "split": "f117", "split_condition": 0.243900001, "yes": 9, "no": 10, "missing": 10, "children": [{"nodeid": 9, "depth": 3, "split": "f1", "split_condition": -0.0239000004, "yes": 19, "no": 20, "missing": 20, "children": [{"nodeid": 19, "leaf": -0.00126620568}, {"nodeid": 20, "leaf": -0.000432744884}]}, {"nodeid": 10, "leaf": -0.00298516988}]}]}, {"nodeid": 2, "depth": 1, "split": "f10", "split_condition": -0.0082666669, "yes": 5, "no": 6, "missing": 6, "children": [{"nodeid": 5, "depth": 2, "split": "f20", "split_condition": 0.227777779, "yes": 11, "no": 12, "missing": 12, "children": [{"nodeid": 11, "leaf": 0.00204436108}, {"nodeid": 12, "depth": 3, "split": "f51", "split_condition": 0.0172413792, "yes": 21, "no": 22, "missing": 22, "children": [{"nodeid": 21, "leaf": -0.00115370727}, {"nodeid": 22, "leaf": 0.000300503249}]}]}, {"nodeid": 6, "depth": 2, "split": "f92", "split_condition": 0.128687665, "yes": 13, "no": 14, "missing": 14, "children": [{"nodeid": 13, "depth": 3, "split": "f95", "split_condition": 0.737999976, "yes": 23, "no": 24, "missing": 24, "children": [{"nodeid": 23, "leaf": 0.000318124512}, {"nodeid": 24, "leaf": 0.00209988491}]}, {"nodeid": 14, "depth": 3, "split": "f63", "split_condition": -0.0406666659, "yes": 25, "no": 26, "missing": 26, "children": [{"nodeid": 25, "leaf": 0.00088113168}, {"nodeid": 26, "leaf": 0.00406608637}]}]}]}]}, {"nodeid": 0, "depth": 0, "split": "f92", "split_condition": -0.0560880043, "yes": 1, "no": 2, "missing": 2, "children": [{"nodeid": 1, "depth": 1, "split": "f0", "split_condition": 0.506050587, "yes": 3, "no": 4, "missing": 4, "children": [{"nodeid": 3, "depth": 2, "split": "f39", "split_condition": 6.98418371e-05, "yes": 7, "no": 8, "missing": 8, "children": [{"nodeid": 7, "depth": 3, "split": "f24", "split_condition": 0.272058815, "yes": 15, "no": 16, "missing": 16, "children": [{"nodeid": 15, "leaf": -0.00332913175}, {"nodeid": 16, "leaf": -0.00157584564}]}, {"nodeid": 8, "depth": 3, "split": "f1", "split_condition": -0.0147000002, "yes": 17, "no": 18, "missing": 18, "children": [{"nodeid": 17, "leaf": 0.00018218116}, {"nodeid": 18, "leaf": 0.00125928794}]}]}, {"nodeid": 4, "depth": 2, "split": "f1", "split_condition": 0.00529999984, "yes": 9, "no": 10, "missing": 10, "children": [{"nodeid": 9, "depth": 3, "split": "f76", "split_condition": 0.333000004, "yes": 19, "no": 20, "missing": 20, "children": [{"nodeid": 19, "leaf": -8.91716627e-05}, {"nodeid": 20, "leaf": 0.00121273135}]}, {"nodeid": 10, "depth": 3, "split": "f37", "split_condition": 0.689999998, "yes": 21, "no": 22, "missing": 22, "children": [{"nodeid": 21, "leaf": -0.00195546262}, {"nodeid": 22, "leaf": -0.000206300116}]}]}]}, {"nodeid": 2, "depth": 1, "split": "f39", "split_condition": 0.011479592, "yes": 5, "no": 6, "missing": 6, "children": [{"nodeid": 5, "depth": 2, "split": "f51", "split_condition": 0.0209059231, "yes": 11, "no": 12, "missing": 12, "children": [{"nodeid": 11, "depth": 3, "split": "f38", "split_condition": 0.676898479, "yes": 23, "no": 24, "missing": 24, "children": [{"nodeid": 23, "leaf": 0.000404577033}, {"nodeid": 24, "leaf": -0.00155727623}]}, {"nodeid": 12, "depth": 3, "split": "f10", "split_condition": -0.0505000018, "yes": 25, "no": 26, "missing": 26, "children": [{"nodeid": 25, "leaf": 0.000560538785}, {"nodeid": 26, "leaf": 0.00208981615}]}]}, {"nodeid": 6, "depth": 2, "split": "f8", "split_condition": 0.578249991, "yes": 13, "no": 14, "missing": 14, "children": [{"nodeid": 13, "depth": 3, "split": "f118", "split_condition": 0.0339093916, "yes": 27, "no": 28, "missing": 28, "children": [{"nodeid": 27, "leaf": 0.00141890754}, {"nodeid": 28, "leaf": 0.00498445192}]}, {"nodeid": 14, "leaf": 0.00119742949}]}]}]}, {"nodeid": 0, "depth": 0, "split": "f92", "split_condition": -0.0560880043, "yes": 1, "no": 2, "missing": 2, "children": [{"nodeid": 1, "depth": 1, "split": "f0", "split_condition": 0.496149629, "yes": 3, "no": 4, "missing": 4, "children": [{"nodeid": 3, "depth": 2, "split": "f39", "split_condition": 6.98418371e-05, "yes": 7, "no": 8, "missing": 8, "children": [{"nodeid": 7, "depth": 3, "split": "f28", "split_condition": 0.841611505, "yes": 15, "no": 16, "missing": 16, "children": [{"nodeid": 15, "leaf": -0.00218244246}, {"nodeid": 16, "leaf": -0.000562173373}]}, {"nodeid": 8, "leaf": 0.000680364959}]}, {"nodeid": 4, "depth": 2, "split": "f92", "split_condition": -0.166095436, "yes": 9, "no": 10, "missing": 10, "children": [{"nodeid": 9, "depth": 3, "split": "f77", "split_condition": 0.111000001, "yes": 17, "no": 18, "missing": 18, "children": [{"nodeid": 17, "leaf": -0.00181960687}, {"nodeid": 18, "leaf": -0.000288513576}]}, {"nodeid": 10, "depth": 3, "split": "f13", "split_condition": 0.0876000002, "yes": 19, "no": 20, "missing": 20, "children": [{"nodeid": 19, "leaf": 0.00110361713}, {"nodeid": 20, "leaf": -0.000141645534}]}]}]}, {"nodeid": 2, "depth": 1, "split": "f10", "split_condition": -0.00517647061, "yes": 5, "no": 6, "missing": 6, "children": [{"nodeid": 5, "depth": 2, "split": "f67", "split_condition": 0.340000004, "yes": 11, "no": 12, "missing": 12, "children": [{"nodeid": 11, "depth": 3, "split": "f17", "split_condition": 1, "yes": 21, "no": 22, "missing": 22, "children": [{"nodeid": 21, "leaf": 0.0017948983}, {"nodeid": 22, "leaf": 0.000111985442}]}, {"nodeid": 12, "depth": 3, "split": "f106", "split_condition": 0.0910476223, "yes": 23, "no": 24, "missing": 24, "children": [{"nodeid": 23, "leaf": -0.000806133728}, {"nodeid": 24, "leaf": 0.000800616923}]}]}, {"nodeid": 6, "depth": 2, "split": "f7", "split_condition": 0.538823545, "yes": 13, "no": 14, "missing": 14, "children": [{"nodeid": 13, "depth": 3, "split": "f2", "split_condition": 0.0406000018, "yes": 25, "no": 26, "missing": 26, "children": [{"nodeid": 25, "leaf": 0.00146753527}, {"nodeid": 26, "leaf": -0.000536268228}]}, {"nodeid": 14, "depth": 3, "split": "f59", "split_condition": 0.875, "yes": 27, "no": 28, "missing": 28, "children": [{"nodeid": 27, "leaf": 0.00354302535}, {"nodeid": 28, "leaf": 0.00170581939}]}]}]}]}, {"nodeid": 0, "depth": 0, "split": "f123", "split_condition": 0.0816000029, "yes": 1, "no": 2, "missing": 2, "children": [{"nodeid": 1, "depth": 1, "split": "f139", "split_condition": 0.0143544991, "yes": 3, "no": 4, "missing": 4, "children": [{"nodeid": 3, "depth": 2, "split": "f0", "split_condition": 0.437743783, "yes": 7, "no": 8, "missing": 8, "children": [{"nodeid": 7, "depth": 3, "split": "f7", "split_condition": 0.580799997, "yes": 15, "no": 16, "missing": 16, "children": [{"nodeid": 15, "leaf": -0.0022003015}, {"nodeid": 16, "leaf": -0.000463909935}]}, {"nodeid": 8, "depth": 3, "split": "f7", "split_condition": 0.662, "yes": 17, "no": 18, "missing": 18, "children": [{"nodeid": 17, "leaf": 0.000250494864}, {"nodeid": 18, "leaf": 0.00169193442}]}]}, {"nodeid": 4, "depth": 2, "split": "f38", "split_condition": 0.495208502, "yes": 9, "no": 10, "missing": 10, "children": [{"nodeid": 9, "leaf": -0.000678636308}, {"nodeid": 10, "depth": 3, "split": "f76", "split_condition": 0.0960000008, "yes": 19, "no": 20, "missing": 20, "children": [{"nodeid": 19, "leaf": 0.000885757734}, {"nodeid": 20, "leaf": 0.00291677588}]}]}]}, {"nodeid": 2, "depth": 1, "split": "f139", "split_condition": 0.00035892037, "yes": 5, "no": 6, "missing": 6, "children": [{"nodeid": 5, "depth": 2, "split": "f120", "split_condition": 0.174827486, "yes": 11, "no": 12, "missing": 12, "children": [{"nodeid": 11, "depth": 3, "split": "f5", "split_condition": 0.216250002, "yes": 21, "no": 22, "missing": 22, "children": [{"nodeid": 21, "leaf": 0.000521953159}, {"nodeid": 22, "leaf": -0.00152256177}]}, {"nodeid": 12, "depth": 3, "split": "f28", "split_condition": 1.01351357, "yes": 23, "no": 24, "missing": 24, "children": [{"nodeid": 23, "leaf": -0.00248088781}, {"nodeid": 24, "leaf": -0.000307052513}]}]}, {"nodeid": 6, "depth": 2, "split": "f139", "split_condition": 0.049610205, "yes": 13, "no": 14, "missing": 14, "children": [{"nodeid": 13, "depth": 3, "split": "f3", "split_condition": 0.200000003, "yes": 25, "no": 26, "missing": 26, "children": [{"nodeid": 25, "leaf": 0.00136660272}, {"nodeid": 26, "leaf": 4.88155638e-05}]}, {"nodeid": 14, "leaf": -0.000873079116}]}]}]}, {"nodeid": 0, "depth": 0, "split": "f92", "split_condition": -0.154882908, "yes": 1, "no": 2, "missing": 2, "children": [{"nodeid": 1, "depth": 1, "split": "f123", "split_condition": 0.217684776, "yes": 3, "no": 4, "missing": 4, "children": [{"nodeid": 3, "depth": 2, "split": "f117", "split_condition": 0.00620000018, "yes": 7, "no": 8, "missing": 8, "children": [{"nodeid": 7, "depth": 3, "split": "f5", "split_condition": 0.384000003, "yes": 15, "no": 16, "missing": 16, "children": [{"nodeid": 15, "leaf": 4.00723766e-05}, {"nodeid": 16, "leaf": 0.000513694948}]}, {"nodeid": 8, "depth": 3, "split": "f24", "split_condition": 0.285714298, "yes": 17, "no": 18, "missing": 18, "children": [{"nodeid": 17, "leaf": -0.00237514009}, {"nodeid": 18, "leaf": -0.00115049991}]}]}, {"nodeid": 4, "depth": 2, "split": "f9", "split_condition": 0.377777785, "yes": 9, "no": 10, "missing": 10, "children": [{"nodeid": 9, "leaf": -0.000798760913}, {"nodeid": 10, "depth": 3, "split": "f66", "split_condition": 0.307999998, "yes": 19, "no": 20, "missing": 20, "children": [{"nodeid": 19, "leaf": -0.00353172421}, {"nodeid": 20, "leaf": -0.000918655714}]}]}]}, {"nodeid": 2, "depth": 1, "split": "f139", "split_condition": 0.0143544991, "yes": 5, "no": 6, "missing": 6, "children": [{"nodeid": 5, "depth": 2, "split": "f7", "split_condition": 0.662, "yes": 11, "no": 12, "missing": 12, "children": [{"nodeid": 11, "depth": 3, "split": "f120", "split_condition": 0.187878788, "yes": 21, "no": 22, "missing": 22, "children": [{"nodeid": 21, "leaf": 0.000680715078}, {"nodeid": 22, "leaf": -0.000731369015}]}, {"nodeid": 12, "depth": 3, "split": "f37", "split_condition": 0.677999973, "yes": 23, "no": 24, "missing": 24, "children": [{"nodeid": 23, "leaf": 0.000365563203}, {"nodeid": 24, "leaf": 0.00221841759}]}]}, {"nodeid": 6, "depth": 2, "split": "f123", "split_condition": 0.029845234, "yes": 13, "no": 14, "missing": 14, "children": [{"nodeid": 13, "depth": 3, "split": "f3", "split_condition": 0.200000003, "yes": 25, "no": 26, "missing": 26, "children": [{"nodeid": 25, "leaf": 0.00456988811}, {"nodeid": 26, "leaf": 0.00217742543}]}, {"nodeid": 14, "depth": 3, "split": "f76", "split_condition": 0.293000013, "yes": 27, "no": 28, "missing": 28, "children": [{"nodeid": 27, "leaf": 0}, {"nodeid": 28, "leaf": 0.00205090386}]}]}]}]}, {"nodeid": 0, "depth": 0, "split": "f7", "split_condition": 0.657714307, "yes": 1, "no": 2, "missing": 2, "children": [{"nodeid": 1, "depth": 1, "split": "f139", "split_condition": 0.00035892037, "yes": 3, "no": 4, "missing": 4, "children": [{"nodeid": 3, "depth": 2, "split": "f0", "split_condition": 0.473347336, "yes": 7, "no": 8, "missing": 8, "children": [{"nodeid": 7, "depth": 3, "split": "f28", "split_condition": 0.841611505, "yes": 15, "no": 16, "missing": 16, "children": [{"nodeid": 15, "leaf": -0.00242869696}, {"nodeid": 16, "leaf": 9.80396726e-06}]}, {"nodeid": 8, "depth": 3, "split": "f10", "split_condition": -0.0948363617, "yes": 17, "no": 18, "missing": 18, "children": [{"nodeid": 17, "leaf": -0.000795813801}, {"nodeid": 18, "leaf": 0.000440334319}]}]}, {"nodeid": 4, "depth": 2, "split": "f118", "split_condition": 0.0616621673, "yes": 9, "no": 10, "missing": 10, "children": [{"nodeid": 9, "depth": 3, "split": "f77", "split_condition": 0.181999996, "yes": 19, "no": 20, "missing": 20, "children": [{"nodeid": 19, "leaf": 0.000880345353}, {"nodeid": 20, "leaf": -0.000798212946}]}, {"nodeid": 10, "depth": 3, "split": "f93", "split_condition": 0.509333313, "yes": 21, "no": 22, "missing": 22, "children": [{"nodeid": 21, "leaf": 0.00128215319}, {"nodeid": 22, "leaf": 0.0029334072}]}]}]}, {"nodeid": 2, "depth": 1, "split": "f96", "split_condition": 0.648000002, "yes": 5, "no": 6, "missing": 6, "children": [{"nodeid": 5, "depth": 2, "split": "f7", "split_condition": 0.695529401, "yes": 11, "no": 12, "missing": 12, "children": [{"nodeid": 11, "depth": 3, "split": "f75", "split_condition": 0.430000007, "yes": 23, "no": 24, "missing": 24, "children": [{"nodeid": 23, "leaf": 0.00172682735}, {"nodeid": 24, "leaf": 0.000606310496}]}, {"nodeid": 12, "depth": 3, "split": "f8", "split_condition": 0.662, "yes": 25, "no": 26, "missing": 26, "children": [{"nodeid": 25, "leaf": 0.00372652151}, {"nodeid": 26, "leaf": 0.00152910058}]}]}, {"nodeid": 6, "depth": 2, "split": "f10", "split_condition": -0.200117648, "yes": 13, "no": 14, "missing": 14, "children": [{"nodeid": 13, "leaf": 1.53033743e-05}, {"nodeid": 14, "leaf": 0.00116546242}]}]}]}, {"nodeid": 0, "depth": 0, "split": "f7", "split_condition": 0.662, "yes": 1, "no": 2, "missing": 2, "children": [{"nodeid": 1, "depth": 1, "split": "f139", "split_condition": 0.00035892037, "yes": 3, "no": 4, "missing": 4, "children": [{"nodeid": 3, "depth": 2, "split": "f0", "split_condition": 0.521452129, "yes": 7, "no": 8, "missing": 8, "children": [{"nodeid": 7, "depth": 3, "split": "f28", "split_condition": 0.866666675, "yes": 13, "no": 14, "missing": 14, "children": [{"nodeid": 13, "leaf": -0.00171613554}, {"nodeid": 14, "leaf": 0}]}, {"nodeid": 8, "depth": 3, "split": "f37", "split_condition": 0.573000014, "yes": 15, "no": 16, "missing": 16, "children": [{"nodeid": 15, "leaf": -0.00175560359}, {"nodeid": 16, "leaf": 0.000301953987}]}]}, {"nodeid": 4, "depth": 2, "split": "f118", "split_condition": 0.0312491246, "yes": 9, "no": 10, "missing": 10, "children": [{"nodeid": 9, "depth": 3, "split": "f95", "split_condition": 0.865999997, "yes": 17, "no": 18, "missing": 18, "children": [{"nodeid": 17, "leaf": -0.000907354522}, {"nodeid": 18, "leaf": -3.2820858e-06}]}, {"nodeid": 10, "depth": 3, "split": "f76", "split_condition": 0.330000013, "yes": 19, "no": 20, "missing": 20, "children": [{"nodeid": 19, "leaf": 0.000888004899}, {"nodeid": 20, "leaf": 0.00240732846}]}]}]}, {"nodeid": 2, "depth": 1, "split": "f4", "split_condition": 0.300000012, "yes": 5, "no": 6, "missing": 6, "children": [{"nodeid": 5, "leaf": 0.00421159575}, {"nodeid": 6, "depth": 2, "split": "f38", "split_condition": 0.922136962, "yes": 11, "no": 12, "missing": 12, "children": [{"nodeid": 11, "depth": 3, "split": "f81", "split_condition": 0.254999995, "yes": 21, "no": 22, "missing": 22, "children": [{"nodeid": 21, "leaf": 0.000663596555}, {"nodeid": 22, "leaf": 0.00193642662}]}, {"nodeid": 12, "depth": 3, "split": "f3", "split_condition": 0.466666669, "yes": 23, "no": 24, "missing": 24, "children": [{"nodeid": 23, "leaf": 0.000425153674}, {"nodeid": 24, "leaf": 1.5031289e-05}]}]}]}]}, {"nodeid": 0, "depth": 0, "split": "f92", "split_condition": 0.000875115802, "yes": 1, "no": 2, "missing": 2, "children": [{"nodeid": 1, "depth": 1, "split": "f92", "split_condition": -0.213919103, "yes": 3, "no": 4, "missing": 4, "children": [{"nodeid": 3, "depth": 2, "split": "f95", "split_condition": 0.108000003, "yes": 7, "no": 8, "missing": 8, "children": [{"nodeid": 7, "leaf": 3.55907905e-05}, {"nodeid": 8, "depth": 3, "split": "f8", "split_condition": 0.838750005, "yes": 15, "no": 16, "missing": 16, "children": [{"nodeid": 15, "leaf": -0.00261700735}, {"nodeid": 16, "leaf": -2.95720238e-05}]}]}, {"nodeid": 4, "depth": 2, "split": "f120", "split_condition": 0.186378643, "yes": 9, "no": 10, "missing": 10, "children": [{"nodeid": 9, "depth": 3, "split": "f111", "split_condition": 0.0238285717, "yes": 17, "no": 18, "missing": 18, "children": [{"nodeid": 17, "leaf": -1.64846169e-05}, {"nodeid": 18, "leaf": 0.00121756888}]}, {"nodeid": 10, "depth": 3, "split": "f51", "split_condition": 0.075757578, "yes": 19, "no": 20, "missing": 20, "children": [{"nodeid": 19, "leaf": -0.00113154389}, {"nodeid": 20, "leaf": 0.000742728356}]}]}]}, {"nodeid": 2, "depth": 1, "split": "f39", "split_condition": 0.0123051479, "yes": 5, "no": 6, "missing": 6, "children": [{"nodeid": 5, "depth": 2, "split": "f78", "split_condition": 0.222000003, "yes": 11, "no": 12, "missing": 12, "children": [{"nodeid": 11, "depth": 3, "split": "f108", "split_condition": 0.517333329, "yes": 21, "no": 22, "missing": 22, "children": [{"nodeid": 21, "leaf": 0.00195044582}, {"nodeid": 22, "leaf": 0.000466939615}]}, {"nodeid": 12, "depth": 3, "split": "f5", "split_condition": 0.41624999, "yes": 23, "no": 24, "missing": 24, "children": [{"nodeid": 23, "leaf": -0.000295721082}, {"nodeid": 24, "leaf": 0.000303854351}]}]}, {"nodeid": 6, "depth": 2, "split": "f1", "split_condition": 0.0370999984, "yes": 13, "no": 14, "missing": 14, "children": [{"nodeid": 13, "leaf": 0.00402930286}, {"nodeid": 14, "leaf": 0.00103241566}]}]}]}, {"nodeid": 0, "depth": 0, "split": "f92", "split_condition": 0.00377893238, "yes": 1, "no": 2, "missing": 2, "children": [{"nodeid": 1, "depth": 1, "split": "f92", "split_condition": -0.204780534, "yes": 3, "no": 4, "missing": 4, "children": [{"nodeid": 3, "depth": 2, "split": "f112", "split_condition": 0.478666663, "yes": 7, "no": 8, "missing": 8, "children": [{"nodeid": 7, "depth": 3, "split": "f7", "split_condition": 0.563058853, "yes": 15, "no": 16, "missing": 16, "children": [{"nodeid": 15, "leaf": -0.00260565151}, {"nodeid": 16, "leaf": -0.000649347086}]}, {"nodeid": 8, "depth": 3, "split": "f3", "split_condition": 0.266666681, "yes": 17, "no": 18, "missing": 18, "children": [{"nodeid": 17, "leaf": -0.000563848182}, {"nodeid": 18, "leaf": 0.000380221551}]}]}, {"nodeid": 4, "depth": 2, "split": "f7", "split_condition": 0.649866641, "yes": 9, "no": 10, "missing": 10, "children": [{"nodeid": 9, "depth": 3, "split": "f111", "split_condition": 0.00780799985, "yes": 19, "no": 20, "missing": 20, "children": [{"nodeid": 19, "leaf": -0.00146479649}, {"nodeid": 20, "leaf": 7.78162139e-05}]}, {"nodeid": 10, "depth": 3, "split": "f21", "split_condition": 0.334444433, "yes": 21, "no": 22, "missing": 22, "children": [{"nodeid": 21, "leaf": 0.00200215844}, {"nodeid": 22, "leaf": 0.000623218599}]}]}]}, {"nodeid": 2, "depth": 1, "split": "f92", "split_condition": 0.128687665, "yes": 5, "no": 6, "missing": 6, "children": [{"nodeid": 5, "depth": 2, "split": "f24", "split_condition": 0.903846145, "yes": 11, "no": 12, "missing": 12, "children": [{"nodeid": 11, "depth": 3, "split": "f23", "split_condition": 0.58922559, "yes": 23, "no": 24, "missing": 24, "children": [{"nodeid": 23, "leaf": 0.000986281899}, {"nodeid": 24, "leaf": 0.000114435097}]}, {"nodeid": 12, "depth": 3, "split": "f37", "split_condition": 0.862999976, "yes": 25, "no": 26, "missing": 26, "children": [{"nodeid": 25, "leaf": 0.00224757241}, {"nodeid": 26, "leaf": 0.000615852594}]}]}, {"nodeid": 6, "depth": 2, "split": "f120", "split_condition": 0.280138016, "yes": 13, "no": 14, "missing": 14, "children": [{"nodeid": 13, "depth": 3, "split": "f63", "split_condition": -0.0406666659, "yes": 27, "no": 28, "missing": 28, "children": [{"nodeid": 27, "leaf": 0.000679936784}, {"nodeid": 28, "leaf": 0.00375128863}]}, {"nodeid": 14, "leaf": 0.000499852526}]}]}]}, {"nodeid": 0, "depth": 0, "split": "f92", "split_condition": -0.0560880043, "yes": 1, "no": 2, "missing": 2, "children": [{"nodeid": 1, "depth": 1, "split": "f0", "split_condition": 0.506050587, "yes": 3, "no": 4, "missing": 4, "children": [{"nodeid": 3, "depth": 2, "split": "f51", "split_condition": 0.0382165611, "yes": 7, "no": 8, "missing": 8, "children": [{"nodeid": 7, "depth": 3, "split": "f50", "split_condition": 0.625, "yes": 15, "no": 16, "missing": 16, "children": [{"nodeid": 15, "leaf": -0.00257080374}, {"nodeid": 16, "leaf": -0.00118706503}]}, {"nodeid": 8, "depth": 3, "split": "f34", "split_condition": 0.234866664, "yes": 17, "no": 18, "missing": 18, "children": [{"nodeid": 17, "leaf": -0.000220017915}, {"nodeid": 18, "leaf": -0.0015847953}]}]}, {"nodeid": 4, "depth": 2, "split": "f95", "split_condition": 0.995999992, "yes": 9, "no": 10, "missing": 10, "children": [{"nodeid": 9, "depth": 3, "split": "f1", "split_condition": -0.0483999997, "yes": 19, "no": 20, "missing": 20, "children": [{"nodeid": 19, "leaf": -0.000106400919}, {"nodeid": 20, "leaf": -0.00145635742}]}, {"nodeid": 10, "depth": 3, "split": "f117", "split_condition": 0.0153000001, "yes": 21, "no": 22, "missing": 22, "children": [{"nodeid": 21, "leaf": 0.00146274525}, {"nodeid": 22, "leaf": 7.65070872e-05}]}]}]}, {"nodeid": 2, "depth": 1, "split": "f39", "split_condition": 0.0123051479, "yes": 5, "no": 6, "missing": 6, "children": [{"nodeid": 5, "depth": 2, "split": "f0", "split_condition": 0.413241327, "yes": 11, "no": 12, "missing": 12, "children": [{"nodeid": 11, "depth": 3, "split": "f3", "split_condition": 0.266666681, "yes": 23, "no": 24, "missing": 24, "children": [{"nodeid": 23, "leaf": 0.000263830676}, {"nodeid": 24, "leaf": -0.00127710181}]}, {"nodeid": 12, "depth": 3, "split": "f76", "split_condition": 0.273000002, "yes": 25, "no": 26, "missing": 26, "children": [{"nodeid": 25, "leaf": 0.000631425879}, {"nodeid": 26, "leaf": 0.00153291074}]}]}, {"nodeid": 6, "depth": 2, "split": "f63", "split_condition": -0.00066666666, "yes": 13, "no": 14, "missing": 14, "children": [{"nodeid": 13, "leaf": 0.000899749692}, {"nodeid": 14, "leaf": 0.00357485935}]}]}]}, {"nodeid": 0, "depth": 0, "split": "f92", "split_condition": -0.0040854807, "yes": 1, "no": 2, "missing": 2, "children": [{"nodeid": 1, "depth": 1, "split": "f0", "split_condition": 0.52735275, "yes": 3, "no": 4, "missing": 4, "children": [{"nodeid": 3, "depth": 2, "split": "f51", "split_condition": 0.0382165611, "yes": 7, "no": 8, "missing": 8, "children": [{"nodeid": 7, "depth": 3, "split": "f24", "split_condition": 0.272058815, "yes": 15, "no": 16, "missing": 16, "children": [{"nodeid": 15, "leaf": -0.00271949847}, {"nodeid": 16, "leaf": -0.00143468694}]}, {"nodeid": 8, "depth": 3, "split": "f91", "split_condition": 0.148300186, "yes": 17, "no": 18, "missing": 18, "children": [{"nodeid": 17, "leaf": -0.000278438936}, {"nodeid": 18, "leaf": -0.00199137046}]}]}, {"nodeid": 4, "depth": 2, "split": "f92", "split_condition": -0.116791867, "yes": 9, "no": 10, "missing": 10, "children": [{"nodeid": 9, "depth": 3, "split": "f2", "split_condition": 0.0812999979, "yes": 19, "no": 20, "missing": 20, "children": [{"nodeid": 19, "leaf": -2.8268847e-05}, {"nodeid": 20, "leaf": -0.00109366793}]}, {"nodeid": 10, "depth": 3, "split": "f11", "split_condition": 0.237200007, "yes": 21, "no": 22, "missing": 22, "children": [{"nodeid": 21, "leaf": 0.000401751255}, {"nodeid": 22, "leaf": 0.00164326967}]}]}]}, {"nodeid": 2, "depth": 1, "split": "f7", "split_condition": 0.666750014, "yes": 5, "no": 6, "missing": 6, "children": [{"nodeid": 5, "depth": 2, "split": "f76", "split_condition": 0.330000013, "yes": 11, "no": 12, "missing": 12, "children": [{"nodeid": 11, "depth": 3, "split": "f81", "split_condition": 0.393999994, "yes": 23, "no": 24, "missing": 24, "children": [{"nodeid": 23, "leaf": 0.000806224125}, {"nodeid": 24, "leaf": -1.66164282e-05}]}, {"nodeid": 12, "depth": 3, "split": "f79", "split_condition": 0.663999975, "yes": 25, "no": 26, "missing": 26, "children": [{"nodeid": 25, "leaf": 0.00250742026}, {"nodeid": 26, "leaf": 3.16772202e-05}]}]}, {"nodeid": 6, "depth": 2, "split": "f91", "split_condition": 0.0966471136, "yes": 13, "no": 14, "missing": 14, "children": [{"nodeid": 13, "leaf": 0.00184184627}, {"nodeid": 14, "leaf": 0.00419019116}]}]}]}, {"nodeid": 0, "depth": 0, "split": "f92", "split_condition": 0.0105051212, "yes": 1, "no": 2, "missing": 2, "children": [{"nodeid": 1, "depth": 1, "split": "f120", "split_condition": 0.1790279, "yes": 3, "no": 4, "missing": 4, "children": [{"nodeid": 3, "depth": 2, "split": "f90", "split_condition": -0.133272201, "yes": 7, "no": 8, "missing": 8, "children": [{"nodeid": 7, "depth": 3, "split": "f1", "split_condition": 0.0320000015, "yes": 13, "no": 14, "missing": 14, "children": [{"nodeid": 13, "leaf": -0.00180765276}, {"nodeid": 14, "leaf": -0.00030470232}]}, {"nodeid": 8, "depth": 3, "split": "f1", "split_condition": 0.0295000002, "yes": 15, "no": 16, "missing": 16, "children": [{"nodeid": 15, "leaf": 0.00119461748}, {"nodeid": 16, "leaf": 7.18892261e-05}]}]}, {"nodeid": 4, "depth": 2, "split": "f7", "split_condition": 0.65625, "yes": 9, "no": 10, "missing": 10, "children": [{"nodeid": 9, "depth": 3, "split": "f37", "split_condition": 0.416999996, "yes": 17, "no": 18, "missing": 18, "children": [{"nodeid": 17, "leaf": -0.00309072179}, {"nodeid": 18, "leaf": -0.00115041737}]}, {"nodeid": 10, "leaf": 0.00136042654}]}]}, {"nodeid": 2, "depth": 1, "split": "f92", "split_condition": 0.227564096, "yes": 5, "no": 6, "missing": 6, "children": [{"nodeid": 5, "depth": 2, "split": "f67", "split_condition": 0.614000022, "yes": 11, "no": 12, "missing": 12, "children": [{"nodeid": 11, "depth": 3, "split": "f92", "split_condition": 0.0440973565, "yes": 19, "no": 20, "missing": 20, "children": [{"nodeid": 19, "leaf": 0.000800983864}, {"nodeid": 20, "leaf": 0.00213049422}]}, {"nodeid": 12, "depth": 3, "split": "f120", "split_condition": 0.222232223, "yes": 21, "no": 22, "missing": 22, "children": [{"nodeid": 21, "leaf": 0.000981408521}, {"nodeid": 22, "leaf": -0.000253335369}]}]}, {"nodeid": 6, "leaf": 0.00444988115}]}]}, {"nodeid": 0, "depth": 0, "split": "f39", "split_condition": 0.00407773489, "yes": 1, "no": 2, "missing": 2, "children": [{"nodeid": 1, "depth": 1, "split": "f112", "split_condition": 0.450380951, "yes": 3, "no": 4, "missing": 4, "children": [{"nodeid": 3, "depth": 2, "split": "f0", "split_condition": 0.506050587, "yes": 7, "no": 8, "missing": 8, "children": [{"nodeid": 7, "depth": 3, "split": "f90", "split_condition": 0.0723895729, "yes": 15, "no": 16, "missing": 16, "children": [{"nodeid": 15, "leaf": -0.00126164942}, {"nodeid": 16, "leaf": 0.00128644379}]}, {"nodeid": 8, "depth": 3, "split": "f90", "split_condition": -0.0841126814, "yes": 17, "no": 18, "missing": 18, "children": [{"nodeid": 17, "leaf": -0.000444880046}, {"nodeid": 18, "leaf": 0.000709720363}]}]}, {"nodeid": 4, "depth": 2, "split": "f118", "split_condition": 0.0631823167, "yes": 9, "no": 10, "missing": 10, "children": [{"nodeid": 9, "depth": 3, "split": "f81", "split_condition": 0.393999994, "yes": 19, "no": 20, "missing": 20, "children": [{"nodeid": 19, "leaf": 0.000570694159}, {"nodeid": 20, "leaf": -0.000678980607}]}, {"nodeid": 10, "depth": 3, "split": "f34", "split_condition": 0.0348000005, "yes": 21, "no": 22, "missing": 22, "children": [{"nodeid": 21, "leaf": 0.00199145591}, {"nodeid": 22, "leaf": 0.000763113552}]}]}]}, {"nodeid": 2, "depth": 1, "split": "f4", "split_condition": 0.300000012, "yes": 5, "no": 6, "missing": 6, "children": [{"nodeid": 5, "depth": 2, "split": "f34", "split_condition": 0.10406667, "yes": 11, "no": 12, "missing": 12, "children": [{"nodeid": 11, "leaf": 0.00401211716}, {"nodeid": 12, "leaf": 0.00107164821}]}, {"nodeid": 6, "depth": 2, "split": "f123", "split_condition": 0.0199999996, "yes": 13, "no": 14, "missing": 14, "children": [{"nodeid": 13, "depth": 3, "split": "f9", "split_condition": 0.485454559, "yes": 23, "no": 24, "missing": 24, "children": [{"nodeid": 23, "leaf": 0.000523064344}, {"nodeid": 24, "leaf": 0.0019289155}]}, {"nodeid": 14, "leaf": -7.58362876e-05}]}]}]}, {"nodeid": 0, "depth": 0, "split": "f92", "split_condition": 0.000875115802, "yes": 1, "no": 2, "missing": 2, "children": [{"nodeid": 1, "depth": 1, "split": "f0", "split_condition": 0.506050587, "yes": 3, "no": 4, "missing": 4, "children": [{"nodeid": 3, "depth": 2, "split": "f28", "split_condition": 0.866666675, "yes": 7, "no": 8, "missing": 8, "children": [{"nodeid": 7, "depth": 3, "split": "f91", "split_condition": 0.150057003, "yes": 13, "no": 14, "missing": 14, "children": [{"nodeid": 13, "leaf": -0.00111938256}, {"nodeid": 14, "leaf": -0.00236735353}]}, {"nodeid": 8, "depth": 3, "split": "f13", "split_condition": 0.128299996, "yes": 15, "no": 16, "missing": 16, "children": [{"nodeid": 15, "leaf": 0.000472667569}, {"nodeid": 16, "leaf": -0.000531341939}]}]}, {"nodeid": 4, "depth": 2, "split": "f7", "split_condition": 0.649866641, "yes": 9, "no": 10, "missing": 10, "children": [{"nodeid": 9, "depth": 3, "split": "f13", "split_condition": 0.0759000033, "yes": 17, "no": 18, "missing": 18, "children": [{"nodeid": 17, "leaf": 0.000502157782}, {"nodeid": 18, "leaf": -0.00049832114}]}, {"nodeid": 10, "depth": 3, "split": "f0", "split_condition": 0.533453345, "yes": 19, "no": 20, "missing": 20, "children": [{"nodeid": 19, "leaf": 0.000482581701}, {"nodeid": 20, "leaf": 0.00171046739}]}]}]}, {"nodeid": 2, "depth": 1, "split": "f91", "split_condition": 0.194114029, "yes": 5, "no": 6, "missing": 6, "children": [{"nodeid": 5, "depth": 2, "split": "f7", "split_condition": 0.692571402, "yes": 11, "no": 12, "missing": 12, "children": [{"nodeid": 11, "depth": 3, "split": "f76", "split_condition": 0.331999987, "yes": 21, "no": 22, "missing": 22, "children": [{"nodeid": 21, "leaf": 0.000463435164}, {"nodeid": 22, "leaf": 0.00156687142}]}, {"nodeid": 12, "leaf": 0.00228730962}]}, {"nodeid": 6, "leaf": 0.00437845057}]}]}, {"nodeid": 0, "depth": 0, "split": "f92", "split_condition": -0.0040854807, "yes": 1, "no": 2, "missing": 2, "children": [{"nodeid": 1, "depth": 1, "split": "f0", "split_condition": 0.506050587, "yes": 3, "no": 4, "missing": 4, "children": [{"nodeid": 3, "depth": 2, "split": "f39", "split_condition": 6.98418371e-05, "yes": 7, "no": 8, "missing": 8, "children": [{"nodeid": 7, "depth": 3, "split": "f77", "split_condition": 0.175999999, "yes": 15, "no": 16, "missing": 16, "children": [{"nodeid": 15, "leaf": -0.0018376204}, {"nodeid": 16, "leaf": -0.000742384582}]}, {"nodeid": 8, "depth": 3, "split": "f106", "split_condition": 0.393333346, "yes": 17, "no": 18, "missing": 18, "children": [{"nodeid": 17, "leaf": 0.00103028934}, {"nodeid": 18, "leaf": -0.00018382429}]}]}, {"nodeid": 4, "depth": 2, "split": "f76", "split_condition": 0.333000004, "yes": 9, "no": 10, "missing": 10, "children": [{"nodeid": 9, "depth": 3, "split": "f117", "split_condition": 0.0397999994, "yes": 19, "no": 20, "missing": 20, "children": [{"nodeid": 19, "leaf": 0.000559872424}, {"nodeid": 20, "leaf": -0.000558659551}]}, {"nodeid": 10, "depth": 3, "split": "f92", "split_condition": -0.193643302, "yes": 21, "no": 22, "missing": 22, "children": [{"nodeid": 21, "leaf": 0}, {"nodeid": 22, "leaf": 0.00142491935}]}]}]}, {"nodeid": 2, "depth": 1, "split": "f120", "split_condition": 0.226582661, "yes": 5, "no": 6, "missing": 6, "children": [{"nodeid": 5, "depth": 2, "split": "f81", "split_condition": 0.365999997, "yes": 11, "no": 12, "missing": 12, "children": [{"nodeid": 11, "depth": 3, "split": "f63", "split_condition": -0.0266666673, "yes": 23, "no": 24, "missing": 24, "children": [{"nodeid": 23, "leaf": 0.000256000843}, {"nodeid": 24, "leaf": 0.00171740155}]}, {"nodeid": 12, "depth": 3, "split": "f0", "split_condition": 0.519351959, "yes": 25, "no": 26, "missing": 26, "children": [{"nodeid": 25, "leaf": 0.00191099069}, {"nodeid": 26, "leaf": 0.00416525546}]}]}, {"nodeid": 6, "depth": 2, "split": "f2", "split_condition": -0.0322999991, "yes": 13, "no": 14, "missing": 14, "children": [{"nodeid": 13, "depth": 3, "split": "f97", "split_condition": 0.469000012, "yes": 27, "no": 28, "missing": 28, "children": [{"nodeid": 27, "leaf": 0.00156308268}, {"nodeid": 28, "leaf": 0.000482048257}]}, {"nodeid": 14, "depth": 3, "split": "f2", "split_condition": 0.0434999987, "yes": 29, "no": 30, "missing": 30, "children": [{"nodeid": 29, "leaf": -0.000235201951}, {"nodeid": 30, "leaf": 0.000361178856}]}]}]}]}, {"nodeid": 0, "depth": 0, "split": "f92", "split_condition": -0.146016508, "yes": 1, "no": 2, "missing": 2, "children": [{"nodeid": 1, "depth": 1, "split": "f0", "split_condition": 0.46994698, "yes": 3, "no": 4, "missing": 4, "children": [{"nodeid": 3, "depth": 2, "split": "f28", "split_condition": 0.841611505, "yes": 7, "no": 8, "missing": 8, "children": [{"nodeid": 7, "depth": 3, "split": "f66", "split_condition": 0.336666673, "yes": 15, "no": 16, "missing": 16, "children": [{"nodeid": 15, "leaf": -0.00249223132}, {"nodeid": 16, "leaf": -0.00103059318}]}, {"nodeid": 8, "leaf": -0.000269502838}]}, {"nodeid": 4, "depth": 2, "split": "f106", "split_condition": 0.196428567, "yes": 9, "no": 10, "missing": 10, "children": [{"nodeid": 9, "depth": 3, "split": "f34", "split_condition": 0.0869999975, "yes": 17, "no": 18, "missing": 18, "children": [{"nodeid": 17, "leaf": -0.00180274225}, {"nodeid": 18, "leaf": -0.000648798945}]}, {"nodeid": 10, "depth": 3, "split": "f13", "split_condition": 0.1052, "yes": 19, "no": 20, "missing": 20, "children": [{"nodeid": 19, "leaf": 0.000267120166}, {"nodeid": 20, "leaf": -0.000297169376}]}]}]}, {"nodeid": 2, "depth": 1, "split": "f39", "split_condition": 0.00286989799, "yes": 5, "no": 6, "missing": 6, "children": [{"nodeid": 5, "depth": 2, "split": "f0", "split_condition": 0.473347336, "yes": 11, "no": 12, "missing": 12, "children": [{"nodeid": 11, "depth": 3, "split": "f92", "split_condition": -0.0040854807, "yes": 21, "no": 22, "missing": 22, "children": [{"nodeid": 21, "leaf": -0.000934951182}, {"nodeid": 22, "leaf": 0.00068160746}]}, {"nodeid": 12, "depth": 3, "split": "f78", "split_condition": 0.125, "yes": 23, "no": 24, "missing": 24, "children": [{"nodeid": 23, "leaf": 0.00168980693}, {"nodeid": 24, "leaf": 0.000328000198}]}]}, {"nodeid": 6, "depth": 2, "split": "f93", "split_condition": 0.561333358, "yes": 13, "no": 14, "missing": 14, "children": [{"nodeid": 13, "depth": 3, "split": "f97", "split_condition": 0.469000012, "yes": 25, "no": 26, "missing": 26, "children": [{"nodeid": 25, "leaf": 0.00136563112}, {"nodeid": 26, "leaf": -5.90808922e-05}]}, {"nodeid": 14, "depth": 3, "split": "f8", "split_condition": 0.559750021, "yes": 27, "no": 28, "missing": 28, "children": [{"nodeid": 27, "leaf": 0.00342421629}, {"nodeid": 28, "leaf": 0.000865609094}]}]}]}]}, {"nodeid": 0, "depth": 0, "split": "f123", "split_condition": 0.0816000029, "yes": 1, "no": 2, "missing": 2, "children": [{"nodeid": 1, "depth": 1, "split": "f39", "split_condition": 0.011479592, "yes": 3, "no": 4, "missing": 4, "children": [{"nodeid": 3, "depth": 2, "split": "f90", "split_condition": -0.0841126814, "yes": 7, "no": 8, "missing": 8, "children": [{"nodeid": 7, "depth": 3, "split": "f4", "split_condition": 0.300000012, "yes": 15, "no": 16, "missing": 16, "children": [{"nodeid": 15, "leaf": 0.000519412919}, {"nodeid": 16, "leaf": -0.00092380814}]}, {"nodeid": 8, "depth": 3, "split": "f49", "split_condition": 0.644353628, "yes": 17, "no": 18, "missing": 18, "children": [{"nodeid": 17, "leaf": 0.000651064329}, {"nodeid": 18, "leaf": 0.00179175171}]}]}, {"nodeid": 4, "depth": 2, "split": "f63", "split_condition": -0.00066666666, "yes": 9, "no": 10, "missing": 10, "children": [{"nodeid": 9, "leaf": 0.000782703049}, {"nodeid": 10, "depth": 3, "split": "f77", "split_condition": 0.0710000023, "yes": 19, "no": 20, "missing": 20, "children": [{"nodeid": 19, "leaf": 0.00115663384}, {"nodeid": 20, "leaf": 0.00372304581}]}]}]}, {"nodeid": 2, "depth": 1, "split": "f91", "split_condition": 0.166759104, "yes": 5, "no": 6, "missing": 6, "children": [{"nodeid": 5, "depth": 2, "split": "f28", "split_condition": 0.841611505, "yes": 11, "no": 12, "missing": 12, "children": [{"nodeid": 11, "depth": 3, "split": "f90", "split_condition": 0.0194319878, "yes": 21, "no": 22, "missing": 22, "children": [{"nodeid": 21, "leaf": -0.00100700581}, {"nodeid": 22, "leaf": 0.000339424179}]}, {"nodeid": 12, "depth": 3, "split": "f1", "split_condition": -0.0467999987, "yes": 23, "no": 24, "missing": 24, "children": [{"nodeid": 23, "leaf": 0.0012650704}, {"nodeid": 24, "leaf": 0.000425188162}]}]}, {"nodeid": 6, "depth": 2, "split": "f81", "split_condition": 0.365999997, "yes": 13, "no": 14, "missing": 14, "children": [{"nodeid": 13, "leaf": -0.000214301224}, {"nodeid": 14, "depth": 3, "split": "f21", "split_condition": 0.317777783, "yes": 25, "no": 26, "missing": 26, "children": [{"nodeid": 25, "leaf": -0.00240472914}, {"nodeid": 26, "leaf": -0.00055106933}]}]}]}]}, {"nodeid": 0, "depth": 0, "split": "f92", "split_condition": -0.146016508, "yes": 1, "no": 2, "missing": 2, "children": [{"nodeid": 1, "depth": 1, "split": "f7", "split_condition": 0.390666664, "yes": 3, "no": 4, "missing": 4, "children": [{"nodeid": 3, "depth": 2, "split": "f13", "split_condition": 0.0218000002, "yes": 7, "no": 8, "missing": 8, "children": [{"nodeid": 7, "leaf": -0.000557016989}, {"nodeid": 8, "leaf": -0.00222547492}]}, {"nodeid": 4, "depth": 2, "split": "f120", "split_condition": 0.242034197, "yes": 9, "no": 10, "missing": 10, "children": [{"nodeid": 9, "depth": 3, "split": "f49", "split_condition": 0.277273983, "yes": 15, "no": 16, "missing": 16, "children": [{"nodeid": 15, "leaf": 7.89809565e-05}, {"nodeid": 16, "leaf": -0.00081910938}]}, {"nodeid": 10, "depth": 3, "split": "f7", "split_condition": 0.580799997, "yes": 17, "no": 18, "missing": 18, "children": [{"nodeid": 17, "leaf": -0.00186650688}, {"nodeid": 18, "leaf": -0.000352905801}]}]}]}, {"nodeid": 2, "depth": 1, "split": "f120", "split_condition": 0.242448241, "yes": 5, "no": 6, "missing": 6, "children": [{"nodeid": 5, "depth": 2, "split": "f92", "split_condition": 0.0478483289, "yes": 11, "no": 12, "missing": 12, "children": [{"nodeid": 11, "depth": 3, "split": "f76", "split_condition": 0.331999987, "yes": 19, "no": 20, "missing": 20, "children": [{"nodeid": 19, "leaf": 0.0001756251}, {"nodeid": 20, "leaf": 0.000997832045}]}, {"nodeid": 12, "depth": 3, "split": "f76", "split_condition": 0.111000001, "yes": 21, "no": 22, "missing": 22, "children": [{"nodeid": 21, "leaf": 0.000461516407}, {"nodeid": 22, "leaf": 0.00248204567}]}]}, {"nodeid": 6, "depth": 2, "split": "f92", "split_condition": -0.0621794537, "yes": 13, "no": 14, "missing": 14, "children": [{"nodeid": 13, "depth": 3, "split": "f16", "split_condition": 1, "yes": 23, "no": 24, "missing": 24, "children": [{"nodeid": 23, "leaf": -0.00151735509}, {"nodeid": 24, "leaf": -0.000276865961}]}, {"nodeid": 14, "depth": 3, "split": "f2", "split_condition": -0.0322999991, "yes": 25, "no": 26, "missing": 26, "children": [{"nodeid": 25, "leaf": 0.00101605582}, {"nodeid": 26, "leaf": -0.00031205389}]}]}]}]}, {"nodeid": 0, "depth": 0, "split": "f92", "split_condition": -0.10716965, "yes": 1, "no": 2, "missing": 2, "children": [{"nodeid": 1, "depth": 1, "split": "f0", "split_condition": 0.46994698, "yes": 3, "no": 4, "missing": 4, "children": [{"nodeid": 3, "depth": 2, "split": "f81", "split_condition": 0.582000017, "yes": 7, "no": 8, "missing": 8, "children": [{"nodeid": 7, "depth": 3, "split": "f23", "split_condition": 0.581642509, "yes": 15, "no": 16, "missing": 16, "children": [{"nodeid": 15, "leaf": -0.00203465088}, {"nodeid": 16, "leaf": -0.000429733453}]}, {"nodeid": 8, "leaf": 0.000293638004}]}, {"nodeid": 4, "depth": 2, "split": "f106", "split_condition": 0.196428567, "yes": 9, "no": 10, "missing": 10, "children": [{"nodeid": 9, "depth": 3, "split": "f19", "split_condition": 0.816666663, "yes": 17, "no": 18, "missing": 18, "children": [{"nodeid": 17, "leaf": -0.00116371934}, {"nodeid": 18, "leaf": -0.000153340763}]}, {"nodeid": 10, "depth": 3, "split": "f38", "split_condition": 0.52908957, "yes": 19, "no": 20, "missing": 20, "children": [{"nodeid": 19, "leaf": -0.000355048251}, {"nodeid": 20, "leaf": 0.000769659004}]}]}]}, {"nodeid": 2, "depth": 1, "split": "f39", "split_condition": 0.0123051479, "yes": 5, "no": 6, "missing": 6, "children": [{"nodeid": 5, "depth": 2, "split": "f0", "split_condition": 0.486548662, "yes": 11, "no": 12, "missing": 12, "children": [{"nodeid": 11, "depth": 3, "split": "f2", "split_condition": -0.0104, "yes": 21, "no": 22, "missing": 22, "children": [{"nodeid": 21, "leaf": 0.000373764866}, {"nodeid": 22, "leaf": -0.000879395055}]}, {"nodeid": 12, "depth": 3, "split": "f11", "split_condition": 0.3292, "yes": 23, "no": 24, "missing": 24, "children": [{"nodeid": 23, "leaf": 0.000544542156}, {"nodeid": 24, "leaf": 0.00142811285}]}]}, {"nodeid": 6, "depth": 2, "split": "f81", "split_condition": 0.316000015, "yes": 13, "no": 14, "missing": 14, "children": [{"nodeid": 13, "leaf": 0.000561175519}, {"nodeid": 14, "depth": 3, "split": "f19", "split_condition": 0.75, "yes": 25, "no": 26, "missing": 26, "children": [{"nodeid": 25, "leaf": 0.00391186774}, {"nodeid": 26, "leaf": 0.00102401164}]}]}]}]}, {"nodeid": 0, "depth": 0, "split": "f92", "split_condition": -0.146016508, "yes": 1, "no": 2, "missing": 2, "children": [{"nodeid": 1, "depth": 1, "split": "f51", "split_condition": 0.0299999993, "yes": 3, "no": 4, "missing": 4, "children": [{"nodeid": 3, "depth": 2, "split": "f13", "split_condition": 0.0218000002, "yes": 7, "no": 8, "missing": 8, "children": [{"nodeid": 7, "leaf": -0.000460610114}, {"nodeid": 8, "leaf": -0.00211293879}]}, {"nodeid": 4, "depth": 2, "split": "f120", "split_condition": 0.328964889, "yes": 9, "no": 10, "missing": 10, "children": [{"nodeid": 9, "depth": 3, "split": "f28", "split_condition": 0.761904776, "yes": 15, "no": 16, "missing": 16, "children": [{"nodeid": 15, "leaf": -0.000568249088}, {"nodeid": 16, "leaf": 0.000285006885}]}, {"nodeid": 10, "leaf": -0.00182223809}]}]}, {"nodeid": 2, "depth": 1, "split": "f92", "split_condition": 0.0511137955, "yes": 5, "no": 6, "missing": 6, "children": [{"nodeid": 5, "depth": 2, "split": "f76", "split_condition": 0.331, "yes": 11, "no": 12, "missing": 12, "children": [{"nodeid": 11, "depth": 3, "split": "f120", "split_condition": 0.265970588, "yes": 17, "no": 18, "missing": 18, "children": [{"nodeid": 17, "leaf": 0.000103503415}, {"nodeid": 18, "leaf": -0.00113228371}]}, {"nodeid": 12, "depth": 3, "split": "f10", "split_condition": -0.157620519, "yes": 19, "no": 20, "missing": 20, "children": [{"nodeid": 19, "leaf": -0.000365742482}, {"nodeid": 20, "leaf": 0.00108463212}]}]}, {"nodeid": 6, "depth": 2, "split": "f0", "split_condition": 0.449244916, "yes": 13, "no": 14, "missing": 14, "children": [{"nodeid": 13, "depth": 3, "split": "f90", "split_condition": 0.0348722003, "yes": 21, "no": 22, "missing": 22, "children": [{"nodeid": 21, "leaf": -0.000215634616}, {"nodeid": 22, "leaf": 0.000722173078}]}, {"nodeid": 14, "depth": 3, "split": "f76", "split_condition": 0.138999999, "yes": 23, "no": 24, "missing": 24, "children": [{"nodeid": 23, "leaf": 0.000702098652}, {"nodeid": 24, "leaf": 0.00233985716}]}]}]}]}, {"nodeid": 0, "depth": 0, "split": "f92", "split_condition": 0.000875115802, "yes": 1, "no": 2, "missing": 2, "children": [{"nodeid": 1, "depth": 1, "split": "f0", "split_condition": 0.528052807, "yes": 3, "no": 4, "missing": 4, "children": [{"nodeid": 3, "depth": 2, "split": "f118", "split_condition": 0.0663168579, "yes": 7, "no": 8, "missing": 8, "children": [{"nodeid": 7, "depth": 3, "split": "f7", "split_condition": 0.492500007, "yes": 15, "no": 16, "missing": 16, "children": [{"nodeid": 15, "leaf": -0.000471297069}, {"nodeid": 16, "leaf": 0.00088464492}]}, {"nodeid": 8, "depth": 3, "split": "f24", "split_condition": 0.285714298, "yes": 17, "no": 18, "missing": 18, "children": [{"nodeid": 17, "leaf": -0.00215690164}, {"nodeid": 18, "leaf": -0.000855486142}]}]}, {"nodeid": 4, "depth": 2, "split": "f92", "split_condition": -0.166095436, "yes": 9, "no": 10, "missing": 10, "children": [{"nodeid": 9, "depth": 3, "split": "f78", "split_condition": 0.111000001, "yes": 19, "no": 20, "missing": 20, "children": [{"nodeid": 19, "leaf": -0.00130677677}, {"nodeid": 20, "leaf": -0.000183388387}]}, {"nodeid": 10, "depth": 3, "split": "f118", "split_condition": 0.0851633921, "yes": 21, "no": 22, "missing": 22, "children": [{"nodeid": 21, "leaf": 0.00181814132}, {"nodeid": 22, "leaf": 0.000496885099}]}]}]}, {"nodeid": 2, "depth": 1, "split": "f92", "split_condition": 0.261300474, "yes": 5, "no": 6, "missing": 6, "children": [{"nodeid": 5, "depth": 2, "split": "f120", "split_condition": 0.183399335, "yes": 11, "no": 12, "missing": 12, "children": [{"nodeid": 11, "depth": 3, "split": "f66", "split_condition": -0.0359999985, "yes": 23, "no": 24, "missing": 24, "children": [{"nodeid": 23, "leaf": 0.000505802163}, {"nodeid": 24, "leaf": 0.00182814093}]}, {"nodeid": 12, "depth": 3, "split": "f67", "split_condition": 0.593999982, "yes": 25, "no": 26, "missing": 26, "children": [{"nodeid": 25, "leaf": 0.000864896399}, {"nodeid": 26, "leaf": -0.000159289644}]}]}, {"nodeid": 6, "depth": 2, "split": "f25", "split_condition": 0.157142863, "yes": 13, "no": 14, "missing": 14, "children": [{"nodeid": 13, "leaf": 0.00385280373}, {"nodeid": 14, "leaf": 0.00111559371}]}]}]}, {"nodeid": 0, "depth": 0, "split": "f123", "split_condition": 0.0816000029, "yes": 1, "no": 2, "missing": 2, "children": [{"nodeid": 1, "depth": 1, "split": "f52", "split_condition": 0.3292, "yes": 3, "no": 4, "missing": 4, "children": [{"nodeid": 3, "depth": 2, "split": "f0", "split_condition": 0.502850294, "yes": 7, "no": 8, "missing": 8, "children": [{"nodeid": 7, "depth": 3, "split": "f52", "split_condition": 0.279399991, "yes": 15, "no": 16, "missing": 16, "children": [{"nodeid": 15, "leaf": -0.000909375143}, {"nodeid": 16, "leaf": 0.000404318882}]}, {"nodeid": 8, "depth": 3, "split": "f75", "split_condition": 0.414999992, "yes": 17, "no": 18, "missing": 18, "children": [{"nodeid": 17, "leaf": 0.00166812562}, {"nodeid": 18, "leaf": 0.000164499361}]}]}, {"nodeid": 4, "depth": 2, "split": "f76", "split_condition": 0.331999987, "yes": 9, "no": 10, "missing": 10, "children": [{"nodeid": 9, "depth": 3, "split": "f79", "split_condition": 0.402999997, "yes": 19, "no": 20, "missing": 20, "children": [{"nodeid": 19, "leaf": 0.00127593812}, {"nodeid": 20, "leaf": 0.000188253078}]}, {"nodeid": 10, "depth": 3, "split": "f106", "split_condition": 0.300952375, "yes": 21, "no": 22, "missing": 22, "children": [{"nodeid": 21, "leaf": 0.00115351903}, {"nodeid": 22, "leaf": 0.00264773401}]}]}]}, {"nodeid": 2, "depth": 1, "split": "f91", "split_condition": 0.148300186, "yes": 5, "no": 6, "missing": 6, "children": [{"nodeid": 5, "depth": 2, "split": "f120", "split_condition": 0.191971198, "yes": 11, "no": 12, "missing": 12, "children": [{"nodeid": 11, "depth": 3, "split": "f2", "split_condition": -0.0120000001, "yes": 23, "no": 24, "missing": 24, "children": [{"nodeid": 23, "leaf": 0.00150997587}, {"nodeid": 24, "leaf": 8.95875128e-05}]}, {"nodeid": 12, "depth": 3, "split": "f77", "split_condition": 0.26699999, "yes": 25, "no": 26, "missing": 26, "children": [{"nodeid": 25, "leaf": -0.00041504344}, {"nodeid": 26, "leaf": -0.00167457643}]}]}, {"nodeid": 6, "depth": 2, "split": "f98", "split_condition": 0.353333324, "yes": 13, "no": 14, "missing": 14, "children": [{"nodeid": 13, "leaf": -0.000155747097}, {"nodeid": 14, "depth": 3, "split": "f23", "split_condition": 0.581642509, "yes": 27, "no": 28, "missing": 28, "children": [{"nodeid": 27, "leaf": -0.0022047949}, {"nodeid": 28, "leaf": -0.00056406454}]}]}]}]}, {"nodeid": 0, "depth": 0, "split": "f123", "split_condition": 0.0888992921, "yes": 1, "no": 2, "missing": 2, "children": [{"nodeid": 1, "depth": 1, "split": "f39", "split_condition": 0.0123051479, "yes": 3, "no": 4, "missing": 4, "children": [{"nodeid": 3, "depth": 2, "split": "f90", "split_condition": -0.100289725, "yes": 7, "no": 8, "missing": 8, "children": [{"nodeid": 7, "depth": 3, "split": "f3", "split_condition": 0.266666681, "yes": 13, "no": 14, "missing": 14, "children": [{"nodeid": 13, "leaf": 0.000409303902}, {"nodeid": 14, "leaf": -0.000956976612}]}, {"nodeid": 8, "depth": 3, "split": "f9", "split_condition": 0.416705877, "yes": 15, "no": 16, "missing": 16, "children": [{"nodeid": 15, "leaf": -0.000747772225}, {"nodeid": 16, "leaf": 0.000636044075}]}]}, {"nodeid": 4, "depth": 2, "split": "f9", "split_condition": 0.485454559, "yes": 9, "no": 10, "missing": 10, "children": [{"nodeid": 9, "leaf": 0.000543282542}, {"nodeid": 10, "depth": 3, "split": "f8", "split_condition": 0.578249991, "yes": 17, "no": 18, "missing": 18, "children": [{"nodeid": 17, "leaf": 0.00288135768}, {"nodeid": 18, "leaf": 0.000869621406}]}]}]}, {"nodeid": 2, "depth": 1, "split": "f37", "split_condition": 0.416999996, "yes": 5, "no": 6, "missing": 6, "children": [{"nodeid": 5, "leaf": -0.00253218599}, {"nodeid": 6, "depth": 2, "split": "f77", "split_condition": 0.0590000004, "yes": 11, "no": 12, "missing": 12, "children": [{"nodeid": 11, "depth": 3, "split": "f95", "split_condition": 0.856000006, "yes": 19, "no": 20, "missing": 20, "children": [{"nodeid": 19, "leaf": 0.00117091439}, {"nodeid": 20, "leaf": -2.26396082e-06}]}, {"nodeid": 12, "depth": 3, "split": "f18", "split_condition": 1, "yes": 21, "no": 22, "missing": 22, "children": [{"nodeid": 21, "leaf": -0.00108815462}, {"nodeid": 22, "leaf": 5.64065922e-05}]}]}]}]}, {"nodeid": 0, "depth": 0, "split": "f92", "split_condition": -0.0573515892, "yes": 1, "no": 2, "missing": 2, "children": [{"nodeid": 1, "depth": 1, "split": "f120", "split_condition": 0.242034197, "yes": 3, "no": 4, "missing": 4, "children": [{"nodeid": 3, "depth": 2, "split": "f92", "split_condition": -0.154882908, "yes": 7, "no": 8, "missing": 8, "children": [{"nodeid": 7, "depth": 3, "split": "f112", "split_condition": 0.396761894, "yes": 15, "no": 16, "missing": 16, "children": [{"nodeid": 15, "leaf": -0.00123410719}, {"nodeid": 16, "leaf": 6.91733294e-06}]}, {"nodeid": 8, "depth": 3, "split": "f106", "split_condition": 0.210428566, "yes": 17, "no": 18, "missing": 18, "children": [{"nodeid": 17, "leaf": -1.19389415e-05}, {"nodeid": 18, "leaf": 0.000994338654}]}]}, {"nodeid": 4, "depth": 2, "split": "f117", "split_condition": 0.254900008, "yes": 9, "no": 10, "missing": 10, "children": [{"nodeid": 9, "leaf": -0.000799807196}, {"nodeid": 10, "depth": 3, "split": "f13", "split_condition": 0.0450999998, "yes": 19, "no": 20, "missing": 20, "children": [{"nodeid": 19, "leaf": -0.000814825471}, {"nodeid": 20, "leaf": -0.00206979178}]}]}]}, {"nodeid": 2, "depth": 1, "split": "f76", "split_condition": 0.337000012, "yes": 5, "no": 6, "missing": 6, "children": [{"nodeid": 5, "depth": 2, "split": "f92", "split_condition": 0.000875115802, "yes": 11, "no": 12, "missing": 12, "children": [{"nodeid": 11, "depth": 3, "split": "f79", "split_condition": 0.428000003, "yes": 21, "no": 22, "missing": 22, "children": [{"nodeid": 21, "leaf": 0.000265397568}, {"nodeid": 22, "leaf": -0.00089882419}]}, {"nodeid": 12, "depth": 3, "split": "f20", "split_condition": 0.649999976, "yes": 23, "no": 24, "missing": 24, "children": [{"nodeid": 23, "leaf": 0.000194525288}, {"nodeid": 24, "leaf": 0.00120614714}]}]}, {"nodeid": 6, "depth": 2, "split": "f91", "split_condition": 0.0966335982, "yes": 13, "no": 14, "missing": 14, "children": [{"nodeid": 13, "depth": 3, "split": "f37", "split_condition": 0.653999984, "yes": 25, "no": 26, "missing": 26, "children": [{"nodeid": 25, "leaf": 0.000365842367}, {"nodeid": 26, "leaf": 0.00128800818}]}, {"nodeid": 14, "leaf": 0.00326665724}]}]}]}, {"nodeid": 0, "depth": 0, "split": "f123", "split_condition": 0.0753157064, "yes": 1, "no": 2, "missing": 2, "children": [{"nodeid": 1, "depth": 1, "split": "f139", "split_condition": 0.0143544991, "yes": 3, "no": 4, "missing": 4, "children": [{"nodeid": 3, "depth": 2, "split": "f92", "split_condition": -0.0753282681, "yes": 7, "no": 8, "missing": 8, "children": [{"nodeid": 7, "depth": 3, "split": "f4", "split_condition": 0.800000012, "yes": 15, "no": 16, "missing": 16, "children": [{"nodeid": 15, "leaf": 7.09857122e-05}, {"nodeid": 16, "leaf": -0.00127487176}]}, {"nodeid": 8, "depth": 3, "split": "f37", "split_condition": 0.70599997, "yes": 17, "no": 18, "missing": 18, "children": [{"nodeid": 17, "leaf": -0.000148593186}, {"nodeid": 18, "leaf": 0.000800426933}]}]}, {"nodeid": 4, "depth": 2, "split": "f38", "split_condition": 0.495208502, "yes": 9, "no": 10, "missing": 10, "children": [{"nodeid": 9, "leaf": -0.000630515744}, {"nodeid": 10, "depth": 3, "split": "f112", "split_condition": 0.504571438, "yes": 19, "no": 20, "missing": 20, "children": [{"nodeid": 19, "leaf": 0.0012948435}, {"nodeid": 20, "leaf": 0.00290401769}]}]}]}, {"nodeid": 2, "depth": 1, "split": "f92", "split_condition": 0.00861189794, "yes": 5, "no": 6, "missing": 6, "children": [{"nodeid": 5, "depth": 2, "split": "f7", "split_condition": 0.25, "yes": 11, "no": 12, "missing": 12, "children": [{"nodeid": 11, "leaf": -0.00250350148}, {"nodeid": 12, "depth": 3, "split": "f111", "split_condition": 0.0444666669, "yes": 21, "no": 22, "missing": 22, "children": [{"nodeid": 21, "leaf": -0.00140912621}, {"nodeid": 22, "leaf": -0.000424761267}]}]}, {"nodeid": 6, "depth": 2, "split": "f0", "split_condition": 0.449244916, "yes": 13, "no": 14, "missing": 14, "children": [{"nodeid": 13, "depth": 3, "split": "f5", "split_condition": 0.353249997, "yes": 23, "no": 24, "missing": 24, "children": [{"nodeid": 23, "leaf": 0.000281926186}, {"nodeid": 24, "leaf": 0}]}, {"nodeid": 14, "leaf": 0.00115349388}]}]}]}, {"nodeid": 0, "depth": 0, "split": "f92", "split_condition": 0.0478483289, "yes": 1, "no": 2, "missing": 2, "children": [{"nodeid": 1, "depth": 1, "split": "f92", "split_condition": -0.146016508, "yes": 3, "no": 4, "missing": 4, "children": [{"nodeid": 3, "depth": 2, "split": "f2", "split_condition": 0.0264999997, "yes": 7, "no": 8, "missing": 8, "children": [{"nodeid": 7, "depth": 3, "split": "f1", "split_condition": -0.0350000001, "yes": 15, "no": 16, "missing": 16, "children": [{"nodeid": 15, "leaf": -0.00101655419}, {"nodeid": 16, "leaf": -0.000138405536}]}, {"nodeid": 8, "depth": 3, "split": "f76", "split_condition": 0.573000014, "yes": 17, "no": 18, "missing": 18, "children": [{"nodeid": 17, "leaf": -0.00190141366}, {"nodeid": 18, "leaf": -0.000208438927}]}]}, {"nodeid": 4, "depth": 2, "split": "f112", "split_condition": 0.3564381, "yes": 9, "no": 10, "missing": 10, "children": [{"nodeid": 9, "depth": 3, "split": "f69", "split_condition": 0.0714285746, "yes": 19, "no": 20, "missing": 20, "children": [{"nodeid": 19, "leaf": -0.000894091092}, {"nodeid": 20, "leaf": 0.00056236278}]}, {"nodeid": 10, "depth": 3, "split": "f76", "split_condition": 0.0689999983, "yes": 21, "no": 22, "missing": 22, "children": [{"nodeid": 21, "leaf": -0.000682626793}, {"nodeid": 22, "leaf": 0.000921503408}]}]}]}, {"nodeid": 2, "depth": 1, "split": "f92", "split_condition": 0.138539836, "yes": 5, "no": 6, "missing": 6, "children": [{"nodeid": 5, "depth": 2, "split": "f120", "split_condition": 0.265970588, "yes": 11, "no": 12, "missing": 12, "children": [{"nodeid": 11, "depth": 3, "split": "f97", "split_condition": 0.502795458, "yes": 23, "no": 24, "missing": 24, "children": [{"nodeid": 23, "leaf": 0.00154994254}, {"nodeid": 24, "leaf": 0.000464724231}]}, {"nodeid": 12, "leaf": -0.000164166093}]}, {"nodeid": 6, "depth": 2, "split": "f120", "split_condition": 0.236483648, "yes": 13, "no": 14, "missing": 14, "children": [{"nodeid": 13, "depth": 3, "split": "f51", "split_condition": 0.0344827585, "yes": 25, "no": 26, "missing": 26, "children": [{"nodeid": 25, "leaf": 0.000885575544}, {"nodeid": 26, "leaf": 0.00354284723}]}, {"nodeid": 14, "leaf": 0.000442617631}]}]}]}, {"nodeid": 0, "depth": 0, "split": "f92", "split_condition": -0.0500305407, "yes": 1, "no": 2, "missing": 2, "children": [{"nodeid": 1, "depth": 1, "split": "f0", "split_condition": 0.47204721, "yes": 3, "no": 4, "missing": 4, "children": [{"nodeid": 3, "depth": 2, "split": "f59", "split_condition": 1, "yes": 7, "no": 8, "missing": 8, "children": [{"nodeid": 7, "depth": 3, "split": "f22", "split_condition": 0.266666681, "yes": 15, "no": 16, "missing": 16, "children": [{"nodeid": 15, "leaf": -0.00192235189}, {"nodeid": 16, "leaf": -0.000801907096}]}, {"nodeid": 8, "depth": 3, "split": "f97", "split_condition": 0.514750004, "yes": 17, "no": 18, "missing": 18, "children": [{"nodeid": 17, "leaf": -0.00123811699}, {"nodeid": 18, "leaf": -0.000118804703}]}]}, {"nodeid": 4, "depth": 2, "split": "f9", "split_condition": 0.657000005, "yes": 9, "no": 10, "missing": 10, "children": [{"nodeid": 9, "depth": 3, "split": "f139", "split_condition": 0.00035892037, "yes": 19, "no": 20, "missing": 20, "children": [{"nodeid": 19, "leaf": -4.1186554e-06}, {"nodeid": 20, "leaf": 0.00109495968}]}, {"nodeid": 10, "depth": 3, "split": "f5", "split_condition": 0.370499998, "yes": 21, "no": 22, "missing": 22, "children": [{"nodeid": 21, "leaf": -0.00141253404}, {"nodeid": 22, "leaf": -0.000122303041}]}]}]}, {"nodeid": 2, "depth": 1, "split": "f123", "split_condition": 0.10468322, "yes": 5, "no": 6, "missing": 6, "children": [{"nodeid": 5, "depth": 2, "split": "f92", "split_condition": 0.128687665, "yes": 11, "no": 12, "missing": 12, "children": [{"nodeid": 11, "depth": 3, "split": "f7", "split_condition": 0.695529401, "yes": 23, "no": 24, "missing": 24, "children": [{"nodeid": 23, "leaf": 0.000616331119}, {"nodeid": 24, "leaf": 0.00155263138}]}, {"nodeid": 12, "depth": 3, "split": "f78", "split_condition": 0.181999996, "yes": 25, "no": 26, "missing": 26, "children": [{"nodeid": 25, "leaf": 0.00326926308}, {"nodeid": 26, "leaf": 0.000910641218}]}]}, {"nodeid": 6, "depth": 2, "split": "f13", "split_condition": 0.0384999998, "yes": 13, "no": 14, "missing": 14, "children": [{"nodeid": 13, "leaf": -0.00163865555}, {"nodeid": 14, "depth": 3, "split": "f1", "split_condition": -0.0599999987, "yes": 27, "no": 28, "missing": 28, "children": [{"nodeid": 27, "leaf": 0.000976223382}, {"nodeid": 28, "leaf": -7.33787456e-05}]}]}]}]}, {"nodeid": 0, "depth": 0, "split": "f92", "split_condition": 0.000875115802, "yes": 1, "no": 2, "missing": 2, "children": [{"nodeid": 1, "depth": 1, "split": "f0", "split_condition": 0.473347336, "yes": 3, "no": 4, "missing": 4, "children": [{"nodeid": 3, "depth": 2, "split": "f28", "split_condition": 0.685126603, "yes": 7, "no": 8, "missing": 8, "children": [{"nodeid": 7, "depth": 3, "split": "f19", "split_condition": 0.491666675, "yes": 13, "no": 14, "missing": 14, "children": [{"nodeid": 13, "leaf": -0.00182156661}, {"nodeid": 14, "leaf": -0.000381603546}]}, {"nodeid": 8, "depth": 3, "split": "f19", "split_condition": 0.383333325, "yes": 15, "no": 16, "missing": 16, "children": [{"nodeid": 15, "leaf": 8.13339429e-05}, {"nodeid": 16, "leaf": -0.000912197982}]}]}, {"nodeid": 4, "depth": 2, "split": "f117", "split_condition": 0.0153000001, "yes": 9, "no": 10, "missing": 10, "children": [{"nodeid": 9, "depth": 3, "split": "f37", "split_condition": 0.985000014, "yes": 17, "no": 18, "missing": 18, "children": [{"nodeid": 17, "leaf": 0.00126440241}, {"nodeid": 18, "leaf": -0.00018231984}]}, {"nodeid": 10, "depth": 3, "split": "f0", "split_condition": 0.528052807, "yes": 19, "no": 20, "missing": 20, "children": [{"nodeid": 19, "leaf": -0.000580918742}, {"nodeid": 20, "leaf": 0.000184883218}]}]}]}, {"nodeid": 2, "depth": 1, "split": "f91", "split_condition": 0.142433956, "yes": 5, "no": 6, "missing": 6, "children": [{"nodeid": 5, "depth": 2, "split": "f90", "split_condition": -0.0340275466, "yes": 11, "no": 12, "missing": 12, "children": [{"nodeid": 11, "depth": 3, "split": "f8", "split_condition": 0.508000016, "yes": 21, "no": 22, "missing": 22, "children": [{"nodeid": 21, "leaf": 0}, {"nodeid": 22, "leaf": 0.000243789153}]}, {"nodeid": 12, "depth": 3, "split": "f50", "split_condition": 0.161538467, "yes": 23, "no": 24, "missing": 24, "children": [{"nodeid": 23, "leaf": 0.00040317871}, {"nodeid": 24, "leaf": 0.00130570529}]}]}, {"nodeid": 6, "leaf": 0.00270618312}]}]}, {"nodeid": 0, "depth": 0, "split": "f92", "split_condition": -0.178536639, "yes": 1, "no": 2, "missing": 2, "children": [{"nodeid": 1, "depth": 1, "split": "f91", "split_condition": 0.202487588, "yes": 3, "no": 4, "missing": 4, "children": [{"nodeid": 3, "depth": 2, "split": "f38", "split_condition": 0.589975119, "yes": 7, "no": 8, "missing": 8, "children": [{"nodeid": 7, "depth": 3, "split": "f6", "split_condition": 0.588235319, "yes": 13, "no": 14, "missing": 14, "children": [{"nodeid": 13, "leaf": -1.61687567e-05}, {"nodeid": 14, "leaf": -0.00130705058}]}, {"nodeid": 8, "depth": 3, "split": "f16", "split_condition": 1, "yes": 15, "no": 16, "missing": 16, "children": [{"nodeid": 15, "leaf": 0.000548374723}, {"nodeid": 16, "leaf": -0.000300682645}]}]}, {"nodeid": 4, "leaf": -0.00187800429}]}, {"nodeid": 2, "depth": 1, "split": "f39", "split_condition": 0.0123051479, "yes": 5, "no": 6, "missing": 6, "children": [{"nodeid": 5, "depth": 2, "split": "f7", "split_condition": 0.657714307, "yes": 9, "no": 10, "missing": 10, "children": [{"nodeid": 9, "depth": 3, "split": "f112", "split_condition": 0.354209512, "yes": 17, "no": 18, "missing": 18, "children": [{"nodeid": 17, "leaf": -0.000556312094}, {"nodeid": 18, "leaf": 0.000401230267}]}, {"nodeid": 10, "depth": 3, "split": "f98", "split_condition": 0.501666665, "yes": 19, "no": 20, "missing": 20, "children": [{"nodeid": 19, "leaf": 0.00121429446}, {"nodeid": 20, "leaf": 0}]}]}, {"nodeid": 6, "depth": 2, "split": "f2", "split_condition": 0.0364000015, "yes": 11, "no": 12, "missing": 12, "children": [{"nodeid": 11, "depth": 3, "split": "f25", "split_condition": 0.00285714283, "yes": 21, "no": 22, "missing": 22, "children": [{"nodeid": 21, "leaf": 0.000717979157}, {"nodeid": 22, "leaf": 0.00290048076}]}, {"nodeid": 12, "depth": 3, "split": "f19", "split_condition": 0.483333319, "yes": 23, "no": 24, "missing": 24, "children": [{"nodeid": 23, "leaf": 0.000939353136}, {"nodeid": 24, "leaf": 2.035752e-05}]}]}]}]}, {"nodeid": 0, "depth": 0, "split": "f92", "split_condition": 0.0615997873, "yes": 1, "no": 2, "missing": 2, "children": [{"nodeid": 1, "depth": 1, "split": "f123", "split_condition": 0.0816000029, "yes": 3, "no": 4, "missing": 4, "children": [{"nodeid": 3, "depth": 2, "split": "f76", "split_condition": 0.342999995, "yes": 7, "no": 8, "missing": 8, "children": [{"nodeid": 7, "depth": 3, "split": "f79", "split_condition": 0.361999989, "yes": 13, "no": 14, "missing": 14, "children": [{"nodeid": 13, "leaf": 0.000424490456}, {"nodeid": 14, "leaf": -0.000745626166}]}, {"nodeid": 8, "depth": 3, "split": "f93", "split_condition": 0.406666666, "yes": 15, "no": 16, "missing": 16, "children": [{"nodeid": 15, "leaf": -0.000204520271}, {"nodeid": 16, "leaf": 0.00093154388}]}]}, {"nodeid": 4, "depth": 2, "split": "f80", "split_condition": 0.470999986, "yes": 9, "no": 10, "missing": 10, "children": [{"nodeid": 9, "depth": 3, "split": "f92", "split_condition": -0.248130187, "yes": 17, "no": 18, "missing": 18, "children": [{"nodeid": 17, "leaf": -0.00183644274}, {"nodeid": 18, "leaf": -0.00084933528}]}, {"nodeid": 10, "depth": 3, "split": "f13", "split_condition": 0.0513999984, "yes": 19, "no": 20, "missing": 20, "children": [{"nodeid": 19, "leaf": 0.000310200441}, {"nodeid": 20, "leaf": 4.55608933e-05}]}]}]}, {"nodeid": 2, "depth": 1, "split": "f91", "split_condition": 0.194114029, "yes": 5, "no": 6, "missing": 6, "children": [{"nodeid": 5, "depth": 2, "split": "f76", "split_condition": 0.115999997, "yes": 11, "no": 12, "missing": 12, "children": [{"nodeid": 11, "depth": 3, "split": "f2", "split_condition": 0.0661000013, "yes": 21, "no": 22, "missing": 22, "children": [{"nodeid": 21, "leaf": 0.000258678599}, {"nodeid": 22, "leaf": -0.000169597159}]}, {"nodeid": 12, "depth": 3, "split": "f120", "split_condition": 0.265970588, "yes": 23, "no": 24, "missing": 24, "children": [{"nodeid": 23, "leaf": 0.00155376445}, {"nodeid": 24, "leaf": 0}]}]}, {"nodeid": 6, "leaf": 0.00380487484}]}]}, {"nodeid": 0, "depth": 0, "split": "f10", "split_condition": -0.0310476199, "yes": 1, "no": 2, "missing": 2, "children": [{"nodeid": 1, "depth": 1, "split": "f0", "split_condition": 0.469546944, "yes": 3, "no": 4, "missing": 4, "children": [{"nodeid": 3, "depth": 2, "split": "f2", "split_condition": -0.134499997, "yes": 7, "no": 8, "missing": 8, "children": [{"nodeid": 7, "leaf": 0.000326655019}, {"nodeid": 8, "depth": 3, "split": "f68", "split_condition": 0.449999988, "yes": 15, "no": 16, "missing": 16, "children": [{"nodeid": 15, "leaf": -0.00157206273}, {"nodeid": 16, "leaf": -0.000359365949}]}]}, {"nodeid": 4, "depth": 2, "split": "f31", "split_condition": 0.0500000007, "yes": 9, "no": 10, "missing": 10, "children": [{"nodeid": 9, "depth": 3, "split": "f91", "split_condition": 0.145861641, "yes": 17, "no": 18, "missing": 18, "children": [{"nodeid": 17, "leaf": -3.12563461e-05}, {"nodeid": 18, "leaf": -0.000847530086}]}, {"nodeid": 10, "leaf": 0.000988602289}]}]}, {"nodeid": 2, "depth": 1, "split": "f7", "split_condition": 0.695529401, "yes": 5, "no": 6, "missing": 6, "children": [{"nodeid": 5, "depth": 2, "split": "f90", "split_condition": -0.0191911254, "yes": 11, "no": 12, "missing": 12, "children": [{"nodeid": 11, "depth": 3, "split": "f81", "split_condition": 0.144999996, "yes": 19, "no": 20, "missing": 20, "children": [{"nodeid": 19, "leaf": -0.00117235107}, {"nodeid": 20, "leaf": 7.1958224e-05}]}, {"nodeid": 12, "depth": 3, "split": "f76", "split_condition": 0.414000005, "yes": 21, "no": 22, "missing": 