{"metadata": {"model_type": "xgboost_pff_enhanced", "test_year": 2023, "train_years": "2021-2022", "train_years_list": [2021, 2022], "mae_ktc": 353.3, "r2_score": 0.9395, "n_features": 148, "n_train_samples": 372, "n_test_samples": 285, "feature_names": ["start_ktc", "ktc_30d_trend", "ktc_90d_trend", "age_factor", "years_exp_normalized", "fp_normalized", "games_played_factor", "fp_per_game", "prior_fp_normalized", "prior_fp_per_game", "fp_per_game_change", "fp_change_yoy", "position_rank_normalized", "ktc_volatility", "is_breakout_candidate", "is_qb", "is_rb", "is_wr", "is_te", "receptions_normalized", "targets_normalized", "receiving_yards_normalized", "receiving_tds_normalized", "yards_per_target", "target_share", "carries_normalized", "rushing_yards_normalized", "rushing_tds_normalized", "yards_per_carry", "passing_yards_normalized", "passing_tds_normalized", "interceptions_normalized", "draft_round_value", "draft_pick_value", "age_fp_interaction", "cliff_years_penalty", "age_exp_gap", "snap_pct_normalized", "fp_per_snap", "elite_youth_premium", "fp_trajectory", "qb_td_int_ratio", "qb_rushing_bonus", "qb_age_premium", "qb_efficiency", "is_elite_tier", "elite_age_interaction", "elite_trajectory_interaction", "elite_volatility_dampener", "efficiency_volume", "workload_intensity", "td_conversion_rate", "trajectory_cliff_interaction", "draft_performance_ratio", "yoy_decline_severity", "games_played_collapse", "gap_year_penalty", "qb_age_cliff_40plus", "elite_partial_season_resilience", "career_prime_factor", "red_zone_targets_norm", "red_zone_touches_norm", "red_zone_efficiency_norm", "air_yards_normalized", "yac_normalized", "yac_per_rec_norm", "air_yards_per_tgt_norm", "drop_rate_normalized", "receiving_fd_norm", "rushing_fd_norm", "broken_tackles_norm", "rush_share_norm", "completion_rate_norm", "sack_rate_norm", "passing_fd_norm", "weekly_fp_cv", "momentum_ratio", "boom_rate", "bust_rate", "last_4_vs_season", "max_games_missed_streak", "ktc_weekly_volatility", "team_pass_factor", "team_rush_factor", "opportunity_ceiling", "rush_opportunity", "team_volume_combined", "snap_trend", "snap_collapse", "snap_consistency", "ktc_trend_acceleration", "mid_season_correction", "ktc_momentum", "pff_grade_normalized", "pff_has_data", "pff_grade_confidence", "pff_position_grade", "pff_grade_divergence", "pff_grade_trajectory", "pff_wr_separation", "pff_wr_contested_catch", "pff_rb_elusive_rating", "pff_rb_receiving_grade", "pff_qb_accuracy", "pff_qb_pressure_grade", "pff_grade_volatility", "pff_youth_premium", "pff_decline_alert", "pff_grade_snap_divergence", "pff_elite_indicator", "pff_bust_risk", "pff_breakout_probability", "pff_dynasty_score", "veteran_decline_risk", "rb_age_penalty", "wr_te_age_penalty", "age_31_plus_flag", "age_decline_signal", "value_depreciation_risk", "veteran_with_declining_fp", "mid_tier_depreciation_signal", "snap_pct_decline", "starter_to_backup_risk", "mid_tier_regression_factor", "qb_stability_premium", "qb_scarcity_factor", "rb_accelerated_decline", "position_cliff_multiplier", "elite_young_upside", "elite_momentum_amplifier", "breakout_trajectory", "tier2_hope_discount", "non_starter_depreciation", "one_hit_wonder_risk", "peak_season_risk", "buy_low_recovery", "te_upside_amplifier", "te_elite_ceiling", "te_breakout_indicator", "breakout_potential_ceiling", "rookie_draft_capital_ceiling", "momentum_ceiling_amplifier", "young_elite_ceiling_boost", "career_trajectory_boost", "veteran_steep_decline", "veteran_qb_cliff", "aging_value_compression", "position_age_interaction"], "ensemble_weights": {"xgboost": 0.4, "lightgbm": 0.6}}, "xgboost_model": {"n_estimators": 452, "base_score": 0.007167821, "trees": [{"nodeid": 0, "depth": 0, "split": "f90", "split_condition": 0.02961489, "yes": 1, "no": 2, "missing": 2, "children": [{"nodeid": 1, "depth": 1, "split": "f139", "split_condition": 0.00035892037, "yes": 3, "no": 4, "missing": 4, "children": [{"nodeid": 3, "depth": 2, "split": "f90", "split_condition": -0.0991158336, "yes": 7, "no": 8, "missing": 8, "children": [{"nodeid": 7, "depth": 3, "split": "f76", "split_condition": 0.349999994, "yes": 15, "no": 16, "missing": 16, "children": [{"nodeid": 15, "leaf": -0.00472130347}, {"nodeid": 16, "leaf": -0.00212660292}]}, {"nodeid": 8, "depth": 3, "split": "f118", "split_condition": 0.0860145986, "yes": 17, "no": 18, "missing": 18, "children": [{"nodeid": 17, "leaf": -0.000415213231}, {"nodeid": 18, "leaf": -0.002119496}]}]}, {"nodeid": 4, "depth": 2, "split": "f106", "split_condition": 0.328000009, "yes": 9, "no": 10, "missing": 10, "children": [{"nodeid": 9, "depth": 3, "split": "f123", "split_condition": 0.0706664398, "yes": 19, "no": 20, "missing": 20, "children": [{"nodeid": 19, "leaf": 0.00029885862}, {"nodeid": 20, "leaf": -0.00247012195}]}, {"nodeid": 10, "depth": 3, "split": "f30", "split_condition": 0.340000004, "yes": 21, "no": 22, "missing": 22, "children": [{"nodeid": 21, "leaf": 0.00110855314}, {"nodeid": 22, "leaf": 0.00419952115}]}]}]}, {"nodeid": 2, "depth": 1, "split": "f118", "split_condition": 0.106237315, "yes": 5, "no": 6, "missing": 6, "children": [{"nodeid": 5, "depth": 2, "split": "f5", "split_condition": 0.213249996, "yes": 11, "no": 12, "missing": 12, "children": [{"nodeid": 11, "depth": 3, "split": "f79", "split_condition": 0.483999997, "yes": 23, "no": 24, "missing": 24, "children": [{"nodeid": 23, "leaf": 0.00138397934}, {"nodeid": 24, "leaf": -0.000118376571}]}, {"nodeid": 12, "depth": 3, "split": "f123", "split_condition": 0.0125903087, "yes": 25, "no": 26, "missing": 26, "children": [{"nodeid": 25, "leaf": 0.00393718062}, {"nodeid": 26, "leaf": 0.0020204538}]}]}, {"nodeid": 6, "depth": 2, "split": "f5", "split_condition": 0.03125, "yes": 13, "no": 14, "missing": 14, "children": [{"nodeid": 13, "depth": 3, "split": "f90", "split_condition": 0.136555433, "yes": 27, "no": 28, "missing": 28, "children": [{"nodeid": 27, "leaf": 0.00257851672}, {"nodeid": 28, "leaf": 0.00045293587}]}, {"nodeid": 14, "depth": 3, "split": "f120", "split_condition": 0.155775577, "yes": 29, "no": 30, "missing": 30, "children": [{"nodeid": 29, "leaf": 0.000243757531}, {"nodeid": 30, "leaf": -0.00165569258}]}]}]}]}, {"nodeid": 0, "depth": 0, "split": "f141", "split_condition": 0.174539119, "yes": 1, "no": 2, "missing": 2, "children": [{"nodeid": 1, "depth": 1, "split": "f10", "split_condition": -0.0250857137, "yes": 3, "no": 4, "missing": 4, "children": [{"nodeid": 3, "depth": 2, "split": "f0", "split_condition": 0.268126816, "yes": 7, "no": 8, "missing": 8, "children": [{"nodeid": 7, "depth": 3, "split": "f13", "split_condition": 0.0577000007, "yes": 15, "no": 16, "missing": 16, "children": [{"nodeid": 15, "leaf": 0.00113902427}, {"nodeid": 16, "leaf": -0.000733578636}]}, {"nodeid": 8, "depth": 3, "split": "f91", "split_condition": 0.0670594126, "yes": 17, "no": 18, "missing": 18, "children": [{"nodeid": 17, "leaf": -0.00139564113}, {"nodeid": 18, "leaf": -0.00425618887}]}]}, {"nodeid": 4, "depth": 2, "split": "f5", "split_condition": 0.61075002, "yes": 9, "no": 10, "missing": 10, "children": [{"nodeid": 9, "depth": 3, "split": "f76", "split_condition": 0.254000008, "yes": 19, "no": 20, "missing": 20, "children": [{"nodeid": 19, "leaf": -0.00236760592}, {"nodeid": 20, "leaf": -4.8594261e-06}]}, {"nodeid": 10, "depth": 3, "split": "f9", "split_condition": 0.572749972, "yes": 21, "no": 22, "missing": 22, "children": [{"nodeid": 21, "leaf": 0.00379839912}, {"nodeid": 22, "leaf": 0.00107204774}]}]}]}, {"nodeid": 2, "depth": 1, "split": "f76", "split_condition": 0.197999999, "yes": 5, "no": 6, "missing": 6, "children": [{"nodeid": 5, "depth": 2, "split": "f10", "split_condition": 0.00374999992, "yes": 11, "no": 12, "missing": 12, "children": [{"nodeid": 11, "depth": 3, "split": "f38", "split_condition": 0.357347041, "yes": 23, "no": 24, "missing": 24, "children": [{"nodeid": 23, "leaf": 0.00129418401}, {"nodeid": 24, "leaf": 0.000129458946}]}, {"nodeid": 12, "depth": 3, "split": "f23", "split_condition": 0.526666641, "yes": 25, "no": 26, "missing": 26, "children": [{"nodeid": 25, "leaf": 0.00269455579}, {"nodeid": 26, "leaf": 0.000816705346}]}]}, {"nodeid": 6, "depth": 2, "split": "f5", "split_condition": 0.242750004, "yes": 13, "no": 14, "missing": 14, "children": [{"nodeid": 13, "depth": 3, "split": "f61", "split_condition": 0.0599999987, "yes": 27, "no": 28, "missing": 28, "children": [{"nodeid": 27, "leaf": 0.00229998818}, {"nodeid": 28, "leaf": 0.000627011759}]}, {"nodeid": 14, "depth": 3, "split": "f102", "split_condition": 0.324000001, "yes": 29, "no": 30, "missing": 30, "children": [{"nodeid": 29, "leaf": 0.00185176998}, {"nodeid": 30, "leaf": 0.00508457283}]}]}]}]}, {"nodeid": 0, "depth": 0, "split": "f92", "split_condition": 0.0384913869, "yes": 1, "no": 2, "missing": 2, "children": [{"nodeid": 1, "depth": 1, "split": "f92", "split_condition": -0.186779976, "yes": 3, "no": 4, "missing": 4, "children": [{"nodeid": 3, "depth": 2, "split": "f0", "split_condition": 0.28822881, "yes": 7, "no": 8, "missing": 8, "children": [{"nodeid": 7, "depth": 3, "split": "f7", "split_condition": 0.422666669, "yes": 13, "no": 14, "missing": 14, "children": [{"nodeid": 13, "leaf": -0.0015979599}, {"nodeid": 14, "leaf": 0.000203755422}]}, {"nodeid": 8, "depth": 3, "split": "f0", "split_condition": 0.690769076, "yes": 15, "no": 16, "missing": 16, "children": [{"nodeid": 15, "leaf": -0.00446942449}, {"nodeid": 16, "leaf": -0.00708788354}]}]}, {"nodeid": 4, "depth": 2, "split": "f2", "split_condition": -0.0300999992, "yes": 9, "no": 10, "missing": 10, "children": [{"nodeid": 9, "depth": 3, "split": "f39", "split_condition": 0.0121629387, "yes": 17, "no": 18, "missing": 18, "children": [{"nodeid": 17, "leaf": -0.00033238309}, {"nodeid": 18, "leaf": 0.0022227203}]}, {"nodeid": 10, "depth": 3, "split": "f106", "split_condition": 0.198285714, "yes": 19, "no": 20, "missing": 20, "children": [{"nodeid": 19, "leaf": -0.00232025748}, {"nodeid": 20, "leaf": -0.000649317051}]}]}]}, {"nodeid": 2, "depth": 1, "split": "f39", "split_condition": 0.258644909, "yes": 5, "no": 6, "missing": 6, "children": [{"nodeid": 5, "depth": 2, "split": "f11", "split_condition": 0.969866693, "yes": 11, "no": 12, "missing": 12, "children": [{"nodeid": 11, "depth": 3, "split": "f76", "split_condition": 0.404000014, "yes": 21, "no": 22, "missing": 22, "children": [{"nodeid": 21, "leaf": 0.00129165687}, {"nodeid": 22, "leaf": 0.00259704236}]}, {"nodeid": 12, "depth": 3, "split": "f91", "split_condition": 0.142433956, "yes": 23, "no": 24, "missing": 24, "children": [{"nodeid": 23, "leaf": 0.00137262861}, {"nodeid": 24, "leaf": 0.00451973453}]}]}, {"nodeid": 6, "leaf": 0.00507488195}]}]}, {"nodeid": 0, "depth": 0, "split": "f141", "split_condition": 0.172035903, "yes": 1, "no": 2, "missing": 2, "children": [{"nodeid": 1, "depth": 1, "split": "f10", "split_condition": -0.0411764719, "yes": 3, "no": 4, "missing": 4, "children": [{"nodeid": 3, "depth": 2, "split": "f90", "split_condition": -0.0771353394, "yes": 7, "no": 8, "missing": 8, "children": [{"nodeid": 7, "depth": 3, "split": "f0", "split_condition": 0.475247532, "yes": 15, "no": 16, "missing": 16, "children": [{"nodeid": 15, "leaf": -0.00249762717}, {"nodeid": 16, "leaf": -0.00568186957}]}, {"nodeid": 8, "depth": 3, "split": "f13", "split_condition": 0.0800999999, "yes": 17, "no": 18, "missing": 18, "children": [{"nodeid": 17, "leaf": -0.00226605288}, {"nodeid": 18, "leaf": -0.000521764858}]}]}, {"nodeid": 4, "depth": 2, "split": "f90", "split_condition": -0.104674704, "yes": 9, "no": 10, "missing": 10, "children": [{"nodeid": 9, "depth": 3, "split": "f0", "split_condition": 0.257425755, "yes": 19, "no": 20, "missing": 20, "children": [{"nodeid": 19, "leaf": -7.78430913e-05}, {"nodeid": 20, "leaf": -0.0033677402}]}, {"nodeid": 10, "depth": 3, "split": "f97", "split_condition": 0.304541677, "yes": 21, "no": 22, "missing": 22, "children": [{"nodeid": 21, "leaf": 0.00389225176}, {"nodeid": 22, "leaf": 0.00027553059}]}]}]}, {"nodeid": 2, "depth": 1, "split": "f97", "split_condition": 0.499875009, "yes": 5, "no": 6, "missing": 6, "children": [{"nodeid": 5, "depth": 2, "split": "f11", "split_condition": 0.302666664, "yes": 11, "no": 12, "missing": 12, "children": [{"nodeid": 11, "leaf": 0}, {"nodeid": 12, "depth": 3, "split": "f112", "split_condition": 0.326685727, "yes": 23, "no": 24, "missing": 24, "children": [{"nodeid": 23, "leaf": 0.00261745811}, {"nodeid": 24, "leaf": 0.00480379025}]}]}, {"nodeid": 6, "depth": 2, "split": "f1", "split_condition": -0.0269000009, "yes": 13, "no": 14, "missing": 14, "children": [{"nodeid": 13, "depth": 3, "split": "f60", "split_condition": 0.100000001, "yes": 25, "no": 26, "missing": 26, "children": [{"nodeid": 25, "leaf": 0.00424827216}, {"nodeid": 26, "leaf": 0.00166675623}]}, {"nodeid": 14, "depth": 3, "split": "f112", "split_condition": 0.51603812, "yes": 27, "no": 28, "missing": 28, "children": [{"nodeid": 27, "leaf": 0.00128867978}, {"nodeid": 28, "leaf": -0.000142137869}]}]}]}]}, {"nodeid": 0, "depth": 0, "split": "f92", "split_condition": 0.0384913869, "yes": 1, "no": 2, "missing": 2, "children": [{"nodeid": 1, "depth": 1, "split": "f92", "split_condition": -0.186779976, "yes": 3, "no": 4, "missing": 4, "children": [{"nodeid": 3, "depth": 2, "split": "f0", "split_condition": 0.298529863, "yes": 7, "no": 8, "missing": 8, "children": [{"nodeid": 7, "depth": 3, "split": "f0", "split_condition": 0.133913398, "yes": 15, "no": 16, "missing": 16, "children": [{"nodeid": 15, "leaf": -0.000244946248}, {"nodeid": 16, "leaf": -0.00213229237}]}, {"nodeid": 8, "depth": 3, "split": "f0", "split_condition": 0.690769076, "yes": 17, "no": 18, "missing": 18, "children": [{"nodeid": 17, "leaf": -0.00380832865}, {"nodeid": 18, "leaf": -0.00708002783}]}]}, {"nodeid": 4, "depth": 2, "split": "f52", "split_condition": 0.27306667, "yes": 9, "no": 10, "missing": 10, "children": [{"nodeid": 9, "depth": 3, "split": "f0", "split_condition": 0.368936896, "yes": 19, "no": 20, "missing": 20, "children": [{"nodeid": 19, "leaf": -0.000676556199}, {"nodeid": 20, "leaf": -0.00255481363}]}, {"nodeid": 10, "depth": 3, "split": "f44", "split_condition": 0.0947799981, "yes": 21, "no": 22, "missing": 22, "children": [{"nodeid": 21, "leaf": -0.000440747244}, {"nodeid": 22, "leaf": 0.00285427691}]}]}]}, {"nodeid": 2, "depth": 1, "split": "f97", "split_condition": 0.325791657, "yes": 5, "no": 6, "missing": 6, "children": [{"nodeid": 5, "depth": 2, "split": "f91", "split_condition": 0.0514656529, "yes": 11, "no": 12, "missing": 12, "children": [{"nodeid": 11, "leaf": 0.00148840679}, {"nodeid": 12, "leaf": 0.00508538168}]}, {"nodeid": 6, "depth": 2, "split": "f118", "split_condition": 0.106237315, "yes": 13, "no": 14, "missing": 14, "children": [{"nodeid": 13, "depth": 3, "split": "f7", "split_condition": 0.465411752, "yes": 23, "no": 24, "missing": 24, "children": [{"nodeid": 23, "leaf": 0.00170068664}, {"nodeid": 24, "leaf": 0.0031368346}]}, {"nodeid": 14, "depth": 3, "split": "f91", "split_condition": 0.0418175235, "yes": 25, "no": 26, "missing": 26, "children": [{"nodeid": 25, "leaf": -0.000504021591}, {"nodeid": 26, "leaf": 0.000786200399}]}]}]}]}, {"nodeid": 0, "depth": 0, "split": "f92", "split_condition": 0.0384913869, "yes": 1, "no": 2, "missing": 2, "children": [{"nodeid": 1, "depth": 1, "split": "f92", "split_condition": -0.171639115, "yes": 3, "no": 4, "missing": 4, "children": [{"nodeid": 3, "depth": 2, "split": "f0", "split_condition": 0.298529863, "yes": 7, "no": 8, "missing": 8, "children": [{"nodeid": 7, "depth": 3, "split": "f0", "split_condition": 0.132313237, "yes": 15, "no": 16, "missing": 16, "children": [{"nodeid": 15, "leaf": -0.000322104053}, {"nodeid": 16, "leaf": -0.00189542503}]}, {"nodeid": 8, "depth": 3, "split": "f79", "split_condition": 0.565999985, "yes": 17, "no": 18, "missing": 18, "children": [{"nodeid": 17, "leaf": -0.00474350061}, {"nodeid": 18, "leaf": -0.00284428499}]}]}, {"nodeid": 4, "depth": 2, "split": "f44", "split_condition": 0.0693714321, "yes": 9, "no": 10, "missing": 10, "children": [{"nodeid": 9, "depth": 3, "split": "f46", "split_condition": 0.200000003, "yes": 19, "no": 20, "missing": 20, "children": [{"nodeid": 19, "leaf": -0.000902841508}, {"nodeid": 20, "leaf": -0.00263450248}]}, {"nodeid": 10, "depth": 3, "split": "f117", "split_condition": 0.000899999985, "yes": 21, "no": 22, "missing": 22, "children": [{"nodeid": 21, "leaf": 0.00232777256}, {"nodeid": 22, "leaf": -0.000165413177}]}]}]}, {"nodeid": 2, "depth": 1, "split": "f10", "split_condition": 0.149230763, "yes": 5, "no": 6, "missing": 6, "children": [{"nodeid": 5, "depth": 2, "split": "f76", "split_condition": 0.197999999, "yes": 11, "no": 12, "missing": 12, "children": [{"nodeid": 11, "depth": 3, "split": "f92", "split_condition": 0.340630531, "yes": 23, "no": 24, "missing": 24, "children": [{"nodeid": 23, "leaf": 0.000235510626}, {"nodeid": 24, "leaf": 0.00171152561}]}, {"nodeid": 12, "depth": 3, "split": "f49", "split_condition": 0.224103823, "yes": 25, "no": 26, "missing": 26, "children": [{"nodeid": 25, "leaf": 0.00105918327}, {"nodeid": 26, "leaf": 0.00277924468}]}]}, {"nodeid": 6, "depth": 2, "split": "f78", "split_condition": 0.181999996, "yes": 13, "no": 14, "missing": 14, "children": [{"nodeid": 13, "leaf": 0.00536842598}, {"nodeid": 14, "depth": 3, "split": "f25", "split_condition": 0.00571428565, "yes": 27, "no": 28, "missing": 28, "children": [{"nodeid": 27, "leaf": 0.000800731825}, {"nodeid": 28, "leaf": 0.00267657056}]}]}]}]}, {"nodeid": 0, "depth": 0, "split": "f92", "split_condition": 0.0384913869, "yes": 1, "no": 2, "missing": 2, "children": [{"nodeid": 1, "depth": 1, "split": "f92", "split_condition": -0.142050311, "yes": 3, "no": 4, "missing": 4, "children": [{"nodeid": 3, "depth": 2, "split": "f0", "split_condition": 0.164516449, "yes": 7, "no": 8, "missing": 8, "children": [{"nodeid": 7, "depth": 3, "split": "f38", "split_condition": 0.402015746, "yes": 15, "no": 16, "missing": 16, "children": [{"nodeid": 15, "leaf": -0.00111760129}, {"nodeid": 16, "leaf": 0.000113976654}]}, {"nodeid": 8, "depth": 3, "split": "f8", "split_condition": 0.651499987, "yes": 17, "no": 18, "missing": 18, "children": [{"nodeid": 17, "leaf": -0.00301689235}, {"nodeid": 18, "leaf": -0.00513652572}]}]}, {"nodeid": 4, "depth": 2, "split": "f76", "split_condition": 0.286000013, "yes": 9, "no": 10, "missing": 10, "children": [{"nodeid": 9, "depth": 3, "split": "f78", "split_condition": 0.0769999996, "yes": 19, "no": 20, "missing": 20, "children": [{"nodeid": 19, "leaf": 0.000233962855}, {"nodeid": 20, "leaf": -0.00193441135}]}, {"nodeid": 10, "depth": 3, "split": "f90", "split_condition": -0.0817685649, "yes": 21, "no": 22, "missing": 22, "children": [{"nodeid": 21, "leaf": 0.00211642706}, {"nodeid": 22, "leaf": -0.000364106207}]}]}]}, {"nodeid": 2, "depth": 1, "split": "f10", "split_condition": 0.065211542, "yes": 5, "no": 6, "missing": 6, "children": [{"nodeid": 5, "depth": 2, "split": "f4", "split_condition": 0.200000003, "yes": 11, "no": 12, "missing": 12, "children": [{"nodeid": 11, "depth": 3, "split": "f2", "split_condition": -0.0491999984, "yes": 23, "no": 24, "missing": 24, "children": [{"nodeid": 23, "leaf": 0.00388938189}, {"nodeid": 24, "leaf": 0.00142189011}]}, {"nodeid": 12, "depth": 3, "split": "f95", "split_condition": 0.600000024, "yes": 25, "no": 26, "missing": 26, "children": [{"nodeid": 25, "leaf": 0.00174425542}, {"nodeid": 26, "leaf": 0.000586241251}]}]}, {"nodeid": 6, "depth": 2, "split": "f97", "split_condition": 0.497500002, "yes": 13, "no": 14, "missing": 14, "children": [{"nodeid": 13, "depth": 3, "split": "f92", "split_condition": 0.0667310655, "yes": 27, "no": 28, "missing": 28, "children": [{"nodeid": 27, "leaf": 0.00102979667}, {"nodeid": 28, "leaf": 0.00411734357}]}, {"nodeid": 14, "depth": 3, "split": "f5", "split_condition": 0.2755, "yes": 29, "no": 30, "missing": 30, "children": [{"nodeid": 29, "leaf": 0.000156011854}, {"nodeid": 30, "leaf": 0.00202085683}]}]}]}]}, {"nodeid": 0, "depth": 0, "split": "f90", "split_condition": -0.0200640708, "yes": 1, "no": 2, "missing": 2, "children": [{"nodeid": 1, "depth": 1, "split": "f0", "split_condition": 0.574557483, "yes": 3, "no": 4, "missing": 4, "children": [{"nodeid": 3, "depth": 2, "split": "f90", "split_condition": -0.126244709, "yes": 7, "no": 8, "missing": 8, "children": [{"nodeid": 7, "depth": 3, "split": "f0", "split_condition": 0.158315837, "yes": 15, "no": 16, "missing": 16, "children": [{"nodeid": 15, "leaf": 0.000109473796}, {"nodeid": 16, "leaf": -0.0032670442}]}, {"nodeid": 8, "depth": 3, "split": "f39", "split_condition": 0.0121629387, "yes": 17, "no": 18, "missing": 18, "children": [{"nodeid": 17, "leaf": -0.000733982422}, {"nodeid": 18, "leaf": 0.00208689435}]}]}, {"nodeid": 4, "depth": 2, "split": "f91", "split_condition": 0.0969329178, "yes": 9, "no": 10, "missing": 10, "children": [{"nodeid": 9, "depth": 3, "split": "f96", "split_condition": 0.335999995, "yes": 19, "no": 20, "missing": 20, "children": [{"nodeid": 19, "leaf": -0.0012561942}, {"nodeid": 20, "leaf": -0.00325136096}]}, {"nodeid": 10, "leaf": -0.00589461299}]}]}, {"nodeid": 2, "depth": 1, "split": "f11", "split_condition": 0.400400013, "yes": 5, "no": 6, "missing": 6, "children": [{"nodeid": 5, "depth": 2, "split": "f90", "split_condition": 0.0473730229, "yes": 11, "no": 12, "missing": 12, "children": [{"nodeid": 11, "depth": 3, "split": "f34", "split_condition": 0.133666664, "yes": 21, "no": 22, "missing": 22, "children": [{"nodeid": 21, "leaf": -0.00210832059}, {"nodeid": 22, "leaf": -0.000508669298}]}, {"nodeid": 12, "depth": 3, "split": "f34", "split_condition": 0.00653333357, "yes": 23, "no": 24, "missing": 24, "children": [{"nodeid": 23, "leaf": 0.00237032329}, {"nodeid": 24, "leaf": 8.65227848e-05}]}]}, {"nodeid": 6, "depth": 2, "split": "f7", "split_condition": 0.465411752, "yes": 13, "no": 14, "missing": 14, "children": [{"nodeid": 13, "depth": 3, "split": "f34", "split_condition": 0.0386000015, "yes": 25, "no": 26, "missing": 26, "children": [{"nodeid": 25, "leaf": 0.000452295528}, {"nodeid": 26, "leaf": 0.00155802653}]}, {"nodeid": 14, "depth": 3, "split": "f76", "split_condition": 0.331, "yes": 27, "no": 28, "missing": 28, "children": [{"nodeid": 27, "leaf": 0.00087050104}, {"nodeid": 28, "leaf": 0.00370816817}]}]}]}]}, {"nodeid": 0, "depth": 0, "split": "f92", "split_condition": 0.0384913869, "yes": 1, "no": 2, "missing": 2, "children": [{"nodeid": 1, "depth": 1, "split": "f92", "split_condition": -0.196358547, "yes": 3, "no": 4, "missing": 4, "children": [{"nodeid": 3, "depth": 2, "split": "f0", "split_condition": 0.298529863, "yes": 7, "no": 8, "missing": 8, "children": [{"nodeid": 7, "depth": 3, "split": "f66", "split_condition": 0.39866668, "yes": 13, "no": 14, "missing": 14, "children": [{"nodeid": 13, "leaf": -0.0018819893}, {"nodeid": 14, "leaf": 0}]}, {"nodeid": 8, "depth": 3, "split": "f120", "split_condition": 0.226132616, "yes": 15, "no": 16, "missing": 16, "children": [{"nodeid": 15, "leaf": -0.00487996126}, {"nodeid": 16, "leaf": -0.00268668449}]}]}, {"nodeid": 4, "depth": 2, "split": "f11", "split_condition": 0.27306667, "yes": 9, "no": 10, "missing": 10, "children": [{"nodeid": 9, "depth": 3, "split": "f0", "split_condition": 0.304130405, "yes": 17, "no": 18, "missing": 18, "children": [{"nodeid": 17, "leaf": -0.000643650594}, {"nodeid": 18, "leaf": -0.00268010423}]}, {"nodeid": 10, "depth": 3, "split": "f76", "split_condition": 0.282999992, "yes": 19, "no": 20, "missing": 20, "children": [{"nodeid": 19, "leaf": -0.00115836062}, {"nodeid": 20, "leaf": 0.000359893049}]}]}]}, {"nodeid": 2, "depth": 1, "split": "f39", "split_condition": 0.258644909, "yes": 5, "no": 6, "missing": 6, "children": [{"nodeid": 5, "depth": 2, "split": "f76", "split_condition": 0.243000001, "yes": 11, "no": 12, "missing": 12, "children": [{"nodeid": 11, "depth": 3, "split": "f92", "split_condition": 0.318079442, "yes": 21, "no": 22, "missing": 22, "children": [{"nodeid": 21, "leaf": 0.00025457429}, {"nodeid": 22, "leaf": 0.00185599329}]}, {"nodeid": 12, "depth": 3, "split": "f11", "split_condition": 0.429333329, "yes": 23, "no": 24, "missing": 24, "children": [{"nodeid": 23, "leaf": 0.000909783354}, {"nodeid": 24, "leaf": 0.00275412831}]}]}, {"nodeid": 6, "leaf": 0.00482793245}]}]}, {"nodeid": 0, "depth": 0, "split": "f92", "split_condition": -0.0414196327, "yes": 1, "no": 2, "missing": 2, "children": [{"nodeid": 1, "depth": 1, "split": "f0", "split_condition": 0.542054176, "yes": 3, "no": 4, "missing": 4, "children": [{"nodeid": 3, "depth": 2, "split": "f92", "split_condition": -0.241876498, "yes": 7, "no": 8, "missing": 8, "children": [{"nodeid": 7, "depth": 3, "split": "f0", "split_condition": 0.298529863, "yes": 15, "no": 16, "missing": 16, "children": [{"nodeid": 15, "leaf": -0.00144512695}, {"nodeid": 16, "leaf": -0.00353823788}]}, {"nodeid": 8, "depth": 3, "split": "f106", "split_condition": 0.198285714, "yes": 17, "no": 18, "missing": 18, "children": [{"nodeid": 17, "leaf": -0.00153706293}, {"nodeid": 18, "leaf": -0.00026905947}]}]}, {"nodeid": 4, "depth": 2, "split": "f90", "split_condition": -0.0313355848, "yes": 9, "no": 10, "missing": 10, "children": [{"nodeid": 9, "depth": 3, "split": "f97", "split_condition": 0.53275001, "yes": 19, "no": 20, "missing": 20, "children": [{"nodeid": 19, "leaf": -0.00355150155}, {"nodeid": 20, "leaf": -0.00611904915}]}, {"nodeid": 10, "depth": 3, "split": "f0", "split_condition": 0.743574381, "yes": 21, "no": 22, "missing": 22, "children": [{"nodeid": 21, "leaf": -0.00244684122}, {"nodeid": 22, "leaf": -0.00107039616}]}]}]}, {"nodeid": 2, "depth": 1, "split": "f92", "split_condition": 0.0459433049, "yes": 5, "no": 6, "missing": 6, "children": [{"nodeid": 5, "depth": 2, "split": "f41", "split_condition": 0.600000024, "yes": 11, "no": 12, "missing": 12, "children": [{"nodeid": 11, "depth": 3, "split": "f1", "split_condition": 0.0142000001, "yes": 23, "no": 24, "missing": 24, "children": [{"nodeid": 23, "leaf": 0.000157499628}, {"nodeid": 24, "leaf": -0.000987713109}]}, {"nodeid": 12, "depth": 3, "split": "f1", "split_condition": -0.0269000009, "yes": 25, "no": 26, "missing": 26, "children": [{"nodeid": 25, "leaf": 0.00106844259}, {"nodeid": 26, "leaf": 0.00268530496}]}]}, {"nodeid": 6, "depth": 2, "split": "f5", "split_condition": 0.759750009, "yes": 13, "no": 14, "missing": 14, "children": [{"nodeid": 13, "depth": 3, "split": "f39", "split_condition": 2.0408164e-08, "yes": 27, "no": 28, "missing": 28, "children": [{"nodeid": 27, "leaf": 0.0012025598}, {"nodeid": 28, "leaf": 0.00266613951}]}, {"nodeid": 14, "leaf": 0.00447095325}]}]}]}, {"nodeid": 0, "depth": 0, "split": "f92", "split_condition": 0.0374604054, "yes": 1, "no": 2, "missing": 2, "children": [{"nodeid": 1, "depth": 1, "split": "f92", "split_condition": -0.0599531606, "yes": 3, "no": 4, "missing": 4, "children": [{"nodeid": 3, "depth": 2, "split": "f0", "split_condition": 0.323932379, "yes": 7, "no": 8, "missing": 8, "children": [{"nodeid": 7, "depth": 3, "split": "f90", "split_condition": -0.0841126814, "yes": 15, "no": 16, "missing": 16, "children": [{"nodeid": 15, "leaf": -0.00166832982}, {"nodeid": 16, "leaf": -0.000157715913}]}, {"nodeid": 8, "depth": 3, "split": "f90", "split_condition": -0.0254226681, "yes": 17, "no": 18, "missing": 18, "children": [{"nodeid": 17, "leaf": -0.0032804904}, {"nodeid": 18, "leaf": -0.00098749646}]}]}, {"nodeid": 4, "depth": 2, "split": "f90", "split_condition": -0.0817685649, "yes": 9, "no": 10, "missing": 10, "children": [{"nodeid": 9, "depth": 3, "split": "f76", "split_condition": 0.268000007, "yes": 19, "no": 20, "missing": 20, "children": [{"nodeid": 19, "leaf": -0.000471607549}, {"nodeid": 20, "leaf": 0.00227700872}]}, {"nodeid": 10, "depth": 3, "split": "f80", "split_condition": 0.118000001, "yes": 21, "no": 22, "missing": 22, "children": [{"nodeid": 21, "leaf": -3.39621765e-05}, {"nodeid": 22, "leaf": -0.000869993295}]}]}]}, {"nodeid": 2, "depth": 1, "split": "f76", "split_condition": 0.197999999, "yes": 5, "no": 6, "missing": 6, "children": [{"nodeid": 5, "depth": 2, "split": "f92", "split_condition": 0.224136382, "yes": 11, "no": 12, "missing": 12, "children": [{"nodeid": 11, "depth": 3, "split": "f24", "split_condition": 0.443181813, "yes": 23, "no": 24, "missing": 24, "children": [{"nodeid": 23, "leaf": -0.000628912705}, {"nodeid": 24, "leaf": 0.00040047901}]}, {"nodeid": 12, "depth": 3, "split": "f67", "split_condition": 0.210999995, "yes": 25, "no": 26, "missing": 26, "children": [{"nodeid": 25, "leaf": 0.000133035064}, {"nodeid": 26, "leaf": 0.00172816217}]}]}, {"nodeid": 6, "depth": 2, "split": "f11", "split_condition": 0.429333329, "yes": 13, "no": 14, "missing": 14, "children": [{"nodeid": 13, "depth": 3, "split": "f78", "split_condition": 0.0909999982, "yes": 27, "no": 28, "missing": 28, "children": [{"nodeid": 27, "leaf": 0.00156748097}, {"nodeid": 28, "leaf": 0.000359489786}]}, {"nodeid": 14, "depth": 3, "split": "f7", "split_condition": 0.465411752, "yes": 29, "no": 30, "missing": 30, "children": [{"nodeid": 29, "leaf": 0.0017438666}, {"nodeid": 30, "leaf": 0.00386879593}]}]}]}]}, {"nodeid": 0, "depth": 0, "split": "f92", "split_condition": 0.0384913869, "yes": 1, "no": 2, "missing": 2, "children": [{"nodeid": 1, "depth": 1, "split": "f92", "split_condition": -0.0599531606, "yes": 3, "no": 4, "missing": 4, "children": [{"nodeid": 3, "depth": 2, "split": "f0", "split_condition": 0.298529863, "yes": 7, "no": 8, "missing": 8, "children": [{"nodeid": 7, "depth": 3, "split": "f96", "split_condition": 0.551999986, "yes": 15, "no": 16, "missing": 16, "children": [{"nodeid": 15, "leaf": -0.00106209086}, {"nodeid": 16, "leaf": 0.00154114375}]}, {"nodeid": 8, "depth": 3, "split": "f118", "split_condition": 0.056946665, "yes": 17, "no": 18, "missing": 18, "children": [{"nodeid": 17, "leaf": -0.000988631509}, {"nodeid": 18, "leaf": -0.00317303953}]}]}, {"nodeid": 4, "depth": 2, "split": "f90", "split_condition": -0.0817685649, "yes": 9, "no": 10, "missing": 10, "children": [{"nodeid": 9, "depth": 3, "split": "f97", "split_condition": 0.473874986, "yes": 19, "no": 20, "missing": 20, "children": [{"nodeid": 19, "leaf": 0.00240637385}, {"nodeid": 20, "leaf": 0.000176619928}]}, {"nodeid": 10, "depth": 3, "split": "f48", "split_condition": 0.938499987, "yes": 21, "no": 22, "missing": 22, "children": [{"nodeid": 21, "leaf": -0.000441977347}, {"nodeid": 22, "leaf": -0.00222118851}]}]}]}, {"nodeid": 2, "depth": 1, "split": "f7", "split_condition": 0.465411752, "yes": 5, "no": 6, "missing": 6, "children": [{"nodeid": 5, "depth": 2, "split": "f37", "split_condition": 0.737999976, "yes": 11, "no": 12, "missing": 12, "children": [{"nodeid": 11, "depth": 3, "split": "f61", "split_condition": 0.300000012, "yes": 23, "no": 24, "missing": 24, "children": [{"nodeid": 23, "leaf": 0.00046686866}, {"nodeid": 24, "leaf": 0.00170293823}]}, {"nodeid": 12, "depth": 3, "split": "f24", "split_condition": 0.824999988, "yes": 25, "no": 26, "missing": 26, "children": [{"nodeid": 25, "leaf": 0.0022200481}, {"nodeid": 26, "leaf": 0.000286839408}]}]}, {"nodeid": 6, "depth": 2, "split": "f92", "split_condition": 0.224136382, "yes": 13, "no": 14, "missing": 14, "children": [{"nodeid": 13, "depth": 3, "split": "f106", "split_condition": 0.306493521, "yes": 27, "no": 28, "missing": 28, "children": [{"nodeid": 27, "leaf": 0.000721774239}, {"nodeid": 28, "leaf": 0.00268404582}]}, {"nodeid": 14, "depth": 3, "split": "f61", "split_condition": 0.219999999, "yes": 29, "no": 30, "missing": 30, "children": [{"nodeid": 29, "leaf": 0.00126801734}, {"nodeid": 30, "leaf": 0.00443807477}]}]}]}]}, {"nodeid": 0, "depth": 0, "split": "f92", "split_condition": 0.0374604054, "yes": 1, "no": 2, "missing": 2, "children": [{"nodeid": 1, "depth": 1, "split": "f92", "split_condition": -0.142050311, "yes": 3, "no": 4, "missing": 4, "children": [{"nodeid": 3, "depth": 2, "split": "f0", "split_condition": 0.438043803, "yes": 7, "no": 8, "missing": 8, "children": [{"nodeid": 7, "depth": 3, "split": "f0", "split_condition": 0.183118314, "yes": 15, "no": 16, "missing": 16, "children": [{"nodeid": 15, "leaf": -0.000569135183}, {"nodeid": 16, "leaf": -0.00219869381}]}, {"nodeid": 8, "depth": 3, "split": "f6", "split_condition": 0.70588237, "yes": 17, "no": 18, "missing": 18, "children": [{"nodeid": 17, "leaf": -0.00542982155}, {"nodeid": 18, "leaf": -0.00305268052}]}]}, {"nodeid": 4, "depth": 2, "split": "f118", "split_condition": 0.073797442, "yes": 9, "no": 10, "missing": 10, "children": [{"nodeid": 9, "depth": 3, "split": "f44", "split_condition": 0.065871425, "yes": 19, "no": 20, "missing": 20, "children": [{"nodeid": 19, "leaf": -0.000277056883}, {"nodeid": 20, "leaf": 0.00239278912}]}, {"nodeid": 10, "depth": 3, "split": "f24", "split_condition": 0.538461566, "yes": 21, "no": 22, "missing": 22, "children": [{"nodeid": 21, "leaf": -0.000429863838}, {"nodeid": 22, "leaf": -0.00214334484}]}]}]}, {"nodeid": 2, "depth": 1, "split": "f76", "split_condition": 0.296999991, "yes": 5, "no": 6, "missing": 6, "children": [{"nodeid": 5, "depth": 2, "split": "f92", "split_condition": 0.213007584, "yes": 11, "no": 12, "missing": 12, "children": [{"nodeid": 11, "depth": 3, "split": "f24", "split_condition": 0.848214269, "yes": 23, "no": 24, "missing": 24, "children": [{"nodeid": 23, "leaf": 5.27131924e-05}, {"nodeid": 24, "leaf": 0.00141040585}]}, {"nodeid": 12, "depth": 3, "split": "f76", "split_condition": 0.197999999, "yes": 25, "no": 26, "missing": 26, "children": [{"nodeid": 25, "leaf": 0.00108922052}, {"nodeid": 26, "leaf": 0.00295229745}]}]}, {"nodeid": 6, "depth": 2, "split": "f97", "split_condition": 0.555999994, "yes": 13, "no": 14, "missing": 14, "children": [{"nodeid": 13, "depth": 3, "split": "f11", "split_condition": 0.449066669, "yes": 27, "no": 28, "missing": 28, "children": [{"nodeid": 27, "leaf": 0.000740199466}, {"nodeid": 28, "leaf": 0.0038435536}]}, {"nodeid": 14, "depth": 3, "split": "f25", "split_condition": 0.105714284, "yes": 29, "no": 30, "missing": 30, "children": [{"nodeid": 29, "leaf": 0.000328157243}, {"nodeid": 30, "leaf": 0.00127452891}]}]}]}]}, {"nodeid": 0, "depth": 0, "split": "f92", "split_condition": 0.0315794982, "yes": 1, "no": 2, "missing": 2, "children": [{"nodeid": 1, "depth": 1, "split": "f92", "split_condition": -0.186779976, "yes": 3, "no": 4, "missing": 4, "children": [{"nodeid": 3, "depth": 2, "split": "f0", "split_condition": 0.298529863, "yes": 7, "no": 8, "missing": 8, "children": [{"nodeid": 7, "depth": 3, "split": "f38", "split_condition": 0.43387413, "yes": 15, "no": 16, "missing": 16, "children": [{"nodeid": 15, "leaf": -0.00174978969}, {"nodeid": 16, "leaf": -0.000165817968}]}, {"nodeid": 8, "depth": 3, "split": "f76", "split_condition": 0.426999986, "yes": 17, "no": 18, "missing": 18, "children": [{"nodeid": 17, "leaf": -0.00450061401}, {"nodeid": 18, "leaf": -0.00253430242}]}]}, {"nodeid": 4, "depth": 2, "split": "f48", "split_condition": 0.907700002, "yes": 9, "no": 10, "missing": 10, "children": [{"nodeid": 9, "depth": 3, "split": "f117", "split_condition": 0.0803999975, "yes": 19, "no": 20, "missing": 20, "children": [{"nodeid": 19, "leaf": 0.000181813099}, {"nodeid": 20, "leaf": -0.00114225259}]}, {"nodeid": 10, "depth": 3, "split": "f0", "split_condition": 0.752475262, "yes": 21, "no": 22, "missing": 22, "children": [{"nodeid": 21, "leaf": -0.00268608844}, {"nodeid": 22, "leaf": -0.00068151264}]}]}]}, {"nodeid": 2, "depth": 1, "split": "f76", "split_condition": 0.197999999, "yes": 5, "no": 6, "missing": 6, "children": [{"nodeid": 5, "depth": 2, "split": "f139", "split_condition": 0.102189161, "yes": 11, "no": 12, "missing": 12, "children": [{"nodeid": 11, "depth": 3, "split": "f63", "split_condition": 0.00999999978, "yes": 23, "no": 24, "missing": 24, "children": [{"nodeid": 23, "leaf": -0.000501488918}, {"nodeid": 24, "leaf": 0.000517490553}]}, {"nodeid": 12, "depth": 3, "split": "f0", "split_condition": 0.142014205, "yes": 25, "no": 26, "missing": 26, "children": [{"nodeid": 25, "leaf": 0.000323843444}, {"nodeid": 26, "leaf": 0.00209601317}]}]}, {"nodeid": 6, "depth": 2, "split": "f7", "split_condition": 0.537666678, "yes": 13, "no": 14, "missing": 14, "children": [{"nodeid": 13, "depth": 3, "split": "f91", "split_condition": 0.685378075, "yes": 27, "no": 28, "missing": 28, "children": [{"nodeid": 27, "leaf": 0.00114680291}, {"nodeid": 28, "leaf": 0.00288377702}]}, {"nodeid": 14, "depth": 3, "split": "f92", "split_condition": 0.0459433049, "yes": 29, "no": 30, "missing": 30, "children": [{"nodeid": 29, "leaf": 0.000551022415}, {"nodeid": 30, "leaf": 0.00361950253}]}]}]}]}, {"nodeid": 0, "depth": 0, "split": "f92", "split_condition": 0.0384913869, "yes": 1, "no": 2, "missing": 2, "children": [{"nodeid": 1, "depth": 1, "split": "f92", "split_condition": -0.196358547, "yes": 3, "no": 4, "missing": 4, "children": [{"nodeid": 3, "depth": 2, "split": "f7", "split_condition": 0.424705893, "yes": 7, "no": 8, "missing": 8, "children": [{"nodeid": 7, "depth": 3, "split": "f123", "split_condition": 0.12069907, "yes": 15, "no": 16, "missing": 16, "children": [{"nodeid": 15, "leaf": -0.000835258572}, {"nodeid": 16, "leaf": -0.00249209069}]}, {"nodeid": 8, "depth": 3, "split": "f78", "split_condition": 0.26699999, "yes": 17, "no": 18, "missing": 18, "children": [{"nodeid": 17, "leaf": -0.00295223529}, {"nodeid": 18, "leaf": -0.00553074107}]}]}, {"nodeid": 4, "depth": 2, "split": "f118", "split_condition": 0.0694133341, "yes": 9, "no": 10, "missing": 10, "children": [{"nodeid": 9, "depth": 3, "split": "f29", "split_condition": 0.482363641, "yes": 19, "no": 20, "missing": 20, "children": [{"nodeid": 19, "leaf": -0.00028133404}, {"nodeid": 20, "leaf": 0.00233165128}]}, {"nodeid": 10, "depth": 3, "split": "f92", "split_condition": -0.0212545358, "yes": 21, "no": 22, "missing": 22, "children": [{"nodeid": 21, "leaf": -0.00185840868}, {"nodeid": 22, "leaf": -0.000279640342}]}]}]}, {"nodeid": 2, "depth": 1, "split": "f10", "split_condition": 0.0901176482, "yes": 5, "no": 6, "missing": 6, "children": [{"nodeid": 5, "depth": 2, "split": "f1", "split_condition": -0.0178999994, "yes": 11, "no": 12, "missing": 12, "children": [{"nodeid": 11, "depth": 3, "split": "f106", "split_condition": 0.36857143, "yes": 23, "no": 24, "missing": 24, "children": [{"nodeid": 23, "leaf": 0.00121684407}, {"nodeid": 24, "leaf": 0.0029198837}]}, {"nodeid": 12, "depth": 3, "split": "f76", "split_condition": 0.504000008, "yes": 25, "no": 26, "missing": 26, "children": [{"nodeid": 25, "leaf": 0.000246220356}, {"nodeid": 26, "leaf": 0.00145141687}]}]}, {"nodeid": 6, "depth": 2, "split": "f5", "split_condition": 0.303499997, "yes": 13, "no": 14, "missing": 14, "children": [{"nodeid": 13, "depth": 3, "split": "f3", "split_condition": 0.200000003, "yes": 27, "no": 28, "missing": 28, "children": [{"nodeid": 27, "leaf": -0.000192648455}, {"nodeid": 28, "leaf": 0.000429928128}]}, {"nodeid": 14, "depth": 3, "split": "f78", "split_condition": 0.181999996, "yes": 29, "no": 30, "missing": 30, "children": [{"nodeid": 29, "leaf": 0.00391040882}, {"nodeid": 30, "leaf": 0.00250907359}]}]}]}]}, {"nodeid": 0, "depth": 0, "split": "f92", "split_condition": 0.0384913869, "yes": 1, "no": 2, "missing": 2, "children": [{"nodeid": 1, "depth": 1, "split": "f92", "split_condition": -0.186779976, "yes": 3, "no": 4, "missing": 4, "children": [{"nodeid": 3, "depth": 2, "split": "f0", "split_condition": 0.298529863, "yes": 7, "no": 8, "missing": 8, "children": [{"nodeid": 7, "depth": 3, "split": "f50", "split_condition": 0.209999993, "yes": 15, "no": 16, "missing": 16, "children": [{"nodeid": 15, "leaf": -0.0012930294}, {"nodeid": 16, "leaf": 0.000542643596}]}, {"nodeid": 8, "depth": 3, "split": "f0", "split_condition": 0.690769076, "yes": 17, "no": 18, "missing": 18, "children": [{"nodeid": 17, "leaf": -0.00289482856}, {"nodeid": 18, "leaf": -0.00541006494}]}]}, {"nodeid": 4, "depth": 2, "split": "f106", "split_condition": 0.259047627, "yes": 9, "no": 10, "missing": 10, "children": [{"nodeid": 9, "depth": 3, "split": "f92", "split_condition": -0.0212545358, "yes": 19, "no": 20, "missing": 20, "children": [{"nodeid": 19, "leaf": -0.00152670802}, {"nodeid": 20, "leaf": -0.000348564674}]}, {"nodeid": 10, "depth": 3, "split": "f40", "split_condition": 0.531599998, "yes": 21, "no": 22, "missing": 22, "children": [{"nodeid": 21, "leaf": -7.50971667e-05}, {"nodeid": 22, "leaf": 0.00189467869}]}]}]}, {"nodeid": 2, "depth": 1, "split": "f10", "split_condition": 0.149230763, "yes": 5, "no": 6, "missing": 6, "children": [{"nodeid": 5, "depth": 2, "split": "f76", "split_condition": 0.335000008, "yes": 11, "no": 12, "missing": 12, "children": [{"nodeid": 11, "depth": 3, "split": "f92", "split_condition": 0.311698049, "yes": 23, "no": 24, "missing": 24, "children": [{"nodeid": 23, "leaf": 0.000338918588}, {"nodeid": 24, "leaf": 0.00154305354}]}, {"nodeid": 12, "depth": 3, "split": "f93", "split_condition": 0.451999992, "yes": 25, "no": 26, "missing": 26, "children": [{"nodeid": 25, "leaf": 0.000772485044}, {"nodeid": 26, "leaf": 0.00275115506}]}]}, {"nodeid": 6, "depth": 2, "split": "f78", "split_condition": 0.181999996, "yes": 13, "no": 14, "missing": 14, "children": [{"nodeid": 13, "leaf": 0.00441514887}, {"nodeid": 14, "depth": 3, "split": "f77", "split_condition": 0.153999999, "yes": 27, "no": 28, "missing": 28, "children": [{"nodeid": 27, "leaf": 0}, {"nodeid": 28, "leaf": 0.00228793523}]}]}]}]}, {"nodeid": 0, "depth": 0, "split": "f92", "split_condition": 0.0523898862, "yes": 1, "no": 2, "missing": 2, "children": [{"nodeid": 1, "depth": 1, "split": "f92", "split_condition": -0.142050311, "yes": 3, "no": 4, "missing": 4, "children": [{"nodeid": 3, "depth": 2, "split": "f9", "split_condition": 0.716705859, "yes": 7, "no": 8, "missing": 8, "children": [{"nodeid": 7, "depth": 3, "split": "f13", "split_condition": 0.181199998, "yes": 15, "no": 16, "missing": 16, "children": [{"nodeid": 15, "leaf": -0.00227088272}, {"nodeid": 16, "leaf": -0.000504736789}]}, {"nodeid": 8, "depth": 3, "split": "f5", "split_condition": 0.370499998, "yes": 17, "no": 18, "missing": 18, "children": [{"nodeid": 17, "leaf": -0.0052003786}, {"nodeid": 18, "leaf": -0.00175246201}]}]}, {"nodeid": 4, "depth": 2, "split": "f44", "split_condition": 0.0603, "yes": 9, "no": 10, "missing": 10, "children": [{"nodeid": 9, "depth": 3, "split": "f14", "split_condition": 1, "yes": 19, "no": 20, "missing": 20, "children": [{"nodeid": 19, "leaf": -0.000887330563}, {"nodeid": 20, "leaf": 0.000831871002}]}, {"nodeid": 10, "depth": 3, "split": "f10", "split_condition": -0.00925000012, "yes": 21, "no": 22, "missing": 22, "children": [{"nodeid": 21, "leaf": -0.000142065561}, {"nodeid": 22, "leaf": 0.00158619008}]}]}]}, {"nodeid": 2, "depth": 1, "split": "f5", "split_condition": 0.739000022, "yes": 5, "no": 6, "missing": 6, "children": [{"nodeid": 5, "depth": 2, "split": "f92", "split_condition": 0.535737813, "yes": 11, "no": 12, "missing": 12, "children": [{"nodeid": 11, "depth": 3, "split": "f97", "split_condition": 0.509916663, "yes": 23, "no": 24, "missing": 24, "children": [{"nodeid": 23, "leaf": 0.00147997565}, {"nodeid": 24, "leaf": 0.000529194076}]}, {"nodeid": 12, "depth": 3, "split": "f23", "split_condition": 0.436111122, "yes": 25, "no": 26, "missing": 26, "children": [{"nodeid": 25, "leaf": 0.00137396227}, {"nodeid": 26, "leaf": 0.004262798}]}]}, {"nodeid": 6, "depth": 2, "split": "f25", "split_condition": 0.00857142825, "yes": 13, "no": 14, "missing": 14, "children": [{"nodeid": 13, "leaf": 0.00129041902}, {"nodeid": 14, "leaf": 0.00394620048}]}]}]}, {"nodeid": 0, "depth": 0, "split": "f90", "split_condition": -0.00665270397, "yes": 1, "no": 2, "missing": 2, "children": [{"nodeid": 1, "depth": 1, "split": "f0", "split_condition": 0.286928684, "yes": 3, "no": 4, "missing": 4, "children": [{"nodeid": 3, "depth": 2, "split": "f111", "split_condition": 0.00634071417, "yes": 7, "no": 8, "missing": 8, "children": [{"nodeid": 7, "depth": 3, "split": "f24", "split_condition": 0.484375, "yes": 15, "no": 16, "missing": 16, "children": [{"nodeid": 15, "leaf": -0.00142367964}, {"nodeid": 16, "leaf": 2.10310063e-05}]}, {"nodeid": 8, "depth": 3, "split": "f50", "split_condition": 0.115384616, "yes": 17, "no": 18, "missing": 18, "children": [{"nodeid": 17, "leaf": -0.000752933032}, {"nodeid": 18, "leaf": 0.000844799157}]}]}, {"nodeid": 4, "depth": 2, "split": "f91", "split_condition": 0.0857361853, "yes": 9, "no": 10, "missing": 10, "children": [{"nodeid": 9, "depth": 3, "split": "f47", "split_condition": 0.111533336, "yes": 19, "no": 20, "missing": 20, "children": [{"nodeid": 19, "leaf": -0.000492179533}, {"nodeid": 20, "leaf": -0.00222780439}]}, {"nodeid": 10, "depth": 3, "split": "f10", "split_condition": -0.0842857137, "yes": 21, "no": 22, "missing": 22, "children": [{"nodeid": 21, "leaf": -0.00377182546}, {"nodeid": 22, "leaf": -0.00170129177}]}]}]}, {"nodeid": 2, "depth": 1, "split": "f141", "split_condition": 0.351960033, "yes": 5, "no": 6, "missing": 6, "children": [{"nodeid": 5, "depth": 2, "split": "f20", "split_condition": 0.733333349, "yes": 11, "no": 12, "missing": 12, "children": [{"nodeid": 11, "depth": 3, "split": "f73", "split_condition": 0.607843161, "yes": 23, "no": 24, "missing": 24, "children": [{"nodeid": 23, "leaf": 1.60083237e-05}, {"nodeid": 24, "leaf": 0.00175034138}]}, {"nodeid": 12, "depth": 3, "split": "f26", "split_condition": 0.0105555551, "yes": 25, "no": 26, "missing": 26, "children": [{"nodeid": 25, "leaf": 0.00245084846}, {"nodeid": 26, "leaf": 0.000439692376}]}]}, {"nodeid": 6, "depth": 2, "split": "f61", "split_condition": 0.159999996, "yes": 13, "no": 14, "missing": 14, "children": [{"nodeid": 13, "depth": 3, "split": "f139", "split_condition": 0.107413337, "yes": 27, "no": 28, "missing": 28, "children": [{"nodeid": 27, "leaf": 0}, {"nodeid": 28, "leaf": 0.00170040072}]}, {"nodeid": 14, "depth": 3, "split": "f108", "split_condition": 0.444499999, "yes": 29, "no": 30, "missing": 30, "children": [{"nodeid": 29, "leaf": 0.00396964094}, {"nodeid": 30, "leaf": 0.00165062211}]}]}]}]}, {"nodeid": 0, "depth": 0, "split": "f92", "split_condition": 0.0384913869, "yes": 1, "no": 2, "missing": 2, "children": [{"nodeid": 1, "depth": 1, "split": "f92", "split_condition": -0.196358547, "yes": 3, "no": 4, "missing": 4, "children": [{"nodeid": 3, "depth": 2, "split": "f81", "split_condition": 0.924000025, "yes": 7, "no": 8, "missing": 8, "children": [{"nodeid": 7, "depth": 3, "split": "f80", "split_condition": 0.352999985, "yes": 15, "no": 16, "missing": 16, "children": [{"nodeid": 15, "leaf": -0.0021635727}, {"nodeid": 16, "leaf": -0.00436252076}]}, {"nodeid": 8, "depth": 3, "split": "f79", "split_condition": 0.629000008, "yes": 17, "no": 18, "missing": 18, "children": [{"nodeid": 17, "leaf": -0.00111490232}, {"nodeid": 18, "leaf": 0.000596326718}]}]}, {"nodeid": 4, "depth": 2, "split": "f48", "split_condition": 0.90170002, "yes": 9, "no": 10, "missing": 10, "children": [{"nodeid": 9, "depth": 3, "split": "f44", "split_condition": 0.065871425, "yes": 19, "no": 20, "missing": 20, "children": [{"nodeid": 19, "leaf": -0.00054211542}, {"nodeid": 20, "leaf": 0.0015675124}]}, {"nodeid": 10, "depth": 3, "split": "f128", "split_condition": 0.150000006, "yes": 21, "no": 22, "missing": 22, "children": [{"nodeid": 21, "leaf": -0.00232026237}, {"nodeid": 22, "leaf": -0.000241150483}]}]}]}, {"nodeid": 2, "depth": 1, "split": "f7", "split_condition": 0.709647059, "yes": 5, "no": 6, "missing": 6, "children": [{"nodeid": 5, "depth": 2, "split": "f76", "split_condition": 0.243000001, "yes": 11, "no": 12, "missing": 12, "children": [{"nodeid": 11, "depth": 3, "split": "f79", "split_condition": 0.375999987, "yes": 23, "no": 24, "missing": 24, "children": [{"nodeid": 23, "leaf": 0.00103423838}, {"nodeid": 24, "leaf": 1.21992507e-05}]}, {"nodeid": 12, "depth": 3, "split": "f92", "split_condition": 0.590793788, "yes": 25, "no": 26, "missing": 26, "children": [{"nodeid": 25, "leaf": 0.0014245403}, {"nodeid": 26, "leaf": 0.00312153553}]}]}, {"nodeid": 6, "depth": 2, "split": "f3", "split_condition": 0.400000006, "yes": 13, "no": 14, "missing": 14, "children": [{"nodeid": 13, "leaf": 0.00364559493}, {"nodeid": 14, "leaf": 0.000582469977}]}]}]}, {"nodeid": 0, "depth": 0, "split": "f10", "split_condition": -0.00461764727, "yes": 1, "no": 2, "missing": 2, "children": [{"nodeid": 1, "depth": 1, "split": "f90", "split_condition": -0.0281874798, "yes": 3, "no": 4, "missing": 4, "children": [{"nodeid": 3, "depth": 2, "split": "f0", "split_condition": 0.572457254, "yes": 7, "no": 8, "missing": 8, "children": [{"nodeid": 7, "depth": 3, "split": "f120", "split_condition": 0.152925298, "yes": 15, "no": 16, "missing": 16, "children": [{"nodeid": 15, "leaf": -0.000235061467}, {"nodeid": 16, "leaf": -0.00204177084}]}, {"nodeid": 8, "depth": 3, "split": "f10", "split_condition": -0.126142859, "yes": 17, "no": 18, "missing": 18, "children": [{"nodeid": 17, "leaf": -0.00442671729}, {"nodeid": 18, "leaf": -0.00143097294}]}]}, {"nodeid": 4, "depth": 2, "split": "f13", "split_condition": 0.131799996, "yes": 9, "no": 10, "missing": 10, "children": [{"nodeid": 9, "depth": 3, "split": "f49", "split_condition": 0.236497059, "yes": 19, "no": 20, "missing": 20, "children": [{"nodeid": 19, "leaf": -0.000231641941}, {"nodeid": 20, "leaf": -0.00134426414}]}, {"nodeid": 10, "depth": 3, "split": "f97", "split_condition": 0.500625014, "yes": 21, "no": 22, "missing": 22, "children": [{"nodeid": 21, "leaf": 0.000783511205}, {"nodeid": 22, "leaf": -5.29507415e-05}]}]}]}, {"nodeid": 2, "depth": 1, "split": "f90", "split_condition": 0.0301363003, "yes": 5, "no": 6, "missing": 6, "children": [{"nodeid": 5, "depth": 2, "split": "f41", "split_condition": 0.50666666, "yes": 11, "no": 12, "missing": 12, "children": [{"nodeid": 11, "depth": 3, "split": "f77", "split_condition": 0.375, "yes": 23, "no": 24, "missing": 24, "children": [{"nodeid": 23, "leaf": -5.08846388e-05}, {"nodeid": 24, "leaf": -0.00327878213}]}, {"nodeid": 12, "depth": 3, "split": "f0", "split_condition": 0.799479961, "yes": 25, "no": 26, "missing": 26, "children": [{"nodeid": 25, "leaf": 0.00332563836}, {"nodeid": 26, "leaf": 0.000795423228}]}]}, {"nodeid": 6, "depth": 2, "split": "f2", "split_condition": 0.00949999969, "yes": 13, "no": 14, "missing": 14, "children": [{"nodeid": 13, "depth": 3, "split": "f6", "split_condition": 0.647058845, "yes": 27, "no": 28, "missing": 28, "children": [{"nodeid": 27, "leaf": 0.000112218462}, {"nodeid": 28, "leaf": 0.00262280437}]}, {"nodeid": 14, "depth": 3, "split": "f0", "split_condition": 0.25312531, "yes": 29, "no": 30, "missing": 30, "children": [{"nodeid": 29, "leaf": 0.00179320876}, {"nodeid": 30, "leaf": 5.7613197e-06}]}]}]}]}, {"nodeid": 0, "depth": 0, "split": "f141", "split_condition": 0.174539119, "yes": 1, "no": 2, "missing": 2, "children": [{"nodeid": 1, "depth": 1, "split": "f90", "split_condition": -0.092929557, "yes": 3, "no": 4, "missing": 4, "children": [{"nodeid": 3, "depth": 2, "split": "f0", "split_condition": 0.183118314, "yes": 7, "no": 8, "missing": 8, "children": [{"nodeid": 7, "depth": 3, "split": "f78", "split_condition": 0.214000002, "yes": 15, "no": 16, "missing": 16, "children": [{"nodeid": 15, "leaf": -0.000636607176}, {"nodeid": 16, "leaf": 0.000899252191}]}, {"nodeid": 8, "depth": 3, "split": "f19", "split_condition": 0.550000012, "yes": 17, "no": 18, "missing": 18, "children": [{"nodeid": 17, "leaf": -0.00288688811}, {"nodeid": 18, "leaf": -0.000664528285}]}]}, {"nodeid": 4, "depth": 2, "split": "f10", "split_condition": -0.00496428553, "yes": 9, "no": 10, "missing": 10, "children": [{"nodeid": 9, "depth": 3, "split": "f0", "split_condition": 0.304130405, "yes": 19, "no": 20, "missing": 20, "children": [{"nodeid": 19, "leaf": 0.000153343994}, {"nodeid": 20, "leaf": -0.00123587274}]}, {"nodeid": 10, "depth": 3, "split": "f76", "split_condition": 0.282999992, "yes": 21, "no": 22, "missing": 22, "children": [{"nodeid": 21, "leaf": -0.00054067641}, {"nodeid": 22, "leaf": 0.00103145221}]}]}]}, {"nodeid": 2, "depth": 1, "split": "f97", "split_condition": 0.555999994, "yes": 5, "no": 6, "missing": 6, "children": [{"nodeid": 5, "depth": 2, "split": "f76", "split_condition": 0.272000015, "yes": 11, "no": 12, "missing": 12, "children": [{"nodeid": 11, "depth": 3, "split": "f0", "split_condition": 0.466446638, "yes": 23, "no": 24, "missing": 24, "children": [{"nodeid": 23, "leaf": 0.00161933119}, {"nodeid": 24, "leaf": -7.1592418e-05}]}, {"nodeid": 12, "depth": 3, "split": "f7", "split_condition": 0.285176456, "yes": 25, "no": 26, "missing": 26, "children": [{"nodeid": 25, "leaf": 0.000532465929}, {"nodeid": 26, "leaf": 0.00321658934}]}]}, {"nodeid": 6, "depth": 2, "split": "f80", "split_condition": 0.294, "yes": 13, "no": 14, "missing": 14, "children": [{"nodeid": 13, "depth": 3, "split": "f80", "split_condition": 0.175999999, "yes": 27, "no": 28, "missing": 28, "children": [{"nodeid": 27, "leaf": 0.000542053487}, {"nodeid": 28, "leaf": -0.000317160273}]}, {"nodeid": 14, "leaf": 0.00114656962}]}]}]}, {"nodeid": 0, "depth": 0, "split": "f92", "split_condition": 0.0384913869, "yes": 1, "no": 2, "missing": 2, "children": [{"nodeid": 1, "depth": 1, "split": "f92", "split_condition": -0.197391495, "yes": 3, "no": 4, "missing": 4, "children": [{"nodeid": 3, "depth": 2, "split": "f81", "split_condition": 0.924000025, "yes": 7, "no": 8, "missing": 8, "children": [{"nodeid": 7, "depth": 3, "split": "f13", "split_condition": 0.263599992, "yes": 13, "no": 14, "missing": 14, "children": [{"nodeid": 13, "leaf": -0.00265835505}, {"nodeid": 14, "leaf": -0.000858286454}]}, {"nodeid": 8, "depth": 3, "split": "f50", "split_condition": 0.230000004, "yes": 15, "no": 16, "missing": 16, "children": [{"nodeid": 15, "leaf": -0.000890086056}, {"nodeid": 16, "leaf": 0.000484766235}]}]}, {"nodeid": 4, "depth": 2, "split": "f44", "split_condition": 0.0615833327, "yes": 9, "no": 10, "missing": 10, "children": [{"nodeid": 9, "depth": 3, "split": "f48", "split_condition": 0.907700002, "yes": 17, "no": 18, "missing": 18, "children": [{"nodeid": 17, "leaf": -0.000415539922}, {"nodeid": 18, "leaf": -0.00191911869}]}, {"nodeid": 10, "depth": 3, "split": "f10", "split_condition": -0.00925000012, "yes": 19, "no": 20, "missing": 20, "children": [{"nodeid": 19, "leaf": -6.86381682e-05}, {"nodeid": 20, "leaf": 0.00171283749}]}]}]}, {"nodeid": 2, "depth": 1, "split": "f39", "split_condition": 0.0533609986, "yes": 5, "no": 6, "missing": 6, "children": [{"nodeid": 5, "depth": 2, "split": "f92", "split_condition": 0.535737813, "yes": 11, "no": 12, "missing": 12, "children": [{"nodeid": 11, "depth": 3, "split": "f1", "split_condition": -0.0121999998, "yes": 21, "no": 22, "missing": 22, "children": [{"nodeid": 21, "leaf": 0.00144628598}, {"nodeid": 22, "leaf": 0.000463761942}]}, {"nodeid": 12, "depth": 3, "split": "f37", "split_condition": 0.598999977, "yes": 23, "no": 24, "missing": 24, "children": [{"nodeid": 23, "leaf": 0.000783709285}, {"nodeid": 24, "leaf": 0.00357520464}]}]}, {"nodeid": 6, "leaf": 0.00345485774}]}]}, {"nodeid": 0, "depth": 0, "split": "f92", "split_condition": 0.0384913869, "yes": 1, "no": 2, "missing": 2, "children": [{"nodeid": 1, "depth": 1, "split": "f92", "split_condition": -0.25306654, "yes": 3, "no": 4, "missing": 4, "children": [{"nodeid": 3, "depth": 2, "split": "f25", "split_condition": 0.00571428565, "yes": 7, "no": 8, "missing": 8, "children": [{"nodeid": 7, "depth": 3, "split": "f90", "split_condition": -0.112563826, "yes": 15, "no": 16, "missing": 16, "children": [{"nodeid": 15, "leaf": -0.00120821374}, {"nodeid": 16, "leaf": -7.69193412e-06}]}, {"nodeid": 8, "depth": 3, "split": "f1", "split_condition": -0.0860000029, "yes": 17, "no": 18, "missing": 18, "children": [{"nodeid": 17, "leaf": -0.00105448964}, {"nodeid": 18, "leaf": -0.00292551983}]}]}, {"nodeid": 4, "depth": 2, "split": "f117", "split_condition": 0.0131999999, "yes": 9, "no": 10, "missing": 10, "children": [{"nodeid": 9, "depth": 3, "split": "f79", "split_condition": 0.374000013, "yes": 19, "no": 20, "missing": 20, "children": [{"nodeid": 19, "leaf": -0.00164137571}, {"nodeid": 20, "leaf": 0.000134449641}]}, {"nodeid": 10, "depth": 3, "split": "f48", "split_condition": 0.852800012, "yes": 21, "no": 22, "missing": 22, "children": [{"nodeid": 21, "leaf": -0.000902457337}, {"nodeid": 22, "leaf": -0.00195259647}]}]}]}, {"nodeid": 2, "depth": 1, "split": "f38", "split_condition": 0.740508974, "yes": 5, "no": 6, "missing": 6, "children": [{"nodeid": 5, "depth": 2, "split": "f92", "split_condition": 0.784977913, "yes": 11, "no": 12, "missing": 12, "children": [{"nodeid": 11, "depth": 3, "split": "f78", "split_condition": 0.143000007, "yes": 23, "no": 24, "missing": 24, "children": [{"nodeid": 23, "leaf": 0.00158473093}, {"nodeid": 24, "leaf": 0.000549371354}]}, {"nodeid": 12, "depth": 3, "split": "f7", "split_condition": 0.298352927, "yes": 25, "no": 26, "missing": 26, "children": [{"nodeid": 25, "leaf": 0.000584293331}, {"nodeid": 26, "leaf": 0.00342775788}]}]}, {"nodeid": 6, "depth": 2, "split": "f81", "split_condition": 0.326000005, "yes": 13, "no": 14, "missing": 14, "children": [{"nodeid": 13, "leaf": 0}, {"nodeid": 14, "depth": 3, "split": "f77", "split_condition": 0.133000001, "yes": 27, "no": 28, "missing": 28, "children": [{"nodeid": 27, "leaf": 0.00392922992}, {"nodeid": 28, "leaf": 0.00179224694}]}]}]}]}, {"nodeid": 0, "depth": 0, "split": "f92", "split_condition": 0.0225303285, "yes": 1, "no": 2, "missing": 2, "children": [{"nodeid": 1, "depth": 1, "split": "f129", "split_condition": -0.0774008185, "yes": 3, "no": 4, "missing": 4, "children": [{"nodeid": 3, "leaf": -0.00461182557}, {"nodeid": 4, "depth": 2, "split": "f76", "split_condition": 0.257999986, "yes": 7, "no": 8, "missing": 8, "children": [{"nodeid": 7, "depth": 3, "split": "f0", "split_condition": 0.317331731, "yes": 13, "no": 14, "missing": 14, "children": [{"nodeid": 13, "leaf": -0.000478290429}, {"nodeid": 14, "leaf": -0.00218933332}]}, {"nodeid": 8, "depth": 3, "split": "f117", "split_condition": 0.0851999968, "yes": 15, "no": 16, "missing": 16, "children": [{"nodeid": 15, "leaf": 9.06723799e-05}, {"nodeid": 16, "leaf": -0.00117880432}]}]}]}, {"nodeid": 2, "depth": 1, "split": "f92", "split_condition": 0.314069778, "yes": 5, "no": 6, "missing": 6, "children": [{"nodeid": 5, "depth": 2, "split": "f76", "split_condition": 0.335000008, "yes": 9, "no": 10, "missing": 10, "children": [{"nodeid": 9, "depth": 3, "split": "f40", "split_condition": 0.416999996, "yes": 17, "no": 18, "missing": 18, "children": [{"nodeid": 17, "leaf": -0.000246914336}, {"nodeid": 18, "leaf": 0.000500436698}]}, {"nodeid": 10, "depth": 3, "split": "f79", "split_condition": 0.519999981, "yes": 19, "no": 20, "missing": 20, "children": [{"nodeid": 19, "leaf": 0.00196052343}, {"nodeid": 20, "leaf": 0.000653770287}]}]}, {"nodeid": 6, "depth": 2, "split": "f49", "split_condition": 0.263083339, "yes": 11, "no": 12, "missing": 12, "children": [{"nodeid": 11, "depth": 3, "split": "f37", "split_condition": 0.300999999, "yes": 21, "no": 22, "missing": 22, "children": [{"nodeid": 21, "leaf": -0.000178531365}, {"nodeid": 22, "leaf": 0.00113146286}]}, {"nodeid": 12, "depth": 3, "split": "f4", "split_condition": 0.400000006, "yes": 23, "no": 24, "missing": 24, "children": [{"nodeid": 23, "leaf": 0.00340569601}, {"nodeid": 24, "leaf": 0.0013470141}]}]}]}]}, {"nodeid": 0, "depth": 0, "split": "f92", "split_condition": 0.0274601895, "yes": 1, "no": 2, "missing": 2, "children": [{"nodeid": 1, "depth": 1, "split": "f0", "split_condition": 0.31173116, "yes": 3, "no": 4, "missing": 4, "children": [{"nodeid": 3, "depth": 2, "split": "f5", "split_condition": 0.314999998, "yes": 7, "no": 8, "missing": 8, "children": [{"nodeid": 7, "depth": 3, "split": "f38", "split_condition": 0.37044701, "yes": 15, "no": 16, "missing": 16, "children": [{"nodeid": 15, "leaf": -0.00104798365}, {"nodeid": 16, "leaf": -1.04607943e-05}]}, {"nodeid": 8, "depth": 3, "split": "f7", "split_condition": 0.524333358, "yes": 17, "no": 18, "missing": 18, "children": [{"nodeid": 17, "leaf": 0.000310156}, {"nodeid": 18, "leaf": 0.00218841317}]}]}, {"nodeid": 4, "depth": 2, "split": "f5", "split_condition": 0.719749987, "yes": 9, "no": 10, "missing": 10, "children": [{"nodeid": 9, "depth": 3, "split": "f92", "split_condition": -0.171639115, "yes": 19, "no": 20, "missing": 20, "children": [{"nodeid": 19, "leaf": -0.00266791484}, {"nodeid": 20, "leaf": -0.00125874113}]}, {"nodeid": 10, "depth": 3, "split": "f4", "split_condition": 0.300000012, "yes": 21, "no": 22, "missing": 22, "children": [{"nodeid": 21, "leaf": 0.00187273941}, {"nodeid": 22, "leaf": 0.000153063564}]}]}]}, {"nodeid": 2, "depth": 1, "split": "f76", "split_condition": 0.197999999, "yes": 5, "no": 6, "missing": 6, "children": [{"nodeid": 5, "depth": 2, "split": "f75", "split_condition": 0.620999992, "yes": 11, "no": 12, "missing": 12, "children": [{"nodeid": 11, "depth": 3, "split": "f1", "split_condition": -0.0153999999, "yes": 23, "no": 24, "missing": 24, "children": [{"nodeid": 23, "leaf": 0.00014176681}, {"nodeid": 24, "leaf": -0.000466567086}]}, {"nodeid": 12, "depth": 3, "split": "f81", "split_condition": 0.838999987, "yes": 25, "no": 26, "missing": 26, "children": [{"nodeid": 25, "leaf": 0.00149587216}, {"nodeid": 26, "leaf": 0.000310874399}]}]}, {"nodeid": 6, "depth": 2, "split": "f5", "split_condition": 0.402749985, "yes": 13, "no": 14, "missing": 14, "children": [{"nodeid": 13, "depth": 3, "split": "f92", "split_condition": 0.499238104, "yes": 27, "no": 28, "missing": 28, "children": [{"nodeid": 27, "leaf": 0.000743672717}, {"nodeid": 28, "leaf": 0.00177412597}]}, {"nodeid": 14, "depth": 3, "split": "f92", "split_condition": 0.307708025, "yes": 29, "no": 30, "missing": 30, "children": [{"nodeid": 29, "leaf": 0.00180342328}, {"nodeid": 30, "leaf": 0.00327636953}]}]}]}]}, {"nodeid": 0, "depth": 0, "split": "f92", "split_condition": -0.0212545358, "yes": 1, "no": 2, "missing": 2, "children": [{"nodeid": 1, "depth": 1, "split": "f46", "split_condition": 0.0666666701, "yes": 3, "no": 4, "missing": 4, "children": [{"nodeid": 3, "depth": 2, "split": "f123", "split_condition": 0.0325499997, "yes": 7, "no": 8, "missing": 8, "children": [{"nodeid": 7, "depth": 3, "split": "f112", "split_condition": 0.505980968, "yes": 15, "no": 16, "missing": 16, "children": [{"nodeid": 15, "leaf": -0.000320617459}, {"nodeid": 16, "leaf": 0.00184373744}]}, {"nodeid": 8, "depth": 3, "split": "f49", "split_condition": 0.120555364, "yes": 17, "no": 18, "missing": 18, "children": [{"nodeid": 17, "leaf": -0.0024531337}, {"nodeid": 18, "leaf": -0.000974293507}]}]}, {"nodeid": 4, "depth": 2, "split": "f34", "split_condition": 0.231000006, "yes": 9, "no": 10, "missing": 10, "children": [{"nodeid": 9, "depth": 3, "split": "f69", "split_condition": 0.557142854, "yes": 19, "no": 20, "missing": 20, "children": [{"nodeid": 19, "leaf": -0.00318458816}, {"nodeid": 20, "leaf": -0.00122928666}]}, {"nodeid": 10, "leaf": -0.00119697524}]}]}, {"nodeid": 2, "depth": 1, "split": "f92", "split_condition": 0.227564096, "yes": 5, "no": 6, "missing": 6, "children": [{"nodeid": 5, "depth": 2, "split": "f47", "split_condition": 0.429333329, "yes": 11, "no": 12, "missing": 12, "children": [{"nodeid": 11, "depth": 3, "split": "f112", "split_condition": 0.438419044, "yes": 21, "no": 22, "missing": 22, "children": [{"nodeid": 21, "leaf": -4.09797358e-05}, {"nodeid": 22, "leaf": 0.000780272589}]}, {"nodeid": 12, "depth": 3, "split": "f3", "split_condition": 0.400000006, "yes": 23, "no": 24, "missing": 24, "children": [{"nodeid": 23, "leaf": 0.00244149007}, {"nodeid": 24, "leaf": 0.000673753791}]}]}, {"nodeid": 6, "depth": 2, "split": "f7", "split_condition": 0.595200002, "yes": 13, "no": 14, "missing": 14, "children": [{"nodeid": 13, "depth": 3, "split": "f1", "split_condition": -0.0305000003, "yes": 25, "no": 26, "missing": 26, "children": [{"nodeid": 25, "leaf": 0.00205314974}, {"nodeid": 26, "leaf": 0.000729081279}]}, {"nodeid": 14, "depth": 3, "split": "f38", "split_condition": 0.652423024, "yes": 27, "no": 28, "missing": 28, "children": [{"nodeid": 27, "leaf": 0.00116091035}, {"nodeid": 28, "leaf": 0.00352491857}]}]}]}]}, {"nodeid": 0, "depth": 0, "split": "f141", "split_condition": 0.174539119, "yes": 1, "no": 2, "missing": 2, "children": [{"nodeid": 1, "depth": 1, "split": "f90", "split_condition": -0.092929557, "yes": 3, "no": 4, "missing": 4, "children": [{"nodeid": 3, "depth": 2, "split": "f0", "split_condition": 0.257425755, "yes": 7, "no": 8, "missing": 8, "children": [{"nodeid": 7, "depth": 3, "split": "f96", "split_condition": 0.502666652, "yes": 15, "no": 16, "missing": 16, "children": [{"nodeid": 15, "leaf": -0.000563994807}, {"nodeid": 16, "leaf": 0.00168873044}]}, {"nodeid": 8, "depth": 3, "split": "f21", "split_condition": 0.461111099, "yes": 17, "no": 18, "missing": 18, "children": [{"nodeid": 17, "leaf": -0.00238085655}, {"nodeid": 18, "leaf": 1.61389271e-05}]}]}, {"nodeid": 4, "depth": 2, "split": "f129", "split_condition": -0.0774008185, "yes": 9, "no": 10, "missing": 10, "children": [{"nodeid": 9, "leaf": -0.0045418432}, {"nodeid": 10, "depth": 3, "split": "f76", "split_condition": 0.240999997, "yes": 19, "no": 20, "missing": 20, "children": [{"nodeid": 19, "leaf": -0.000929937407}, {"nodeid": 20, "leaf": 0.00031062623}]}]}]}, {"nodeid": 2, "depth": 1, "split": "f2", "split_condition": -0.0817999989, "yes": 5, "no": 6, "missing": 6, "children": [{"nodeid": 5, "depth": 2, "split": "f7", "split_condition": 0.398499995, "yes": 11, "no": 12, "missing": 12, "children": [{"nodeid": 11, "depth": 3, "split": "f25", "split_condition": 0.00571428565, "yes": 21, "no": 22, "missing": 22, "children": [{"nodeid": 21, "leaf": 6.82984682e-05}, {"nodeid": 22, "leaf": 0.00133751903}]}, {"nodeid": 12, "depth": 3, "split": "f34", "split_condition": 0.140650004, "yes": 23, "no": 24, "missing": 24, "children": [{"nodeid": 23, "leaf": 0.00366847008}, {"nodeid": 24, "leaf": 0.00205679145}]}]}, {"nodeid": 6, "depth": 2, "split": "f34", "split_condition": 0.102499999, "yes": 13, "no": 14, "missing": 14, "children": [{"nodeid": 13, "depth": 3, "split": "f90", "split_condition": 0.379601389, "yes": 25, "no": 26, "missing": 26, "children": [{"nodeid": 25, "leaf": 0.000457274611}, {"nodeid": 26, "leaf": 0.0018194631}]}, {"nodeid": 14, "depth": 3, "split": "f13", "split_condition": 0.0399000011, "yes": 27, "no": 28, "missing": 28, "children": [{"nodeid": 27, "leaf": 0.000438630377}, {"nodeid": 28, "leaf": 0.00213612569}]}]}]}]}, {"nodeid": 0, "depth": 0, "split": "f92", "split_condition": -0.0212545358, "yes": 1, "no": 2, "missing": 2, "children": [{"nodeid": 1, "depth": 1, "split": "f0", "split_condition": 0.545654595, "yes": 3, "no": 4, "missing": 4, "children": [{"nodeid": 3, "depth": 2, "split": "f92", "split_condition": -0.25306654, "yes": 7, "no": 8, "missing": 8, "children": [{"nodeid": 7, "depth": 3, "split": "f0", "split_condition": 0.28642863, "yes": 15, "no": 16, "missing": 16, "children": [{"nodeid": 15, "leaf": -0.000874755904}, {"nodeid": 16, "leaf": -0.00252610398}]}, {"nodeid": 8, "depth": 3, "split": "f76", "split_condition": 0.43900001, "yes": 17, "no": 18, "missing": 18, "children": [{"nodeid": 17, "leaf": -0.000906452304}, {"nodeid": 18, "leaf": 0.000366400549}]}]}, {"nodeid": 4, "depth": 2, "split": "f38", "split_condition": 0.668366194, "yes": 9, "no": 10, "missing": 10, "children": [{"nodeid": 9, "leaf": -0.00320407818}, {"nodeid": 10, "depth": 3, "split": "f92", "split_condition": -0.0753282681, "yes": 19, "no": 20, "missing": 20, "children": [{"nodeid": 19, "leaf": -0.00172842422}, {"nodeid": 20, "leaf": -0.000836280698}]}]}]}, {"nodeid": 2, "depth": 1, "split": "f76", "split_condition": 0.243000001, "yes": 5, "no": 6, "missing": 6, "children": [{"nodeid": 5, "depth": 2, "split": "f92", "split_condition": 0.340630531, "yes": 11, "no": 12, "missing": 12, "children": [{"nodeid": 11, "depth": 3, "split": "f1", "split_condition": -0.00600000005, "yes": 21, "no": 22, "missing": 22, "children": [{"nodeid": 21, "leaf": 0.000277386454}, {"nodeid": 22, "leaf": -0.000641780498}]}, {"nodeid": 12, "depth": 3, "split": "f0", "split_condition": 0.0761076137, "yes": 23, "no": 24, "missing": 24, "children": [{"nodeid": 23, "leaf": -0.000183969154}, {"nodeid": 24, "leaf": 0.00172126619}]}]}, {"nodeid": 6, "depth": 2, "split": "f52", "split_condition": 0.429333329, "yes": 13, "no": 14, "missing": 14, "children": [{"nodeid": 13, "depth": 3, "split": "f1", "split_condition": -0.0108000003, "yes": 25, "no": 26, "missing": 26, "children": [{"nodeid": 25, "leaf": 0.00129939197}, {"nodeid": 26, "leaf": 0.00037794633}]}, {"nodeid": 14, "depth": 3, "split": "f91", "split_condition": 0.0857361853, "yes": 27, "no": 28, "missing": 28, "children": [{"nodeid": 27, "leaf": 0.00104465487}, {"nodeid": 28, "leaf": 0.00256311055}]}]}]}]}, {"nodeid": 0, "depth": 0, "split": "f92", "split_condition": 0.0459433049, "yes": 1, "no": 2, "missing": 2, "children": [{"nodeid": 1, "depth": 1, "split": "f92", "split_condition": -0.193643302, "yes": 3, "no": 4, "missing": 4, "children": [{"nodeid": 3, "depth": 2, "split": "f0", "split_condition": 0.23662366, "yes": 7, "no": 8, "missing": 8, "children": [{"nodeid": 7, "depth": 3, "split": "f50", "split_condition": 0.209999993, "yes": 15, "no": 16, "missing": 16, "children": [{"nodeid": 15, "leaf": -0.000815668085}, {"nodeid": 16, "leaf": 0.000622072315}]}, {"nodeid": 8, "depth": 3, "split": "f80", "split_condition": 0.352999985, "yes": 17, "no": 18, "missing": 18, "children": [{"nodeid": 17, "leaf": -0.00185634883}, {"nodeid": 18, "leaf": -0.0034629833}]}]}, {"nodeid": 4, "depth": 2, "split": "f76", "split_condition": 0.231000006, "yes": 9, "no": 10, "missing": 10, "children": [{"nodeid": 9, "depth": 3, "split": "f50", "split_condition": 0.214705884, "yes": 19, "no": 20, "missing": 20, "children": [{"nodeid": 19, "leaf": -5.95865931e-05}, {"nodeid": 20, "leaf": -0.00160273002}]}, {"nodeid": 10, "depth": 3, "split": "f41", "split_condition": 0.50666666, "yes": 21, "no": 22, "missing": 22, "children": [{"nodeid": 21, "leaf": -0.000231754675}, {"nodeid": 22, "leaf": 0.00127061608}]}]}]}, {"nodeid": 2, "depth": 1, "split": "f76", "split_condition": 0.197999999, "yes": 5, "no": 6, "missing": 6, "children": [{"nodeid": 5, "depth": 2, "split": "f92", "split_condition": 0.20100762, "yes": 11, "no": 12, "missing": 12, "children": [{"nodeid": 11, "depth": 3, "split": "f63", "split_condition": 0.44933334, "yes": 23, "no": 24, "missing": 24, "children": [{"nodeid": 23, "leaf": -0.000532175007}, {"nodeid": 24, "leaf": 0.000345720153}]}, {"nodeid": 12, "depth": 3, "split": "f108", "split_condition": 0.309749991, "yes": 25, "no": 26, "missing": 26, "children": [{"nodeid": 25, "leaf": 0.00139841042}, {"nodeid": 26, "leaf": 0.00032794397}]}]}, {"nodeid": 6, "depth": 2, "split": "f39", "split_condition": 0.049920328, "yes": 13, "no": 14, "missing": 14, "children": [{"nodeid": 13, "depth": 3, "split": "f92", "split_condition": 0.567474723, "yes": 27, "no": 28, "missing": 28, "children": [{"nodeid": 27, "leaf": 0.00117114675}, {"nodeid": 28, "leaf": 0.00263303146}]}, {"nodeid": 14, "leaf": 0.00296784961}]}]}]}, {"nodeid": 0, "depth": 0, "split": "f92", "split_condition": 0.0384913869, "yes": 1, "no": 2, "missing": 2, "children": [{"nodeid": 1, "depth": 1, "split": "f92", "split_condition": -0.186779976, "yes": 3, "no": 4, "missing": 4, "children": [{"nodeid": 3, "depth": 2, "split": "f0", "split_condition": 0.298529863, "yes": 7, "no": 8, "missing": 8, "children": [{"nodeid": 7, "depth": 3, "split": "f76", "split_condition": 0.646000028, "yes": 13, "no": 14, "missing": 14, "children": [{"nodeid": 13, "leaf": -0.00057905406}, {"nodeid": 14, "leaf": 0.000628344249}]}, {"nodeid": 8, "depth": 3, "split": "f76", "split_condition": 0.298000008, "yes": 15, "no": 16, "missing": 16, "children": [{"nodeid": 15, "leaf": -0.00365250348}, {"nodeid": 16, "leaf": -0.00163255632}]}]}, {"nodeid": 4, "depth": 2, "split": "f106", "split_condition": 0.201904759, "yes": 9, "no": 10, "missing": 10, "children": [{"nodeid": 9, "depth": 3, "split": "f74", "split_condition": 0.99000001, "yes": 17, "no": 18, "missing": 18, "children": [{"nodeid": 17, "leaf": -0.000974387396}, {"nodeid": 18, "leaf": 0.000907328504}]}, {"nodeid": 10, "depth": 3, "split": "f2", "split_condition": -0.00860000029, "yes": 19, "no": 20, "missing": 20, "children": [{"nodeid": 19, "leaf": 0.000875803933}, {"nodeid": 20, "leaf": -0.000185267636}]}]}]}, {"nodeid": 2, "depth": 1, "split": "f39", "split_condition": 0.258644909, "yes": 5, "no": 6, "missing": 6, "children": [{"nodeid": 5, "depth": 2, "split": "f22", "split_condition": 0.266666681, "yes": 11, "no": 12, "missing": 12, "children": [{"nodeid": 11, "depth": 3, "split": "f139", "split_condition": 0.102189161, "yes": 21, "no": 22, "missing": 22, "children": [{"nodeid": 21, "leaf": 0.000314518489}, {"nodeid": 22, "leaf": 0.00125322491}]}, {"nodeid": 12, "depth": 3, "split": "f81", "split_condition": 0.409999996, "yes": 23, "no": 24, "missing": 24, "children": [{"nodeid": 23, "leaf": 0.000350974995}, {"nodeid": 24, "leaf": 0.00201438949}]}]}, {"nodeid": 6, "leaf": 0.00314453035}]}]}, {"nodeid": 0, "depth": 0, "split": "f10", "split_condition": -0.00461764727, "yes": 1, "no": 2, "missing": 2, "children": [{"nodeid": 1, "depth": 1, "split": "f90", "split_condition": -0.0897381455, "yes": 3, "no": 4, "missing": 4, "children": [{"nodeid": 3, "depth": 2, "split": "f9", "split_condition": 0.663999975, "yes": 7, "no": 8, "missing": 8, "children": [{"nodeid": 7, "depth": 3, "split": "f123", "split_condition": 0.0546467155, "yes": 15, "no": 16, "missing": 16, "children": [{"nodeid": 15, "leaf": -0.000665625616}, {"nodeid": 16, "leaf": -0.00181727123}]}, {"nodeid": 8, "depth": 3, "split": "f7", "split_condition": 0.662, "yes": 17, "no": 18, "missing": 18, "children": [{"nodeid": 17, "leaf": -0.00299985707}, {"nodeid": 18, "leaf": -0.00104239944}]}]}, {"nodeid": 4, "depth": 2, "split": "f84", "split_condition": 0.576923072, "yes": 9, "no": 10, "missing": 10, "children": [{"nodeid": 9, "depth": 3, "split": "f90", "split_condition": 0.0566742793, "yes": 19, "no": 20, "missing": 20, "children": [{"nodeid": 19, "leaf": -0.000300287065}, {"nodeid": 20, "leaf": 0.000619887549}]}, {"nodeid": 10, "depth": 3, "split": "f11", "split_condition": 0.27306667, "yes": 21, "no": 22, "missing": 22, "children": [{"nodeid": 21, "leaf": -0.00156016601}, {"nodeid": 22, "leaf": -0.000449408835}]}]}]}, {"nodeid": 2, "depth": 1, "split": "f141", "split_condition": 0.351960033, "yes": 5, "no": 6, "missing": 6, "children": [{"nodeid": 5, "depth": 2, "split": "f5", "split_condition": 0.51275003, "yes": 11, "no": 12, "missing": 12, "children": [{"nodeid": 11, "depth": 3, "split": "f77", "split_condition": 0.375, "yes": 23, "no": 24, "missing": 24, "children": [{"nodeid": 23, "leaf": -5.98997103e-05}, {"nodeid": 24, "leaf": -0.00281578675}]}, {"nodeid": 12, "depth": 3, "split": "f67", "split_condition": 0.606000006, "yes": 25, "no": 26, "missing": 26, "children": [{"nodeid": 25, "leaf": 0.00148798991}, {"nodeid": 26, "leaf": -0.000161164033}]}]}, {"nodeid": 6, "depth": 2, "split": "f61", "split_condition": 0.239999995, "yes": 13, "no": 14, "missing": 14, "children": [{"nodeid": 13, "depth": 3, "split": "f108", "split_condition": 0.393000007, "yes": 27, "no": 28, "missing": 28, "children": [{"nodeid": 27, "leaf": 0.00124396791}, {"nodeid": 28, "leaf": -0.00011966411}]}, {"nodeid": 14, "depth": 3, "split": "f78", "split_condition": 0.181999996, "yes": 29, "no": 30, "missing": 30, "children": [{"nodeid": 29, "leaf": 0.00341448933}, {"nodeid": 30, "leaf": 0.00166708161}]}]}]}]}, {"nodeid": 0, "depth": 0, "split": "f92", "split_condition": 0.0543188304, "yes": 1, "no": 2, "missing": 2, "children": [{"nodeid": 1, "depth": 1, "split": "f92", "split_condition": -0.122329727, "yes": 3, "no": 4, "missing": 4, "children": [{"nodeid": 3, "depth": 2, "split": "f0", "split_condition": 0.298529863, "yes": 7, "no": 8, "missing": 8, "children": [{"nodeid": 7, "depth": 3, "split": "f0", "split_condition": 0.103710368, "yes": 15, "no": 16, "missing": 16, "children": [{"nodeid": 15, "leaf": 0.000328617985}, {"nodeid": 16, "leaf": -0.000836377323}]}, {"nodeid": 8, "depth": 3, "split": "f0", "split_condition": 0.781278133, "yes": 17, "no": 18, "missing": 18, "children": [{"nodeid": 17, "leaf": -0.00191553927}, {"nodeid": 18, "leaf": -0.00407674303}]}]}, {"nodeid": 4, "depth": 2, "split": "f76", "split_condition": 0.296000004, "yes": 9, "no": 10, "missing": 10, "children": [{"nodeid": 9, "depth": 3, "split": "f0", "split_condition": 0.174117416, "yes": 19, "no": 20, "missing": 20, "children": [{"nodeid": 19, "leaf": 0.000254322047}, {"nodeid": 20, "leaf": -0.00116394251}]}, {"nodeid": 10, "depth": 3, "split": "f10", "split_condition": -0.147341177, "yes": 21, "no": 22, "missing": 22, "children": [{"nodeid": 21, "leaf": -0.00137124909}, {"nodeid": 22, "leaf": 0.000354814518}]}]}]}, {"nodeid": 2, "depth": 1, "split": "f76", "split_condition": 0.195999995, "yes": 5, "no": 6, "missing": 6, "children": [{"nodeid": 5, "depth": 2, "split": "f139", "split_condition": 0.0692399964, "yes": 11, "no": 12, "missing": 12, "children": [{"nodeid": 11, "depth": 3, "split": "f0", "split_condition": 0.23662366, "yes": 23, "no": 24, "missing": 24, "children": [{"nodeid": 23, "leaf": 0.000509621517}, {"nodeid": 24, "leaf": -0.000588152499}]}, {"nodeid": 12, "depth": 3, "split": "f0", "split_condition": 0.14781478, "yes": 25, "no": 26, "missing": 26, "children": [{"nodeid": 25, "leaf": 0.000319024723}, {"nodeid": 26, "leaf": 0.00155421963}]}]}, {"nodeid": 6, "depth": 2, "split": "f7", "split_condition": 0.465411752, "yes": 13, "no": 14, "missing": 14, "children": [{"nodeid": 13, "depth": 3, "split": "f97", "split_condition": 0.530916691, "yes": 27, "no": 28, "missing": 28, "children": [{"nodeid": 27, "leaf": 0.0014272721}, {"nodeid": 28, "leaf": 0.000386825122}]}, {"nodeid": 14, "depth": 3, "split": "f92", "split_condition": 0.236877084, "yes": 29, "no": 30, "missing": 30, "children": [{"nodeid": 29, "leaf": 0.0015100115}, {"nodeid": 30, "leaf": 0.0030734383}]}]}]}]}, {"nodeid": 0, "depth": 0, "split": "f92", "split_condition": 0.0384913869, "yes": 1, "no": 2, "missing": 2, "children": [{"nodeid": 1, "depth": 1, "split": "f0", "split_condition": 0.572457254, "yes": 3, "no": 4, "missing": 4, "children": [{"nodeid": 3, "depth": 2, "split": "f92", "split_condition": -0.25306654, "yes": 7, "no": 8, "missing": 8, "children": [{"nodeid": 7, "depth": 3, "split": "f0", "split_condition": 0.23662366, "yes": 15, "no": 16, "missing": 16, "children": [{"nodeid": 15, "leaf": -0.000563792652}, {"nodeid": 16, "leaf": -0.00192077586}]}, {"nodeid": 8, "depth": 3, "split": "f14", "split_condition": 1, "yes": 17, "no": 18, "missing": 18, "children": [{"nodeid": 17, "leaf": -0.000501431641}, {"nodeid": 18, "leaf": 0.00107600715}]}]}, {"nodeid": 4, "depth": 2, "split": "f92", "split_condition": -0.0212545358, "yes": 9, "no": 10, "missing": 10, "children": [{"nodeid": 9, "depth": 3, "split": "f97", "split_condition": 0.627583325, "yes": 19, "no": 20, "missing": 20, "children": [{"nodeid": 19, "leaf": -0.00207562931}, {"nodeid": 20, "leaf": -0.00438940385}]}, {"nodeid": 10, "depth": 3, "split": "f0", "split_condition": 0.74627465, "yes": 21, "no": 22, "missing": 22, "children": [{"nodeid": 21, "leaf": -0.000582059554}, {"nodeid": 22, "leaf": 0.00050310645}]}]}]}, {"nodeid": 2, "depth": 1, "split": "f92", "split_condition": 0.314069778, "yes": 5, "no": 6, "missing": 6, "children": [{"nodeid": 5, "depth": 2, "split": "f97", "split_condition": 0.302958339, "yes": 11, "no": 12, "missing": 12, "children": [{"nodeid": 11, "leaf": 0.0025208157}, {"nodeid": 12, "depth": 3, "split": "f68", "split_condition": 0.850000024, "yes": 23, "no": 24, "missing": 24, "children": [{"nodeid": 23, "leaf": 0.000457520655}, {"nodeid": 24, "leaf": 0.00200826325}]}]}, {"nodeid": 6, "depth": 2, "split": "f7", "split_condition": 0.441142857, "yes": 13, "no": 14, "missing": 14, "children": [{"nodeid": 13, "depth": 3, "split": "f37", "split_condition": 0.300999999, "yes": 25, "no": 26, "missing": 26, "children": [{"nodeid": 25, "leaf": -0.000215811087}, {"nodeid": 26, "leaf": 0.00122884824}]}, {"nodeid": 14, "depth": 3, "split": "f13", "split_condition": 0.0848999992, "yes": 27, "no": 28, "missing": 28, "children": [{"nodeid": 27, "leaf": 0.000693842012}, {"nodeid": 28, "leaf": 0.00302145467}]}]}]}]}, {"nodeid": 0, "depth": 0, "split": "f92", "split_condition": 0.0384913869, "yes": 1, "no": 2, "missing": 2, "children": [{"nodeid": 1, "depth": 1, "split": "f92", "split_condition": -0.186779976, "yes": 3, "no": 4, "missing": 4, "children": [{"nodeid": 3, "depth": 2, "split": "f0", "split_condition": 0.438043803, "yes": 7, "no": 8, "missing": 8, "children": [{"nodeid": 7, "depth": 3, "split": "f0", "split_condition": 0.23662366, "yes": 15, "no": 16, "missing": 16, "children": [{"nodeid": 15, "leaf": -0.000175866488}, {"nodeid": 16, "leaf": -0.00145621621}]}, {"nodeid": 8, "depth": 3, "split": "f78", "split_condition": 0.26699999, "yes": 17, "no": 18, "missing": 18, "children": [{"nodeid": 17, "leaf": -0.00204503699}, {"nodeid": 18, "leaf": -0.00414293492}]}]}, {"nodeid": 4, "depth": 2, "split": "f76", "split_condition": 0.282999992, "yes": 9, "no": 10, "missing": 10, "children": [{"nodeid": 9, "depth": 3, "split": "f20", "split_condition": 0.305555552, "yes": 19, "no": 20, "missing": 20, "children": [{"nodeid": 19, "leaf": -0.000288677897}, {"nodeid": 20, "leaf": -0.00150061294}]}, {"nodeid": 10, "depth": 3, "split": "f6", "split_condition": 1, "yes": 21, "no": 22, "missing": 22, "children": [{"nodeid": 21, "leaf": -0.000232440245}, {"nodeid": 22, "leaf": 0.000810970902}]}]}]}, {"nodeid": 2, "depth": 1, "split": "f7", "split_condition": 0.441142857, "yes": 5, "no": 6, "missing": 6, "children": [{"nodeid": 5, "depth": 2, "split": "f95", "split_condition": 0.526000023, "yes": 11, "no": 12, "missing": 12, "children": [{"nodeid": 11, "depth": 3, "split": "f2", "split_condition": 0.000199999995, "yes": 23, "no": 24, "missing": 24, "children": [{"nodeid": 23, "leaf": 0.0016555289}, {"nodeid": 24, "leaf": 0.000429679523}]}, {"nodeid": 12, "depth": 3, "split": "f92", "split_condition": 0.535737813, "yes": 25, "no": 26, "missing": 26, "children": [{"nodeid": 25, "leaf": 0.000283731701}, {"nodeid": 26, "leaf": 0.0011959949}]}]}, {"nodeid": 6, "depth": 2, "split": "f118", "split_condition": 0.113847382, "yes": 13, "no": 14, "missing": 14, "children": [{"nodeid": 13, "depth": 3, "split": "f76", "split_condition": 0.112000003, "yes": 27, "no": 28, "missing": 28, "children": [{"nodeid": 27, "leaf": -0.000559153734}, {"nodeid": 28, "leaf": 0.00201586029}]}, {"nodeid": 14, "depth": 3, "split": "f2", "split_condition": -0.0372000001, "yes": 29, "no": 30, "missing": 30, "children": [{"nodeid": 29, "leaf": 0.000643069216}, {"nodeid": 30, "leaf": -0.000447506027}]}]}]}]}, {"nodeid": 0, "depth": 0, "split": "f92", "split_condition": 0.00662307907, "yes": 1, "no": 2, "missing": 2, "children": [{"nodeid": 1, "depth": 1, "split": "f0", "split_condition": 0.572457254, "yes": 3, "no": 4, "missing": 4, "children": [{"nodeid": 3, "depth": 2, "split": "f123", "split_condition": 0.0134665221, "yes": 7, "no": 8, "missing": 8, "children": [{"nodeid": 7, "depth": 3, "split": "f43", "split_condition": 1.20000005, "yes": 15, "no": 16, "missing": 16, "children": [{"nodeid": 15, "leaf": -1.35864445e-06}, {"nodeid": 16, "leaf": 0.00195560022}]}, {"nodeid": 8, "depth": 3, "split": "f92", "split_condition": -0.110809624, "yes": 17, "no": 18, "missing": 18, "children": [{"nodeid": 17, "leaf": -0.00135168852}, {"nodeid": 18, "leaf": -0.000467110454}]}]}, {"nodeid": 4, "depth": 2, "split": "f129", "split_condition": -0.215390533, "yes": 9, "no": 10, "missing": 10, "children": [{"nodeid": 9, "depth": 3, "split": "f0", "split_condition": 0.992499232, "yes": 19, "no": 20, "missing": 20, "children": [{"nodeid": 19, "leaf": -0.00422656769}, {"nodeid": 20, "leaf": -0.00141686609}]}, {"nodeid": 10, "depth": 3, "split": "f92", "split_condition": -0.0212545358, "yes": 21, "no": 22, "missing": 22, "children": [{"nodeid": 21, "leaf": -0.00187011017}, {"nodeid": 22, "leaf": -0.000137751602}]}]}]}, {"nodeid": 2, "depth": 1, "split": "f10", "split_condition": -0.00375824166, "yes": 5, "no": 6, "missing": 6, "children": [{"nodeid": 5, "depth": 2, "split": "f97", "split_condition": 0.674791694, "yes": 11, "no": 12, "missing": 12, "children": [{"nodeid": 11, "depth": 3, "split": "f95", "split_condition": 0.846000016, "yes": 23, "no": 24, "missing": 24, "children": [{"nodeid": 23, "leaf": 0.000201983436}, {"nodeid": 24, "leaf": -0.000409618486}]}, {"nodeid": 12, "leaf": 0.00140347064}]}, {"nodeid": 6, "depth": 2, "split": "f97", "split_condition": 0.497500002, "yes": 13, "no": 14, "missing": 14, "children": [{"nodeid": 13, "depth": 3, "split": "f92", "split_condition": 0.0851323828, "yes": 25, "no": 26, "missing": 26, "children": [{"nodeid": 25, "leaf": 0.000879087485}, {"nodeid": 26, "leaf": 0.00221682782}]}, {"nodeid": 14, "depth": 3, "split": "f24", "split_condition": 0.382352948, "yes": 27, "no": 28, "missing": 28, "children": [{"nodeid": 27, "leaf": 0.0002069599}, {"nodeid": 28, "leaf": 0.00103846448}]}]}]}]}, {"nodeid": 0, "depth": 0, "split": "f10", "split_condition": -0.00461764727, "yes": 1, "no": 2, "missing": 2, "children": [{"nodeid": 1, "depth": 1, "split": "f58", "split_condition": 0.0968127847, "yes": 3, "no": 4, "missing": 4, "children": [{"nodeid": 3, "depth": 2, "split": "f90", "split_condition": -0.0811548084, "yes": 7, "no": 8, "missing": 8, "children": [{"nodeid": 7, "depth": 3, "split": "f0", "split_condition": 0.213421345, "yes": 15, "no": 16, "missing": 16, "children": [{"nodeid": 15, "leaf": -0.000355612894}, {"nodeid": 16, "leaf": -0.0017945586}]}, {"nodeid": 8, "depth": 3, "split": "f0", "split_condition": 0.376237631, "yes": 17, "no": 18, "missing": 18, "children": [{"nodeid": 17, "leaf": 0.00012611477}, {"nodeid": 18, "leaf": -0.000812263286}]}]}, {"nodeid": 4, "depth": 2, "split": "f10", "split_condition": -0.112190478, "yes": 9, "no": 10, "missing": 10, "children": [{"nodeid": 9, "leaf": -0.00372789684}, {"nodeid": 10, "leaf": -0.000644912885}]}]}, {"nodeid": 2, "depth": 1, "split": "f6", "split_condition": 0.823529422, "yes": 5, "no": 6, "missing": 6, "children": [{"nodeid": 5, "depth": 2, "split": "f90", "split_condition": -0.0200640708, "yes": 11, "no": 12, "missing": 12, "children": [{"nodeid": 11, "depth": 3, "split": "f0", "split_condition": 0.197719768, "yes": 19, "no": 20, "missing": 20, "children": [{"nodeid": 19, "leaf": 1.04601759e-05}, {"nodeid": 20, "leaf": -0.00159319432}]}, {"nodeid": 12, "depth": 3, "split": "f90", "split_condition": 0.330441296, "yes": 21, "no": 22, "missing": 22, "children": [{"nodeid": 21, "leaf": 0.000156663402}, {"nodeid": 22, "leaf": 0.00149867439}]}]}, {"nodeid": 6, "depth": 2, "split": "f7", "split_condition": 0.468857139, "yes": 13, "no": 14, "missing": 14, "children": [{"nodeid": 13, "depth": 3, "split": "f141", "split_condition": 0.350100935, "yes": 23, "no": 24, "missing": 24, "children": [{"nodeid": 23, "leaf": -0.000289028365}, {"nodeid": 24, "leaf": 0.00122679654}]}, {"nodeid": 14, "depth": 3, "split": "f76", "split_condition": 0.296000004, "yes": 25, "no": 26, "missing": 26, "children": [{"nodeid": 25, "leaf": 0.000604886212}, {"nodeid": 26, "leaf": 0.00205190177}]}]}]}]}, {"nodeid": 0, "depth": 0, "split": "f90", "split_condition": -0.0200640708, "yes": 1, "no": 2, "missing": 2, "children": [{"nodeid": 1, "depth": 1, "split": "f46", "split_condition": 0.0666666701, "yes": 3, "no": 4, "missing": 4, "children": [{"nodeid": 3, "depth": 2, "split": "f123", "split_condition": 0.0604499988, "yes": 7, "no": 8, "missing": 8, "children": [{"nodeid": 7, "depth": 3, "split": "f77", "split_condition": 0.175999999, "yes": 15, "no": 16, "missing": 16, "children": [{"nodeid": 15, "leaf": -0.000637599616}, {"nodeid": 16, "leaf": 0.000798191002}]}, {"nodeid": 8, "depth": 3, "split": "f49", "split_condition": 0.078281261, "yes": 17, "no": 18, "missing": 18, "children": [{"nodeid": 17, "leaf": -0.00212129764}, {"nodeid": 18, "leaf": -0.000694470422}]}]}, {"nodeid": 4, "depth": 2, "split": "f5", "split_condition": 0.374749988, "yes": 9, "no": 10, "missing": 10, "children": [{"nodeid": 9, "leaf": -0.00377343339}, {"nodeid": 10, "depth": 3, "split": "f8", "split_condition": 0.78549999, "yes": 19, "no": 20, "missing": 20, "children": [{"nodeid": 19, "leaf": -0.00200510211}, {"nodeid": 20, "leaf": -0.000681747333}]}]}]}, {"nodeid": 2, "depth": 1, "split": "f11", "split_condition": 0.400400013, "yes": 5, "no": 6, "missing": 6, "children": [{"nodeid": 5, "depth": 2, "split": "f67", "split_condition": 0.174999997, "yes": 11, "no": 12, "missing": 12, "children": [{"nodeid": 11, "depth": 3, "split": "f28", "split_condition": 0.393939406, "yes": 21, "no": 22, "missing": 22, "children": [{"nodeid": 21, "leaf": 0.00080285006}, {"nodeid": 22, "leaf": 0}]}, {"nodeid": 12, "depth": 3, "split": "f91", "split_condition": 0.0418175235, "yes": 23, "no": 24, "missing": 24, "children": [{"nodeid": 23, "leaf": -0.00159540249}, {"nodeid": 24, "leaf": -0.00025376663}]}]}, {"nodeid": 6, "depth": 2, "split": "f39", "split_condition": 0.134374619, "yes": 13, "no": 14, "missing": 14, "children": [{"nodeid": 13, "depth": 3, "split": "f10", "split_condition": 0.225948051, "yes": 25, "no": 26, "missing": 26, "children": [{"nodeid": 25, "leaf": 0.000744502526}, {"nodeid": 26, "leaf": 0.00249941763}]}, {"nodeid": 14, "depth": 3, "split": "f11", "split_condition": 0.415266663, "yes": 27, "no": 28, "missing": 28, "children": [{"nodeid": 27, "leaf": 0.000301370572}, {"nodeid": 28, "leaf": 0.00251625013}]}]}]}]}, {"nodeid": 0, "depth": 0, "split": "f92", "split_condition": -0.0433195904, "yes": 1, "no": 2, "missing": 2, "children": [{"nodeid": 1, "depth": 1, "split": "f129", "split_condition": -0.215390533, "yes": 3, "no": 4, "missing": 4, "children": [{"nodeid": 3, "leaf": -0.00405516196}, {"nodeid": 4, "depth": 2, "split": "f37", "split_condition": 0.809000015, "yes": 7, "no": 8, "missing": 8, "children": [{"nodeid": 7, "depth": 3, "split": "f106", "split_condition": 0.562285721, "yes": 13, "no": 14, "missing": 14, "children": [{"nodeid": 13, "leaf": -0.00060802768}, {"nodeid": 14, "leaf": 0.00156442344}]}, {"nodeid": 8, "depth": 3, "split": "f6", "split_condition": 0.764705896, "yes": 15, "no": 16, "missing": 16, "children": [{"nodeid": 15, "leaf": -0.00216267328}, {"nodeid": 16, "leaf": -0.000878769031}]}]}]}, {"nodeid": 2, "depth": 1, "split": "f76", "split_condition": 0.243000001, "yes": 5, "no": 6, "missing": 6, "children": [{"nodeid": 5, "depth": 2, "split": "f92", "split_condition": 0.224136382, "yes": 9, "no": 10, "missing": 10, "children": [{"nodeid": 9, "depth": 3, "split": "f66", "split_condition": 0.437999994, "yes": 17, "no": 18, "missing": 18, "children": [{"nodeid": 17, "leaf": -0.000709189218}, {"nodeid": 18, "leaf": 0.00061895902}]}, {"nodeid": 10, "depth": 3, "split": "f91", "split_condition": 0.608817995, "yes": 19, "no": 20, "missing": 20, "children": [{"nodeid": 19, "leaf": 0.000929706555}, {"nodeid": 20, "leaf": -1.98562702e-06}]}]}, {"nodeid": 6, "depth": 2, "split": "f10", "split_condition": 0.205650792, "yes": 11, "no": 12, "missing": 12, "children": [{"nodeid": 11, "depth": 3, "split": "f41", "split_condition": 0.482352942, "yes": 21, "no": 22, "missing": 22, "children": [{"nodeid": 21, "leaf": 0.000717065763}, {"nodeid": 22, "leaf": 0.00179565826}]}, {"nodeid": 12, "leaf": 0.00235121907}]}]}]}, {"nodeid": 0, "depth": 0, "split": "f92", "split_condition": -0.0510592088, "yes": 1, "no": 2, "missing": 2, "children": [{"nodeid": 1, "depth": 1, "split": "f0", "split_condition": 0.535053492, "yes": 3, "no": 4, "missing": 4, "children": [{"nodeid": 3, "depth": 2, "split": "f123", "split_condition": 0.241575956, "yes": 7, "no": 8, "missing": 8, "children": [{"nodeid": 7, "depth": 3, "split": "f77", "split_condition": 0.181999996, "yes": 15, "no": 16, "missing": 16, "children": [{"nodeid": 15, "leaf": -0.000828092743}, {"nodeid": 16, "leaf": 0.00022086651}]}, {"nodeid": 8, "depth": 3, "split": "f91", "split_condition": 0.131670415, "yes": 17, "no": 18, "missing": 18, "children": [{"nodeid": 17, "leaf": -0.000652651419}, {"nodeid": 18, "leaf": -0.00224205363}]}]}, {"nodeid": 4, "depth": 2, "split": "f19", "split_condition": 0.474999994, "yes": 9, "no": 10, "missing": 10, "children": [{"nodeid": 9, "depth": 3, "split": "f37", "split_condition": 0.583999991, "yes": 19, "no": 20, "missing": 20, "children": [{"nodeid": 19, "leaf": -0.00101279328}, {"nodeid": 20, "leaf": -0.00289911777}]}, {"nodeid": 10, "depth": 3, "split": "f8", "split_condition": 0.314749986, "yes": 21, "no": 22, "missing": 22, "children": [{"nodeid": 21, "leaf": -0.000216492219}, {"nodeid": 22, "leaf": -0.000798652414}]}]}]}, {"nodeid": 2, "depth": 1, "split": "f2", "split_condition": 0.000199999995, "yes": 5, "no": 6, "missing": 6, "children": [{"nodeid": 5, "depth": 2, "split": "f39", "split_condition": 0.0539566539, "yes": 11, "no": 12, "missing": 12, "children": [{"nodeid": 11, "depth": 3, "split": "f76", "split_condition": 0.240999997, "yes": 23, "no": 24, "missing": 24, "children": [{"nodeid": 23, "leaf": 0.000199158923}, {"nodeid": 24, "leaf": 0.000951364345}]}, {"nodeid": 12, "leaf": 0.00224690046}]}, {"nodeid": 6, "depth": 2, "split": "f92", "split_condition": 0.380731314, "yes": 13, "no": 14, "missing": 14, "children": [{"nodeid": 13, "depth": 3, "split": "f76", "split_condition": 0.398999989, "yes": 25, "no": 26, "missing": 26, "children": [{"nodeid": 25, "leaf": -0.000709908199}, {"nodeid": 26, "leaf": 0.000482143252}]}, {"nodeid": 14, "depth": 3, "split": "f66", "split_condition": -0.0213333331, "yes": 27, "no": 28, "missing": 28, "children": [{"nodeid": 27, "leaf": 0.000385814521}, {"nodeid": 28, "leaf": 0.00194510887}]}]}]}]}, {"nodeid": 0, "depth": 0, "split": "f92", "split_condition": 0.0388000831, "yes": 1, "no": 2, "missing": 2, "children": [{"nodeid": 1, "depth": 1, "split": "f46", "split_condition": 0.200000003, "yes": 3, "no": 4, "missing": 4, "children": [{"nodeid": 3, "depth": 2, "split": "f38", "split_condition": 0.423876584, "yes": 7, "no": 8, "missing": 8, "children": [{"nodeid": 7, "depth": 3, "split": "f1", "split_condition": -0.149800003, "yes": 15, "no": 16, "missing": 16, "children": [{"nodeid": 15, "leaf": -3.49986803e-05}, {"nodeid": 16, "leaf": -0.00135206722}]}, {"nodeid": 8, "depth": 3, "split": "f76", "split_condition": 0.43900001, "yes": 17, "no": 18, "missing": 18, "children": [{"nodeid": 17, "leaf": -0.000584201945}, {"nodeid": 18, "leaf": 0.00050546159}]}]}, {"nodeid": 4, "depth": 2, "split": "f93", "split_condition": 0.466666669, "yes": 9, "no": 10, "missing": 10, "children": [{"nodeid": 9, "leaf": -0.0025508916}, {"nodeid": 10, "depth": 3, "split": "f8", "split_condition": 0.822250009, "yes": 19, "no": 20, "missing": 20, "children": [{"nodeid": 19, "leaf": -0.00137820002}, {"nodeid": 20, "leaf": -0.000510941783}]}]}]}, {"nodeid": 2, "depth": 1, "split": "f38", "split_condition": 0.740508974, "yes": 5, "no": 6, "missing": 6, "children": [{"nodeid": 5, "depth": 2, "split": "f76", "split_condition": 0.453000009, "yes": 11, "no": 12, "missing": 12, "children": [{"nodeid": 11, "depth": 3, "split": "f26", "split_condition": 0.123333335, "yes": 21, "no": 22, "missing": 22, "children": [{"nodeid": 21, "leaf": 0.000467698323}, {"nodeid": 22, "leaf": -0.000633275253}]}, {"nodeid": 12, "depth": 3, "split": "f79", "split_condition": 0.528999984, "yes": 23, "no": 24, "missing": 24, "children": [{"nodeid": 23, "leaf": 0.00198745052}, {"nodeid": 24, "leaf": 0.000433775858}]}]}, {"nodeid": 6, "depth": 2, "split": "f108", "split_condition": 0.486606061, "yes": 13, "no": 14, "missing": 14, "children": [{"nodeid": 13, "depth": 3, "split": "f28", "split_condition": 0.767676771, "yes": 25, "no": 26, "missing": 26, "children": [{"nodeid": 25, "leaf": 0.00153792382}, {"nodeid": 26, "leaf": 0.00282482244}]}, {"nodeid": 14, "depth": 3, "split": "f76", "split_condition": 0.100000001, "yes": 27, "no": 28, "missing": 28, "children": [{"nodeid": 27, "leaf": -0.000344433123}, {"nodeid": 28, "leaf": 0.000700840086}]}]}]}]}, {"nodeid": 0, "depth": 0, "split": "f92", "split_condition": 0.0384913869, "yes": 1, "no": 2, "missing": 2, "children": [{"nodeid": 1, "depth": 1, "split": "f0", "split_condition": 0.574557483, "yes": 3, "no": 4, "missing": 4, "children": [{"nodeid": 3, "depth": 2, "split": "f38", "split_condition": 0.481897801, "yes": 7, "no": 8, "missing": 8, "children": [{"nodeid": 7, "depth": 3, "split": "f7", "split_condition": 0.422285706, "yes": 15, "no": 16, "missing": 16, "children": [{"nodeid": 15, "leaf": -0.000595010235}, {"nodeid": 16, "leaf": -0.00178091845}]}, {"nodeid": 8, "depth": 3, "split": "f106", "split_condition": 0.405714273, "yes": 17, "no": 18, "missing": 18, "children": [{"nodeid": 17, "leaf": -0.000170388856}, {"nodeid": 18, "leaf": 0.001826355}]}]}, {"nodeid": 4, "depth": 2, "split": "f5", "split_condition": 0.703499973, "yes": 9, "no": 10, "missing": 10, "children": [{"nodeid": 9, "depth": 3, "split": "f50", "split_condition": 0.996153831, "yes": 19, "no": 20, "missing": 20, "children": [{"nodeid": 19, "leaf": -0.00180247612}, {"nodeid": 20, "leaf": -0.00355247315}]}, {"nodeid": 10, "depth": 3, "split": "f4", "split_condition": 0.600000024, "yes": 21, "no": 22, "missing": 22, "children": [{"nodeid": 21, "leaf": 0.000141529046}, {"nodeid": 22, "leaf": -0.000802322233}]}]}]}, {"nodeid": 2, "depth": 1, "split": "f76", "split_condition": 0.328999996, "yes": 5, "no": 6, "missing": 6, "children": [{"nodeid": 5, "depth": 2, "split": "f69", "split_condition": 0.642857134, "yes": 11, "no": 12, "missing": 12, "children": [{"nodeid": 11, "depth": 3, "split": "f123", "split_condition": 0.138472542, "yes": 23, "no": 24, "missing": 24, "children": [{"nodeid": 23, "leaf": 0.000755115529}, {"nodeid": 24, "leaf": -0.000493784784}]}, {"nodeid": 12, "leaf": -0.000570590142}]}, {"nodeid": 6, "depth": 2, "split": "f7", "split_condition": 0.474909097, "yes": 13, "no": 14, "missing": 14, "children": [{"nodeid": 13, "depth": 3, "split": "f36", "split_condition": 0.100000001, "yes": 25, "no": 26, "missing": 26, "children": [{"nodeid": 25, "leaf": 0.000152374414}, {"nodeid": 26, "leaf": 0.00119848642}]}, {"nodeid": 14, "depth": 3, "split": "f11", "split_condition": 0.322466671, "yes": 27, "no": 28, "missing": 28, "children": [{"nodeid": 27, "leaf": 3.31431147e-05}, {"nodeid": 28, "leaf": 0.00212920341}]}]}]}]}, {"nodeid": 0, "depth": 0, "split": "f92", "split_condition": 0.0523898862, "yes": 1, "no": 2, "missing": 2, "children": [{"nodeid": 1, "depth": 1, "split": "f129", "split_condition": -0.0774008185, "yes": 3, "no": 4, "missing": 4, "children": [{"nodeid": 3, "depth": 2, "split": "f5", "split_condition": 0.32100001, "yes": 7, "no": 8, "missing": 8, "children": [{"nodeid": 7, "leaf": -0.00380065385}, {"nodeid": 8, "leaf": -0.0012901607}]}, {"nodeid": 4, "depth": 2, "split": "f44", "split_condition": 0.0693714321, "yes": 9, "no": 10, "missing": 10, "children": [{"nodeid": 9, "depth": 3, "split": "f0", "split_condition": 0.140614063, "yes": 15, "no": 16, "missing": 16, "children": [{"nodeid": 15, "leaf": 0.00025193335}, {"nodeid": 16, "leaf": -0.000870466582}]}, {"nodeid": 10, "depth": 3, "split": "f3", "split_condition": 0.200000003, "yes": 17, "no": 18, "missing": 18, "children": [{"nodeid": 17, "leaf": 0.00183799339}, {"nodeid": 18, "leaf": 