{"metadata": {"model_type": "xgboost_projection", "n_trees": 150, "r2_score": 0.9371398591377085, "mae": 0.0395847060612045, "mae_ktc": 395.8074759059838, "n_features": 19, "feature_names": ["start_ktc", "age_factor", "years_exp_normalized", "historical_snap_pct", "cliff_years_penalty", "ktc_30d_trend", "ktc_90d_trend", "draft_round_value", "draft_pick_value", "is_qb", "is_rb", "is_wr", "is_te", "projected_fp_normalized", "projected_games_factor", "baseline_fp_normalized", "fp_improvement", "breakout_potential", "is_backup"]}, "xgboost_model": {"learner": {"attributes": {}, "feature_names": [], "feature_types": [], "gradient_booster": {"model": {"cats": {"enc": [], "feature_segments": [], "sorted_idx": []}, "gbtree_model_param": {"num_parallel_tree": "1", "num_trees": "150"}, "iteration_indptr": [0, 1, 2, 3, 4, 5, 6, 7, 8, 9, 10, 11, 12, 13, 14, 15, 16, 17, 18, 19, 20, 21, 22, 23, 24, 25, 26, 27, 28, 29, 30, 31, 32, 33, 34, 35, 36, 37, 38, 39, 40, 41, 42, 43, 44, 45, 46, 47, 48, 49, 50, 51, 52, 53, 54, 55, 56, 57, 58, 59, 60, 61, 62, 63, 64, 65, 66, 67, 68, 69, 70, 71, 72, 73, 74, 75, 76, 77, 78, 79, 80, 81, 82, 83, 84, 85, 86, 87, 88, 89, 90, 91, 92, 93, 94, 95, 96, 97, 98, 99, 100, 101, 102, 103, 104, 105, 106, 107, 108, 109, 110, 111, 112, 113, 114, 115, 116, 117, 118, 119, 120, 121, 122, 123, 124, 125, 126, 127, 128, 129, 130, 131, 132, 133, 134, 135, 136, 137, 138, 139, 140, 141, 142, 143, 144, 145, 146, 147, 148, 149, 150], "tree_info": [0, 0, 0, 0, 0, 0, 0, 0, 0, 0, 0, 0, 0, 0, 0, 0, 0, 0, 0, 0, 0, 0, 0, 0, 0, 0, 0, 0, 0, 0, 0, 0, 0, 0, 0, 0, 0, 0, 0, 0, 0, 0, 0, 0, 0, 0, 0, 0, 0, 0, 0, 0, 0, 0, 0, 0, 0, 0, 0, 0, 0, 0, 0, 0, 0, 0, 0, 0, 0, 0, 0, 0, 0, 0, 0, 0, 0, 0, 0, 0, 0, 0, 0, 0, 0, 0, 0, 0, 0, 0, 0, 0, 0, 0, 0, 0, 0, 0, 0, 0, 0, 0, 0, 0, 0, 0, 0, 0, 0, 0, 0, 0, 0, 0, 0, 0, 0, 0, 0, 0, 0, 0, 0, 0, 0, 0, 0, 0, 0, 0, 0, 0, 0, 0, 0, 0, 0, 0, 0, 0, 0, 0, 0, 0, 0, 0, 0, 0, 0, 0], "trees": [{"base_weights": [0.00038168594, -0.10290103, 0.23662083, -0.16948693, -0.019985208, 0.15681772, 0.36828023, -0.19201629, -0.08274501, -0.05944138, 0.051023647, 0.087111555, 0.19616309, 0.29322425, 0.47927922, -0.21292989, -0.0077122585, -0.108593434, 0.015723536, -0.07139874, 0.016437927, 0.023203468, 0.09759762, 0.028185084, 0.1436498, 0.2638431, 0.15099658, 0.010687883, 0.32984698, 0.017289637, 0.027855223, -0.0107711, -0.0037790244, -0.04716194, -0.006886867, 0.0040505445, -0.018437313, 0.005442963, -0.076129146, 0.003226133, -0.014122477, 0.069035575, -0.0032111811, 0.006870556, 0.036648244, -0.0088875005, 0.061009035, 0.0007035429, 0.008294622, 0.005445098, 0.013814675, -0.0, 0.15799491, 0.01742973, 0.007910931, -0.0, -0.0026250524, -0.001305777, -0.0, -0.00030167677, 0.0021713923, -0.0047578057, -0.0026171727, 0.0006766214, -0.0019514131, 0.004203345, -0.0, -0.002790569, 0.00060589303, 0.0029308524, -0.0, -0.0019012041, 0.0002608973, 0.00579339, -0.0, 0.0065326393, 0.010853055], "categories": [], "categories_nodes": [], "categories_segments": [], "categories_sizes": [], "default_left": [0, 0, 0, 0, 0, 0, 0, 0, 0, 0, 0, 0, 0, 0, 0, 0, 0, 0, 0, 0, 0, 0, 0, 0, 0, 0, 0, 0, 0, 0, 0, 0, 0, 0, 0, 0, 0, 0, 0, 0, 0, 0, 0, 0, 0, 0, 0, 0, 0, 0, 0, 0, 0, 0, 0, 0, 0, 0, 0, 0, 0, 0, 0, 0, 0, 0, 0, 0, 0, 0, 0, 0, 0, 0, 0, 0, 0], "id": 0, "left_children": [1, 3, 5, 7, 9, 11, 13, 15, 17, 19, 21, 23, 25, 27, 29, 31, -1, 33, 35, 37, 39, 41, 43, 45, 47, 49, 51, -1, 53, -1, -1, -1, -1, 55, -1, -1, 57, 59, 61, -1, 63, 65, 67, -1, 69, 71, 73, -1, -1, -1, -1, -1, 75, -1, -1, -1, -1, -1, -1, -1, -1, -1, -1, -1, -1, -1, -1, -1, -1, -1, -1, -1, -1, -1, -1, -1, -1], "loss_changes": [19.801249, 3.0915236, 2.4849253, 0.56635857, 0.7127143, 0.3824327, 0.54867744, 0.12476158, 0.18152669, 0.15546966, 0.10226795, 0.17533207, 0.2182498, 0.043928623, 0.08067036, 0.0073304176, 0.0, 0.07169312, 0.038974777, 0.05946231, 0.03827999, 0.07823182, 0.055209637, 0.043477304, 0.06325263, 0.0027675629, 0.05918324, 0.0, 0.0132164955, 0.0, 0.0, 0.0, 0.0, 0.0023731403, 0.0, 0.0, 0.0003506958, 0.007488922, 0.041818738, 0.0, 0.012031702, 0.017594434, 0.03487916, 0.0, 0.010777218, 0.009232804, 0.06725563, 0.0, 0.0, 0.0, 0.0, 0.0, 0.032153606, 0.0, 0.0, 0.0, 0.0, 0.0, 0.0, 0.0, 0.0, 0.0, 0.0, 0.0, 0.0, 0.0, 0.0, 0.0, 0.0, 0.0, 0.0, 0.0, 0.0, 0.0, 0.0, 0.0, 0.0], "parents": [2147483647, 0, 0, 1, 1, 2, 2, 3, 3, 4, 4, 5, 5, 6, 6, 7, 7, 8, 8, 9, 9, 10, 10, 11, 11, 12, 12, 13, 13, 14, 14, 15, 15, 17, 17, 18, 18, 19, 19, 20, 20, 21, 21, 22, 22, 23, 23, 24, 24, 25, 25, 26, 26, 28, 28, 33, 33, 36, 36, 37, 37, 38, 38, 40, 40, 41, 41, 42, 42, 44, 44, 45, 45, 46, 46, 52, 52], "right_children": [2, 4, 6, 8, 10, 12, 14, 16, 18, 20, 22, 24, 26, 28, 30, 32, -1, 34, 36, 38, 40, 42, 44, 46, 48, 50, 52, -1, 54, -1, -1, -1, -1, 56, -1, -1, 58, 60, 62, -1, 64, 66, 68, -1, 70, 72, 74, -1, -1, -1, -1, -1, 76, -1, -1, -1, -1, -1, -1, -1, -1, -1, -1, -1, -1, -1, -1, -1, -1, -1, -1, -1, -1, -1, -1, -1, -1], "split_conditions": [0.40174016, 0.21472147, 0.60556054, 0.24583334, 0.547, 0.616, 0.907, 0.13281327, 0.741, 0.3708371, 0.881875, 0.48234823, 0.3, 0.7575, 0.747, 0.5487, -0.0077122585, 0.4, 0.4, -0.1437, 0.2, 0.4, 0.6, 0.32785714, 0.0071592857, 0.4110411, 0.64285713, 0.010687883, 0.7, 0.017289637, 0.027855223, -0.0107711, -0.0037790244, -0.1323, -0.006886867, 0.0040505445, 0.15961596, 0.098125, 0.205, 0.003226133, -0.0494, 0.0762, 0.984375, 0.006870556, 0.0113, 0.3, 0.4, 0.0007035429, 0.008294622, 0.005445098, 0.013814675, -0.0, 1.0130286, 0.01742973, 0.007910931, -0.0, -0.0026250524, -0.001305777, -0.0, -0.00030167677, 0.0021713923, -0.0047578057, -0.0026171727, 0.0006766214, -0.0019514131, 0.004203345, -0.0, -0.002790569, 0.00060589303, 0.0029308524, -0.0, -0.0019012041, 0.0002608973, 0.00579339, -0.0, 0.0065326393, 0.010853055], "split_indices": [0, 0, 0, 13, 13, 13, 3, 0, 13, 0, 13, 0, 2, 13, 13, 5, 0, 2, 2, 5, 2, 2, 2, 13, 17, 0, 1, 0, 2, 0, 0, 0, 0, 5, 0, 0, 0, 13, 13, 0, 5, 6, 1, 0, 5, 2, 2, 0, 0, 0, 0, 0, 13, 0, 0, 0, 0, 0, 0, 0, 0, 0, 0, 0, 0, 0, 0, 0, 0, 0, 0, 0, 0, 0, 0, 0, 0], "split_type": [0, 0, 0, 0, 0, 0, 0, 0, 0, 0, 0, 0, 0, 0, 0, 0, 0, 0, 0, 0, 0, 0, 0, 0, 0, 0, 0, 0, 0, 0, 0, 0, 0, 0, 0, 0, 0, 0, 0, 0, 0, 0, 0, 0, 0, 0, 0, 0, 0, 0, 0, 0, 0, 0, 0, 0, 0, 0, 0, 0, 0, 0, 0, 0, 0, 0, 0, 0, 0, 0, 0, 0, 0, 0, 0, 0, 0], "sum_hessian": [809.0, 563.0, 246.0, 311.0, 252.0, 155.0, 91.0, 245.0, 66.0, 163.0, 89.0, 58.0, 97.0, 57.0, 34.0, 153.0, 92.0, 53.0, 13.0, 142.0, 21.0, 58.0, 31.0, 30.0, 28.0, 36.0, 61.0, 21.0, 36.0, 15.0, 19.0, 149.0, 4.0, 19.0, 34.0, 5.0, 8.0, 7.0, 135.0, 9.0, 12.0, 22.0, 36.0, 17.0, 14.0, 13.0, 17.0, 5.0, 23.0, 4.0, 32.0, 3.0, 58.0, 31.0, 5.0, 3.0, 16.0, 4.0, 4.0, 4.0, 3.0, 71.0, 64.0, 4.0, 8.0, 17.0, 5.0, 9.0, 27.0, 8.0, 6.0, 6.0, 7.0, 9.0, 8.0, 43.0, 15.0], "tree_param": {"num_deleted": "0", "num_feature": "19", "num_nodes": "77", "size_leaf_vector": "1"}}, {"base_weights": [0.0002504637, -0.09945143, 0.22684588, -0.16839115, -0.033704598, 0.1611443, 0.40173873, -0.18378136, -0.07395719, -0.066354826, 0.017339448, 0.09972044, 0.20495306, 0.31514928, 0.024446074, -0.010587884, -0.15037823, -0.017787885, -0.10649557, -0.084336534, -0.010710905, -0.0055915792, 0.08502927, 0.037595093, 0.14821549, 0.16703865, 0.25935227, 0.20338574, 0.018624064, -0.0076410035, -0.0011537598, -0.041495033, 0.0022317048, -0.12078726, -0.0013411305, -0.09925316, -0.05375497, -0.027355585, 0.057190184, -0.030276705, 0.047901575, 0.008804249, 0.03024996, 0.06294972, -0.0044130655, 0.04550016, 0.17996931, 0.0009335079, 0.17495205, 0.0138648255, 0.0071328105, 0.011342818, 0.002856372, -0.0, -0.0031926744, -0.006750867, -0.0016969793, -0.0, -0.0052423626, -0.0032520674, -0.0, -0.0026669549, 0.0006927329, -0.0, 0.0042676595, 0.000983392, -0.002158745, -0.00053864846, 0.003217629, -0.0, 0.0029371458, 0.00069318, 0.0051273606, -0.0019217286, -0.0, 0.0027808952, -0.0, 0.010068846, 0.0031758987, 0.009193481, 0.0023691133], "categories": [], "categories_nodes": [], "categories_segments": [], "categories_sizes": [], "default_left": [0, 0, 0, 0, 0, 0, 0, 0, 0, 0, 0, 0, 0, 0, 0, 0, 0, 0, 0, 0, 0, 0, 0, 0, 0, 0, 0, 0, 0, 0, 0, 0, 0, 0, 0, 0, 0, 0, 0, 0, 0, 0, 0, 0, 0, 0, 0, 0, 0, 0, 0, 0, 0, 0, 0, 0, 0, 0, 0, 0, 0, 0, 0, 0, 0, 0, 0, 0, 0, 0, 0, 0, 0, 0, 0, 0, 0, 0, 0, 0, 0], "id": 1, "left_children": [1, 3, 5, 7, 9, 11, 13, 15, 17, 19, 21, 23, 25, 27, -1, -1, 29, 31, 33, 35, 37, 39, 41, 43, 45, 47, 49, 51, -1, -1, -1, 53, -1, 55, -1, 57, 59, 61, 63, 65, 67, -1, 69, 71, 73, 75, 77, -1, 79, -1, -1, -1, -1, -1, -1, -1, -1, -1, -1, -1, -1, -1, -1, -1, -1, -1, -1, -1, -1, -1, -1, -1, -1, -1, -1, -1, -1, -1, -1, -1, -1], "loss_changes": [17.882973, 2.4624949, 2.6597328, 0.3486805, 0.47769985, 0.4280758, 0.2562008, 0.14500809, 0.058783635, 0.16369158, 0.1791609, 0.20783019, 0.1244154, 0.09733033, 0.0, 0.0, 0.012766838, 0.026695583, 0.009327084, 0.038666368, 0.049439643, 0.1079676, 0.118691, 0.04447511, 0.106251836, 0.05251372, 0.000113487244, 0.0101335645, 0.0, 0.0, 0.0, 0.01666695, 0.0, 0.0020029843, 0.0, 0.04094273, 0.033404022, 0.04537734, 0.010260101, 0.040563136, 0.030182604, 0.0, 0.012755368, 0.033585742, 0.005655689, 0.0029969811, 0.038000703, 0.0, 0.03641951, 0.0, 0.0, 0.0, 0.0, 0.0, 0.0, 0.0, 0.0, 0.0, 0.0, 0.0, 0.0, 0.0, 0.0, 0.0, 0.0, 0.0, 0.0, 0.0, 0.0, 0.0, 0.0, 0.0, 0.0, 0.0, 0.0, 0.0, 0.0, 0.0, 0.0, 0.0, 0.0], "parents": [2147483647, 0, 0, 1, 1, 2, 2, 3, 3, 4, 4, 5, 5, 6, 6, 7, 7, 8, 8, 9, 9, 10, 10, 11, 11, 12, 12, 13, 13, 16, 16, 17, 17, 18, 18, 19, 19, 20, 20, 21, 21, 22, 22, 23, 23, 24, 24, 25, 25, 26, 26, 27, 27, 31, 31, 33, 33, 35, 35, 36, 36, 37, 37, 38, 38, 39, 39, 40, 40, 42, 42, 43, 43, 44, 44, 45, 45, 46, 46, 48, 48], "right_children": [2, 4, 6, 8, 10, 12, 14, 16, 18, 20, 22, 24, 26, 28, -1, -1, 30, 32, 34, 36, 38, 40, 42, 44, 46, 48, 50, 52, -1, -1, -1, 54, -1, 56, -1, 58, 60, 62, 64, 66, 68, -1, 70, 72, 74, 76, 78, -1, 80, -1, -1, -1, -1, -1, -1, -1, -1, -1, -1, -1, -1, -1, -1, -1, -1, -1, -1, -1, -1, -1, -1, -1, -1, -1, -1, -1, -1, -1, -1, -1, -1], "split_conditions": [0.39673966, 0.19121912, 0.6808681, 0.13673171, 0.1555894, 0.4878488, -0.02867347, 0.123012304, 0.4, 0.3228323, 0.85371214, -0.1258875, 0.0, 0.749775, 0.024446074, -0.010587884, 0.7616848, 0.3187305, 0.30772, 0.08164125, 0.0285, 0.2774874, 0.4, 0.0056, 0.60733336, 0.0071592857, 0.9, 0.8, 0.018624064, -0.0076410035, -0.0011537598, 0.9285714, 0.0022317048, 0.15621562, -0.0013411305, -0.2065, 0.787, 0.37623763, 0.33563358, 0.2, 0.21732174, 0.008804249, -0.013544918, -0.0268, 0.64512175, 0.5818, 0.108, 0.0009335079, 0.9, 0.0138648255, 0.0071328105, 0.011342818, 0.002856372, -0.0, -0.0031926744, -0.006750867, -0.0016969793, -0.0, -0.0052423626, -0.0032520674, -0.0, -0.0026669549, 0.0006927329, -0.0, 0.0042676595, 0.000983392, -0.002158745, -0.00053864846, 0.003217629, -0.0, 0.0029371458, 0.00069318, 0.0051273606, -0.0019217286, -0.0, 0.0027808952, -0.0, 0.010068846, 0.0031758987, 0.009193481, 0.0023691133], "split_indices": [0, 0, 0, 17, 17, 0, 16, 0, 2, 0, 15, 16, 16, 0, 0, 0, 15, 17, 17, 17, 16, 17, 2, 6, 3, 17, 2, 2, 0, 0, 0, 1, 0, 0, 0, 6, 3, 0, 0, 2, 0, 0, 16, 5, 15, 3, 6, 0, 2, 0, 0, 0, 0, 0, 0, 0, 0, 0, 0, 0, 0, 0, 0, 0, 0, 0, 0, 0, 0, 0, 0, 0, 0, 0, 0, 0, 0, 0, 0, 0, 0], "split_type": [0, 0, 0, 0, 0, 0, 0, 0, 0, 0, 0, 0, 0, 0, 0, 0, 0, 0, 0, 0, 0, 0, 0, 0, 0, 0, 0, 0, 0, 0, 0, 0, 0, 0, 0, 0, 0, 0, 0, 0, 0, 0, 0, 0, 0, 0, 0, 0, 0, 0, 0, 0, 0, 0, 0, 0, 0, 0, 0, 0, 0, 0, 0, 0, 0, 0, 0, 0, 0, 0, 0, 0, 0, 0, 0, 0, 0, 0, 0, 0, 0], "sum_hessian": [789.0, 548.0, 241.0, 266.0, 282.0, 177.0, 64.0, 227.0, 39.0, 173.0, 109.0, 76.0, 101.0, 35.0, 29.0, 119.0, 108.0, 16.0, 23.0, 129.0, 44.0, 81.0, 28.0, 35.0, 41.0, 63.0, 38.0, 14.0, 21.0, 105.0, 3.0, 13.0, 3.0, 18.0, 5.0, 83.0, 46.0, 37.0, 7.0, 57.0, 24.0, 9.0, 19.0, 23.0, 12.0, 11.0, 30.0, 4.0, 59.0, 31.0, 7.0, 11.0, 3.0, 4.0, 9.0, 14.0, 4.0, 5.0, 78.0, 39.0, 7.0, 24.0, 13.0, 3.0, 4.0, 10.0, 47.0, 4.0, 20.0, 11.0, 8.0, 12.0, 11.0, 3.0, 9.0, 8.0, 3.0, 24.0, 6.0, 54.0, 5.0], "tree_param": {"num_deleted": "0", "num_feature": "19", "num_nodes": "81", "size_leaf_vector": "1"}}, {"base_weights": [0.006623369, -0.09823534, 0.2124146, -0.16088472, -0.036248866, 0.13585936, 0.34651974, -0.17435308, -0.07427253, -0.058824122, 0.028262723, 0.095709674, 0.19705796, 0.27230358, 0.021940378, -0.009903687, -0.13997866, -0.09186884, -0.0, -0.088715106, -0.033157337, 0.0056194006, 0.013748128, 0.041142795, 0.13244565, 0.002314815, 0.20430796, 0.31761363, 0.202218, -0.09424844, -0.007540145, -0.0, -0.00515164, 0.00231976, -0.0016000271, -0.0, -0.0950633, -0.056252707, -0.004934993, -0.0278756, 0.032736287, 0.07433631, -0.0, 0.16723582, 0.05546235, 0.20883101, 0.003019262, 0.008333861, 0.017460437, 0.003908032, 0.010833784, -0.0061464724, -0.0017335089, -0.005294611, -0.0018086055, -0.0033069984, 0.0012720688, 0.00042721536, -0.0030017314, -0.0018613931, -0.0, -0.0, 0.0030307008, -0.00043538655, 0.0050266352, -0.0010848208, 0.0011367557, 0.004659999, 0.009363717, 0.003473828, -0.0, 0.012951483, 0.008938449], "categories": [], "categories_nodes": [], "categories_segments": [], "categories_sizes": [], "default_left": [0, 0, 0, 0, 0, 0, 0, 0, 0, 0, 0, 0, 0, 0, 0, 0, 0, 0, 0, 0, 0, 0, 0, 0, 0, 0, 0, 0, 0, 0, 0, 0, 0, 0, 0, 0, 0, 0, 0, 0, 0, 0, 0, 0, 0, 0, 0, 0, 0, 0, 0, 0, 0, 0, 0, 0, 0, 0, 0, 0, 0, 0, 0, 0, 0, 0, 0, 0, 0, 0, 0, 0, 0], "id": 2, "left_children": [1, 3, 5, 7, 9, 11, 13, 15, 17, 19, 21, 23, 25, 27, -1, -1, 29, 31, 33, 35, 37, -1, 39, 41, 43, -1, 45, 47, 49, 51, -1, -1, -1, -1, -1, -1, 53, 55, 57, 59, 61, 63, 65, 67, 69, 71, -1, -1, -1, -1, -1, -1, -1, -1, -1, -1, -1, -1, -1, -1, -1, -1, -1, -1, -1, -1, -1, -1, -1, -1, -1, -1, -1], "loss_changes": [17.252329, 2.028781, 2.6766262, 0.26781654, 0.39502466, 0.37939882, 0.47377777, 0.12193012, 0.05201289, 0.13831234, 0.07009333, 0.19368523, 0.038713455, 0.06479788, 0.0, 0.0, 0.009296179, 0.035604835, 0.013730231, 0.050777197, 0.065954015, 0.0, 0.049610447, 0.06028162, 0.13718557, 0.0, 0.0014791489, 0.042809486, 0.00021398067, 0.019279644, 0.0, 0.0, 0.0, 0.0, 0.0, 0.0, 0.035532355, 0.053408653, 0.045025323, 0.004029995, 0.041024175, 0.06444426, 0.011380704, 0.01680839, 0.019212276, 0.0004582405, 0.0, 0.0, 0.0, 0.0, 0.0, 0.0, 0.0, 0.0, 0.0, 0.0, 0.0, 0.0, 0.0, 0.0, 0.0, 0.0, 0.0, 0.0, 0.0, 0.0, 0.0, 0.0, 0.0, 0.0, 0.0, 0.0, 0.0], "parents": [2147483647, 0, 0, 1, 1, 2, 2, 3, 3, 4, 4, 5, 5, 6, 6, 7, 7, 8, 8, 9, 9, 10, 10, 11, 11, 12, 12, 13, 13, 16, 16, 17, 17, 18, 18, 19, 19, 20, 20, 22, 22, 23, 23, 24, 24, 26, 26, 27, 27, 28, 28, 29, 29, 36, 36, 37, 37, 38, 38, 39, 39, 40, 40, 41, 41, 42, 42, 43, 43, 44, 44, 45, 45], "right_children": [2, 4, 6, 8, 10, 12, 14, 16, 18, 20, 22, 24, 26, 28, -1, -1, 30, 32, 34, 36, 38, -1, 40, 42, 44, -1, 46, 48, 50, 52, -1, -1, -1, -1, -1, -1, 54, 56, 58, 60, 62, 64, 66, 68, 70, 72, -1, -1, -1, -1, -1, -1, -1, -1, -1, -1, -1, -1, -1, -1, -1, -1, -1, -1, -1, -1, -1, -1, -1, -1, -1, -1, -1], "split_conditions": [0.3860386, 0.19121912, 0.60556054, 0.13673171, 0.20905714, 0.5033503, 0.749775, 0.12811281, 0.6483333, 0.26812682, 0.2, 0.783, 0.0086242, 0.9375, 0.021940378, -0.009903687, 0.2, 0.2, 1.0, 0.012901, 0.57037145, 0.0056194006, 0.25222522, -0.0072, 0.6, 0.002314815, 0.0816, 0.7826962, 0.984375, 0.23574218, -0.007540145, -0.0, -0.00515164, 0.00231976, -0.0016000271, -0.0, 0.172172, 0.3708371, 0.25, 0.6, 0.3029755, 0.5882353, 0.64512175, 0.678, 0.9, 0.3, 0.003019262, 0.008333861, 0.017460437, 0.003908032, 0.010833784, -0.0061464724, -0.0017335089, -0.005294611, -0.0018086055, -0.0033069984, 0.0012720688, 0.00042721536, -0.0030017314, -0.0018613931, -0.0, -0.0, 0.0030307008, -0.00043538655, 0.0050266352, -0.0010848208, 0.0011367557, 0.004659999, 0.009363717, 0.003473828, -0.0, 0.012951483, 0.008938449], "split_indices": [0, 0, 0, 17, 17, 0, 0, 0, 3, 0, 2, 15, 17, 1, 0, 0, 2, 2, 14, 17, 15, 0, 0, 6, 2, 0, 5, 15, 1, 15, 0, 0, 0, 0, 0, 0, 17, 0, 4, 2, 17, 14, 15, 3, 2, 2, 0, 0, 0, 0, 0, 0, 0, 0, 0, 0, 0, 0, 0, 0, 0, 0, 0, 0, 0, 0, 0, 0, 0, 0, 0, 0, 0], "split_type": [0, 0, 0, 0, 0, 0, 0, 0, 0, 0, 0, 0, 0, 0, 0, 0, 0, 0, 0, 0, 0, 0, 0, 0, 0, 0, 0, 0, 0, 0, 0, 0, 0, 0, 0, 0, 0, 0, 0, 0, 0, 0, 0, 0, 0, 0, 0, 0, 0, 0, 0, 0, 0, 0, 0, 0, 0, 0, 0, 0, 0, 0, 0, 0, 0, 0, 0, 0, 0, 0, 0, 0, 0], "sum_hessian": [797.0, 528.0, 269.0, 261.0, 267.0, 173.0, 96.0, 224.0, 37.0, 199.0, 68.0, 107.0, 66.0, 56.0, 40.0, 128.0, 96.0, 30.0, 7.0, 89.0, 110.0, 8.0, 60.0, 45.0, 62.0, 4.0, 62.0, 31.0, 25.0, 22.0, 74.0, 3.0, 27.0, 3.0, 4.0, 6.0, 83.0, 58.0, 52.0, 17.0, 43.0, 24.0, 21.0, 41.0, 21.0, 59.0, 3.0, 7.0, 24.0, 4.0, 21.0, 13.0, 9.0, 68.0, 15.0, 53.0, 5.0, 41.0, 11.0, 12.0, 5.0, 20.0, 23.0, 5.0, 19.0, 10.0, 11.0, 11.0, 30.0, 17.0, 4.0, 18.0, 41.0], "tree_param": {"num_deleted": "0", "num_feature": "19", "num_nodes": "73", "size_leaf_vector": "1"}}, {"base_weights": [-0.00033235902, -0.087409556, 0.22088721, -0.14934589, -0.015031197, 0.1633803, 0.38407043, -0.15844388, -0.0, -0.055826787, 0.04148043, 0.09144675, 0.19799507, 0.31252366, 0.023906043, -0.18278225, -0.13081248, -0.02355826, 0.0037635018, -0.06586604, 0.021475423, 0.01661849, 0.094265416, 0.038878433, 0.0070519433, 0.26503375, 0.16410272, 0.009347706, 0.017420148, -0.009771962, -0.137885, -0.00706357, -0.08267765, -0.0, -0.002278147, -0.02991545, -0.079529494, 0.0028891654, -0.0, 0.06397009, -0.0, 0.0068922564, 0.03989319, 0.0711353, -0.0, 0.010228067, 0.017429782, 0.09878395, 0.19362769, -0.007257777, -0.0006489522, -0.0009852228, -0.0051982976, 6.128615e-05, -0.0, -0.0026024706, -0.0, -0.004833289, -0.002079817, 0.00046609226, -0.00028930846, 0.0037866763, -0.0, -0.0010095596, 0.00081884157, 0.0026649935, -0.0, 0.00020263402, 0.00504898, 0.0003884004, -0.0004239683, 0.002048744, 0.0055670273, 0.007886696, 0.011802497], "categories": [], "categories_nodes": [], "categories_segments": [], "categories_sizes": [], "default_left": [0, 0, 0, 0, 0, 0, 0, 0, 0, 0, 0, 0, 0, 0, 0, 0, 0, 0, 0, 0, 0, 0, 0, 0, 0, 0, 0, 0, 0, 0, 0, 0, 0, 0, 0, 0, 0, 0, 0, 0, 0, 0, 0, 0, 0, 0, 0, 0, 0, 0, 0, 0, 0, 0, 0, 0, 0, 0, 0, 0, 0, 0, 0, 0, 0, 0, 0, 0, 0, 0, 0, 0, 0, 0, 0], "id": 3, "left_children": [1, 3, 5, 7, 9, 11, 13, 15, 17, 19, 21, 23, 25, 27, -1, 29, 31, 33, -1, 35, 37, 39, 41, 43, -1, 45, 47, -1, -1, -1, 49, -1, 51, 53, -1, 55, 57, -1, 59, 61, 63, -1, 65, 67, 69, -1, -1, 71, 73, -1, -1, -1, -1, -1, -1, -1, -1, -1, -1, -1, -1, -1, -1, -1, -1, -1, -1, -1, -1, -1, -1, -1, -1, -1, -1], "loss_changes": [15.763241, 2.6172333, 2.0502481, 0.43300486, 0.6331314, 0.38371372, 0.16852188, 0.14513588, 0.036652766, 0.13002259, 0.1369515, 0.13033634, 0.17488527, 0.04802704, 0.0, 0.02723217, 0.038923502, 0.010358955, 0.0, 0.056919217, 0.0117319785, 0.06793385, 0.059660494, 0.03410618, 0.0, 0.055289984, 0.105914116, 0.0, 0.0, 0.0, 0.017719746, 0.0, 0.025802135, 6.009587e-06, 0.0, 0.026537206, 0.047806203, 0.0, 0.0008960529, 0.013212413, 0.02013706, 0.0, 0.013966745, 0.021120071, 0.0010720439, 0.0, 0.0, 0.0005310774, 0.004091263, 0.0, 0.0, 0.0, 0.0, 0.0, 0.0, 0.0, 0.0, 0.0, 0.0, 0.0, 0.0, 0.0, 0.0, 0.0, 0.0, 0.0, 0.0, 0.0, 0.0, 0.0, 0.0, 0.0, 0.0, 0.0, 0.0], "parents": [2147483647, 0, 0, 1, 1, 2, 2, 3, 3, 4, 4, 5, 5, 6, 6, 7, 7, 8, 8, 9, 9, 10, 10, 11, 11, 12, 12, 13, 13, 15, 15, 16, 16, 17, 17, 19, 19, 20, 20, 21, 21, 22, 22, 23, 23, 25, 25, 26, 26, 30, 30, 32, 32, 33, 33, 35, 35, 36, 36, 38, 38, 39, 39, 40, 40, 42, 42, 43, 43, 44, 44, 47, 47, 48, 48], "right_children": [2, 4, 6, 8, 10, 12, 14, 16, 18, 20, 22, 24, 26, 28, -1, 30, 32, 34, -1, 36, 38, 40, 42, 44, -1, 46, 48, -1, -1, -1, 50, -1, 52, 54, -1, 56, 58, -1, 60, 62, 64, -1, 66, 68, 70, -1, -1, 72, 74, -1, -1, -1, -1, -1, -1, -1, -1, -1, -1, -1, -1, -1, -1, -1, -1, -1, -1, -1, -1, -1, -1, -1, -1, -1, -1], "split_conditions": [0.42584258, 0.20872088, 0.6842684, 0.656, 0.48357144, 0.623, 0.9815, 0.12461246, 0.866, 0.37623763, 0.881875, 0.5072507, 0.3, 0.7321732, 0.023906043, 0.19428572, 0.24583334, -0.0684, 0.0037635018, 0.2, 0.2, 0.3, 0.6, -0.0268, 0.0070519433, 0.8426, 0.4980498, 0.009347706, 0.017420148, -0.009771962, 0.4311, -0.00706357, 0.3, 0.9411765, -0.002278147, 0.17233333, 0.24833333, 0.0028891654, 1.0, 0.0589, 0.3162316, 0.0068922564, 0.37953794, 0.1825, 0.4, 0.010228067, 0.017429782, 0.7455, 1.0130286, -0.007257777, -0.0006489522, -0.0009852228, -0.0051982976, 6.128615e-05, -0.0, -0.0026024706, -0.0, -0.004833289, -0.002079817, 0.00046609226, -0.00028930846, 0.0037866763, -0.0, -0.0010095596, 0.00081884157, 0.0026649935, -0.0, 0.00020263402, 0.00504898, 0.0003884004, -0.0004239683, 0.002048744, 0.0055670273, 0.007886696, 0.011802497], "split_indices": [0, 0, 0, 13, 13, 13, 13, 0, 13, 0, 13, 0, 2, 0, 0, 13, 13, 6, 0, 2, 2, 2, 2, 6, 0, 3, 0, 0, 0, 0, 5, 0, 2, 14, 0, 13, 13, 0, 11, 6, 0, 0, 0, 13, 2, 0, 0, 13, 13, 0, 0, 0, 0, 0, 0, 0, 0, 0, 0, 0, 0, 0, 0, 0, 0, 0, 0, 0, 0, 0, 0, 0, 0, 0, 0], "split_type": [0, 0, 0, 0, 0, 0, 0, 0, 0, 0, 0, 0, 0, 0, 0, 0, 0, 0, 0, 0, 0, 0, 0, 0, 0, 0, 0, 0, 0, 0, 0, 0, 0, 0, 0, 0, 0, 0, 0, 0, 0, 0, 0, 0, 0, 0, 0, 0, 0, 0, 0, 0, 0, 0, 0, 0, 0, 0, 0, 0, 0, 0, 0, 0, 0, 0, 0, 0, 0, 0, 0, 0, 0, 0, 0], "sum_hessian": [817.0, 587.0, 230.0, 315.0, 272.0, 172.0, 58.0, 297.0, 18.0, 159.0, 113.0, 58.0, 114.0, 36.0, 22.0, 153.0, 144.0, 14.0, 4.0, 142.0, 17.0, 79.0, 34.0, 30.0, 28.0, 35.0, 79.0, 10.0, 26.0, 115.0, 38.0, 115.0, 29.0, 6.0, 8.0, 42.0, 100.0, 5.0, 12.0, 21.0, 58.0, 17.0, 17.0, 15.0, 15.0, 23.0, 12.0, 27.0, 52.0, 35.0, 3.0, 9.0, 20.0, 3.0, 3.0, 23.0, 19.0, 66.0, 34.0, 7.0, 5.0, 17.0, 4.0, 28.0, 30.0, 14.0, 3.0, 6.0, 9.0, 12.0, 3.0, 7.0, 20.0, 32.0, 20.0], "tree_param": {"num_deleted": "0", "num_feature": "19", "num_nodes": "75", "size_leaf_vector": "1"}}, {"base_weights": [0.002475653, -0.08813237, 0.1902889, -0.14165902, -0.022743957, 0.11803129, 0.32367373, -0.17807035, -0.112435825, -0.054196425, 0.03847229, 0.05822778, 0.15377472, 0.2521888, 0.3986874, -0.009183607, -0.0046095033, -0.12327508, -0.029861042, -0.071132526, -0.022793956, 0.013886775, 0.085246444, 0.016271928, 0.1060976, 0.010618944, 0.120485656, 0.19047962, 0.015346855, 0.016100837, 0.024330692, -0.10369846, -0.00728933, -0.0025366459, -0.0, -0.04910106, -0.09110442, -0.0, -0.04509805, 0.005451154, -0.0, 0.006721881, 0.047626548, -0.0, 0.062727496, 0.006063238, -0.0, -0.0, 0.12645155, 0.011667368, 0.005933613, -0.0056186346, -0.0019660115, -0.00070084917, -0.0, -0.003729142, -0.00085766235, -0.0051383073, -0.0018153302, -0.00084155437, 0.0011675692, -0.0031115492, 0.00018606125, 0.00047575842, -0.0011899708, -0.0, 0.0030604645, 0.0018614028, -0.00075514906, 0.0065106126, -0.0, 0.0038483706, 0.007675773], "categories": [], "categories_nodes": [], "categories_segments": [], "categories_sizes": [], "default_left": [0, 0, 0, 0, 0, 0, 0, 0, 0, 0, 0, 0, 0, 0, 0, 0, 0, 0, 0, 0, 0, 0, 0, 0, 0, 0, 0, 0, 0, 0, 0, 0, 0, 0, 0, 0, 0, 0, 0, 0, 0, 0, 0, 0, 0, 0, 0, 0, 0, 0, 0, 0, 0, 0, 0, 0, 0, 0, 0, 0, 0, 0, 0, 0, 0, 0, 0, 0, 0, 0, 0, 0, 0], "id": 4, "left_children": [1, 3, 5, 7, 9, 11, 13, 15, 17, 19, 21, 23, 25, 27, 29, -1, -1, 31, 33, 35, 37, 39, 41, 43, 45, -1, 47, 49, -1, -1, -1, 51, -1, -1, 53, 55, 57, 59, 61, -1, 63, -1, 65, 67, 69, -1, -1, -1, 71, -1, -1, -1, -1, -1, -1, -1, -1, -1, -1, -1, -1, -1, -1, -1, -1, -1, -1, -1, -1, -1, -1, -1, -1], "loss_changes": [13.691947, 1.8773503, 2.4427996, 0.2669525, 0.47730637, 0.3375101, 0.32234192, 0.017540932, 0.13226867, 0.07620698, 0.08435012, 0.120600715, 0.14791822, 0.06071663, 0.04557705, 0.0, 0.0, 0.025156975, 0.008695113, 0.027267158, 0.035423107, 0.07221021, 0.025356084, 0.03322065, 0.044632614, 0.0, 0.040637374, 0.020218074, 0.0, 0.0, 0.0, 0.02787888, 0.0, 0.0, 0.0013753306, 0.033507764, 0.01495254, 0.012428588, 0.03368432, 0.0, 0.01137023, 0.0, 0.007876318, 0.014719698, 0.041494016, 0.0, 0.0, 0.0, 0.054864764, 0.0, 0.0, 0.0, 0.0, 0.0, 0.0, 0.0, 0.0, 0.0, 0.0, 0.0, 0.0, 0.0, 0.0, 0.0, 0.0, 0.0, 0.0, 0.0, 0.0, 0.0, 0.0, 0.0, 0.0], "parents": [2147483647, 0, 0, 1, 1, 2, 2, 3, 3, 4, 4, 5, 5, 6, 6, 7, 7, 8, 8, 9, 9, 10, 10, 11, 11, 12, 12, 13, 13, 14, 14, 17, 17, 18, 18, 19, 19, 20, 20, 21, 21, 22, 22, 23, 23, 24, 24, 26, 26, 27, 27, 31, 31, 34, 34, 35, 35, 36, 36, 37, 37, 38, 38, 40, 40, 42, 42, 43, 43, 44, 44, 48, 48], "right_children": [2, 4, 6, 8, 10, 12, 14, 16, 18, 20, 22, 24, 26, 28, 30, -1, -1, 32, 34, 36, 38, 40, 42, 44, 46, -1, 48, 50, -1, -1, -1, 52, -1, -1, 54, 56, 58, 60, 62, -1, 64, -1, 66, 68, 70, -1, -1, -1, 72, -1, -1, -1, -1, -1, -1, -1, -1, -1, -1, -1, -1, -1, -1, -1, -1, -1, -1, -1, -1, -1, -1, -1, -1], "split_conditions": [0.3860386, 0.20872088, 0.60556054, 0.11631163, 0.54, 0.616, 0.7435744, 0.24833333, 0.572, 0.30543053, 0.874375, 0.48234823, 0.3, 0.9165, 0.996, -0.009183607, -0.0046095033, 0.4, 0.052913792, 0.3, 0.3, 0.2, 0.5, 0.446, 0.025, 0.010618944, 0.71428573, 0.9375, 0.015346855, 0.016100837, 0.024330692, 0.243, -0.00728933, -0.0025366459, 0.6483333, 0.15375, 0.37214285, 0.3278328, 0.39083335, 0.005451154, 0.7, 0.006721881, 0.941, 0.7, 0.2, 0.006063238, -0.0, -0.0, 0.866, 0.011667368, 0.005933613, -0.0056186346, -0.0019660115, -0.00070084917, -0.0, -0.003729142, -0.00085766235, -0.0051383073, -0.0018153302, -0.00084155437, 0.0011675692, -0.0031115492, 0.00018606125, 0.00047575842, -0.0011899708, -0.0, 0.0030604645, 0.0018614028, -0.00075514906, 0.0065106126, -0.0, 0.0038483706, 0.007675773], "split_indices": [0, 0, 0, 0, 13, 13, 0, 13, 13, 0, 13, 0, 2, 13, 13, 0, 0, 2, 16, 2, 2, 2, 2, 13, 6, 0, 1, 1, 0, 0, 0, 13, 0, 0, 3, 13, 13, 0, 13, 0, 2, 0, 13, 1, 2, 0, 0, 0, 13, 0, 0, 0, 0, 0, 0, 0, 0, 0, 0, 0, 0, 0, 0, 0, 0, 0, 0, 0, 0, 0, 0, 0, 0], "split_type": [0, 0, 0, 0, 0, 0, 0, 0, 0, 0, 0, 0, 0, 0, 0, 0, 0, 0, 0, 0, 0, 0, 0, 0, 0, 0, 0, 0, 0, 0, 0, 0, 0, 0, 0, 0, 0, 0, 0, 0, 0, 0, 0, 0, 0, 0, 0, 0, 0, 0, 0, 0, 0, 0, 0, 0, 0, 0, 0, 0, 0, 0, 0, 0, 0, 0, 0, 0, 0, 0, 0, 0, 0], "sum_hessian": [802.0, 541.0, 261.0, 296.0, 245.0, 171.0, 90.0, 128.0, 168.0, 163.0, 82.0, 66.0, 105.0, 49.0, 41.0, 118.0, 10.0, 147.0, 21.0, 103.0, 60.0, 56.0, 26.0, 37.0, 29.0, 35.0, 70.0, 26.0, 23.0, 25.0, 16.0, 84.0, 63.0, 10.0, 11.0, 53.0, 50.0, 28.0, 32.0, 6.0, 50.0, 9.0, 17.0, 27.0, 10.0, 25.0, 4.0, 4.0, 66.0, 14.0, 12.0, 72.0, 12.0, 6.0, 5.0, 27.0, 26.0, 39.0, 11.0, 14.0, 14.0, 25.0, 7.0, 37.0, 13.0, 5.0, 12.0, 6.0, 21.0, 4.0, 6.0, 26.0, 40.0], "tree_param": {"num_deleted": "0", "num_feature": "19", "num_nodes": "73", "size_leaf_vector": "1"}}, {"base_weights": [-0.0016661655, -0.07495713, 0.15628937, -0.1092736, 0.012178865, 0.11965323, 0.36646944, -0.053534318, -0.12645455, -0.013713334, 0.12816884, 0.16754897, 0.025958072, 0.0038662262, 0.38618687, -0.06677256, 0.003757807, -0.1441428, -0.06998939, 0.008240853, -0.055253603, 0.2156045, 0.05234481, 0.13483672, 0.014967866, -0.0, 0.13389546, 0.015263266, 0.023353228, -0.08375836, -0.0051462385, -0.122183464, -0.008148483, -0.022512214, -0.108688556, -0.009102885, 0.0031433117, -0.07539556, 0.0014434153, 0.01266776, 0.0021163304, -0.0, 0.004676281, -0.0, 0.14681415, 0.020756138, -0.057646874, 0.0027706733, 0.008447431, -0.0058884015, -0.002279451, -0.0017015871, 0.0011459771, -0.006495745, -0.0009392529, -0.0019158678, 0.0018206148, -0.006322247, -0.0033395705, 0.0022394438, -0.0012839498, -0.0, -0.004247462, -0.0, 0.0011177149, 0.0020746395, -0.0013251724, -0.0011795564, 0.002595, -9.208853e-05, 0.0075943233, 9.354184e-05, 0.0031882485, -0.0038703408, -0.0], "categories": [], "categories_nodes": [], "categories_segments": [], "categories_sizes": [], "default_left": [0, 0, 0, 0, 0, 0, 0, 0, 0, 0, 0, 0, 0, 0, 0, 0, 0, 0, 0, 0, 0, 0, 0, 0, 0, 0, 0, 0, 0, 0, 0, 0, 0, 0, 0, 0, 0, 0, 0, 0, 0, 0, 0, 0, 0, 0, 0, 0, 0, 0, 0, 0, 0, 0, 0, 0, 0, 0, 0, 0, 0, 0, 0, 0, 0, 0, 0, 0, 0, 0, 0, 0, 0, 0, 0], "id": 5, "left_children": [1, 3, 5, 7, 9, 11, 13, 15, 17, 19, 21, 23, 25, -1, 27, 29, -1, 31, 33, 35, 37, 39, 41, 43, -1, 45, 47, -1, -1, 49, 51, 53, -1, 55, 57, 59, -1, 61, 63, -1, -1, 65, -1, 67, 69, 71, 73, -1, -1, -1, -1, -1, -1, -1, -1, -1, -1, -1, -1, -1, -1, -1, -1, -1, -1, -1, -1, -1, -1, -1, -1, -1, -1, -1, -1], "loss_changes": [9.577525, 1.7034931, 1.9249868, 0.36499643, 0.49372083, 0.98600936, 0.14043236, 0.17283985, 0.27711868, 0.12462635, 0.16081098, 0.55435514, 0.2163618, 0.0, 0.009254932, 0.08593479, 0.0, 0.0479002, 0.12590733, 0.0864783, 0.061177537, 0.044745862, 0.038150776, 0.19264436, 0.0, 0.07717298, 0.009467423, 0.0, 0.0, 0.069164276, 0.019726485, 0.07382333, 0.0, 0.036044203, 0.0027325153, 0.05641136, 0.0, 0.019065857, 0.0024735718, 0.0, 0.0, 0.011101202, 0.0, 0.01522677, 0.09898138, 0.03230439, 0.021399856, 0.0, 0.0, 0.0, 0.0, 0.0, 0.0, 0.0, 0.0, 0.0, 0.0, 0.0, 0.0, 0.0, 0.0, 0.0, 0.0, 0.0, 0.0, 0.0, 0.0, 0.0, 0.0, 0.0, 0.0, 0.0, 0.0, 0.0, 0.0], "parents": [2147483647, 0, 0, 1, 1, 2, 2, 3, 3, 4, 4, 5, 5, 6, 6, 7, 7, 8, 8, 9, 9, 10, 10, 11, 11, 12, 12, 14, 14, 15, 15, 17, 17, 18, 18, 19, 19, 20, 20, 21, 21, 22, 22, 23, 23, 25, 25, 26, 26, 29, 29, 30, 30, 31, 31, 33, 33, 34, 34, 35, 35, 37, 37, 38, 38, 41, 41, 43, 43, 44, 44, 45, 45, 46, 46], "right_children": [2, 4, 6, 8, 10, 12, 14, 16, 18, 20, 22, 24, 26, -1, 28, 30, -1, 32, 34, 36, 38, 40, 42, 44, -1, 46, 48, -1, -1, 50, 52, 54, -1, 56, 58, 60, -1, 62, 64, -1, -1, 66, -1, 68, 70, 72, 74, -1, -1, -1, -1, -1, -1, -1, -1, -1, -1, -1, -1, -1, -1, -1, -1, -1, -1, -1, -1, -1, -1, -1, -1, -1, -1, -1, -1], "split_conditions": [0.7709444, 0.323, 0.907, 0.2, 1.0, 0.6, 0.0093, 0.853, 0.5172262, 0.5, 0.6, 1.0219005, 1.01424, 0.0038662262, 0.9715, 0.4045102, 0.003757807, 0.4, 0.5, 0.6675, 0.773, 0.069, 0.5845, -0.0824, 0.014967866, 1.0, 1.03176, 0.015263266, 0.023353228, 0.64705884, 0.0585675, 0.22416666, -0.008148483, 0.6852152, 0.8006667, 0.2, 0.0031433117, 0.7647059, 0.941, 0.01266776, 0.0021163304, 0.9, 0.004676281, 0.94117695, 0.122857146, 1.0219005, 0.9595, 0.0027706733, 0.008447431, -0.0058884015, -0.002279451, -0.0017015871, 0.0011459771, -0.006495745, -0.0009392529, -0.0019158678, 0.0018206148, -0.006322247, -0.0033395705, 0.0022394438, -0.0012839498, -0.0, -0.004247462, -0.0, 0.0011177149, 0.0020746395, -0.0013251724, -0.0011795564, 0.002595, -9.208853e-05, 0.0075943233, 9.354184e-05, 0.0031882485, -0.0038703408, -0.0], "split_indices": [15, 13, 3, 2, 9, 2, 17, 3, 15, 2, 2, 15, 13, 0, 13, 15, 0, 2, 2, 13, 13, 5, 13, 5, 0, 4, 13, 0, 0, 14, 17, 13, 0, 15, 3, 2, 0, 14, 13, 0, 0, 2, 0, 15, 13, 15, 13, 0, 0, 0, 0, 0, 0, 0, 0, 0, 0, 0, 0, 0, 0, 0, 0, 0, 0, 0, 0, 0, 0, 0, 0, 0, 0, 0, 0], "split_type": [0, 0, 0, 0, 0, 0, 0, 0, 0, 0, 0, 0, 0, 0, 0, 0, 0, 0, 0, 0, 0, 0, 0, 0, 0, 0, 0, 0, 0, 0, 0, 0, 0, 0, 0, 0, 0, 0, 0, 0, 0, 0, 0, 0, 0, 0, 0, 0, 0, 0, 0, 0, 0, 0, 0, 0, 0, 0, 0, 0, 0, 0, 0, 0, 0, 0, 0, 0, 0, 0, 0, 0, 0, 0, 0], "sum_hessian": [826.0, 565.0, 261.0, 406.0, 159.0, 224.0, 37.0, 98.0, 308.0, 130.0, 29.0, 147.0, 77.0, 3.0, 34.0, 90.0, 8.0, 232.0, 76.0, 84.0, 46.0, 12.0, 17.0, 120.0, 27.0, 63.0, 14.0, 20.0, 14.0, 69.0, 21.0, 113.0, 119.0, 36.0, 40.0, 63.0, 21.0, 35.0, 11.0, 9.0, 3.0, 8.0, 9.0, 10.0, 110.0, 47.0, 16.0, 6.0, 8.0, 34.0, 35.0, 12.0, 9.0, 104.0, 9.0, 30.0, 6.0, 25.0, 15.0, 13.0, 50.0, 5.0, 30.0, 7.0, 4.0, 3.0, 5.0, 7.0, 3.0, 3.0, 107.0, 35.0, 12.0, 12.0, 4.0], "tree_param": {"num_deleted": "0", "num_feature": "19", "num_nodes": "75", "size_leaf_vector": "1"}}, {"base_weights": [-0.00017591384, -0.07052736, 0.15232083, -0.10263585, 0.0074667884, 0.12020304, 0.34069517, -0.044446535, -0.12127964, -0.01279397, 0.10357762, 0.17247848, 0.051645484, 0.012771799, 0.021818116, -0.063725546, 0.059812363, -0.13751213, -0.07389067, 0.08918811, -0.029370552, 0.15005013, -0.0052557695, 0.15366146, 0.01798723, 0.018841375, 0.14647293, -0.07532553, -0.0034678117, 0.09307273, -0.001496091, -0.11605324, -0.007839601, -0.031158926, -0.112275146, 0.0028152117, 0.0071712667, -0.050393596, 0.015969368, 0.000111514986, 0.16900732, -0.0017518811, 0.0007865475, -0.0, 0.16000947, 0.045090623, -0.04928613, 0.0036275107, 0.18694985, -0.004388005, -0.0016360425, -0.0018168526, 0.0004943719, 0.00060722616, 0.0059759384, -0.005961046, -0.0, -0.0023117722, 0.0022656948, -0.006690211, -0.0032684382, -0.00083669036, -0.003802269, 0.0016495284, -0.0006244455, 0.010992472, 0.004817434, 0.005803083, 0.009716812, -0.00029513944, 0.0032543004, -0.0036176692, -0.0, 0.0026557483, 0.010476536], "categories": [], "categories_nodes": [], "categories_segments": [], "categories_sizes": [], "default_left": [0, 0, 0, 0, 0, 0, 0, 0, 0, 0, 0, 0, 0, 0, 0, 0, 0, 0, 0, 0, 0, 0, 0, 0, 0, 0, 0, 0, 0, 0, 0, 0, 0, 0, 0, 0, 0, 0, 0, 0, 0, 0, 0, 0, 0, 0, 0, 0, 0, 0, 0, 0, 0, 0, 0, 0, 0, 0, 0, 0, 0, 0, 0, 0, 0, 0, 0, 0, 0, 0, 0, 0, 0, 0, 0], "id": 6, "left_children": [1, 3, 5, 7, 9, 11, 13, 15, 17, 19, 21, 23, 25, -1, -1, 27, 29, 31, 33, 35, 37, 39, 41, 43, -1, 45, 47, 49, 51, 53, -1, 55, -1, 57, 59, -1, -1, 61, 63, -1, 65, -1, -1, -1, 67, 69, 71, -1, 73, -1, -1, -1, -1, -1, -1, -1, -1, -1, -1, -1, -1, -1, -1, -1, -1, -1, -1, -1, -1, -1, -1, -1, -1, -1, -1], "loss_changes": [8.638899, 1.3926427, 1.4497008, 0.40330553, 0.32391536, 0.75354886, 0.11299181, 0.20118374, 0.1956253, 0.22147612, 0.16194317, 0.32680655, 0.28244957, 0.0, 0.0, 0.050574422, 0.053868867, 0.04429722, 0.111736804, 0.0040551275, 0.11481642, 0.04134649, 0.008107052, 0.124583006, 0.0, 0.13413669, 0.032298684, 0.021634549, 0.010027872, 0.011064939, 0.0, 0.03859389, 0.0, 0.048305012, 0.011730194, 0.0, 0.0, 0.05938767, 0.019900363, 0.0, 0.013692141, 0.0, 0.0, 0.0, 0.11234975, 0.062382303, 0.024707712, 0.0, 0.004915744, 0.0, 0.0, 0.0, 0.0, 0.0, 0.0, 0.0, 0.0, 0.0, 0.0, 0.0, 0.0, 0.0, 0.0, 0.0, 0.0, 0.0, 0.0, 0.0, 0.0, 0.0, 0.0, 0.0, 0.0, 0.0, 0.0], "parents": [2147483647, 0, 0, 1, 1, 2, 2, 3, 3, 4, 4, 5, 5, 6, 6, 7, 7, 8, 8, 9, 9, 10, 10, 11, 11, 12, 12, 15, 15, 16, 16, 17, 17, 18, 18, 19, 19, 20, 20, 21, 21, 22, 22, 23, 23, 25, 25, 26, 26, 27, 27, 28, 28, 29, 29, 31, 31, 33, 33, 34, 34, 37, 37, 38, 38, 40, 40, 44, 44, 45, 45, 46, 46, 48, 48], "right_children": [2, 4, 6, 8, 10, 12, 14, 16, 18, 20, 22, 24, 26, -1, -1, 28, 30, 32, 34, 36, 38, 40, 42, 44, -1, 46, 48, 50, 52, 54, -1, 56, -1, 58, 60, -1, -1, 62, 64, -1, 66, -1, -1, -1, 68, 70, 72, -1, 74, -1, -1, -1, -1, -1, -1, -1, -1, -1, -1, -1, -1, -1, -1, -1, -1, -1, -1, -1, -1, -1, -1, -1, -1, -1, -1], "split_conditions": [0.7709444, 0.323, 0.907, 0.2, 1.0, 0.5, 0.841, 0.744, 0.50707626, 0.2, 1.0, 1.05568, 1.0083429, 0.012771799, 0.021818116, 0.4045102, 0.0521, 0.4, 0.5, 0.67146295, 0.6675, 0.505713, -0.07688311, 0.098125, 0.01798723, 0.9, 0.984375, 0.526, 0.15428571, 0.06928571, -0.001496091, 0.25071427, -0.007839601, 0.6852152, 0.74266666, 0.0028152117, 0.0071712667, 0.4, 0.6, 0.000111514986, 0.57037145, -0.0017518811, 0.0007865475, -0.0, 0.9061104, 0.84901136, 1.0312865, 0.0036275107, 0.678, -0.004388005, -0.0016360425, -0.0018168526, 0.0004943719, 0.00060722616, 0.0059759384, -0.005961046, -0.0, -0.0023117722, 0.0022656948, -0.006690211, -0.0032684382, -0.00083669036, -0.003802269, 0.0016495284, -0.0006244455, 0.010992472, 0.004817434, 0.005803083, 0.009716812, -0.00029513944, 0.0032543004, -0.0036176692, -0.0, 0.0026557483, 0.010476536], "split_indices": [15, 13, 3, 2, 9, 2, 13, 3, 15, 2, 2, 15, 13, 0, 0, 15, 5, 2, 2, 15, 13, 15, 16, 13, 0, 2, 1, 3, 13, 13, 0, 13, 0, 15, 3, 0, 0, 2, 2, 0, 15, 0, 0, 0, 15, 15, 15, 0, 3, 0, 0, 0, 0, 0, 0, 0, 0, 0, 0, 0, 0, 0, 0, 0, 0, 0, 0, 0, 0, 0, 0, 0, 0, 0, 0], "split_type": [0, 0, 0, 0, 0, 0, 0, 0, 0, 0, 0, 0, 0, 0, 0, 0, 0, 0, 0, 0, 0, 0, 0, 0, 0, 0, 0, 0, 0, 0, 0, 0, 0, 0, 0, 0, 0, 0, 0, 0, 0, 0, 0, 0, 0, 0, 0, 0, 0, 0, 0, 0, 0, 0, 0, 0, 0, 0, 0, 0, 0, 0, 0, 0, 0, 0, 0, 0, 0, 0, 0, 0, 0, 0, 0], "sum_hessian": [804.0, 551.0, 253.0, 391.0, 160.0, 218.0, 35.0, 97.0, 294.0, 132.0, 28.0, 122.0, 96.0, 21.0, 14.0, 83.0, 14.0, 216.0, 78.0, 17.0, 115.0, 20.0, 8.0, 113.0, 9.0, 73.0, 23.0, 68.0, 15.0, 11.0, 3.0, 108.0, 108.0, 39.0, 39.0, 13.0, 4.0, 80.0, 35.0, 3.0, 17.0, 5.0, 3.0, 4.0, 109.0, 54.0, 19.0, 10.0, 13.0, 50.0, 18.0, 6.0, 9.0, 4.0, 7.0, 105.0, 3.0, 34.0, 5.0, 24.0, 15.0, 37.0, 43.0, 24.0, 11.0, 8.0, 9.0, 51.0, 58.0, 14.0, 40.0, 13.0, 6.0, 3.0, 10.0], "tree_param": {"num_deleted": "0", "num_feature": "19", "num_nodes": "75", "size_leaf_vector": "1"}}, {"base_weights": [0.003592251, -0.06767164, 0.15651812, -0.09982445, 0.0102978265, 0.12525064, 0.32996702, -0.07281899, -0.13220006, -0.012308278, 0.11628776, 0.09536812, 0.26696014, 0.22198007, 0.019693378, -0.088775136, -0.0, -0.0073837484, -0.08375523, 0.07892655, -0.029232068, 0.16475946, -0.0, 0.14304523, 0.028071417, 0.011297445, 0.018744111, 0.012733, 0.0036308102, -0.09699839, -0.0, 0.0035698356, -0.01035239, -0.005428707, -0.037508663, 0.008758953, 0.10122988, -0.050669115, 0.005832205, 0.19660547, 0.0037966997, -0.0012485712, 0.0007778137, 0.100545764, 0.17741002, -0.041741364, 0.042912245, -0.0058009494, -0.0033260416, -0.0014324068, 0.0025383688, -0.00094860716, 0.00032518883, 0.00026523136, -0.0027972923, 0.0018625197, -0.0, 0.0005339007, 0.0057932097, -0.003044314, 0.00043829676, 0.00088424346, -0.0005007457, 0.01191702, 0.0042284424, 0.005462793, -0.00020559198, 0.0022082783, 0.0093823215, -0.0035573393, 0.0008603766, -0.0, 0.0028221572], "categories": [], "categories_nodes": [], "categories_segments": [], "categories_sizes": [], "default_left": [0, 0, 0, 0, 0, 0, 0, 0, 0, 0, 0, 0, 0, 0, 0, 0, 0, 0, 0, 0, 0, 0, 0, 0, 0, 0, 0, 0, 0, 0, 0, 0, 0, 0, 0, 0, 0, 0, 0, 0, 0, 0, 0, 0, 0, 0, 0, 0, 0, 0, 0, 0, 0, 0, 0, 0, 0, 0, 0, 0, 0, 0, 0, 0, 0, 0, 0, 0, 0, 0, 0, 0, 0], "id": 7, "left_children": [1, 3, 5, 7, 9, 11, 13, 15, 17, 19, 21, 23, 25, 27, -1, 29, 31, -1, 33, 35, 37, 39, 41, 43, 45, -1, -1, -1, -1, 47, 49, -1, 51, -1, 53, 55, 57, 59, 61, 63, -1, -1, -1, 65, 67, 69, 71, -1, -1, -1, -1, -1, -1, -1, -1, -1, -1, -1, -1, -1, -1, -1, -1, -1, -1, -1, -1, -1, -1, -1, -1, -1, -1], "loss_changes": [8.770645, 1.3837824, 1.301517, 0.30998158, 0.39519238, 0.86569333, 0.11320019, 0.24957871, 0.09493232, 0.20115088, 0.1778968, 0.5660305, 0.01897502, 0.031760395, 0.0, 0.13867474, 0.02934564, 0.0, 0.03411758, 0.019413866, 0.089718424, 0.017220497, 0.004709423, 0.109178066, 0.08272251, 0.0, 0.0, 0.0, 0.0, 0.06851959, 0.025427723, 0.0, 0.0066008847, 0.0, 0.02035867, 0.005013332, 0.0046609044, 0.049468324, 0.008832991, 0.013014674, 0.0, 0.0, 0.0, 0.05745417, 0.04491222, 0.029152608, 0.040940844, 0.0, 0.0, 0.0, 0.0, 0.0, 0.0, 0.0, 0.0, 0.0, 0.0, 0.0, 0.0, 0.0, 0.0, 0.0, 0.0, 0.0, 0.0, 0.0, 0.0, 0.0, 0.0, 0.0, 0.0, 0.0, 0.0], "parents": [2147483647, 0, 0, 1, 1, 2, 2, 3, 3, 4, 4, 5, 5, 6, 6, 7, 7, 8, 8, 9, 9, 10, 10, 11, 11, 12, 12, 13, 13, 15, 15, 16, 16, 18, 18, 19, 19, 20, 20, 21, 21, 22, 22, 23, 23, 24, 24, 29, 29, 30, 30, 32, 32, 34, 34, 35, 35, 36, 36, 37, 37, 38, 38, 39, 39, 43, 43, 44, 44, 45, 45, 46, 46], "right_children": [2, 4, 6, 8, 10, 12, 14, 16, 18, 20, 22, 24, 26, 28, -1, 30, 32, -1, 34, 36, 38, 40, 42, 44, 46, -1, -1, -1, -1, 48, 50, -1, 52, -1, 54, 56, 58, 60, 62, 64, -1, -1, -1, 66, 68, 70, 72, -1, -1, -1, -1, -1, -1, -1, -1, -1, -1, -1, -1, -1, -1, -1, -1, -1, -1, -1, -1, -1, -1, -1, -1, -1, -1], "split_conditions": [0.77265626, 0.34, 0.907, 0.4, 1.0, 1.026, 0.8307143, 0.45875576, 0.54669285, 0.2, 1.0, 0.5, 1.05568, 0.7, 0.019693378, 0.793, 0.6, -0.0073837484, 0.74266666, 0.4175, 0.656, 0.9375, 0.54, 0.9061104, 0.78571427, 0.011297445, 0.018744111, 0.012733, 0.0036308102, 0.7058824, 0.24195011, 0.0035698356, 0.0707, -0.005428707, 0.5, 0.37214285, 0.61726564, 0.7836, 0.6, 0.0115, 0.0037966997, -0.0012485712, 0.0007778137, 0.2212, 0.487, 0.9595, 0.85371214, -0.0058009494, -0.0033260416, -0.0014324068, 0.0025383688, -0.00094860716, 0.00032518883, 0.00026523136, -0.0027972923, 0.0018625197, -0.0, 0.0005339007, 0.0057932097, -0.003044314, 0.00043829676, 0.00088424346, -0.0005007457, 0.01191702, 0.0042284424, 0.005462793, -0.00020559198, 0.0022082783, 0.0093823215, -0.0035573393, 0.0008603766, -0.0, 0.0028221572], "split_indices": [15, 13, 3, 2, 9, 13, 15, 15, 15, 2, 2, 2, 15, 2, 0, 3, 1, 0, 3, 13, 13, 1, 13, 15, 1, 0, 0, 0, 0, 14, 15, 0, 6, 0, 2, 13, 15, 3, 2, 6, 0, 0, 0, 6, 3, 13, 15, 0, 0, 0, 0, 0, 0, 0, 0, 0, 0, 0, 0, 0, 0, 0, 0, 0, 0, 0, 0, 0, 0, 0, 0, 0, 0], "split_type": [0, 0, 0, 0, 0, 0, 0, 0, 0, 0, 0, 0, 0, 0, 0, 0, 0, 0, 0, 0, 0, 0, 0, 0, 0, 0, 0, 0, 0, 0, 0, 0, 0, 0, 0, 0, 0, 0, 0, 0, 0, 0, 0, 0, 0, 0, 0, 0, 0, 0, 0, 0, 0, 0, 0, 0, 0, 0, 0, 0, 0, 0, 0, 0, 0, 0, 0, 0, 0, 0, 0, 0, 0], "sum_hessian": [802.0, 547.0, 255.0, 388.0, 159.0, 218.0, 37.0, 215.0, 173.0, 131.0, 28.0, 182.0, 36.0, 16.0, 21.0, 176.0, 39.0, 128.0, 45.0, 19.0, 112.0, 20.0, 8.0, 105.0, 77.0, 29.0, 7.0, 12.0, 4.0, 162.0, 14.0, 4.0, 35.0, 27.0, 18.0, 6.0, 13.0, 71.0, 41.0, 13.0, 7.0, 5.0, 3.0, 50.0, 55.0, 12.0, 65.0, 96.0, 66.0, 8.0, 6.0, 27.0, 8.0, 4.0, 14.0, 3.0, 3.0, 3.0, 10.0, 62.0, 9.0, 27.0, 14.0, 8.0, 5.0, 47.0, 3.0, 5.0, 50.0, 9.0, 3.0, 15.0, 50.0], "tree_param": {"num_deleted": "0", "num_feature": "19", "num_nodes": "73", "size_leaf_vector": "1"}}, {"base_weights": [-0.0024442892, -0.06757417, 0.17560819, -0.12115702, -0.01024659, 0.14879419, 0.01898769, -0.13054182, -0.0068256008, -0.041256998, 0.03267846, 0.11390109, 0.20705059, -0.14275232, -0.0047519645, 0.017243749, -0.0024058921, -0.052120853, 0.011740294, 0.07832481, 0.016847778, 0.052027717, 0.13036387, 0.14763044, 0.012814551, -0.007554078, -0.115471095, -0.0, 0.0037203783, -0.031878706, -0.07050555, -0.015031265, 0.030475838, -0.0, 0.09564479, 0.004382585, 0.059246544, 0.070765615, -0.0, 0.17195272, 0.1063453, 0.0077333907, 0.0014711905, -0.006067055, -0.0015321304, 5.230163e-05, -0.00047342267, -0.0023654697, -0.0002682716, -0.0036903464, -0.00028864536, -0.0, -0.0012029659, -0.0, 0.0025864693, 0.0006103634, -0.0, 0.005658941, 0.0018060564, 0.00053261925, -0.0013404686, -0.0, 0.0041508665, 8.392267e-05, 0.0040234756, -0.0, -0.00013461284, 0.009013752, 0.002181389, 0.0056783245, -0.0], "categories": [], "categories_nodes": [], "categories_segments": [], "categories_sizes": [], "default_left": [0, 0, 0, 0, 0, 0, 0, 0, 0, 0, 0, 0, 0, 0, 0, 0, 0, 0, 0, 0, 0, 0, 0, 0, 0, 0, 0, 0, 0, 0, 0, 0, 0, 0, 0, 0, 0, 0, 0, 0, 0, 0, 0, 0, 0, 0, 0, 0, 0, 0, 0, 0, 0, 0, 0, 0, 0, 0, 0, 0, 0, 0, 0, 0, 0, 0, 0, 0, 0, 0, 0], "id": 8, "left_children": [1, 3, 5, 7, 9, 11, -1, 13, 15, 17, 19, 21, 23, 25, -1, 27, -1, 29, 31, 33, 35, 37, 39, 41, -1, -1, 43, 45, -1, 47, 49, 51, 53, 55, 57, 59, 61, 63, 65, 67, 69, -1, -1, -1, -1, -1, -1, -1, -1, -1, -1, -1, -1, -1, -1, -1, -1, -1, -1, -1, -1, -1, -1, -1, -1, -1, -1, -1, -1, -1, -1], "loss_changes": [9.3594675, 1.8041084, 1.0730157, 0.31263065, 0.38556954, 0.3366413, 0.0, 0.084468365, 0.028764075, 0.10195258, 0.07587667, 0.101285696, 0.12658286, 0.0024819374, 0.0, 0.017685737, 0.0, 0.040358633, 0.016046777, 0.032493785, 0.04200024, 0.031671368, 0.0497787, 0.0061551332, 0.0, 0.0, 0.008470237, 0.00045701145, 0.0, 0.023935184, 0.006789118, 0.0017925655, 0.009112535, 0.00059606956, 0.004986733, 0.013141866, 0.02290149, 0.006399259, 3.6241236e-05, 0.0039194226, 0.038734853, 0.0, 0.0, 0.0, 0.0, 0.0, 0.0, 0.0, 0.0, 0.0, 0.0, 0.0, 0.0, 0.0, 0.0, 0.0, 0.0, 0.0, 0.0, 0.0, 0.0, 0.0, 0.0, 0.0, 0.0, 0.0, 0.0, 0.0, 0.0, 0.0, 0.0], "parents": [2147483647, 0, 0, 1, 1, 2, 2, 3, 3, 4, 4, 5, 5, 7, 7, 8, 8, 9, 9, 10, 10, 11, 11, 12, 12, 13, 13, 15, 15, 17, 17, 18, 18, 19, 19, 20, 20, 21, 21, 22, 22, 23, 23, 26, 26, 27, 27, 29, 29, 30, 30, 31, 31, 32, 32, 33, 33, 34, 34, 35, 35, 36, 36, 37, 37, 38, 38, 39, 39, 40, 40], "right_children": [2, 4, 6, 8, 10, 12, -1, 14, 16, 18, 20, 22, 24, 26, -1, 28, -1, 30, 32, 34, 36, 38, 40, 42, -1, -1, 44, 46, -1, 48, 50, 52, 54, 56, 58, 60, 62, 64, 66, 68, 70, -1, -1, -1, -1, -1, -1, -1, -1, -1, -1, -1, -1, -1, -1, -1, -1, -1, -1, -1, -1, -1, -1, -1, -1, -1, -1, -1, -1, -1, -1], "split_conditions": [0.42584258, 0.20872088, 0.86358637, 0.54, 0.5005, 0.5789579, 0.01898769, 0.15851586, 0.5, 0.36333632, 0.3, 0.39785713, 0.7575, 0.190625, -0.0047519645, 0.811, -0.0024058921, 0.3, -0.39235803, 0.5555, 0.9595, 0.0247, 0.3, 0.7, 0.012814551, -0.007554078, 1.0, 1.0, 0.0037203783, 0.17233333, 1.0, -0.0222, 0.638, 0.547, 0.08837678, 0.25, 0.019136906, 0.4520452, 0.7312, 0.3187305, 0.108, 0.0077333907, 0.0014711905, -0.006067055, -0.0015321304, 5.230163e-05, -0.00047342267, -0.0023654697, -0.0002682716, -0.0036903464, -0.00028864536, -0.0, -0.0012029659, -0.0, 0.0025864693, 0.0006103634, -0.0, 0.005658941, 0.0018060564, 0.00053261925, -0.0013404686, -0.0, 0.0041508665, 8.392267e-05, 0.0040234756, -0.0, -0.00013461284, 0.009013752, 0.002181389, 0.0056783245, -0.0], "split_indices": [0, 0, 0, 13, 13, 0, 0, 0, 2, 0, 2, 13, 13, 13, 0, 13, 0, 2, 16, 13, 13, 6, 2, 2, 0, 0, 9, 14, 0, 13, 14, 6, 3, 13, 16, 4, 16, 0, 3, 17, 6, 0, 0, 0, 0, 0, 0, 0, 0, 0, 0, 0, 0, 0, 0, 0, 0, 0, 0, 0, 0, 0, 0, 0, 0, 0, 0, 0, 0, 0, 0], "split_type": [0, 0, 0, 0, 0, 0, 0, 0, 0, 0, 0, 0, 0, 0, 0, 0, 0, 0, 0, 0, 0, 0, 0, 0, 0, 0, 0, 0, 0, 0, 0, 0, 0, 0, 0, 0, 0, 0, 0, 0, 0, 0, 0, 0, 0, 0, 0, 0, 0, 0, 0, 0, 0, 0, 0, 0, 0, 0, 0, 0, 0, 0, 0, 0, 0, 0, 0, 0, 0, 0, 0], "sum_hessian": [806.0, 591.0, 215.0, 304.0, 287.0, 192.0, 23.0, 280.0, 24.0, 168.0, 119.0, 123.0, 69.0, 204.0, 76.0, 14.0, 10.0, 141.0, 27.0, 28.0, 91.0, 28.0, 95.0, 34.0, 35.0, 150.0, 54.0, 11.0, 3.0, 71.0, 70.0, 9.0, 18.0, 6.0, 22.0, 73.0, 18.0, 21.0, 7.0, 31.0, 64.0, 31.0, 3.0, 49.0, 5.0, 7.0, 4.0, 42.0, 29.0, 65.0, 5.0, 3.0, 6.0, 9.0, 9.0, 3.0, 3.0, 15.0, 7.0, 64.0, 9.0, 6.0, 12.0, 4.0, 17.0, 3.0, 4.0, 28.0, 3.0, 59.0, 5.0], "tree_param": {"num_deleted": "0", "num_feature": "19", "num_nodes": "71", "size_leaf_vector": "1"}}, {"base_weights": [0.0046505695, -0.05993428, 0.17830832, -0.11689024, -0.0099503165, 0.1208894, 0.28628153, -0.12755062, -0.05829476, -0.03755192, 0.03744152, 0.10129645, 0.19833677, 0.20433618, 0.016477264, -0.14498037, -0.10678459, -0.01697589, -0.07920351, -0.046177395, 0.00924417, 0.092734076, 0.014467984, 0.06931266, 0.13368364, 0.010900933, 0.0038223527, 0.01074095, 0.0030056976, -0.0073825605, -0.002692472, -0.005414789, -0.00073320576, -0.0, -0.0019364767, -0.0044186832, -0.0, -0.061871722, -0.026497882, 0.042857956, -0.013099194, 0.019420626, 0.0060315086, -0.0009110061, 0.06795736, 0.079608396, -0.0, 0.15158889, 0.081906505, -8.742369e-05, 0.0011527515, -0.0, -0.0031924327, 0.00037927862, -0.0019064164, -0.0, 0.0025027385, -0.0009651524, -0.0, -0.0, 0.00154063, 0.00012647637, -0.0014871419, 0.003961393, -0.0, -0.0, 0.004339663, -0.000103644656, 0.001029431, 0.005107825, 0.00921665, 0.0044937134, 0.000327539], "categories": [], "categories_nodes": [], "categories_segments": [], "categories_sizes": [], "default_left": [0, 0, 0, 0, 0, 0, 0, 0, 0, 0, 0, 0, 0, 0, 0, 0, 0, 0, 0, 0, 0, 0, 0, 0, 0, 0, 0, 0, 0, 0, 0, 0, 0, 0, 0, 0, 0, 0, 0, 0, 0, 0, 0, 0, 0, 0, 0, 0, 0, 0, 0, 0, 0, 0, 0, 0, 0, 0, 0, 0, 0, 0, 0, 0, 0, 0, 0, 0, 0, 0, 0, 0, 0], "id": 9, "left_children": [1, 3, 5, 7, 9, 11, 13, 15, 17, 19, 21, 23, 25, 27, -1, 29, 31, 33, 35, 37, 39, 41, 43, 45, 47, -1, -1, -1, -1, -1, -1, -1, -1, 49, -1, -1, -1, 51, 53, 55, 57, 59, -1, 61, 63, 65, 67, 69, 71, -1, -1, -1, -1, -1, -1, -1, -1, -1, -1, -1, -1, -1, -1, -1, -1, -1, -1, -1, -1, -1, -1, -1, -1], "loss_changes": [8.972621, 1.6430392, 1.270011, 0.14326024, 0.40954134, 0.16845465, 0.1416235, 0.041503906, 0.027914181, 0.084444284, 0.13274838, 0.09266651, 0.018660069, 0.0034368038, 0.0, 0.0006196499, 0.0014292002, 0.009812511, 0.011788189, 0.042029202, 0.026068633, 0.0490973, 0.07504339, 0.039557397, 0.016150951, 0.0, 0.0, 0.0, 0.0, 0.0, 0.0, 0.0, 0.0, 0.0021444806, 0.0, 0.0, 0.0, 0.010387212, 0.03505596, 0.0018450189, 0.0022994957, 0.0034465618, 0.0, 0.009145167, 0.008068807, 0.034428626, 0.0017256433, 0.015646458, 0.0005762428, 0.0, 0.0, 0.0, 0.0, 0.0, 0.0, 0.0, 0.0, 0.0, 0.0, 0.0, 0.0, 0.0, 0.0, 0.0, 0.0, 0.0, 0.0, 0.0, 0.0, 0.0, 0.0, 0.0, 0.0], "parents": [2147483647, 0, 0, 1, 1, 2, 2, 3, 3, 4, 4, 5, 5, 6, 6, 7, 7, 8, 8, 9, 9, 10, 10, 11, 11, 12, 12, 13, 13, 15, 15, 16, 16, 17, 17, 18, 18, 19, 19, 20, 20, 21, 21, 22, 22, 23, 23, 24, 24, 33, 33, 37, 37, 38, 38, 39, 39, 40, 40, 41, 41, 43, 43, 44, 44, 45, 45, 46, 46, 47, 47, 48, 48], "right_children": [2, 4, 6, 8, 10, 12, 14, 16, 18, 20, 22, 24, 26, 28, -1, 30, 32, 34, 36, 38, 40, 42, 44, 46, 48, -1, -1, -1, -1, -1, -1, -1, -1, 50, -1, -1, -1, 52, 54, 56, 58, 60, -1, 62, 64, 66, 68, 70, 72, -1, -1, -1, -1, -1, -1, -1, -1, -1, -1, -1, -1, -1, -1, -1, -1, -1, -1, -1, -1, -1, -1, -1, -1], "split_conditions": [0.43314332, 0.19121912, 0.640164, 0.24428572, 0.57, 1.01424, 0.747, 0.11631163, 0.4, 0.36333632, 0.3, 0.5072507, 0.9, 0.15675546, 0.016477264, 0.5487, 0.85371214, -0.048, 0.29845786, 0.21041666, 0.2, 0.67146295, 0.9595, 0.1074, 0.5, 0.010900933, 0.0038223527, 0.01074095, 0.0030056976, -0.0073825605, -0.002692472, -0.005414789, -0.00073320576, -0.0647, -0.0019364767, -0.0044186832, -0.0, -0.1437, 0.2, 0.3689369, 0.11247857, 0.183457, 0.0060315086, 0.25, 0.25, 0.0071592857, 1.0, 0.623, 0.9365, -8.742369e-05, 0.0011527515, -0.0, -0.0031924327, 0.00037927862, -0.0019064164, -0.0, 0.0025027385, -0.0009651524, -0.0, -0.0, 0.00154063, 0.00012647637, -0.0014871419, 0.003961393, -0.0, -0.0, 0.004339663, -0.000103644656, 0.001029431, 0.005107825, 0.00921665, 0.0044937134, 0.000327539], "split_indices": [0, 0, 0, 13, 13, 13, 13, 0, 2, 0, 2, 0, 2, 17, 0, 5, 15, 6, 17, 13, 2, 15, 13, 6, 2, 0, 0, 0, 0, 0, 0, 0, 0, 5, 0, 0, 0, 5, 2, 0, 17, 17, 0, 4, 4, 17, 18, 13, 13, 0, 0, 0, 0, 0, 0, 0, 0, 0, 0, 0, 0, 0, 0, 0, 0, 0, 0, 0, 0, 0, 0, 0, 0], "split_type": [0, 0, 0, 0, 0, 0, 0, 0, 0, 0, 0, 0, 0, 0, 0, 0, 0, 0, 0, 0, 0, 0, 0, 0, 0, 0, 0, 0, 0, 0, 0, 0, 0, 0, 0, 0, 0, 0, 0, 0, 0, 0, 0, 0, 0, 0, 0, 0, 0, 0, 0, 0, 0, 0, 0, 0, 0, 0, 0, 0, 0, 0, 0, 0, 0, 0, 0, 0, 0, 0, 0, 0, 0], "sum_hessian": [797.0, 581.0, 216.0, 270.0, 311.0, 143.0, 73.0, 226.0, 44.0, 198.0, 113.0, 117.0, 26.0, 28.0, 45.0, 117.0, 109.0, 17.0, 27.0, 169.0, 29.0, 31.0, 82.0, 62.0, 55.0, 21.0, 5.0, 25.0, 3.0, 112.0, 5.0, 106.0, 3.0, 8.0, 9.0, 23.0, 4.0, 90.0, 79.0, 13.0, 16.0, 10.0, 21.0, 63.0, 19.0, 53.0, 9.0, 38.0, 17.0, 5.0, 3.0, 3.0, 87.0, 18.0, 61.0, 3.0, 10.0, 13.0, 3.0, 3.0, 7.0, 54.0, 9.0, 15.0, 4.0, 4.0, 49.0, 6.0, 3.0, 18.0, 20.0, 14.0, 3.0], "tree_param": {"num_deleted": "0", "num_feature": "19", "num_nodes": "73", "size_leaf_vector": "1"}}, {"base_weights": [0.0016434519, -0.059350014, 0.16591898, -0.09691045, -0.0, 0.09992212, 0.25273663, -0.13096009, -0.0714873, -0.01920896, 0.024160014, 0.045207158, 0.12653683, 0.19969746, 0.32121086, -0.0066373344, -0.00028881087, -0.0824864, -0.0078895185, -0.030626908, 0.023794634, 0.05880297, 0.0050648213, -0.0, 0.07080834, 0.13892683, 0.06714479, 0.2091253, 0.0019911544, 0.016857821, 0.0062674815, -0.047661494, -0.09194671, -0.028709956, 0.062233593, -0.03744547, 0.027893981, 0.049807653, -0.0, 0.01803778, 0.005264369, -0.015031158, 0.034057543, 0.0003752046, -0.010620718, -0.0, 0.08230656, 0.00716377, 0.0017739952, 0.005213411, 0.031560715, 0.0073702196, 0.011689939, -0.0038977922, -0.00037252365, -0.005006114, -0.003040635, -0.0, -0.0017304169, 0.004422271, -0.0, -0.0, -0.0019549779, 0.0022873932, -0.0, -0.0, 0.00379967, 0.00026257717, -0.00027548356, -0.0, 0.0028024192, -6.6708984e-05, -0.002096459, 0.0001870822, 0.0027997424, -0.0012744354, -0.0, 0.006825427, 0.0024944793, 0.002287455, -0.0], "categories": [], "categories_nodes": [], "categories_segments": [], "categories_sizes": [], "default_left": [0, 0, 0, 0, 0, 0, 0, 0, 0, 0, 0, 0, 0, 0, 0, 0, 0, 0, 0, 0, 0, 0, 0, 0, 0, 0, 0, 0, 0, 0, 0, 0, 0, 0, 0, 0, 0, 0, 0, 0, 0, 0, 0, 0, 0, 0, 0, 0, 0, 0, 0, 0, 0, 0, 0, 0, 0, 0, 0, 0, 0, 0, 0, 0, 0, 0, 0, 0, 0, 0, 0, 0, 0, 0, 0, 0, 0, 0, 0, 0, 0], "id": 10, "left_children": [1, 3, 5, 7, 9, 11, 13, 15, 17, 19, 21, 23, 25, 27, 29, -1, -1, 31, 33, 35, 37, 39, 41, 43, 45, 47, 49, 51, -1, -1, -1, 53, 55, 57, 59, 61, 63, 65, 67, 69, -1, 71, 73, -1, 75, -1, 77, -1, -1, -1, 79, -1, -1, -1, -1, -1, -1, -1, -1, -1, -1, -1, -1, -1, -1, -1, -1, -1, -1, -1, -1, -1, -1, -1, -1, -1, -1, -1, -1, -1, -1], "loss_changes": [8.246705, 1.3367982, 1.2172012, 0.2880864, 0.108673394, 0.164958, 0.22878695, 0.019823313, 0.14000857, 0.06524364, 0.06211285, 0.058448717, 0.032613516, 0.05269122, 0.03328848, 0.0, 0.0, 0.041288137, 0.04807415, 0.04389762, 0.01752963, 0.052091412, 0.043199163, 0.0016351527, 0.025718957, 0.0076304674, 0.0069043785, 0.008128881, 0.0, 0.0, 0.0, 0.043259725, 0.013198614, 0.0068641044, 0.004179232, 0.0045108795, 0.00477646, 0.01972454, 0.00044145825, 0.012015935, 0.0, 0.010354586, 0.014433358, 0.0, 0.0031941235, 0.0, 0.020233482, 0.0, 0.0, 0.0, 0.0068838736, 0.0, 0.0, 0.0, 0.0, 0.0, 0.0, 0.0, 0.0, 0.0, 0.0, 0.0, 0.0, 0.0, 0.0, 0.0, 0.0, 0.0, 0.0, 0.0, 0.0, 0.0, 0.0, 0.0, 0.0, 0.0, 0.0, 0.0, 0.0, 0.0, 0.0], "parents": [2147483647, 0, 0, 1, 1, 2, 2, 3, 3, 4, 4, 5, 5, 6, 6, 7, 7, 8, 8, 9, 9, 10, 10, 11, 11, 12, 12, 13, 13, 14, 14, 17, 17, 18, 18, 19, 19, 20, 20, 21, 21, 22, 22, 23, 23, 24, 24, 25, 25, 26, 26, 27, 27, 31, 31, 32, 32, 33, 33, 34, 34, 35, 35, 36, 36, 37, 37, 38, 38, 39, 39, 41, 41, 42, 42, 44, 44, 46, 46, 50, 50], "right_children": [2, 4, 6, 8, 10, 12, 14, 16, 18, 20, 22, 24, 26, 28, 30, -1, -1, 32, 34, 36, 38, 40, 42, 44, 46, 48, 50, 52, -1, -1, -1, 54, 56, 58, 60, 62, 64, 66, 68, 70, -1, 72, 74, -1, 76, -1, 78, -1, -1, -1, 80, -1, -1, -1, -1, -1, -1, -1, -1, -1, -1, -1, -1, -1, -1, -1, -1, -1, -1, -1, -1, -1, -1, -1, -1, -1, -1, -1, -1, -1, -1], "split_conditions": [0.43314332, 0.24742474, 0.60556054, 0.1269127, 0.1380398, -0.17572421, 0.7649765, 0.5487, 0.21777, 0.37623763, 0.3, 0.4757476, 0.0695, 0.8, 0.0509, -0.0066373344, -0.00028881087, 0.2, 0.0709, 0.06499107, 1.0, 0.67146295, -0.003966216, 0.9285714, 0.0071592857, 0.3591055, 0.4689469, -0.16132076, 0.0019911544, 0.016857821, 0.0062674815, 0.23574218, 0.1151538, -0.3062, 1.0, 0.609375, 0.0946415, -0.48342857, -0.1165, 0.32683268, 0.005264369, 0.031, 0.75397146, 0.0003752046, 0.45544556, -0.0, -0.0584, 0.00716377, 0.0017739952, 0.005213411, 0.0744, 0.0073702196, 0.011689939, -0.0038977922, -0.00037252365, -0.005006114, -0.003040635, -0.0, -0.0017304169, 0.004422271, -0.0, -0.0, -0.0019549779, 0.0022873932, -0.0, -0.0, 0.00379967, 0.00026257717, -0.00027548356, -0.0, 0.0028024192, -6.6708984e-05, -0.002096459, 0.0001870822, 0.0027997424, -0.0012744354, -0.0, 0.006825427, 0.0024944793, 0.002287455, -0.0], "split_indices": [0, 0, 0, 0, 17, 16, 0, 5, 17, 0, 2, 0, 6, 2, 5, 0, 0, 2, 5, 16, 11, 15, 16, 1, 17, 17, 0, 16, 0, 0, 0, 15, 17, 6, 18, 1, 17, 16, 6, 0, 0, 5, 15, 0, 0, 0, 6, 0, 0, 0, 5, 0, 0, 0, 0, 0, 0, 0, 0, 0, 0, 0, 0, 0, 0, 0, 0, 0, 0, 0, 0, 0, 0, 0, 0, 0, 0, 0, 0, 0, 0], "split_type": [0, 0, 0, 0, 0, 0, 0, 0, 0, 0, 0, 0, 0, 0, 0, 0, 0, 0, 0, 0, 0, 0, 0, 0, 0, 0, 0, 0, 0, 0, 0, 0, 0, 0, 0, 0, 0, 0, 0, 0, 0, 0, 0, 0, 0, 0, 0, 0, 0, 0, 0, 0, 0, 0, 0, 0, 0, 0, 0, 0, 0, 0, 0, 0, 0, 0, 0, 0, 0, 0, 0, 0, 0, 0, 0, 0, 0, 0, 0, 0, 0], "sum_hessian": [820.0, 598.0, 222.0, 366.0, 232.0, 128.0, 94.0, 153.0, 213.0, 129.0, 103.0, 44.0, 84.0, 56.0, 38.0, 150.0, 3.0, 180.0, 33.0, 104.0, 25.0, 34.0, 69.0, 15.0, 29.0, 67.0, 17.0, 52.0, 4.0, 34.0, 4.0, 42.0, 138.0, 27.0, 6.0, 95.0, 9.0, 12.0, 13.0, 20.0, 14.0, 39.0, 30.0, 4.0, 11.0, 4.0, 25.0, 63.0, 4.0, 6.0, 11.0, 18.0, 34.0, 22.0, 20.0, 105.0, 33.0, 3.0, 24.0, 3.0, 3.0, 5.0, 90.0, 5.0, 4.0, 4.0, 8.0, 4.0, 9.0, 15.0, 5.0, 29.0, 10.0, 15.0, 15.0, 6.0, 5.0, 7.0, 18.0, 8.0, 3.0], "tree_param": {"num_deleted": "0", "num_feature": "19", "num_nodes": "81", "size_leaf_vector": "1"}}, {"base_weights": [0.00065206364, -0.06478003, 0.14592701, -0.101672016, -0.017430164, 0.091953665, 0.23397093, -0.11022147, -0.01743457, -0.041873667, 0.01750187, 0.0534476, 0.122579895, 0.18215466, 0.015440771, -0.12656726, -0.08762874, -0.03190671, 0.02038913, -0.008626122, -0.057695538, -0.0, 0.044760786, 0.06919767, 0.010677086, 0.16861494, 0.09810591, 0.14146708, 0.24535331, -0.07945346, -0.0065759905, -0.0004624552, -0.004469484, -0.002283543, -0.0060033207, 0.0018444903, -0.0, -0.03150008, 0.014253135, -0.0, -0.060205676, 0.028185597, -0.020556537, 0.04975271, -0.0, 0.07575054, -4.894566e-06, -0.0038439978, 0.0021595105, 0.0052230763, 0.010101501, 0.042660728, 0.11761584, 0.008932904, 0.08960987, 0.013457132, 0.0050078444, -0.0045942166, -0.0, -0.0, -0.0005892538, -0.002523244, -0.0, -0.00012832561, 0.0015030691, -0.004141242, -0.0025335976, 0.0025126731, -0.0, 0.0003111255, -0.0014280231, -0.0, 0.0027084842, 0.0012277169, 0.00422991, -0.0012495877, 0.00059258187, 0.0032192208, -0.00033488745, 0.0042601083, 0.0072699995, 0.00035963944, 0.004918176], "categories": [], "categories_nodes": [], "categories_segments": [], "categories_sizes": [], "default_left": [0, 0, 0, 0, 0, 0, 0, 0, 0, 0, 0, 0, 0, 0, 0, 0, 0, 0, 0, 0, 0, 0, 0, 0, 0, 0, 0, 0, 0, 0, 0, 0, 0, 0, 0, 0, 0, 0, 0, 0, 0, 0, 0, 0, 0, 0, 0, 0, 0, 0, 0, 0, 0, 0, 0, 0, 0, 0, 0, 0, 0, 0, 0, 0, 0, 0, 0, 0, 0, 0, 0, 0, 0, 0, 0, 0, 0, 0, 0, 0, 0, 0, 0], "id": 11, "left_children": [1, 3, 5, 7, 9, 11, 13, 15, 17, 19, 21, 23, 25, 27, -1, 29, 31, 33, 35, 37, 39, 41, 43, 45, 47, 49, 51, 53, 55, 57, -1, -1, -1, -1, 59, -1, -1, 61, 63, -1, 65, 67, 69, 71, -1, 73, -1, 75, -1, -1, -1, 77, 79, -1, 81, -1, -1, -1, -1, -1, -1, -1, -1, -1, -1, -1, -1, -1, -1, -1, -1, -1, -1, -1, -1, -1, -1, -1, -1, -1, -1, -1, -1], "loss_changes": [7.43197, 0.9261124, 1.100635, 0.20208812, 0.20638901, 0.1562779, 0.24756384, 0.06793809, 0.018224, 0.06756759, 0.044417936, 0.039102048, 0.05029869, 0.07317841, 0.0, 0.004153013, 0.0058719516, 0.0031153206, 0.0025334142, 0.027817285, 0.013320237, 0.036239546, 0.0075554177, 0.03027691, 0.014487412, 0.0039824247, 0.041695178, 0.030451298, 0.0051960945, 0.01513949, 0.0, 0.0, 0.0, 0.0, 0.0006786258, 0.0, 0.0, 0.016503079, 0.00894209, 0.0, 0.0018614829, 0.013906194, 0.009913324, 0.0034103394, 0.0, 0.008296907, 0.0, 0.0062571894, 0.0, 0.0, 0.0, 0.025500368, 0.0014754534, 0.0, 0.0024444163, 0.0, 0.0, 0.0, 0.0, 0.0, 0.0, 0.0, 0.0, 0.0, 0.0, 0.0, 0.0, 0.0, 0.0, 0.0, 0.0, 0.0, 0.0, 0.0, 0.0, 0.0, 0.0, 0.0, 0.0, 0.0, 0.0, 0.0, 0.0], "parents": [2147483647, 0, 0, 1, 1, 2, 2, 3, 3, 4, 4, 5, 5, 6, 6, 7, 7, 8, 8, 9, 9, 10, 10, 11, 11, 12, 12, 13, 13, 15, 15, 16, 16, 17, 17, 18, 18, 19, 19, 20, 20, 21, 21, 22, 22, 23, 23, 24, 24, 25, 25, 26, 26, 27, 27, 28, 28, 29, 29, 34, 34, 37, 37, 38, 38, 40, 40, 41, 41, 42, 42, 43, 43, 45, 45, 47, 47, 51, 51, 52, 52, 54, 54], "right_children": [2, 4, 6, 8, 10, 12, 14, 16, 18, 20, 22, 24, 26, 28, -1, 30, 32, 34, 36, 38, 40, 42, 44, 46, 48, 50, 52, 54, 56, 58, -1, -1, -1, -1, 60, -1, -1, 62, 64, -1, 66, 68, 70, 72, -1, 74, -1, 76, -1, -1, -1, 78, 80, -1, 82, -1, -1, -1, -1, -1, -1, -1, -1, -1, -1, -1, -1, -1, -1, -1, -1, -1, -1, -1, -1, -1, -1, -1, -1, -1, -1, -1, -1], "split_conditions": [0.3860386, 0.20872088, 0.60556054, 0.54, 0.4655, 0.698125, -0.003003663, 0.12811281, 0.33036074, 0.2, 0.806, 0.025, 0.3, 0.7944794, 0.015440771, 0.2, 0.006545, 0.052913792, -0.1103, 0.30543053, 0.29411766, 0.4, 1.0, 0.9, 0.5555, -0.009472528, 0.45834583, 0.8888889, 1.0, 0.0963776, -0.0065759905, -0.0004624552, -0.004469484, -0.002283543, 0.1776975, 0.0018444903, -0.0, 0.3888158, 0.20362069, -0.0, 0.24432443, 0.9411765, 0.519375, 0.24142414, -0.0, 0.13125, -4.894566e-06, 0.0554, 0.0021595105, 0.0052230763, 0.010101501, 1.0, 0.0030464516, 0.008932904, 0.3425, 0.013457132, 0.0050078444, -0.0045942166, -0.0, -0.0, -0.0005892538, -0.002523244, -0.0, -0.00012832561, 0.0015030691, -0.004141242, -0.0025335976, 0.0025126731, -0.0, 0.0003111255, -0.0014280231, -0.0, 0.0027084842, 0.0012277169, 0.00422991, -0.0012495877, 0.00059258187, 0.0032192208, -0.00033488745, 0.0042601083, 0.0072699995, 0.00035963944, 0.004918176], "split_indices": [0, 0, 0, 13, 13, 13, 16, 0, 17, 2, 13, 6, 2, 0, 0, 2, 17, 16, 6, 0, 14, 2, 2, 2, 13, 16, 0, 1, 10, 17, 0, 0, 0, 0, 17, 0, 0, 15, 15, 0, 0, 14, 13, 0, 0, 13, 0, 6, 0, 0, 0, 18, 16, 0, 13, 0, 0, 0, 0, 0, 0, 0, 0, 0, 0, 0, 0, 0, 0, 0, 0, 0, 0, 0, 0, 0, 0, 0, 0, 0, 0, 0, 0], "split_type": [0, 0, 0, 0, 0, 0, 0, 0, 0, 0, 0, 0, 0, 0, 0, 0, 0, 0, 0, 0, 0, 0, 0, 0, 0, 0, 0, 0, 0, 0, 0, 0, 0, 0, 0, 0, 0, 0, 0, 0, 0, 0, 0, 0, 0, 0, 0, 0, 0, 0, 0, 0, 0, 0, 0, 0, 0, 0, 0, 0, 0, 0, 0, 0, 0, 0, 0, 0, 0, 0, 0, 0, 0, 0, 0, 0, 0, 0, 0, 0, 0, 0, 0], "sum_hessian": [779.0, 537.0, 242.0, 300.0, 237.0, 152.0, 90.0, 271.0, 29.0, 141.0, 96.0, 70.0, 82.0, 56.0, 34.0, 152.0, 119.0, 23.0, 6.0, 48.0, 93.0, 60.0, 36.0, 49.0, 21.0, 25.0, 57.0, 37.0, 19.0, 18.0, 134.0, 4.0, 115.0, 12.0, 11.0, 3.0, 3.0, 26.0, 22.0, 4.0, 89.0, 26.0, 34.0, 32.0, 4.0, 46.0, 3.0, 13.0, 8.0, 11.0, 14.0, 17.0, 40.0, 19.0, 18.0, 15.0, 4.0, 15.0, 3.0, 4.0, 7.0, 16.0, 10.0, 8.0, 14.0, 21.0, 68.0, 13.0, 13.0, 5.0, 29.0, 4.0, 28.0, 9.0, 37.0, 8.0, 5.0, 13.0, 4.0, 22.0, 18.0, 3.0, 15.0], "tree_param": {"num_deleted": "0", "num_feature": "19", "num_nodes": "83", "size_leaf_vector": "1"}}, {"base_weights": [-8.5738306e-05, -0.061394926, 0.1326012, -0.09104393, -0.005357775, 0.08643789, 0.21816482, -0.10018872, -0.009469835, -0.02076618, 0.052754156, 0.04796286, 0.10943201, 0.17078963, 0.014704485, -0.12416693, -0.08280774, -0.020546203, 0.0033792467, -0.03615925, 3.877179e-05, 0.003000247, -0.0, 0.063924566, -0.0, 0.15452866, 0.08679469, 0.0065020504, 0.010604703, -0.1261426, -0.0001957803, -0.06863298, -0.0049951705, -0.0, -0.028399423, -0.022860061, -0.056616563, 0.010519097, -0.0027614906, 0.0786252, -0.0, -0.0235691, 0.023631204, 0.0027836123, 0.0083534885, 0.07026926, 0.0069670863, -0.0064792293, -0.0030940226, 0.00025689593, -0.003580036, 0.00034901613, -0.0, -0.0, -0.0018158772, -0.0, -0.0014706732, -0.0033802134, -0.0009702203, 0.0019053527, -0.0001927315, 0.0043409527, -0.0, -0.00057577604, 0.00012893348, -0.0, -0.001942402, 0.0016036442, -0.0, -0.0, 0.003725087], "categories": [], "categories_nodes": [], "categories_segments": [], "categories_sizes": [], "default_left": [0, 0, 0, 0, 0, 0, 0, 0, 0, 0, 0, 0, 0, 0, 0, 0, 0, 0, 0, 0, 0, 0, 0, 0, 0, 0, 0, 0, 0, 0, 0, 0, 0, 0, 0, 0, 0, 0, 0, 0, 0, 0, 0, 0, 0, 0, 0, 0, 0, 0, 0, 0, 0, 0, 0, 0, 0, 0, 0, 0, 0, 0, 0, 0, 0, 0, 0, 0, 0, 0, 0], "id": 12, "left_children": [1, 3, 5, 7, 9, 11, 13, 15, 17, 19, 21, 23, 25, 27, -1, 29, 31, 33, -1, 35, 37, -1, -1, 39, 41, 43, 45, -1, -1, 47, -1, 49, -1, 51, 53, 55, 57, 59, -1, 61, 63, 65, 67, -1, -1, 69, -1, -1, -1, -1, -1, -1, -1, -1, -1, -1, -1, -1, -1, -1, -1, -1, -1, -1, -1, -1, -1, -1, -1, -1, -1], "loss_changes": [6.6472564, 0.9202819, 0.9697561, 0.2603674, 0.17339748, 0.12941086, 0.22341394, 0.105302334, 0.029970732, 0.053893037, 0.014700688, 0.05427468, 0.06862557, 0.035825253, 0.0, 0.018098116, 0.023543477, 0.008192015, 0.0, 0.016060188, 0.033760022, 0.0, 0.0, 0.051236883, 0.010022495, 0.008097231, 0.032637954, 0.0, 0.0, 0.0015892982, 0.0, 0.03175354, 0.0, 0.00024362448, 0.0056279153, 0.0070543103, 0.0034802258, 0.026175011, 0.0, 0.02678606, 0.0007029333, 0.0034999968, 0.00067587895, 0.0, 0.0, 0.019500107, 0.0, 0.0, 0.0, 0.0, 0.0, 0.0, 0.0, 0.0, 0.0, 0.0, 0.0, 0.0, 0.0, 0.0, 0.0, 0.0, 0.0, 0.0, 0.0, 0.0, 0.0, 0.0, 0.0, 0.0, 0.0], "parents": [2147483647, 0, 0, 1, 1, 2, 2, 3, 3, 4, 4, 5, 5, 6, 6, 7, 7, 8, 8, 9, 9, 10, 10, 11, 11, 12, 12, 13, 13, 15, 15, 16, 16, 17, 17, 19, 19, 20, 20, 23, 23, 24, 24, 25, 25, 26, 26, 29, 29, 31, 31, 33, 33, 34, 34, 35, 35, 36, 36, 37, 37, 39, 39, 40, 40, 41, 41, 42, 42, 45, 45], "right_children": [2, 4, 6, 8, 10, 12, 14, 16, 18, 20, 22, 24, 26, 28, -1, 30, 32, 34, -1, 36, 38, -1, -1, 40, 42, 44, 46, -1, -1, 48, -1, 50, -1, 52, 54, 56, 58, 60, -1, 62, 64, 66, 68, -1, -1, 70, -1, -1, -1, -1, -1, -1, -1, -1, -1, -1, -1, -1, -1, -1, -1, -1, -1, -1, -1, -1, -1, -1, -1, -1, -1], "split_conditions": [0.3860386, 0.24592459, 0.60556054, 0.54, 0.806, 0.616, 0.996, 0.11631163, 0.941, 0.34, 1.0, 0.025, 0.3, 0.749775, 0.014704485, 0.5487, 0.4, 0.3, 0.0033792467, 0.4, 0.25, 0.003000247, -0.0, 0.7, 0.0554, 0.5818, 1.0275428, 0.0065020504, 0.010604703, 0.24833333, -0.0001957803, 0.004122857, -0.0049951705, 0.15607142, 0.88235295, -0.3098573, -0.37232718, -0.0558, -0.0027614906, -0.05931818, -0.0697, 1.0, -0.27169284, 0.0027836123, 0.0083534885, 0.64285713, 0.0069670863, -0.0064792293, -0.0030940226, 0.00025689593, -0.003580036, 0.00034901613, -0.0, -0.0, -0.0018158772, -0.0, -0.0014706732, -0.0033802134, -0.0009702203, 0.0019053527, -0.0001927315, 0.0043409527, -0.0, -0.00057577604, 0.00012893348, -0.0, -0.001942402, 0.0016036442, -0.0, -0.0, 0.003725087], "split_indices": [0, 0, 0, 13, 13, 13, 13, 0, 13, 13, 4, 6, 2, 0, 0, 5, 2, 2, 0, 2, 4, 0, 0, 2, 6, 3, 13, 0, 0, 13, 0, 17, 0, 16, 14, 16, 16, 6, 0, 16, 6, 10, 16, 0, 0, 1, 0, 0, 0, 0, 0, 0, 0, 0, 0, 0, 0, 0, 0, 0, 0, 0, 0, 0, 0, 0, 0, 0, 0, 0, 0], "split_type": [0, 0, 0, 0, 0, 0, 0, 0, 0, 0, 0, 0, 0, 0, 0, 0, 0, 0, 0, 0, 0, 0, 0, 0, 0, 0, 0, 0, 0, 0, 0, 0, 0, 0, 0, 0, 0, 0, 0, 0, 0, 0, 0, 0, 0, 0, 0, 0, 0, 0, 0, 0, 0, 0, 0, 0, 0, 0, 0, 0, 0, 0, 0, 0, 0, 0, 0, 0, 0, 0, 0], "sum_hessian": [816.0, 559.0, 257.0, 364.0, 195.0, 169.0, 88.0, 326.0, 38.0, 156.0, 39.0, 66.0, 103.0, 57.0, 31.0, 132.0, 194.0, 35.0, 3.0, 92.0, 64.0, 34.0, 5.0, 50.0, 16.0, 31.0, 72.0, 32.0, 25.0, 129.0, 3.0, 112.0, 82.0, 7.0, 28.0, 60.0, 32.0, 56.0, 8.0, 41.0, 9.0, 9.0, 7.0, 5.0, 26.0, 58.0, 14.0, 120.0, 9.0, 3.0, 109.0, 4.0, 3.0, 7.0, 21.0, 16.0, 44.0, 22.0, 10.0, 21.0, 35.0, 37.0, 4.0, 4.0, 5.0, 4.0, 5.0, 4.0, 3.0, 3.0, 55.0], "tree_param": {"num_deleted": "0", "num_feature": "19", "num_nodes": "71", "size_leaf_vector": "1"}}, {"base_weights": [0.0015316812, -0.049774155, 0.11525328, -0.077832796, -0.0009358188, 0.086802356, 0.23355721, -0.03939068, -0.09342524, -0.028639484, 0.027446209, 0.06604896, 0.010047266, 0.17288569, 0.016702648, -0.06160173, -0.001319999, -0.105920166, -0.058569767, 0.002838075, -0.033573795, 0.007546176, 0.096239366, 0.081318356, -0.020150661, 0.00053791207, 0.18583824, -0.06670975, -0.0, 0.036676895, -0.017985994, -0.11188827, -0.06491634, -0.062641256, -0.0, -0.02582884, -0.0040264907, 0.036498528, -0.0018417189, 0.00028154283, 0.1054724, 0.12582698, 0.05208922, -0.003117887, -0.0, 0.003117354, 0.009955147, -0.003940364, -0.0011133045, 0.002985703, -0.0, -0.0, -0.0016058872, -0.0058636237, -0.0038030487, -0.0019898273, -0.0049811504, -0.003330711, -0.0, -0.0, -0.0020045254, -0.0, 0.0028114456, -0.0007619867, 0.0011611374, 0.007381346, 0.0023493047, -0.0, 0.007149371, -3.219008e-05, 0.0032176897, 0.0012622912, -0.00070862344], "categories": [], "categories_nodes": [], "categories_segments": [], "categories_sizes": [], "default_left": [0, 0, 0, 0, 0, 0, 0, 0, 0, 0, 0, 0, 0, 0, 0, 0, 0, 0, 0, 0, 0, 0, 0, 0, 0, 0, 0, 0, 0, 0, 0, 0, 0, 0, 0, 0, 0, 0, 0, 0, 0, 0, 0, 0, 0, 0, 0, 0, 0, 0, 0, 0, 0, 0, 0, 0, 0, 0, 0, 0, 0, 0, 0, 0, 0, 0, 0, 0, 0, 0, 0, 0, 0], "id": 13, "left_children": [1, 3, 5, 7, 9, 11, 13, 15, 17, 19, 21, 23, -1, 25, -1, 27, 29, 31, 33, -1, 35, 37, 39, 41, 43, -1, 45, 47, -1, 49, 51, 53, 55, 57, -1, 59, -1, 61, 63, -1, 65, 67, 69, -1, 71, -1, -1, -1, -1, -1, -1, -1, -1, -1, -1, -1, -1, -1, -1, -1, -1, -1, -1, -1, -1, -1, -1, -1, -1, -1, -1, -1, -1], "loss_changes": [4.6682806, 0.7457359, 0.7857888, 0.19163203, 0.16052146, 0.4409058, 0.178123, 0.08156784, 0.08404875, 0.043833412, 0.124424815, 0.23677719, 0.0, 0.045539916, 0.0, 0.024146006, 0.024754079, 0.018370867, 0.018356428, 0.0, 0.024015032, 0.02500523, 0.005864203, 0.16949552, 0.028327595, 0.0, 0.0089457035, 0.020397425, 0.0, 0.01372901, 0.010602612, 0.000874877, 0.005632654, 0.020066947, 0.0, 0.03317882, 0.0, 0.01495653, 0.019032825, 0.0, 0.01798062, 0.11982161, 0.06656, 0.0, 0.0075438945, 0.0, 0.0, 0.0, 0.0, 0.0, 0.0, 0.0, 0.0, 0.0, 0.0, 0.0, 0.0, 0.0, 0.0, 0.0, 0.0, 0.0, 0.0, 0.0, 0.0, 0.0, 0.0, 0.0, 0.0, 0.0, 0.0, 0.0, 0.0], "parents": [2147483647, 0, 0, 1, 1, 2, 2, 3, 3, 4, 4, 5, 5, 6, 6, 7, 7, 8, 8, 9, 9, 10, 10, 11, 11, 13, 13, 15, 15, 16, 16, 17, 17, 18, 18, 20, 20, 21, 21, 22, 22, 23, 23, 24, 24, 26, 26, 27, 27, 29, 29, 30, 30, 31, 31, 32, 32, 33, 33, 35, 35, 37, 37, 38, 38, 40, 40, 41, 41, 42, 42, 44, 44], "right_children": [2, 4, 6, 8, 10, 12, 14, 16, 18, 20, 22, 24, -1, 26, -1, 28, 30, 32, 34, -1, 36, 38, 40, 42, 44, -1, 46, 48, -1, 50, 52, 54, 56, 58, -1, 60, -1, 62, 64, -1, 66, 68, 70, -1, 72, -1, -1, -1, -1, -1, -1, -1, -1, -1, -1, -1, -1, -1, -1, -1, -1, -1, -1, -1, -1, -1, -1, -1, -1, -1, -1, -1, -1], "split_conditions": [0.77265626, 0.5192818, 0.9062, 0.78571427, -0.21034211, 1.0275428, 0.9715, 0.24232967, 0.2096875, 0.29411766, 1.0, 0.25, 0.010047266, 0.19428572, 0.016702648, 0.82275, 0.046043437, 0.022408675, 0.7726, 0.002838075, 0.25, 0.84, -0.16361111, 0.9285714, 0.6815, 0.00053791207, 0.90625, 0.0963776, -0.0, 0.0247, -0.0403, 0.8235294, 1.0, 0.656, -0.0, 0.8888889, -0.0040264907, -0.1306, 0.773, 0.00028154283, 0.9375, 0.24208333, 0.84901136, -0.003117887, 1.0, 0.003117354, 0.009955147, -0.003940364, -0.0011133045, 0.002985703, -0.0, -0.0, -0.0016058872, -0.0058636237, -0.0038030487, -0.0019898273, -0.0049811504, -0.003330711, -0.0, -0.0, -0.0020045254, -0.0, 0.0028114456, -0.0007619867, 0.0011611374, 0.007381346, 0.0023493047, -0.0, 0.007149371, -3.219008e-05, 0.0032176897, 0.0012622912, -0.00070862344], "split_indices": [15, 15, 3, 1, 16, 13, 13, 15, 13, 14, 9, 4, 0, 13, 0, 3, 17, 16, 3, 0, 4, 1, 16, 1, 13, 0, 3, 17, 0, 6, 6, 14, 11, 13, 0, 1, 0, 6, 13, 0, 1, 13, 15, 0, 14, 0, 0, 0, 0, 0, 0, 0, 0, 0, 0, 0, 0, 0, 0, 0, 0, 0, 0, 0, 0, 0, 0, 0, 0, 0, 0, 0, 0], "split_type": [0, 0, 0, 0, 0, 0, 0, 0, 0, 0, 0, 0, 0, 0, 0, 0, 0, 0, 0, 0, 0, 0, 0, 0, 0, 0, 0, 0, 0, 0, 0, 0, 0, 0, 0, 0, 0, 0, 0, 0, 0, 0, 0, 0, 0, 0, 0, 0, 0, 0, 0, 0, 0, 0, 0, 0, 0, 0, 0, 0, 0, 0, 0, 0, 0, 0, 0, 0, 0, 0, 0, 0, 0], "sum_hessian": [797.0, 549.0, 248.0, 347.0, 202.0, 202.0, 46.0, 103.0, 244.0, 104.0, 98.0, 173.0, 29.0, 31.0, 15.0, 63.0, 40.0, 176.0, 68.0, 4.0, 100.0, 78.0, 20.0, 148.0, 25.0, 3.0, 28.0, 59.0, 4.0, 10.0, 30.0, 150.0, 26.0, 64.0, 4.0, 89.0, 11.0, 21.0, 57.0, 3.0, 17.0, 56.0, 92.0, 9.0, 16.0, 4.0, 24.0, 44.0, 15.0, 7.0, 3.0, 11.0, 19.0, 126.0, 24.0, 18.0, 8.0, 61.0, 3.0, 32.0, 57.0, 8.0, 13.0, 40.0, 17.0, 8.0, 9.0, 7.0, 49.0, 16.0, 76.0, 8.0, 8.0], "tree_param": {"num_deleted": "0", "num_feature": "19", "num_nodes": "73", "size_leaf_vector": "1"}}, {"base_weights": [0.0033291804, -0.048768032, 0.13870111, -0.09233812, -0.011424214, 0.08973969, 0.19653665, -0.099858, -0.04235518, -0.031619392, 0.012898575, 0.14823349, 0.07305197, 0.17030731, 0.015050438, -0.10703957, -0.07029446, -0.0, -0.065229565, -0.044856872, -0.006207019, 0.0029571238, 0.05252812, 0.00024292944, 0.008150916, 0.07920882, -0.004896578, 0.19435069, 0.11256672, -0.071227305, -0.005575442, -0.0037769885, -0.00012861249, -0.013209269, 0.0014315493, -0.0035494359, -0.0, -0.047040395, -0.0, -0.04033197, 0.0032139446, 0.03658741, -0.0056800377, -0.0, 0.05858875, 0.04384334, 0.09540312, -0.0005632513, -0.0, 0.008114468, 0.012623717, 0.0014451089, 0.006056994, -0.003913992, -0.0, -0.0, -0.00089653797, -0.0018268178, -0.0032223777, -0.0, -0.002516529, 0.0013324928, -0.0004805651, 0.0025591867, -0.0, -0.0011481991, 0.00061194255, 0.0031829828, -0.0, 0.0032174792, -0.0, 0.0050642085, 0.0010640089], "categories": [], "categories_nodes": [], "categories_segments": [], "categories_sizes": [], "default_left": [0, 0, 0, 0, 0, 0, 0, 0, 0, 0, 0, 0, 0, 0, 0, 0, 0, 0, 0, 0, 0, 0, 0, 0, 0, 0, 0, 0, 0, 0, 0, 0, 0, 0, 0, 0, 0, 0, 0, 0, 0, 0, 0, 0, 0, 0, 0, 0, 0, 0, 0, 0, 0, 0, 0, 0, 0, 0, 0, 0, 0, 0, 0, 0, 0, 0, 0, 0, 0, 0, 0, 0, 0], "id": 14, "left_children": [1, 3, 5, 7, 9, 11, 13, 15, 17, 19, 21, 23, 25, 27, -1, 29, 31, 33, 35, 37, 39, 41, 43, -1, -1, 45, 47, 49, 51, 53, -1, -1, -1, 55, -1, -1, -1, 57, -1, 59, 61, 63, 65, -1, 67, 69, 71, -1, -1, -1, -1, -1, -1, -1, -1, -1, -1, -1, -1, -1, -1, -1, -1, -1, -1, -1, -1, -1, -1, -1, -1, -1, -1], "loss_changes": [5.6295476, 0.92413604, 0.58237505, 0.08077788, 0.15553528, 0.08710647, 0.17562771, 0.022937298, 0.033946976, 0.052811652, 0.04945267, 0.035414577, 0.05533099, 0.06265807, 0.0, 0.0022735596, 0.009755701, 0.0053727506, 0.0037098452, 0.011209235, 0.024095295, 0.03670263, 0.007211469, 0.0, 0.0, 0.035155475, 0.00033976795, 0.021907091, 0.0015781522, 0.0079769045, 0.0, 0.0, 0.0, 0.00079979165, 0.0, 0.0, 0.0, 0.006928563, 0.0, 0.004371317, 0.01638742, 0.017590892, 0.02922738, 0.0, 0.002100259, 0.023524381, 0.012179315, 0.0, 0.0, 0.0, 0.0, 0.0, 0.0, 0.0, 0.0, 0.0, 0.0, 0.0, 0.0, 0.0, 0.0, 0.0, 0.0, 0.0, 0.0, 0.0, 0.0, 0.0, 0.0, 0.0, 0.0, 0.0, 0.0], "parents": [2147483647, 0, 0, 1, 1, 2, 2, 3, 3, 4, 4, 5, 5, 6, 6, 7, 7, 8, 8, 9, 9, 10, 10, 11, 11, 12, 12, 13, 13, 15, 15, 16, 16, 17, 17, 18, 18, 19, 19, 20, 20, 21, 21, 22, 22, 25, 25, 26, 26, 27, 27, 28, 28, 29, 29, 33, 33, 37, 37, 39, 39, 40, 40, 41, 41, 42, 42, 44, 44, 45, 45, 46, 46], "right_children": [2, 4, 6, 8, 10, 12, 14, 16, 18, 20, 22, 24, 26, 28, -1, 30, 32, 34, 36, 38, 40, 42, 44, -1, -1, 46, 48, 50, 52, 54, -1, -1, -1, 56, -1, -1, -1, 58, -1, 60, 62, 64, 66, -1, 68, 70, 72, -1, -1, -1, -1, -1, -1, -1, -1, -1, -1, -1, -1, -1, -1, -1, -1, -1, -1, -1, -1, -1, -1, -1, -1, -1, -1], "split_conditions": [0.42584258, 0.19121912, 0.5789579, 0.13673171, 0.30543053, 0.2, 0.8730873, 0.14651465, 0.3, 0.1555894, 0.07801191, 0.50366664, 0.108, 0.9375, 0.015050438, 0.2, 0.815, 0.1776975, 0.16520114, 0.9762, 0.418, 0.2, 0.3162316, 0.00024292944, 0.008150916, -0.17572421, 0.1324, 0.00041666668, 0.984375, 0.3538, -0.005575442, -0.0037769885, -0.00012861249, 0.78571427, 0.0014315493, -0.0035494359, -0.0, 0.5, -0.0, 0.232, 0.3, -0.05584375, -0.11396987, -0.0, 0.8, -0.0015, 0.25, -0.0005632513, -0.0, 0.008114468, 0.012623717, 0.0014451089, 0.006056994, -0.003913992, -0.0, -0.0, -0.00089653797, -0.0018268178, -0.0032223777, -0.0, -0.002516529, 0.0013324928, -0.0004805651, 0.0025591867, -0.0, -0.0011481991, 0.00061194255, 0.0031829828, -0.0, 0.0032174792, -0.0, 0.0050642085, 0.0010640089], "split_indices": [0, 0, 0, 17, 0, 2, 0, 0, 2, 17, 16, 3, 6, 1, 0, 2, 3, 17, 16, 3, 3, 2, 0, 0, 0, 16, 6, 16, 1, 5, 0, 0, 0, 1, 0, 0, 0, 2, 0, 3, 2, 16, 16, 0, 2, 5, 4, 0, 0, 0, 0, 0, 0, 0, 0, 0, 0, 0, 0, 0, 0, 0, 0, 0, 0, 0, 0, 0, 0, 0, 0, 0, 0], "split_type": [0, 0, 0, 0, 0, 0, 0, 0, 0, 0, 0, 0, 0, 0, 0, 0, 0, 0, 0, 0, 0, 0, 0, 0, 0, 0, 0, 0, 0, 0, 0, 0, 0, 0, 0, 0, 0, 0, 0, 0, 0, 0, 0, 0, 0, 0, 0, 0, 0, 0, 0, 0, 0, 0, 0, 0, 0, 0, 0, 0, 0, 0, 0, 0, 0, 0, 0, 0, 0, 0, 0, 0, 0], "sum_hessian": [795.0, 574.0, 221.0, 263.0, 311.0, 122.0, 99.0, 226.0, 37.0, 172.0, 139.0, 24.0, 98.0, 82.0, 17.0, 177.0, 49.0, 14.0, 23.0, 110.0, 62.0, 114.0, 25.0, 3.0, 21.0, 92.0, 6.0, 55.0, 27.0, 24.0, 153.0, 44.0, 5.0, 11.0, 3.0, 20.0, 3.0, 105.0, 5.0, 15.0, 47.0, 25.0, 89.0, 3.0, 22.0, 32.0, 60.0, 3.0, 3.0, 39.0, 16.0, 4.0, 23.0, 21.0, 3.0, 3.0, 8.0, 71.0, 34.0, 4.0, 11.0, 19.0, 28.0, 19.0, 6.0, 48.0, 41.0, 19.0, 3.0, 20.0, 12.0, 54.0, 6.0], "tree_param": {"num_deleted": "0", "num_feature": "19", "num_nodes": "73", "size_leaf_vector": "1"}}, {"base_weights": [0.0006700763, -0.052702695, 0.12363854, -0.08986531, -0.016950315, 0.09538625, 0.24360669, -0.09296571, -0.0, -0.035173874, 0.011783721, 0.047686614, 0.117422, 0.0088558225, 0.0142857125, -0.0053542126, -0.077828564, 0.001377866, -0.00074008934, -0.0403689, 0.0105183525, 0.07163422, 0.0027037193, 0.09120021, 0.02461113, 0.16922666, 0.08820361, -0.0041798996, -0.052736677, -0.020328257, -0.049275067, 0.0016448299, -0.00059321837, 0.0041799727, -0.0, -0.008079038, 0.02617947, 0.007042361, 0.0030316287, 0.038841143, -0.0, 0.11813496, 0.010170914, 0.032639693, 0.10446878, -0.00042083728, -0.0032969762, -0.00198887, 3.0090585e-05, -0.0028415467, -0.0011042889, -0.0018166999, 3.0077566e-05, 0.0019314267, -0.0, -0.0, 0.002551939, -0.0010375938, 0.00071752135, 0.002641705, 0.006920988, -0.0, 0.0021321727, 0.0054977536, 0.0006849467], "categories": [], "categories_nodes": [], "categories_segments": [], "categories_sizes": [], "default_left": [0, 0, 0, 0, 0, 0, 0, 0, 0, 0, 0, 0, 0, 0, 0, 0, 0, 0, 0, 0, 0, 0, 0, 0, 0, 0, 0, 0, 0, 0, 0, 0, 0, 0, 0, 0, 0, 0, 0, 0, 0, 0, 0, 0, 0, 0, 0, 0, 0, 0, 0, 0, 0, 0, 0, 0, 0, 0, 0, 0, 0, 0, 0, 0, 0], "id": 15, "left_children": [1, 3, 5, 7, 9, 11, 13, 15, 17, 19, 21, 23, 25, -1, -1, -1, 27, -1, -1, 29, 31, 33, 35, 37, 39, 41, 43, -1, 45, 47, 49, -1, -1, -1, -1, 51, 53, -1, -1, 55, 57, 59, -1, 61, 63, -1, -1, -1, -1, -1, -1, -1, -1, -1, -1, -1, -1, -1, -1, -1, -1, -1, -1, -1, -1], "loss_changes": [5.264144, 0.7291831, 0.76648235, 0.07639933, 0.15303713, 0.18705797, 0.029100657, 0.029381275, 0.0045712735, 0.045661926, 0.052151218, 0.052444756, 0.16215956, 0.0, 0.0, 0.0, 0.0013564229, 0.0, 0.0, 0.020952612, 0.011008581, 0.0031796694, 0.026828615, 0.003181532, 0.018905114, 0.02417159, 0.06331366, 0.0, 0.010149002, 0.026330454, 0.013040543, 0.0, 0.0, 0.0, 0.0, 0.019537631, 0.009525202, 0.0, 0.0, 0.013146337, 0.0055232407, 0.0027028322, 0.0, 0.0100477785, 0.019493759, 0.0, 0.0, 0.0, 0.0, 0.0, 0.0, 0.0, 0.0, 0.0, 0.0, 0.0, 0.0, 0.0, 0.0, 0.0, 0.0, 0.0, 0.0, 0.0, 0.0], "parents": [2147483647, 0, 0, 1, 1, 2, 2, 3, 3, 4, 4, 5, 5, 6, 6, 7, 7, 8, 8, 9, 9, 10, 10, 11, 11, 12, 12, 16, 16, 19, 19, 20, 20, 21, 21, 22, 22, 23, 23, 24, 24, 25, 25, 26, 26, 28, 28, 29, 29, 30, 30, 35, 35, 36, 36, 39, 39, 40, 40, 41, 41, 43, 43, 44, 44], "right_children": [2, 4, 6, 8, 10, 12, 14, 16, 18, 20, 22, 24, 26, -1, -1, -1, 28, -1, -1, 30, 32, 34, 36, 38, 40, 42, 44, -1, 46, 48, 50, -1, -1, -1, -1, 52, 54, -1, -1, 56, 58, 60, -1, 62, 64, -1, -1, -1, -1, -1, -1, -1, -1, -1, -1, -1, -1, -1, -1, -1, -1, -1, -1, -1, -1], "split_conditions": [0.39343935, 0.19121912, 0.7321732, 0.30772, 0.5005, 0.623, 0.8730873, 0.11631163, 0.3, 0.3708371, 0.2, 0.75, 0.3, 0.0088558225, 0.0142857125, -0.0053542126, 0.2221875, 0.001377866, -0.00074008934, 0.2, 0.57842857, 0.30772, 0.806, 0.6, 0.018, 0.51935196, 0.46374637, -0.0041798996, 0.3, 0.224375, 0.323, 0.0016448299, -0.00059321837, 0.0041799727, -0.0, 0.26322633, 0.7, 0.007042361, 0.0030316287, 0.22416666, 0.0554, 0.715, 0.010170914, 0.60733336, 0.1498, -0.00042083728, -0.0032969762, -0.00198887, 3.0090585e-05, -0.0028415467, -0.0011042889, -0.0018166999, 3.0077566e-05, 0.0019314267, -0.0, -0.0, 0.002551939, -0.0010375938, 0.00071752135, 0.002641705, 0.006920988, -0.0, 0.0021321727, 0.0054977536, 0.0006849467], "split_indices": [0, 0, 0, 17, 13, 13, 0, 0, 2, 0, 2, 1, 2, 0, 0, 0, 13, 0, 0, 2, 15, 17, 13, 1, 6, 0, 0, 0, 2, 15, 13, 0, 0, 0, 0, 0, 2, 0, 0, 13, 6, 3, 0, 3, 6, 0, 0, 0, 0, 0, 0, 0, 0, 0, 0, 0, 0, 0, 0, 0, 0, 0, 0, 0, 0], "split_type": [0, 0, 0, 0, 0, 0, 0, 0, 0, 0, 0, 0, 0, 0, 0, 0, 0, 0, 0, 0, 0, 0, 0, 0, 0, 0, 0, 0, 0, 0, 0, 0, 0, 0, 0, 0, 0, 0, 0, 0, 0, 0, 0, 0, 0, 0, 0, 0, 0, 0, 0, 0, 0, 0, 0, 0, 0, 0, 0, 0, 0, 0, 0, 0, 0], "sum_hessian": [799.0, 557.0, 242.0, 271.0, 286.0, 198.0, 44.0, 262.0, 9.0, 177.0, 109.0, 65.0, 133.0, 20.0, 24.0, 129.0, 133.0, 3.0, 6.0, 161.0, 16.0, 12.0, 97.0, 20.0, 45.0, 45.0, 88.0, 103.0, 30.0, 54.0, 107.0, 10.0, 6.0, 9.0, 3.0, 64.0, 33.0, 5.0, 15.0, 30.0, 15.0, 21.0, 24.0, 22.0, 66.0, 9.0, 21.0, 30.0, 24.0, 80.0, 27.0, 17.0, 47.0, 21.0, 12.0, 8.0, 22.0, 8.0, 7.0, 7.0, 14.0, 4.0, 18.0, 61.0, 5.0], "tree_param": {"num_deleted": "0", "num_feature": "19", "num_nodes": "65", "size_leaf_vector": "1"}}, {"base_weights": [0.0011945333, -0.044869214, 0.1301609, -0.086573415, -0.012554919, 0.07395274, 0.18631732, -0.093816124, -0.043160588, -0.023146136, 0.040350873, 0.022176284, 0.086675145, 0.14814731, 0.2476977, -0.102699414, -0.07427071, -0.048741683, -0.0, -0.03169262, 0.011847287, -0.0, 0.04473589, -0.0, 0.056642067, 0.059643734, 0.105534926, 0.0060015987, 0.19565451, 0.015439642, 0.009636789, -0.0052149384, -0.0, -0.00075294235, -0.0038446956, -0.0, -0.0027815264, -0.044775862, -0.012127559, 0.041555814, -0.0, 0.04763432, -0.0, -0.012732535, 0.0003649344, 0.0036132333, -0.0, 0.0644617, -0.0, 0.00766097, 0.081257485, 0.010879467, 0.0042115017, -0.0022994021, -0.0, -0.0009409934, 0.00021440093, -0.0, 0.0031837404, 5.6095283e-05, -0.00061709917, 0.0045148353, 0.0017548783, -0.0008053792, -0.0, 0.0034382106, -0.0, 0.004414467, -0.0], "categories": [], "categories_nodes": [], "categories_segments": [], "categories_sizes": [], "default_left": [0, 0, 0, 0, 0, 0, 0, 0, 0, 0, 0, 0, 0, 0, 0, 0, 0, 0, 0, 0, 0, 0, 0, 0, 0, 0, 0, 0, 0, 0, 0, 0, 0, 0, 0, 0, 0, 0, 0, 0, 0, 0, 0, 0, 0, 0, 0, 0, 0, 0, 0, 0, 0, 0, 0, 0, 0, 0, 0, 0, 0, 0, 0, 0, 0, 0, 0, 0, 0], "id": 16, "left_children": [1, 3, 5, 7, 9, 11, 13, 15, 17, 19, 21, 23, 25, 27, 29, 31, 33, 35, -1, 37, 39, -1, 41, 43, 45, 47, 49, -1, 51, -1, -1, -1, -1, -1, -1, -1, -1, 53, 55, 57, 59, 61, -1, 63, -1, -1, -1, 65, -1, -1, 67, -1, -1, -1, -1, -1, -1, -1, -1, -1, -1, -1, -1, -1, -1, -1, -1, -1, -1], "loss_changes": [4.7134423, 0.77467525, 0.61989236, 0.061803102, 0.18468493, 0.057675898, 0.1650374, 0.01183176, 0.008637853, 0.08550167, 0.010141268, 0.02348866, 0.020011306, 0.0344373, 0.014574051, 0.0140452385, 0.0011408031, 0.0096913725, 0.0, 0.051616848, 0.021918071, 0.0, 0.006311618, 0.0018875287, 0.006485898, 0.010853529, 0.01735437, 0.0, 0.005260229, 0.0, 0.0, 0.0, 0.0, 0.0, 0.0, 0.0, 0.0, 0.008178234, 0.011970407, 0.01929671, 0.0014074225, 0.008894391, 0.0, 0.00019500533, 0.0, 0.0, 0.0, 0.0064498633, 0.0, 0.0, 0.01715079, 0.0, 0.0, 0.0, 0.0, 0.0, 0.0, 0.0, 0.0, 0.0, 0.0, 0.0, 0.0, 0.0, 0.0, 0.0, 0.0, 0.0, 0.0], "parents": [2147483647, 0, 0, 1, 1, 2, 2, 3, 3, 4, 4, 5, 5, 6, 6, 7, 7, 8, 8, 9, 9, 10, 10, 11, 11, 12, 12, 13, 13, 14, 14, 15, 15, 16, 16, 17, 17, 19, 19, 20, 20, 22, 22, 23, 23, 24, 24, 25, 25, 26, 26, 28, 28, 37, 37, 38, 38, 39, 39, 40, 40, 41, 41, 43, 43, 47, 47, 50, 50], "right_children": [2, 4, 6, 8, 10, 12, 14, 16, 18, 20, 22, 24, 26, 28, 30, 32, 34, 36, -1, 38, 40, -1, 42, 44, 46, 48, 50, -1, 52, -1, -1, -1, -1, -1, -1, -1, -1, 54, 56, 58, 60, 62, -1, 64, -1, -1, -1, 66, -1, -1, 68, -1, -1, -1, -1, -1, -1, -1, -1, -1, -1, -1, -1, -1, -1, -1, -1, -1, -1], "split_conditions": [0.44814482, 0.18281828, 0.5789579, 0.24833333, 0.781, 0.36083335, 0.9565, 0.12811281, 0.19539611, 0.36333632, 0.21732174, 0.50875086, -0.022444103, 0.7649765, 0.0152, 0.5487, 0.006545, 0.08456583, -0.0, 0.323, 0.75, -0.0, 1.0444338, 0.0408394, -0.0076, 0.0848, 0.78571427, 0.0060015987, 0.0163, 0.015439642, 0.009636789, -0.0052149384, -0.0, -0.00075294235, -0.0038446956, -0.0, -0.0027815264, 0.201231, 0.31273127, 0.38053805, 0.8624662, -0.0745, -0.0, 0.015, 0.0003649344, 0.0036132333, -0.0, -0.039474208, -0.0, 0.00766097, 0.108, 0.010879467, 0.0042115017, -0.0022994021, -0.0, -0.0009409934, 0.00021440093, -0.0, 0.0031837404, 5.6095283e-05, -0.00061709917, 0.0045148353, 0.0017548783, -0.0008053792, -0.0, 0.0034382106, -0.0, 0.004414467, -0.0], "split_indices": [0, 0, 0, 13, 13, 13, 13, 0, 16, 0, 0, 0, 16, 0, 6, 5, 17, 17, 0, 13, 1, 0, 15, 17, 6, 6, 1, 0, 5, 0, 0, 0, 0, 0, 0, 0, 0, 17, 0, 0, 15, 6, 0, 5, 0, 0, 0, 16, 0, 0, 6, 0, 0, 0, 0, 0, 0, 0, 0, 0, 0, 0, 0, 0, 0, 0, 0, 0, 0], "split_type": [0, 0, 0, 0, 0, 0, 0, 0, 0, 0, 0, 0, 0, 0, 0, 0, 0, 0, 0, 0, 0, 0, 0, 0, 0, 0, 0, 0, 0, 0, 0, 0, 0, 0, 0, 0, 0, 0, 0, 0, 0, 0, 0, 0, 0, 0, 0, 0, 0, 0, 0, 0, 0, 0, 0, 0, 0, 0, 0, 0, 0, 0, 0, 0, 0, 0, 0, 0, 0], "sum_hessian": [790.0, 582.0, 208.0, 252.0, 330.0, 106.0, 102.0, 213.0, 39.0, 277.0, 53.0, 23.0, 83.0, 66.0, 36.0, 140.0, 73.0, 34.0, 5.0, 225.0, 52.0, 5.0, 48.0, 13.0, 10.0, 38.0, 45.0, 45.0, 21.0, 14.0, 22.0, 137.0, 3.0, 5.0, 68.0, 5.0, 29.0, 131.0, 94.0, 16.0, 36.0, 45.0, 3.0, 9.0, 4.0, 7.0, 3.0, 35.0, 3.0, 12.0, 33.0, 16.0, 5.0, 128.0, 3.0, 71.0, 23.0, 5.0, 11.0, 28.0, 8.0, 7.0, 38.0, 6.0, 3.0, 32.0, 3.0, 30.0, 3.0], "tree_param": {"num_deleted": "0", "num_feature": "19", "num_nodes": "69", "size_leaf_vector": "1"}}, {"base_weights": [0.0023968958, -0.039850447, 0.09245392, -0.06549095, 0.0015063221, 0.06748178, 0.19561657, -0.022306867, -0.07377977, -0.013287751, 0.05987673, 0.0487776, 0.16827062, 0.21791825, 0.0031825851, -0.045728907, 0.009957408, -0.08683559, -0.0431195, 0.008263387, -0.051098887, 0.09338047, -0.0018493464, 0.07674727, 0.008755147, 0.0095276665, 0.004621079, 0.012155996, 0.120284796, -0.053151786, -0.0, 0.030339915, -0.019552283, -0.000601398, -0.08824425, -0.0, -0.049119227, -0.011065696, 0.041483335, -0.06708779, -0.0069608972, -0.0, 0.12093167, 0.050317567, 0.13516796, -0.013226776, 0.025925914, 0.0012778345, 0.0070056627, -0.002925842, -0.0, 0.0018626199, -0.0, -0.0024587424, -0.0, -0.005252091, -0.0038413329, -0.000641707, 0.00048052781, -0.0027222768, -0.0, -0.0009644762, 0.00074942573, 0.0023544696, -0.0, -0.0037408366, -0.000923274, 0.00079046993, -0.0010376802, -0.00061652577, -0.0, -0.0, 0.0068393084, -0.0, 0.0029672692, 0.004118786, 0.008240526, -0.0012639255, 0.00087094726, -0.0008376467, 0.0019919383], "categories": [], "categories_nodes": [], "categories_segments": [], "categories_sizes": [], "default_left": [0, 0, 0, 0, 0, 0, 0, 0, 0, 0, 0, 0, 0, 0, 0, 0, 0, 0, 0, 0, 0, 0, 0, 0, 0, 0, 0, 0, 0, 0, 0, 0, 0, 0, 0, 0, 0, 0, 0, 0, 0, 0, 0, 0, 0, 0, 0, 0, 0, 0, 0, 0, 0, 0, 0, 0, 0, 0, 0, 0, 0, 0, 0, 0, 0, 0, 0, 0, 0, 0, 0, 0, 0, 0, 0, 0, 0, 0, 0, 0, 0], "id": 17, "left_children": [1, 3, 5, 7, 9, 11, 13, 15, 17, 19, 21, 23, 25, 27, -1, 29, 31, 33, 35, 37, 39, 41, -1, 43, 45, -1, -1, -1, 47, 49, -1, 51, 53, -1, 55, 57, 59, 61, 63, 65, 67, 69, 71, 73, 75, 77, 79, -1, -1, -1, -1, -1, -1, -1, -1, -1, -1, -1, -1, -1, -1, -1, -1, -1, -1, -1, -1, -1, -1, -1, -1, -1, -1, -1, -1, -1, -1, -1, -1, -1, -1], "loss_changes": [3.0108294, 0.57593644, 0.6122663, 0.10794115, 0.18247943, 0.358433, 0.09923792, 0.047107115, 0.09414196, 0.13753012, 0.1486409, 0.18779474, 0.006485045, 0.032836914, 0.0, 0.0143888295, 0.015506053, 0.009038687, 0.019194037, 0.069638245, 0.035176918, 0.09247905, 0.0, 0.1321423, 0.029921316, 0.0, 0.0, 0.0, 0.0005135983, 0.008299701, 0.0, 0.0033124648, 0.009032493, 0.0, 0.0094156265, 0.00194425, 0.02062112, 0.014432204, 0.01099211, 0.005449608, 0.006789738, 0.00076020806, 0.05010426, 0.030008733, 0.008651912, 0.012675634, 0.029696299, 0.0, 0.0, 0.0, 0.0, 0.0, 0.0, 0.0, 0.0, 0.0, 0.0, 0.0, 0.0, 0.0, 0.0, 0.0, 0.0, 0.0, 0.0, 0.0, 0.0, 0.0, 0.0, 0.0, 0.0, 0.0, 0.0, 0.0, 0.0, 0.0, 0.0, 0.0, 0.0, 0.0, 0.0], "parents": [2147483647, 0, 0, 1, 1, 2, 2, 3, 3, 4, 4, 5, 5, 6, 6, 7, 7, 8, 8, 9, 9, 10, 10, 11, 11, 12, 12, 13, 13, 15, 15, 16, 16, 17, 17, 18, 18, 19, 19, 20, 20, 21, 21, 23, 23, 24, 24, 28, 28, 29, 29, 31, 31, 32, 32, 34, 34, 35, 35, 36, 36, 37, 37, 38, 38, 39, 39, 40, 40, 41, 41, 42, 42, 43, 43, 44, 44, 45, 45, 46, 46], "right_children": [2, 4, 6, 8, 10, 12, 14, 16, 18, 20, 22, 24, 26, 28, -1, 30, 32, 34, 36, 38, 40, 42, -1, 44, 46, -1, -1, -1, 48, 50, -1, 52, 54, -1, 56, 58, 60, 62, 64, 66, 68, 70, 72, 74, 76, 78, 80, -1, -1, -1, -1, -1, -1, -1, -1, -1, -1, -1, -1, -1, -1, -1, -1, -1, -1, -1, -1, -1, -1, -1, -1, -1, -1, -1, -1, -1, -1, -1, -1, -1, -1], "split_conditions": [0.63, 0.5192818, 0.9062, 0.75, 1.0, 1.03176, 0.8, 0.5876667, 0.199375, 0.5, 0.9, 0.5, 0.6, 0.0068, 0.0031825851, 0.0707, 0.2, 0.029962406, 0.2, 0.6852152, 0.47214285, -0.0867, -0.0018493464, 0.9061104, 0.85371214, 0.0095276665, 0.004621079, 0.012155996, 0.907, 0.2759317, -0.0, 0.0402, 0.29938775, -0.000601398, 0.47058824, 0.32868832, 1.0, 0.0827, 0.065, 0.7345, 0.7058824, 0.57037145, 0.0953125, -0.0557, 0.7312, 0.941, 0.78571427, 0.0012778345, 0.0070056627, -0.002925842, -0.0, 0.0018626199, -0.0, -0.0024587424, -0.0, -0.005252091, -0.0038413329, -0.000641707, 0.00048052781, -0.0027222768, -0.0, -0.0009644762, 0.00074942573, 0.0023544696, -0.0, -0.0037408366, -0.000923274, 0.00079046993, -0.0010376802, -0.00061652577, -0.0, -0.0, 0.0068393084, -0.0, 0.0029672692, 0.004118786, 0.008240526, -0.0012639255, 0.00087094726, -0.0008376467, 0.0019919383], "split_indices": [13, 15, 3, 1, 9, 13, 2, 3, 13, 2, 2, 2, 2, 5, 0, 6, 2, 15, 2, 15, 13, 6, 0, 15, 15, 0, 0, 0, 3, 15, 0, 5, 15, 0, 14, 15, 9, 6, 5, 3, 14, 15, 13, 5, 3, 13, 1, 0, 0, 0, 0, 0, 0, 0, 0, 0, 0, 0, 0, 0, 0, 0, 0, 0, 0, 0, 0, 0, 0, 0, 0, 0, 0, 0, 0, 0, 0, 0, 0, 0, 0], "split_type": [0, 0, 0, 0, 0, 0, 0, 0, 0, 0, 0, 0, 0, 0, 0, 0, 0, 0, 0, 0, 0, 0, 0, 0, 0, 0, 0, 0, 0, 0, 0, 0, 0, 0, 0, 0, 0, 0, 0, 0, 0, 0, 0, 0, 0, 0, 0, 0, 0, 0, 0, 0, 0, 0, 0, 0, 0, 0, 0, 0, 0, 0, 0, 0, 0, 0, 0, 0, 0, 0, 0, 0, 0, 0, 0, 0, 0, 0, 0, 0, 0], "sum_hessian": [788.0, 536.0, 252.0, 332.0, 204.0, 205.0, 47.0, 56.0, 276.0, 162.0, 42.0, 175.0, 30.0, 39.0, 8.0, 34.0, 22.0, 190.0, 86.0, 102.0, 60.0, 32.0, 10.0, 101.0, 74.0, 21.0, 9.0, 29.0, 10.0, 30.0, 4.0, 15.0, 7.0, 5.0, 185.0, 12.0, 74.0, 63.0, 39.0, 42.0, 18.0, 7.0, 25.0, 72.0, 29.0, 30.0, 44.0, 3.0, 7.0, 27.0, 3.0, 12.0, 3.0, 4.0, 3.0, 68.0, 117.0, 8.0, 4.0, 67.0, 7.0, 51.0, 12.0, 35.0, 4.0, 34.0, 8.0, 4.0, 14.0, 4.0, 3.0, 3.0, 22.0, 12.0, 60.0, 13.0, 16.0, 24.0, 6.0, 9.0, 35.0], "tree_param": {"num_deleted": "0", "num_feature": "19", "num_nodes": "81", "size_leaf_vector": "1"}}, {"base_weights": [0.0033197072, -0.041225635, 0.117040165, -0.076660015, -0.00965433, 0.08196001, 0.18711303, -0.08074597, -0.015731122, -0.028013548, 0.024847101, 0.034014095, 0.0947211, 0.14396124, 0.011598684, -0.09066411, -0.065711915, 0.001364298, -0.0017220384, -0.037276436, -0.0, 0.061817907, 0.010346731, 0.052010573, -0.0, 0.11559768, 0.058479693, 0.007726303, 0.00074382214, -0.0049228272, -0.06399641, -0.0, -0.0033916866, -0.021493677, -0.05148135, 0.027991509, -0.014835203, 0.0036014505, 0.014786526, -0.0, 0.045715228, 0.060341723, -0.0, -0.0007405707, 0.00023269102, 0.04903412, 0.12366957, -0.0, 0.06514879, -0.0, -0.0034888077, -9.9481105e-05, -0.0016765107, -0.0, -0.0026565294, -0.0, 0.001932471, -0.0, -0.0021077415, -0.0, 0.0011540409, 0.00039626416, -0.00046986295, -0.0, 0.0032040302, 0.0032765146, -0.0, 0.0035660085, -0.0, 0.007427048, 0.0049401433, 0.004505893, 0.0022045416], "categories": [], "categories_nodes": [], "categories_segments": [], "categories_sizes": [], "default_left": [0, 0, 0, 0, 0, 0, 0, 0, 0, 0, 0, 0, 0, 0, 0, 0, 0, 0, 0, 0, 0, 0, 0, 0, 0, 0, 0, 0, 0, 0, 0, 0, 0, 0, 0, 0, 0, 0, 0, 0, 0, 0, 0, 0, 0, 0, 0, 0, 0, 0, 0, 0, 0, 0, 0, 0, 0, 0, 0, 0, 0, 0, 0, 0, 0, 0, 0, 0, 0, 0, 0, 0, 0], "id": 18, "left_children": [1, 3, 5, 7, 9, 11, 13, 15, 17, 19, 21, 23, 25, 27, -1, 29, 31, -1, -1, 33, 35, 37, 39, 41, 43, 45, 47, -1, -1, -1, 49, -1, -1, 51, 53, 55, 57, -1, 59, 61, 63, 65, -1, -1, -1, 67, 69, -1, 71, -1, -1, -1, -1, -1, -1, -1, -1, -1, -1, -1, -1, -1, -1, -1, -1, -1, -1, -1, -1, -1, -1, -1, -1], "loss_changes": [4.1358995, 0.64507365, 0.52313566, 0.057294846, 0.19863953, 0.0793519, 0.07419729, 0.016427755, 0.017751917, 0.052327693, 0.04950559, 0.02597699, 0.06738043, 0.03803879, 0.0, 0.008001447, 0.012480497, 0.0, 0.0, 0.026121661, 0.022026438, 0.003700167, 0.029053489, 0.012477219, 0.0016655943, 0.016425371, 0.022598103, 0.0, 0.0, 0.0, 0.010678783, 0.0, 0.0, 0.014692683, 0.0048161894, 0.0068094432, 0.011624332, 0.0, 0.0009144903, 0.0047592996, 0.015764333, 0.001485452, 0.0, 0.0, 0.0, 0.014244743, 0.00017136335, 0.0, 0.005740851, 0.0, 0.0, 0.0, 0.0, 0.0, 0.0, 0.0, 0.0, 0.0, 0.0, 0.0, 0.0, 0.0, 0.0, 0.0, 0.0, 0.0, 0.0, 0.0, 0.0, 0.0, 0.0, 0.0, 0.0], "parents": [2147483647, 0, 0, 1, 1, 2, 2, 3, 3, 4, 4, 5, 5, 6, 6, 7, 7, 8, 8, 9, 9, 10, 10, 11, 11, 12, 12, 13, 13, 15, 15, 16, 16, 19, 19, 20, 20, 21, 21, 22, 22, 23, 23, 24, 24, 25, 25, 26, 26, 30, 30, 33, 33, 34, 34, 35, 35, 36, 36, 38, 38, 39, 39, 40, 40, 41, 41, 45, 45, 46, 46, 48, 48], "right_children": [2, 4, 6, 8, 10, 12, 14, 16, 18, 20, 22, 24, 26, 28, -1, 30, 32, -1, -1, 34, 36, 38, 40, 42, 44, 46, 48, -1, -1, -1, 50, -1, -1, 52, 54, 56, 58, -1, 60, 62, 64, 66, -1, -1, -1, 68, 70, -1, 72, -1, -1, -1, -1, -1, -1, -1, -1, -1, -1, -1, -1, -1, -1, -1, -1, -1, -1, -1, -1, -1, -1, -1, -1], "split_conditions": [0.42584258, 0.19121912, 0.640164, 0.533, 0.57, 0.36083335, 0.7649765, 0.123012304, 0.3, 0.32683268, 0.3, 0.025, 0.5, 0.8, 0.011598684, 0.19428572, 0.021428572, 0.001364298, -0.0017220384, 0.3, 0.2, 0.08837678, 0.9595, 0.9676, 0.0554, 0.44814482, -0.35844594, 0.007726303, 0.00074382214, -0.0049228272, 0.2, -0.0, -0.0033916866, -0.123, 0.232, 0.3974, 0.0077, 0.0036014505, 0.8888889, 1.0, 0.019136906, 0.6, -0.0, -0.0007405707, 0.00023269102, 0.8, 0.78571427, -0.0, -0.0159, -0.0, -0.0034888077, -9.9481105e-05, -0.0016765107, -0.0, -0.0026565294, -0.0, 0.001932471, -0.0, -0.0021077415, -0.0, 0.0011540409, 0.00039626416, -0.00046986295, -0.0, 0.0032040302, 0.0032765146, -0.0, 0.0035660085, -0.0, 0.007427048, 0.0049401433, 0.004505893, 0.0022045416], "split_indices": [0, 0, 0, 13, 13, 13, 0, 0, 2, 0, 2, 6, 2, 2, 0, 13, 13, 0, 0, 2, 2, 16, 13, 3, 6, 0, 16, 0, 0, 0, 2, 0, 0, 16, 3, 3, 5, 0, 1, 11, 16, 2, 0, 0, 0, 1, 1, 0, 6, 0, 0, 0, 0, 0, 0, 0, 0, 0, 0, 0, 0, 0, 0, 0, 0, 0, 0, 0, 0, 0, 0, 0, 0], "split_type": [0, 0, 0, 0, 0, 0, 0, 0, 0, 0, 0, 0, 0, 0, 0, 0, 0, 0, 0, 0, 0, 0, 0, 0, 0, 0, 0, 0, 0, 0, 0, 0, 0, 0, 0, 0, 0, 0, 0, 0, 0, 0, 0, 0, 0, 0, 0, 0, 0, 0, 0, 0, 0, 0, 0, 0, 0, 0, 0, 0, 0, 0, 0, 0, 0, 0, 0, 0, 0, 0, 0, 0, 0], "sum_hessian": [813.0, 584.0, 229.0, 273.0, 311.0, 155.0, 74.0, 254.0, 19.0, 205.0, 106.0, 35.0, 120.0, 41.0, 33.0, 146.0, 108.0, 4.0, 15.0, 153.0, 52.0, 27.0, 79.0, 24.0, 11.0, 73.0, 47.0, 37.0, 4.0, 108.0, 38.0, 4.0, 104.0, 77.0, 76.0, 17.0, 35.0, 20.0, 7.0, 62.0, 17.0, 21.0, 3.0, 6.0, 5.0, 10.0, 63.0, 4.0, 43.0, 4.0, 34.0, 33.0, 44.0, 3.0, 73.0, 4.0, 13.0, 25.0, 10.0, 3.0, 4.0, 34.0, 28.0, 5.0, 12.0, 18.0, 3.0, 7.0, 3.0, 27.0, 36.0, 16.0, 27.0], "tree_param": {"num_deleted": "0", "num_feature": "19", "num_nodes": "73", "size_leaf_vector": "1"}}, {"base_weights": [0.0022887827, -0.038701974, 0.112998694, -0.06975793, -0.0035278613, 0.08865345, 0.20655854, -0.080915645, -0.046893638, -0.019108998, 0.017446842, 0.06430953, 0.11788234, 0.01084756, 0.0032092072, -0.004803306, -0.06646191, -0.067095876, -0.017978149, -0.027885413, -0.00085228827, 0.031026823, -0.007248166, 0.04030989, 0.09763435, 0.07642909, 0.1383878, -0.0034041808, -0.0005169273, -0.0, -0.07067388, -0.026064454, 0.0025232867, -0.014282012, -0.041658573, -0.027478224, 0.012665014, 0.019998427, 0.0029188374, -0.029131692, 0.019780135, 0.05082232, -0.0, -0.0, 0.0052451557, 0.0042141792, 9.354018e-05, 0.0073886225, 0.003024652, -0.0008900283, -0.003791156, -0.0020743588, -0.0003658445, -0.0012589929, 0.0005985235, -0.0023528533, -0.0, -0.0, -0.0022649386, 0.0017714441, 6.621532e-05, 0.0024741555, 0.00037517838, -0.001727761, -0.0, -0.0, 0.0015269787, -0.0, 0.002988842, -0.0003403102, 0.00033482857], "categories": [], "categories_nodes": [], "categories_segments": [], "categories_sizes": [], "default_left": [0, 0, 0, 0, 0, 0, 0, 0, 0, 0, 0, 0, 0, 0, 0, 0, 0, 0, 0, 0, 0, 0, 0, 0, 0, 0, 0, 0, 0, 0, 0, 0, 0, 0, 0, 0, 0, 0, 0, 0, 0, 0, 0, 0, 0, 0, 0, 0, 0, 0, 0, 0, 0, 0, 0, 0, 0, 0, 0, 0, 0, 0, 0, 0, 0, 0, 0, 0, 0, 0, 0], "id": 19, "left_children": [1, 3, 5, 7, 9, 11, 13, 15, 17, 19, 21, 23, 25, -1, -1, -1, 27, 29, 31, 33, 35, 37, 39, 41, 43, 45, 47, -1, -1, -1, 49, 51, -1, 53, 55, 57, 59, 61, -1, 63, 65, 67, 69, -1, -1, -1, -1, -1, -1, -1, -1, -1, -1, -1, -1, -1, -1, -1, -1, -1, -1, -1, -1, -1, -1, -1, -1, -1, -1, -1, -1], "loss_changes": [3.624117, 0.62709, 0.44415784, 0.061744332, 0.09037229, 0.09800875, 0.021586418, 0.02159667, 0.052207023, 0.022899237, 0.041168895, 0.061448514, 0.032542825, 0.0, 0.0, 0.0, 0.0014655888, 0.009597272, 0.02488776, 0.013483971, 0.022344248, 0.014220223, 0.024578892, 0.024861477, 0.024401605, 0.008209795, 0.005322933, 0.0, 0.0, 0.0, 0.004534334, 0.0075381286, 0.0, 0.018215895, 0.014131196, 0.014168518, 0.0055714627, 0.015666045, 0.0, 0.0023194682, 0.0049319263, 0.018951237, 0.000681543, 0.0, 0.0, 0.0, 0.0, 0.0, 0.0, 0.0, 0.0, 0.0, 0.0, 0.0, 0.0, 0.0, 0.0, 0.0, 0.0, 0.0, 0.0, 0.0, 0.0, 0.0, 0.0, 0.0, 0.0, 0.0, 0.0, 0.0, 0.0], "parents": [2147483647, 0, 0, 1, 1, 2, 2, 3, 3, 4, 4, 5, 5, 6, 6, 7, 7, 8, 8, 9, 9, 10, 10, 11, 11, 12, 12, 16, 16, 17, 17, 18, 18, 19, 19, 20, 20, 21, 21, 22, 22, 23, 23, 24, 24, 25, 25, 26, 26, 30, 30, 31, 31, 33, 33, 34, 34, 35, 35, 36, 36, 37, 37, 39, 39, 40, 40, 41, 41, 42, 42], "right_children": [2, 4, 6, 8, 10, 12, 14, 16, 18, 20, 22, 24, 26, -1, -1, -1, 28, 30, 32, 34, 36, 38, 40, 42, 44, 46, 48, -1, -1, -1, 50, 52, -1, 54, 56, 58, 60, 62, -1, 64, 66, 68, 70, -1, -1, -1, -1, -1, -1, -1, -1, -1, -1, -1, -1, -1, -1, -1, -1, -1, -1, -1, -1, -1, -1, -1, -1, -1, -1, -1, -1], "split_conditions": [0.44054407, 0.21472147, 0.7321732, 0.3543323, 0.3228323, 0.5518552, 0.0469, 0.10141014, -0.22067623, 0.63037336, 0.012, -0.003966216, -0.16425757, 0.01084756, 0.0032092072, -0.004803306, 0.16520114, 0.0690069, 0.85371214, 0.3, -0.21806061, 0.03374107, -0.0121898735, 0.7, 0.3259111, 0.8, 0.7, -0.0034041808, -0.0005169273, -0.0, 0.2, 0.14971498, 0.0025232867, 0.4045102, 0.06862709, 0.7058824, 0.4, 0.2, 0.0029188374, 0.39673966, 0.3416453, 0.5954054, -0.49291405, -0.0, 0.0052451557, 0.0042141792, 9.354018e-05, 0.0073886225, 0.003024652, -0.0008900283, -0.003791156, -0.0020743588, -0.0003658445, -0.0012589929, 0.0005985235, -0.0023528533, -0.0, -0.0, -0.0022649386, 0.0017714441, 6.621532e-05, 0.0024741555, 0.00037517838, -0.001727761, -0.0, -0.0, 0.0015269787, -0.0, 0.002988842, -0.0003403102, 0.00033482857], "split_indices": [0, 0, 0, 15, 0, 0, 5, 0, 16, 15, 5, 16, 16, 0, 0, 0, 16, 0, 15, 2, 16, 16, 16, 2, 15, 2, 2, 0, 0, 0, 2, 0, 0, 15, 16, 14, 2, 2, 0, 0, 15, 15, 16, 0, 0, 0, 0, 0, 0, 0, 0, 0, 0, 0, 0, 0, 0, 0, 0, 0, 0, 0, 0, 0, 0, 0, 0, 0, 0, 0, 0], "split_type": [0, 0, 0, 0, 0, 0, 0, 0, 0, 0, 0, 0, 0, 0, 0, 0, 0, 0, 0, 0, 0, 0, 0, 0, 0, 0, 0, 0, 0, 0, 0, 0, 0, 0, 0, 0, 0, 0, 0, 0, 0, 0, 0, 0, 0, 0, 0, 0, 0, 0, 0, 0, 0, 0, 0, 0, 0, 0, 0, 0, 0, 0, 0, 0, 0, 0, 0, 0, 0, 0, 0], "sum_hessian": [795.0, 580.0, 215.0, 306.0, 274.0, 173.0, 42.0, 201.0, 105.0, 160.0, 114.0, 98.0, 75.0, 38.0, 4.0, 92.0, 109.0, 59.0, 46.0, 104.0, 56.0, 76.0, 38.0, 60.0, 38.0, 28.0, 47.0, 104.0, 5.0, 4.0, 55.0, 43.0, 3.0, 57.0, 47.0, 21.0, 35.0, 58.0, 18.0, 23.0, 15.0, 47.0, 13.0, 3.0, 35.0, 24.0, 4.0, 40.0, 7.0, 7.0, 48.0, 20.0, 23.0, 43.0, 14.0, 43.0, 4.0, 7.0, 14.0, 8.0, 27.0, 14.0, 44.0, 18.0, 5.0, 4.0, 11.0, 8.0, 39.0, 5.0, 8.0], "tree_param": {"num_deleted": "0", "num_feature": "19", "num_nodes": "71", "size_leaf_vector": "1"}}, {"base_weights": [0.00069985643, -0.042191356, 0.08684602, -0.06868513, -0.014079586, 0.04226169, 0.12192566, -0.07337465, -0.011635029, -0.034440126, 0.005200056, 0.029736212, 0.0910796, 0.1035516, 0.1838932, -0.084471546, -0.060269333, 0.015577926, -0.029639065, -0.0, -0.038403086, -0.0, 0.032965146, 0.017765032, 0.069732845, 0.0002358704, 0.004939903, 0.106095426, -0.0, 0.005993949, 0.010805992, -0.0043222173, -0.0, -0.07260349, -0.043546323, 0.0028302376, -1.7955825e-05, -0.0, -0.0016503492, -0.00086908555, 0.011474251, -0.0, -0.0401708, 0.026726771, -0.010106261, 0.042733744, -0.0, 0.03302434, 0.00042842736, 0.08453859, -0.0, 0.06855053, 0.12070117, -0.003750901, -0.0003829863, -0.0023209765, -0.0, -0.0, 0.0010209781, -0.0029677232, -0.0015649823, -0.00048392965, 0.0017572899, 0.0003359741, -0.00068863103, 0.0002474915, 0.0028014272, -0.0, 0.0021747202, -0.0003912664, 0.00045036888, 0.00484177, -0.0, 0.0038247665, 0.00046438802, 0.0073220865, 0.004672738], "categories": [], "categories_nodes": [], "categories_segments": [], "categories_sizes": [], "default_left": [0, 0, 0, 0, 0, 0, 0, 0, 0, 0, 0, 0, 0, 0, 0, 0, 0, 0, 0, 0, 0, 0, 0, 0, 0, 0, 0, 0, 0, 0, 0, 0, 0, 0, 0, 0, 0, 0, 0, 0, 0, 0, 0, 0, 0, 0, 0, 0, 0, 0, 0, 0, 0, 0, 0, 0, 0, 0, 0, 0, 0, 0, 0, 0, 0, 0, 0, 0, 0, 0, 0, 0, 0, 0, 0, 0, 0], "id": 20, "left_children": [1, 3, 5, 7, 9, 11, 13, 15, 17, 19, 21, 23, 25, 27, 29, 31, 33, 35, 37, 39, 41, 43, 45, 47, 49, -1, -1, 51, -1, -1, -1, -1, -1, 53, 55, -1, -1, -1, -1, -1, 57, -1, 59, 61, 63, 65, -1, 67, 69, 71, -1, 73, 75, -1, -1, -1, -1, -1, -1, -1, -1, -1, -1, -1, -1, -1, -1, -1, -1, -1, -1, -1, -1, -1, -1, -1, -1], "loss_changes": [3.0305688, 0.39741015, 0.40540075, 0.065288305, 0.108304866, 0.060420573, 0.12414122, 0.017664552, 0.013626461, 0.01922141, 0.022403298, 0.0383709, 0.0045138, 0.0302279, 0.0065066814, 0.022090435, 0.011006445, 0.01087566, 0.00031839404, 0.0028272038, 0.010212749, 0.029396892, 0.008616466, 0.018068684, 0.019379072, 0.0, 0.0, 0.036960125, 0.0, 0.0, 0.0, 0.0, 0.0, 0.0016637743, 0.0066318437, 0.0, 0.0, 0.0, 0.0, 0.0, 0.0011851666, 0.0, 0.008817822, 0.011775315, 0.006041442, 0.0031690933, 0.0, 0.013128612, 0.00316265, 0.009784184, 0.0, 0.008131966, 0.019133091, 0.0, 0.0, 0.0, 0.0, 0.0, 0.0, 0.0, 0.0, 0.0, 0.0, 0.0, 0.0, 0.0, 0.0, 0.0, 0.0, 0.0, 0.0, 0.0, 0.0, 0.0, 0.0, 0.0, 0.0], "parents": [2147483647, 0, 0, 1, 1, 2, 2, 3, 3, 4, 4, 5, 5, 6, 6, 7, 7, 8, 8, 9, 9, 10, 10, 11, 11, 