{"model_type": "xgboost_tier_specific", "tier": "low", "test_year": 2022, "train_years_list": [2021], "mae_ktc": 427.20406766187915, "signed_error": 36.329599778344935, "r2_score": 0.538731621980918, "n_train_samples": 46, "n_test_samples": 80, "n_features": 148, "feature_names": ["start_ktc", "ktc_30d_trend", "ktc_90d_trend", "age_factor", "years_exp_normalized", "fp_normalized", "games_played_factor", "fp_per_game", "prior_fp_normalized", "prior_fp_per_game", "fp_per_game_change", "fp_change_yoy", "position_rank_normalized", "ktc_volatility", "is_breakout_candidate", "is_qb", "is_rb", "is_wr", "is_te", "receptions_normalized", "targets_normalized", "receiving_yards_normalized", "receiving_tds_normalized", "yards_per_target", "target_share", "carries_normalized", "rushing_yards_normalized", "rushing_tds_normalized", "yards_per_carry", "passing_yards_normalized", "passing_tds_normalized", "interceptions_normalized", "draft_round_value", "draft_pick_value", "age_fp_interaction", "cliff_years_penalty", "age_exp_gap", "snap_pct_normalized", "fp_per_snap", "elite_youth_premium", "fp_trajectory", "qb_td_int_ratio", "qb_rushing_bonus", "qb_age_premium", "qb_efficiency", "is_elite_tier", "elite_age_interaction", "elite_trajectory_interaction", "elite_volatility_dampener", "efficiency_volume", "workload_intensity", "td_conversion_rate", "trajectory_cliff_interaction", "draft_performance_ratio", "yoy_decline_severity", "games_played_collapse", "gap_year_penalty", "qb_age_cliff_40plus", "elite_partial_season_resilience", "career_prime_factor", "red_zone_targets_norm", "red_zone_touches_norm", "red_zone_efficiency_norm", "air_yards_normalized", "yac_normalized", "yac_per_rec_norm", "air_yards_per_tgt_norm", "drop_rate_normalized", "receiving_fd_norm", "rushing_fd_norm", "broken_tackles_norm", "rush_share_norm", "completion_rate_norm", "sack_rate_norm", "passing_fd_norm", "weekly_fp_cv", "momentum_ratio", "boom_rate", "bust_rate", "last_4_vs_season", "max_games_missed_streak", "ktc_weekly_volatility", "team_pass_factor", "team_rush_factor", "opportunity_ceiling", "rush_opportunity", "team_volume_combined", "snap_trend", "snap_collapse", "snap_consistency", "ktc_trend_acceleration", "mid_season_correction", "ktc_momentum", "pff_grade_normalized", "pff_has_data", "pff_grade_confidence", "pff_position_grade", "pff_grade_divergence", "pff_grade_trajectory", "pff_wr_separation", "pff_wr_contested_catch", "pff_rb_elusive_rating", "pff_rb_receiving_grade", "pff_qb_accuracy", "pff_qb_pressure_grade", "pff_grade_volatility", "pff_youth_premium", "pff_decline_alert", "pff_grade_snap_divergence", "pff_elite_indicator", "pff_bust_risk", "pff_breakout_probability", "pff_dynasty_score", "veteran_decline_risk", "rb_age_penalty", "wr_te_age_penalty", "age_31_plus_flag", "age_decline_signal", "value_depreciation_risk", "veteran_with_declining_fp", "mid_tier_depreciation_signal", "snap_pct_decline", "starter_to_backup_risk", "mid_tier_regression_factor", "qb_stability_premium", "qb_scarcity_factor", "rb_accelerated_decline", "position_cliff_multiplier", "elite_young_upside", "elite_momentum_amplifier", "breakout_trajectory", "tier2_hope_discount", "non_starter_depreciation", "one_hit_wonder_risk", "peak_season_risk", "buy_low_recovery", "te_upside_amplifier", "te_elite_ceiling", "te_breakout_indicator", "breakout_potential_ceiling", "rookie_draft_capital_ceiling", "momentum_ceiling_amplifier", "young_elite_ceiling_boost", "career_trajectory_boost", "veteran_steep_decline", "veteran_qb_cliff", "aging_value_compression", "position_age_interaction"], "ensemble_weights": {"xgboost": 0.4, "lightgbm": 0.6}, "xgboost_model": {"n_estimators": 400, "base_score": 0.20206586, "trees": [{"nodeid": 0, "depth": 0, "split": "f61", "split_condition": 0.280000001, "yes": 1, "no": 2, "missing": 2, "children": [{"nodeid": 1, "depth": 1, "split": "f4", "split_condition": 0.200000003, "yes": 3, "no": 4, "missing": 4, "children": [{"nodeid": 3, "depth": 2, "split": "f5", "split_condition": 0.139500007, "yes": 7, "no": 8, "missing": 8, "children": [{"nodeid": 7, "leaf": -0.00153409678}, {"nodeid": 8, "leaf": 0.000825180265}]}, {"nodeid": 4, "depth": 2, "split": "f84", "split_condition": 0.455357134, "yes": 9, "no": 10, "missing": 10, "children": [{"nodeid": 9, "leaf": -0.0030934345}, {"nodeid": 10, "leaf": -0.00134547369}]}]}, {"nodeid": 2, "depth": 1, "split": "f93", "split_condition": 0.313333333, "yes": 5, "no": 6, "missing": 6, "children": [{"nodeid": 5, "leaf": 0.000854431535}, {"nodeid": 6, "leaf": 0.00483470783}]}]}, {"nodeid": 0, "depth": 0, "split": "f61", "split_condition": 0.200000003, "yes": 1, "no": 2, "missing": 2, "children": [{"nodeid": 1, "depth": 1, "split": "f93", "split_condition": 0.474666655, "yes": 3, "no": 4, "missing": 4, "children": [{"nodeid": 3, "depth": 2, "split": "f22", "split_condition": 0.266666681, "yes": 7, "no": 8, "missing": 8, "children": [{"nodeid": 7, "leaf": -0.00288076419}, {"nodeid": 8, "leaf": -0.00100211857}]}, {"nodeid": 4, "leaf": 6.95909839e-05}]}, {"nodeid": 2, "depth": 1, "split": "f91", "split_condition": 0.261118531, "yes": 5, "no": 6, "missing": 6, "children": [{"nodeid": 5, "leaf": -0.000471743842}, {"nodeid": 6, "depth": 2, "split": "f59", "split_condition": 0.875, "yes": 9, "no": 10, "missing": 10, "children": [{"nodeid": 9, "leaf": 0.00130210922}, {"nodeid": 10, "leaf": 0.00342238275}]}]}]}, {"nodeid": 0, "depth": 0, "split": "f5", "split_condition": 0.304250002, "yes": 1, "no": 2, "missing": 2, "children": [{"nodeid": 1, "depth": 1, "split": "f91", "split_condition": 0.112670787, "yes": 3, "no": 4, "missing": 4, "children": [{"nodeid": 3, "leaf": -0.000212095212}, {"nodeid": 4, "leaf": -0.00258102641}]}, {"nodeid": 2, "depth": 1, "split": "f96", "split_condition": 0.402666658, "yes": 5, "no": 6, "missing": 6, "children": [{"nodeid": 5, "depth": 2, "split": "f0", "split_condition": 0.132313237, "yes": 7, "no": 8, "missing": 8, "children": [{"nodeid": 7, "leaf": 8.06729149e-05}, {"nodeid": 8, "leaf": 0.00156474707}]}, {"nodeid": 6, "leaf": 0.004403878}]}]}, {"nodeid": 0, "depth": 0, "split": "f61", "split_condition": 0.200000003, "yes": 1, "no": 2, "missing": 2, "children": [{"nodeid": 1, "depth": 1, "split": "f29", "split_condition": 0.177818179, "yes": 3, "no": 4, "missing": 4, "children": [{"nodeid": 3, "depth": 2, "split": "f78", "split_condition": 0.356999993, "yes": 7, "no": 8, "missing": 8, "children": [{"nodeid": 7, "leaf": -0.00262434687}, {"nodeid": 8, "depth": 3, "split": "f1", "split_condition": -0.0344000012, "yes": 9, "no": 10, "missing": 10, "children": [{"nodeid": 9, "leaf": 0.000214891668}, {"nodeid": 10, "leaf": -0.00110097567}]}]}, {"nodeid": 4, "leaf": 0.000853554055}]}, {"nodeid": 2, "depth": 1, "split": "f141", "split_condition": 0.400000006, "yes": 5, "no": 6, "missing": 6, "children": [{"nodeid": 5, "leaf": -0.000108952569}, {"nodeid": 6, "leaf": 0.0035937503}]}]}, {"nodeid": 0, "depth": 0, "split": "f5", "split_condition": 0.304250002, "yes": 1, "no": 2, "missing": 2, "children": [{"nodeid": 1, "depth": 1, "split": "f78", "split_condition": 0.375, "yes": 3, "no": 4, "missing": 4, "children": [{"nodeid": 3, "depth": 2, "split": "f84", "split_condition": 0.455357134, "yes": 7, "no": 8, "missing": 8, "children": [{"nodeid": 7, "leaf": -0.00288403523}, {"nodeid": 8, "leaf": -0.00111447112}]}, {"nodeid": 4, "depth": 2, "split": "f90", "split_condition": 0.0270707067, "yes": 9, "no": 10, "missing": 10, "children": [{"nodeid": 9, "leaf": -0.000980419572}, {"nodeid": 10, "leaf": 0.000649321009}]}]}, {"nodeid": 2, "depth": 1, "split": "f0", "split_condition": 0.132313237, "yes": 5, "no": 6, "missing": 6, "children": [{"nodeid": 5, "leaf": -0.000223313604}, {"nodeid": 6, "depth": 2, "split": "f0", "split_condition": 0.151815176, "yes": 11, "no": 12, "missing": 12, "children": [{"nodeid": 11, "leaf": 0.00433800463}, {"nodeid": 12, "leaf": 0.00196323777}]}]}]}, {"nodeid": 0, "depth": 0, "split": "f5", "split_condition": 0.304250002, "yes": 1, "no": 2, "missing": 2, "children": [{"nodeid": 1, "depth": 1, "split": "f78", "split_condition": 0.375, "yes": 3, "no": 4, "missing": 4, "children": [{"nodeid": 3, "depth": 2, "split": "f93", "split_condition": 0.26699999, "yes": 7, "no": 8, "missing": 8, "children": [{"nodeid": 7, "leaf": -0.000990959932}, {"nodeid": 8, "leaf": -0.00258071488}]}, {"nodeid": 4, "depth": 2, "split": "f90", "split_condition": 0.0270707067, "yes": 9, "no": 10, "missing": 10, "children": [{"nodeid": 9, "leaf": -0.00110683509}, {"nodeid": 10, "leaf": 0.000636798446}]}]}, {"nodeid": 2, "depth": 1, "split": "f1", "split_condition": -0.146599993, "yes": 5, "no": 6, "missing": 6, "children": [{"nodeid": 5, "depth": 2, "split": "f1", "split_condition": -0.296499997, "yes": 11, "no": 12, "missing": 12, "children": [{"nodeid": 11, "leaf": -0.000403900136}, {"nodeid": 12, "leaf": 0.00121265289}]}, {"nodeid": 6, "depth": 2, "split": "f75", "split_condition": 0.57099998, "yes": 13, "no": 14, "missing": 14, "children": [{"nodeid": 13, "leaf": 0.0043688463}, {"nodeid": 14, "leaf": 0.00165351434}]}]}]}, {"nodeid": 0, "depth": 0, "split": "f5", "split_condition": 0.213249996, "yes": 1, "no": 2, "missing": 2, "children": [{"nodeid": 1, "depth": 1, "split": "f78", "split_condition": 0.455000013, "yes": 3, "no": 4, "missing": 4, "children": [{"nodeid": 3, "depth": 2, "split": "f91", "split_condition": 0.112670787, "yes": 7, "no": 8, "missing": 8, "children": [{"nodeid": 7, "leaf": -0.00111961691}, {"nodeid": 8, "leaf": -0.00277660647}]}, {"nodeid": 4, "leaf": -0.000241550937}]}, {"nodeid": 2, "depth": 1, "split": "f1", "split_condition": -0.296499997, "yes": 5, "no": 6, "missing": 6, "children": [{"nodeid": 5, "leaf": -0.0003961107}, {"nodeid": 6, "leaf": 0.00222589122}]}]}, {"nodeid": 0, "depth": 0, "split": "f61", "split_condition": 0.200000003, "yes": 1, "no": 2, "missing": 2, "children": [{"nodeid": 1, "depth": 1, "split": "f41", "split_condition": 0.333333343, "yes": 3, "no": 4, "missing": 4, "children": [{"nodeid": 3, "depth": 2, "split": "f136", "split_condition": 0.233799994, "yes": 7, "no": 8, "missing": 8, "children": [{"nodeid": 7, "leaf": -0.00254298025}, {"nodeid": 8, "leaf": -0.000288813462}]}, {"nodeid": 4, "leaf": 5.89804476e-05}]}, {"nodeid": 2, "depth": 1, "split": "f3", "split_condition": 0.400000006, "yes": 5, "no": 6, "missing": 6, "children": [{"nodeid": 5, "depth": 2, "split": "f67", "split_condition": 0.583000004, "yes": 9, "no": 10, "missing": 10, "children": [{"nodeid": 9, "leaf": 0.00384956878}, {"nodeid": 10, "leaf": 0.00137345982}]}, {"nodeid": 6, "leaf": 0.000178366783}]}]}, {"nodeid": 0, "depth": 0, "split": "f5", "split_condition": 0.304250002, "yes": 1, "no": 2, "missing": 2, "children": [{"nodeid": 1, "depth": 1, "split": "f77", "split_condition": 0.231000006, "yes": 3, "no": 4, "missing": 4, "children": [{"nodeid": 3, "depth": 2, "split": "f136", "split_condition": 0.21085, "yes": 7, "no": 8, "missing": 8, "children": [{"nodeid": 7, "leaf": -0.00271057663}, {"nodeid": 8, "leaf": -0.000526742777}]}, {"nodeid": 4, "depth": 2, "split": "f17", "split_condition": 1, "yes": 9, "no": 10, "missing": 10, "children": [{"nodeid": 9, "leaf": 0.000143758531}, {"nodeid": 10, "leaf": -0.00098360423}]}]}, {"nodeid": 2, "depth": 1, "split": "f4", "split_condition": 0.5, "yes": 5, "no": 6, "missing": 6, "children": [{"nodeid": 5, "depth": 2, "split": "f79", "split_condition": 0.465000004, "yes": 11, "no": 12, "missing": 12, "children": [{"nodeid": 11, "leaf": 0.00158089562}, {"nodeid": 12, "leaf": 0.00411818316}]}, {"nodeid": 6, "leaf": 0.000442231947}]}]}, {"nodeid": 0, "depth": 0, "split": "f61", "split_condition": 0.280000001, "yes": 1, "no": 2, "missing": 2, "children": [{"nodeid": 1, "depth": 1, "split": "f5", "split_condition": 0.268999994, "yes": 3, "no": 4, "missing": 4, "children": [{"nodeid": 3, "depth": 2, "split": "f136", "split_condition": 0.2333, "yes": 7, "no": 8, "missing": 8, "children": [{"nodeid": 7, "leaf": -0.00230707112}, {"nodeid": 8, "leaf": -0.000282050023}]}, {"nodeid": 4, "depth": 2, "split": "f4", "split_condition": 0.5, "yes": 9, "no": 10, "missing": 10, "children": [{"nodeid": 9, "leaf": 0.00107639364}, {"nodeid": 10, "leaf": -0.000796065549}]}]}, {"nodeid": 2, "depth": 1, "split": "f106", "split_condition": 0.13028571, "yes": 5, "no": 6, "missing": 6, "children": [{"nodeid": 5, "leaf": 0.00107571506}, {"nodeid": 6, "leaf": 0.00365202734}]}]}, {"nodeid": 0, "depth": 0, "split": "f5", "split_condition": 0.304250002, "yes": 1, "no": 2, "missing": 2, "children": [{"nodeid": 1, "depth": 1, "split": "f78", "split_condition": 0.375, "yes": 3, "no": 4, "missing": 4, "children": [{"nodeid": 3, "depth": 2, "split": "f91", "split_condition": 0.112670787, "yes": 7, "no": 8, "missing": 8, "children": [{"nodeid": 7, "leaf": -0.000801456335}, {"nodeid": 8, "leaf": -0.0024682181}]}, {"nodeid": 4, "depth": 2, "split": "f13", "split_condition": 0.260600001, "yes": 9, "no": 10, "missing": 10, "children": [{"nodeid": 9, "leaf": -0.000999073265}, {"nodeid": 10, "leaf": 0.00063688826}]}]}, {"nodeid": 2, "depth": 1, "split": "f13", "split_condition": 0.431600004, "yes": 5, "no": 6, "missing": 6, "children": [{"nodeid": 5, "depth": 2, "split": "f51", "split_condition": 0.0681818202, "yes": 11, "no": 12, "missing": 12, "children": [{"nodeid": 11, "leaf": 0.00155258051}, {"nodeid": 12, "leaf": 0.00327292178}]}, {"nodeid": 6, "leaf": 0.000460490206}]}]}, {"nodeid": 0, "depth": 0, "split": "f5", "split_condition": 0.304250002, "yes": 1, "no": 2, "missing": 2, "children": [{"nodeid": 1, "depth": 1, "split": "f78", "split_condition": 0.375, "yes": 3, "no": 4, "missing": 4, "children": [{"nodeid": 3, "leaf": -0.00192962249}, {"nodeid": 4, "depth": 2, "split": "f26", "split_condition": 0.000555555569, "yes": 7, "no": 8, "missing": 8, "children": [{"nodeid": 7, "leaf": 3.6343703e-05}, {"nodeid": 8, "leaf": -0.000621583546}]}]}, {"nodeid": 2, "depth": 1, "split": "f143", "split_condition": 0.0560666658, "yes": 5, "no": 6, "missing": 6, "children": [{"nodeid": 5, "depth": 2, "split": "f0", "split_condition": 0.132313237, "yes": 9, "no": 10, "missing": 10, "children": [{"nodeid": 9, "leaf": 8.42445297e-06}, {"nodeid": 10, "leaf": 0.000829099619}]}, {"nodeid": 6, "leaf": 0.00278923102}]}]}, {"nodeid": 0, "depth": 0, "split": "f61", "split_condition": 0.200000003, "yes": 1, "no": 2, "missing": 2, "children": [{"nodeid": 1, "depth": 1, "split": "f7", "split_condition": 0.242769226, "yes": 3, "no": 4, "missing": 4, "children": [{"nodeid": 3, "depth": 2, "split": "f0", "split_condition": 0.128012806, "yes": 7, "no": 8, "missing": 8, "children": [{"nodeid": 7, "leaf": -0.00248966599}, {"nodeid": 8, "leaf": -0.000963609258}]}, {"nodeid": 4, "depth": 2, "split": "f97", "split_condition": 0.503750026, "yes": 9, "no": 10, "missing": 10, "children": [{"nodeid": 9, "depth": 3, "split": "f38", "split_condition": 0.494642586, "yes": 13, "no": 14, "missing": 14, "children": [{"nodeid": 13, "leaf": 0.000711211644}, {"nodeid": 14, "leaf": 0}]}, {"nodeid": 10, "leaf": -0.00103108678}]}]}, {"nodeid": 2, "depth": 1, "split": "f91", "split_condition": 0.261118531, "yes": 5, "no": 6, "missing": 6, "children": [{"nodeid": 5, "leaf": -0.000467779028}, {"nodeid": 6, "depth": 2, "split": "f38", "split_condition": 0.600453913, "yes": 11, "no": 12, "missing": 12, "children": [{"nodeid": 11, "leaf": 0.00120410067}, {"nodeid": 12, "leaf": 0.00301642041}]}]}]}, {"nodeid": 0, "depth": 0, "split": "f5", "split_condition": 0.304250002, "yes": 1, "no": 2, "missing": 2, "children": [{"nodeid": 1, "depth": 1, "split": "f2", "split_condition": 0.241899997, "yes": 3, "no": 4, "missing": 4, "children": [{"nodeid": 3, "depth": 2, "split": "f136", "split_condition": 0.233799994, "yes": 7, "no": 8, "missing": 8, "children": [{"nodeid": 7, "leaf": -0.00212122663}, {"nodeid": 8, "leaf": -0.000286878785}]}, {"nodeid": 4, "leaf": 0.000267529103}]}, {"nodeid": 2, "depth": 1, "split": "f0", "split_condition": 0.132313237, "yes": 5, "no": 6, "missing": 6, "children": [{"nodeid": 5, "leaf": -0.000287622388}, {"nodeid": 6, "leaf": 0.00213052146}]}]}, {"nodeid": 0, "depth": 0, "split": "f5", "split_condition": 0.304250002, "yes": 1, "no": 2, "missing": 2, "children": [{"nodeid": 1, "depth": 1, "split": "f93", "split_condition": 0.474666655, "yes": 3, "no": 4, "missing": 4, "children": [{"nodeid": 3, "depth": 2, "split": "f136", "split_condition": 0.2333, "yes": 7, "no": 8, "missing": 8, "children": [{"nodeid": 7, "leaf": -0.00202643313}, {"nodeid": 8, "leaf": -0.000464033248}]}, {"nodeid": 4, "leaf": 0}]}, {"nodeid": 2, "depth": 1, "split": "f1", "split_condition": -0.296499997, "yes": 5, "no": 6, "missing": 6, "children": [{"nodeid": 5, "leaf": -0.000397928874}, {"nodeid": 6, "depth": 2, "split": "f91", "split_condition": 0.391137958, "yes": 9, "no": 10, "missing": 10, "children": [{"nodeid": 9, "leaf": 0.00112476607}, {"nodeid": 10, "leaf": 0.00303001213}]}]}]}, {"nodeid": 0, "depth": 0, "split": "f5", "split_condition": 0.274250001, "yes": 1, "no": 2, "missing": 2, "children": [{"nodeid": 1, "depth": 1, "split": "f7", "split_condition": 0.242769226, "yes": 3, "no": 4, "missing": 4, "children": [{"nodeid": 3, "leaf": -0.00213343976}, {"nodeid": 4, "depth": 2, "split": "f92", "split_condition": -0.0510592088, "yes": 7, "no": 8, "missing": 8, "children": [{"nodeid": 7, "leaf": -0.00111622235}, {"nodeid": 8, "leaf": 0.000103261322}]}]}, {"nodeid": 2, "depth": 1, "split": "f118", "split_condition": 0.0258399993, "yes": 5, "no": 6, "missing": 6, "children": [{"nodeid": 5, "leaf": 0.00229451316}, {"nodeid": 6, "leaf": 0.000324350141}]}]}, {"nodeid": 0, "depth": 0, "split": "f5", "split_condition": 0.268999994, "yes": 1, "no": 2, "missing": 2, "children": [{"nodeid": 1, "depth": 1, "split": "f67", "split_condition": 0.536000013, "yes": 3, "no": 4, "missing": 4, "children": [{"nodeid": 3, "leaf": -0.00213533384}, {"nodeid": 4, "depth": 2, "split": "f92", "split_condition": -0.0510592088, "yes": 7, "no": 8, "missing": 8, "children": [{"nodeid": 7, "leaf": -0.00113346323}, {"nodeid": 8, "leaf": -0.000263062771}]}]}, {"nodeid": 2, "depth": 1, "split": "f75", "split_condition": 0.588999987, "yes": 5, "no": 6, "missing": 6, "children": [{"nodeid": 5, "depth": 2, "split": "f0", "split_condition": 0.158515856, "yes": 9, "no": 10, "missing": 10, "children": [{"nodeid": 9, "leaf": 0.0036174322}, {"nodeid": 10, "leaf": 0.00129836437}]}, {"nodeid": 6, "depth": 2, "split": "f0", "split_condition": 0.132313237, "yes": 11, "no": 12, "missing": 12, "children": [{"nodeid": 11, "leaf": 0}, {"nodeid": 12, "leaf": 0.00123874098}]}]}]}, {"nodeid": 0, "depth": 0, "split": "f5", "split_condition": 0.304250002, "yes": 1, "no": 2, "missing": 2, "children": [{"nodeid": 1, "depth": 1, "split": "f4", "split_condition": 0.200000003, "yes": 3, "no": 4, "missing": 4, "children": [{"nodeid": 3, "depth": 2, "split": "f5", "split_condition": 0.139500007, "yes": 7, "no": 8, "missing": 8, "children": [{"nodeid": 7, "leaf": -0.000691293913}, {"nodeid": 8, "leaf": 0.000605602574}]}, {"nodeid": 4, "depth": 2, "split": "f63", "split_condition": 0.102666669, "yes": 9, "no": 10, "missing": 10, "children": [{"nodeid": 9, "leaf": -0.00210359972}, {"nodeid": 10, "leaf": -0.000578596315}]}]}, {"nodeid": 2, "depth": 1, "split": "f0", "split_condition": 0.132313237, "yes": 5, "no": 6, "missing": 6, "children": [{"nodeid": 5, "leaf": -0.000325878122}, {"nodeid": 6, "depth": 2, "split": "f93", "split_condition": 0.333333343, "yes": 11, "no": 12, "missing": 12, "children": [{"nodeid": 11, "leaf": 0.00155723642}, {"nodeid": 12, "leaf": 0.0033672289}]}]}]}, {"nodeid": 0, "depth": 0, "split": "f61", "split_condition": 0.360000014, "yes": 1, "no": 2, "missing": 2, "children": [{"nodeid": 1, "depth": 1, "split": "f130", "split_condition": 1, "yes": 3, "no": 4, "missing": 4, "children": [{"nodeid": 3, "depth": 2, "split": "f29", "split_condition": 0.177818179, "yes": 5, "no": 6, "missing": 6, "children": [{"nodeid": 5, "depth": 3, "split": "f23", "split_condition": 0.597435892, "yes": 9, "no": 10, "missing": 10, "children": [{"nodeid": 9, "leaf": -0.00178904599}, {"nodeid": 10, "leaf": -0.000560536806}]}, {"nodeid": 6, "leaf": 0.000618314138}]}, {"nodeid": 4, "depth": 2, "split": "f50", "split_condition": 0.241176471, "yes": 7, "no": 8, "missing": 8, "children": [{"nodeid": 7, "leaf": -3.03216802e-05}, {"nodeid": 8, "leaf": 0.000883908593}]}]}, {"nodeid": 2, "leaf": 0.00246341177}]}, {"nodeid": 0, "depth": 0, "split": "f61", "split_condition": 0.200000003, "yes": 1, "no": 2, "missing": 2, "children": [{"nodeid": 1, "depth": 1, "split": "f29", "split_condition": 0.177818179, "yes": 3, "no": 4, "missing": 4, "children": [{"nodeid": 3, "depth": 2, "split": "f136", "split_condition": 0.2333, "yes": 7, "no": 8, "missing": 8, "children": [{"nodeid": 7, "leaf": -0.00200340222}, {"nodeid": 8, "leaf": -6.51311057e-05}]}, {"nodeid": 4, "leaf": 0.00060293061}]}, {"nodeid": 2, "depth": 1, "split": "f13", "split_condition": 0.431600004, "yes": 5, "no": 6, "missing": 6, "children": [{"nodeid": 5, "depth": 2, "split": "f0", "split_condition": 0.151815176, "yes": 9, "no": 10, "missing": 10, "children": [{"nodeid": 9, "leaf": 0.00334914401}, {"nodeid": 10, "leaf": 0.00135465909}]}, {"nodeid": 6, "leaf": -0.000138221585}]}]}, {"nodeid": 0, "depth": 0, "split": "f5", "split_condition": 0.304250002, "yes": 1, "no": 2, "missing": 2, "children": [{"nodeid": 1, "depth": 1, "split": "f4", "split_condition": 0.200000003, "yes": 3, "no": 4, "missing": 4, "children": [{"nodeid": 3, "leaf": -0.000225956581}, {"nodeid": 4, "depth": 2, "split": "f136", "split_condition": 0.205050007, "yes": 7, "no": 8, "missing": 8, "children": [{"nodeid": 7, "leaf": -0.00199966412}, {"nodeid": 8, "leaf": -0.000276669365}]}]}, {"nodeid": 2, "depth": 1, "split": "f4", "split_condition": 0.5, "yes": 5, "no": 6, "missing": 6, "children": [{"nodeid": 5, "depth": 2, "split": "f23", "split_condition": 0.573913038, "yes": 9, "no": 10, "missing": 10, "children": [{"nodeid": 9, "leaf": 0.00312449294}, {"nodeid": 10, "leaf": 0.000925118802}]}, {"nodeid": 6, "depth": 2, "split": "f0", "split_condition": 0.158315837, "yes": 11, "no": 12, "missing": 12, "children": [{"nodeid": 11, "leaf": -0.000505786156}, {"nodeid": 12, "leaf": 0.00108009658}]}]}]}, {"nodeid": 0, "depth": 0, "split": "f5", "split_condition": 0.403250009, "yes": 1, "no": 2, "missing": 2, "children": [{"nodeid": 1, "depth": 1, "split": "f136", "split_condition": 0.21085, "yes": 3, "no": 4, "missing": 4, "children": [{"nodeid": 3, "depth": 2, "split": "f91", "split_condition": 0.0666297153, "yes": 7, "no": 8, "missing": 8, "children": [{"nodeid": 7, "leaf": -0.000321088097}, {"nodeid": 8, "leaf": -0.00197893986}]}, {"nodeid": 4, "depth": 2, "split": "f95", "split_condition": 0.621999979, "yes": 9, "no": 10, "missing": 10, "children": [{"nodeid": 9, "leaf": 0.000177414302}, {"nodeid": 10, "leaf": -0.000536205654}]}]}, {"nodeid": 2, "depth": 1, "split": "f143", "split_condition": 0.0560666658, "yes": 5, "no": 6, "missing": 6, "children": [{"nodeid": 5, "leaf": 0.000270031567}, {"nodeid": 6, "depth": 2, "split": "f1", "split_condition": 0, "yes": 11, "no": 12, "missing": 12, "children": [{"nodeid": 11, "leaf": 0.000906616275}, {"nodeid": 12, "leaf": 0.00249439687}]}]}]}, {"nodeid": 0, "depth": 0, "split": "f7", "split_condition": 0.468857139, "yes": 1, "no": 2, "missing": 2, "children": [{"nodeid": 1, "depth": 1, "split": "f106", "split_condition": 0.333333343, "yes": 3, "no": 4, "missing": 4, "children": [{"nodeid": 3, "depth": 2, "split": "f18", "split_condition": 1, "yes": 7, "no": 8, "missing": 8, "children": [{"nodeid": 7, "leaf": -0.00161298283}, {"nodeid": 8, "depth": 3, "split": "f1", "split_condition": -0.0353000015, "yes": 9, "no": 10, "missing": 10, "children": [{"nodeid": 9, "leaf": 0.000158076378}, {"nodeid": 10, "leaf": -0.000530310906}]}]}, {"nodeid": 4, "leaf": 0.000576893799}]}, {"nodeid": 2, "depth": 1, "split": "f29", "split_condition": 0.000727272709, "yes": 5, "no": 6, "missing": 6, "children": [{"nodeid": 5, "leaf": 0.00303520705}, {"nodeid": 6, "leaf": 0.000508585887}]}]}, {"nodeid": 0, "depth": 0, "split": "f61", "split_condition": 0.280000001, "yes": 1, "no": 2, "missing": 2, "children": [{"nodeid": 1, "depth": 1, "split": "f0", "split_condition": 0.155915588, "yes": 3, "no": 4, "missing": 4, "children": [{"nodeid": 3, "depth": 2, "split": "f41", "split_condition": 0.533333361, "yes": 7, "no": 8, "missing": 8, "children": [{"nodeid": 7, "depth": 3, "split": "f136", "split_condition": 0.2333, "yes": 11, "no": 12, "missing": 12, "children": [{"nodeid": 11, "leaf": -0.0016491838}, {"nodeid": 12, "leaf": -0.000115260576}]}, {"nodeid": 8, "leaf": 0.00011864557}]}, {"nodeid": 4, "depth": 2, "split": "f13", "split_condition": 0.416599989, "yes": 9, "no": 10, "missing": 10, "children": [{"nodeid": 9, "leaf": 0.000107069936}, {"nodeid": 10, "leaf": 0.000832036894}]}]}, {"nodeid": 2, "depth": 1, "split": "f75", "split_condition": 0.57099998, "yes": 5, "no": 6, "missing": 6, "children": [{"nodeid": 5, "leaf": 0.00315777701}, {"nodeid": 6, "leaf": 0.00125249231}]}]}, {"nodeid": 0, "depth": 0, "split": "f0", "split_condition": 0.139513955, "yes": 1, "no": 2, "missing": 2, "children": [{"nodeid": 1, "depth": 1, "split": "f77", "split_condition": 0.234999999, "yes": 3, "no": 4, "missing": 4, "children": [{"nodeid": 3, "depth": 2, "split": "f108", "split_condition": 0.351999998, "yes": 7, "no": 8, "missing": 8, "children": [{"nodeid": 7, "leaf": -0.000655975076}, {"nodeid": 8, "leaf": -0.00205304869}]}, {"nodeid": 4, "depth": 2, "split": "f0", "split_condition": 0.0860086009, "yes": 9, "no": 10, "missing": 10, "children": [{"nodeid": 9, "leaf": -0.000643735169}, {"nodeid": 10, "leaf": 0.000306054397}]}]}, {"nodeid": 2, "depth": 1, "split": "f93", "split_condition": 0.333333343, "yes": 5, "no": 6, "missing": 6, "children": [{"nodeid": 5, "leaf": 0.000340525701}, {"nodeid": 6, "depth": 2, "split": "f0", "split_condition": 0.158515856, "yes": 11, "no": 12, "missing": 12, "children": [{"nodeid": 11, "leaf": 0.00320879673}, {"nodeid": 12, "leaf": 0.00111726508}]}]}]}, {"nodeid": 0, "depth": 0, "split": "f97", "split_condition": 0.5, "yes": 1, "no": 2, "missing": 2, "children": [{"nodeid": 1, "depth": 1, "split": "f13", "split_condition": 0.569599986, "yes": 3, "no": 4, "missing": 4, "children": [{"nodeid": 3, "depth": 2, "split": "f143", "split_condition": 0.0584333315, "yes": 7, "no": 8, "missing": 8, "children": [{"nodeid": 7, "leaf": 0.000748930965}, {"nodeid": 8, "leaf": 0.00219248212}]}, {"nodeid": 4, "leaf": -0.000450724794}]}, {"nodeid": 2, "depth": 1, "split": "f90", "split_condition": 0.175398365, "yes": 5, "no": 6, "missing": 6, "children": [{"nodeid": 5, "depth": 2, "split": "f136", "split_condition": 0.233799994, "yes": 9, "no": 10, "missing": 10, "children": [{"nodeid": 9, "depth": 3, "split": "f67", "split_condition": 0.768999994, "yes": 13, "no": 14, "missing": 14, "children": [{"nodeid": 13, "leaf": -0.00166036561}, {"nodeid": 14, "leaf": -0.000580416468}]}, {"nodeid": 10, "leaf": -0.000238127803}]}, {"nodeid": 6, "depth": 2, "split": "f3", "split_condition": 0.200000003, "yes": 11, "no": 12, "missing": 12, "children": [{"nodeid": 11, "leaf": 0.000594711513}, {"nodeid": 12, "leaf": -0.000628511363}]}]}]}, {"nodeid": 0, "depth": 0, "split": "f61", "split_condition": 0.280000001, "yes": 1, "no": 2, "missing": 2, "children": [{"nodeid": 1, "depth": 1, "split": "f0", "split_condition": 0.156215623, "yes": 3, "no": 4, "missing": 4, "children": [{"nodeid": 3, "depth": 2, "split": "f41", "split_condition": 0.533333361, "yes": 7, "no": 8, "missing": 8, "children": [{"nodeid": 7, "depth": 3, "split": "f136", "split_condition": 0.21085, "yes": 11, "no": 12, "missing": 12, "children": [{"nodeid": 11, "leaf": -0.00161085429}, {"nodeid": 12, "leaf": -0.000207673409}]}, {"nodeid": 8, "leaf": 0.00011317496}]}, {"nodeid": 4, "leaf": 0.000596868806}]}, {"nodeid": 2, "depth": 1, "split": "f141", "split_condition": 0.400000006, "yes": 5, "no": 6, "missing": 6, "children": [{"nodeid": 5, "leaf": 3.71448587e-05}, {"nodeid": 6, "depth": 2, "split": "f75", "split_condition": 0.57099998, "yes": 9, "no": 10, "missing": 10, "children": [{"nodeid": 9, "leaf": 0.00298513588}, {"nodeid": 10, "leaf": 0.0012474528}]}]}]}, {"nodeid": 0, "depth": 0, "split": "f61", "split_condition": 0.280000001, "yes": 1, "no": 2, "missing": 2, "children": [{"nodeid": 1, "depth": 1, "split": "f7", "split_condition": 0.242769226, "yes": 3, "no": 4, "missing": 4, "children": [{"nodeid": 3, "depth": 2, "split": "f0", "split_condition": 0.136313632, "yes": 7, "no": 8, "missing": 8, "children": [{"nodeid": 7, "leaf": -0.00193053356}, {"nodeid": 8, "leaf": -0.000635776378}]}, {"nodeid": 4, "depth": 2, "split": "f3", "split_condition": 0.200000003, "yes": 9, "no": 10, "missing": 10, "children": [{"nodeid": 9, "leaf": 0.000724422804}, {"nodeid": 10, "depth": 3, "split": "f7", "split_condition": 0.314749986, "yes": 11, "no": 12, "missing": 12, "children": [{"nodeid": 11, "leaf": -0.000282444264}, {"nodeid": 12, "leaf": -0.00101902417}]}]}]}, {"nodeid": 2, "depth": 1, "split": "f7", "split_condition": 0.444000006, "yes": 5, "no": 6, "missing": 6, "children": [{"nodeid": 5, "leaf": 0.000916273566}, {"nodeid": 6, "leaf": 0.00303208618}]}]}, {"nodeid": 0, "depth": 0, "split": "f61", "split_condition": 0.200000003, "yes": 1, "no": 2, "missing": 2, "children": [{"nodeid": 1, "depth": 1, "split": "f91", "split_condition": 0.15969348, "yes": 3, "no": 4, "missing": 4, "children": [{"nodeid": 3, "depth": 2, "split": "f97", "split_condition": 0.503750026, "yes": 7, "no": 8, "missing": 8, "children": [{"nodeid": 7, "leaf": 0.000560454733}, {"nodeid": 8, "depth": 3, "split": "f90", "split_condition": -0.0250398368, "yes": 11, "no": 12, "missing": 12, "children": [{"nodeid": 11, "leaf": -0.00106903259}, {"nodeid": 12, "leaf": -0.000186904639}]}]}, {"nodeid": 4, "leaf": -0.00169132045}]}, {"nodeid": 2, "depth": 1, "split": "f67", "split_condition": 0.583000004, "yes": 5, "no": 6, "missing": 6, "children": [{"nodeid": 5, "depth": 2, "split": "f76", "split_condition": 0.5, "yes": 9, "no": 10, "missing": 10, "children": [{"nodeid": 9, "leaf": 0.00267884997}, {"nodeid": 10, "leaf": 0.000790776918}]}, {"nodeid": 6, "leaf": 0.000588215422}]}]}, {"nodeid": 0, "depth": 0, "split": "f5", "split_condition": 0.304250002, "yes": 1, "no": 2, "missing": 2, "children": [{"nodeid": 1, "depth": 1, "split": "f136", "split_condition": 0.233799994, "yes": 3, "no": 4, "missing": 4, "children": [{"nodeid": 3, "depth": 2, "split": "f24", "split_condition": 0.5, "yes": 7, "no": 8, "missing": 8, "children": [{"nodeid": 7, "leaf": -0.0016162697}, {"nodeid": 8, "leaf": -0.000472324318}]}, {"nodeid": 4, "leaf": -0.000112237096}]}, {"nodeid": 2, "depth": 1, "split": "f141", "split_condition": 0.400000006, "yes": 5, "no": 6, "missing": 6, "children": [{"nodeid": 5, "depth": 2, "split": "f0", "split_condition": 0.132313237, "yes": 9, "no": 10, "missing": 10, "children": [{"nodeid": 9, "leaf": -6.12965378e-05}, {"nodeid": 10, "leaf": 0.000568061194}]}, {"nodeid": 6, "depth": 2, "split": "f28", "split_condition": 0.883333325, "yes": 11, "no": 12, "missing": 12, "children": [{"nodeid": 11, "leaf": 0.0024784815}, {"nodeid": 12, "leaf": 0.000820528017}]}]}]}, {"nodeid": 0, "depth": 0, "split": "f5", "split_condition": 0.304250002, "yes": 1, "no": 2, "missing": 2, "children": [{"nodeid": 1, "depth": 1, "split": "f93", "split_condition": 0.474666655, "yes": 3, "no": 4, "missing": 4, "children": [{"nodeid": 3, "depth": 2, "split": "f81", "split_condition": 0.873000026, "yes": 7, "no": 8, "missing": 8, "children": [{"nodeid": 7, "leaf": -0.000548381882}, {"nodeid": 8, "leaf": -0.00141886331}]}, {"nodeid": 4, "leaf": 0.000416146038}]}, {"nodeid": 2, "depth": 1, "split": "f11", "split_condition": 0.612133324, "yes": 5, "no": 6, "missing": 6, "children": [{"nodeid": 5, "leaf": -0.000273466663}, {"nodeid": 6, "leaf": 0.00140706415}]}]}, {"nodeid": 0, "depth": 0, "split": "f61", "split_condition": 0.200000003, "yes": 1, "no": 2, "missing": 2, "children": [{"nodeid": 1, "depth": 1, "split": "f0", "split_condition": 0.129212916, "yes": 3, "no": 4, "missing": 4, "children": [{"nodeid": 3, "depth": 2, "split": "f91", "split_condition": 0.109743439, "yes": 7, "no": 8, "missing": 8, "children": [{"nodeid": 7, "leaf": -0.000177154448}, {"nodeid": 8, "leaf": -0.00154801179}]}, {"nodeid": 4, "depth": 2, "split": "f92", "split_condition": -0.0510592088, "yes": 9, "no": 10, "missing": 10, "children": [{"nodeid": 9, "leaf": -0.000784077682}, {"nodeid": 10, "depth": 3, "split": "f7", "split_condition": 0.314749986, "yes": 13, "no": 14, "missing": 14, "children": [{"nodeid": 13, "leaf": -0.000131782843}, {"nodeid": 14, "leaf": 0.000633931719}]}]}]}, {"nodeid": 2, "depth": 1, "split": "f141", "split_condition": 0.400000006, "yes": 5, "no": 6, "missing": 6, "children": [{"nodeid": 5, "leaf": -0.000549171935}, {"nodeid": 6, "depth": 2, "split": "f67", "split_condition": 0.583000004, "yes": 11, "no": 12, "missing": 12, "children": [{"nodeid": 11, "leaf": 0.00252314308}, {"nodeid": 12, "leaf": 0.00087395258}]}]}]}, {"nodeid": 0, "depth": 0, "split": "f7", "split_condition": 0.242769226, "yes": 1, "no": 2, "missing": 2, "children": [{"nodeid": 1, "depth": 1, "split": "f0", "split_condition": 0.136313632, "yes": 3, "no": 4, "missing": 4, "children": [{"nodeid": 3, "leaf": -0.00171216147}, {"nodeid": 4, "leaf": -0.000410585286}]}, {"nodeid": 2, "depth": 1, "split": "f96", "split_condition": 0.402666658, "yes": 5, "no": 6, "missing": 6, "children": [{"nodeid": 5, "depth": 2, "split": "f97", "split_condition": 0.5, "yes": 7, "no": 8, "missing": 8, "children": [{"nodeid": 7, "depth": 3, "split": "f0", "split_condition": 0.132313237, "yes": 11, "no": 12, "missing": 12, "children": [{"nodeid": 11, "leaf": 0}, {"nodeid": 12, "leaf": 0.00111163594}]}, {"nodeid": 8, "leaf": -0.000560405548}]}, {"nodeid": 6, "depth": 2, "split": "f0", "split_condition": 0.158515856, "yes": 9, "no": 10, "missing": 10, "children": [{"nodeid": 9, "leaf": 0.00277199829}, {"nodeid": 10, "leaf": 0.00093662017}]}]}]}, {"nodeid": 0, "depth": 0, "split": "f50", "split_condition": 0.267647058, "yes": 1, "no": 2, "missing": 2, "children": [{"nodeid": 1, "depth": 1, "split": "f7", "split_condition": 0.242769226, "yes": 3, "no": 4, "missing": 4, "children": [{"nodeid": 3, "depth": 2, "split": "f4", "split_condition": 0.300000012, "yes": 7, "no": 8, "missing": 8, "children": [{"nodeid": 7, "leaf": -0.000779227295}, {"nodeid": 8, "leaf": -0.00187551824}]}, {"nodeid": 4, "depth": 2, "split": "f9", "split_condition": 0.5, "yes": 9, "no": 10, "missing": 10, "children": [{"nodeid": 9, "depth": 3, "split": "f3", "split_condition": 0.333333343, "yes": 13, "no": 14, "missing": 14, "children": [{"nodeid": 13, "leaf": -0.00023371994}, {"nodeid": 14, "leaf": -0.000839635031}]}, {"nodeid": 10, "leaf": 6.65530606e-05}]}]}, {"nodeid": 2, "depth": 1, "split": "f3", "split_condition": 0.400000006, "yes": 5, "no": 6, "missing": 6, "children": [{"nodeid": 5, "depth": 2, "split": "f67", "split_condition": 0.51700002, "yes": 11, "no": 12, "missing": 12, "children": [{"nodeid": 11, "leaf": 0.0020255174}, {"nodeid": 12, "leaf": 0.000831806392}]}, {"nodeid": 6, "leaf": 0.000180594201}]}]}, {"nodeid": 0, "depth": 0, "split": "f5", "split_condition": 0.403250009, "yes": 1, "no": 2, "missing": 2, "children": [{"nodeid": 1, "depth": 1, "split": "f0", "split_condition": 0.136313632, "yes": 3, "no": 4, "missing": 4, "children": [{"nodeid": 3, "depth": 2, "split": "f7", "split_condition": 0.242769226, "yes": 7, "no": 8, "missing": 8, "children": [{"nodeid": 7, "leaf": -0.00162346615}, {"nodeid": 8, "leaf": -0.000622601074}]}, {"nodeid": 4, "depth": 2, "split": "f75", "split_condition": 0.777999997, "yes": 9, "no": 10, "missing": 10, "children": [{"nodeid": 9, "depth": 3, "split": "f0", "split_condition": 0.15051505, "yes": 13, "no": 14, "missing": 14, "children": [{"nodeid": 13, "leaf": -0.000220267058}, {"nodeid": 14, "leaf": -0.000889585412}]}, {"nodeid": 10, "leaf": 0.000743523648}]}]}, {"nodeid": 2, "depth": 1, "split": "f75", "split_condition": 0.57099998, "yes": 5, "no": 6, "missing": 6, "children": [{"nodeid": 5, "leaf": 0.002366815}, {"nodeid": 6, "depth": 2, "split": "f0", "split_condition": 0.132313237, "yes": 11, "no": 12, "missing": 12, "children": [{"nodeid": 11, "leaf": 0}, {"nodeid": 12, "leaf": 0.000516281812}]}]}]}, {"nodeid": 0, "depth": 0, "split": "f5", "split_condition": 0.268999994, "yes": 1, "no": 2, "missing": 2, "children": [{"nodeid": 1, "depth": 1, "split": "f0", "split_condition": 0.136313632, "yes": 3, "no": 4, "missing": 4, "children": [{"nodeid": 3, "depth": 2, "split": "f7", "split_condition": 0.242769226, "yes": 7, "no": 8, "missing": 8, "children": [{"nodeid": 7, "leaf": -0.00166570744}, {"nodeid": 8, "leaf": -0.000518044806}]}, {"nodeid": 4, "depth": 2, "split": "f6", "split_condition": 0.647058845, "yes": 9, "no": 10, "missing": 10, "children": [{"nodeid": 9, "leaf": -0.000704390521}, {"nodeid": 10, "leaf": -0.000138601026}]}]}, {"nodeid": 2, "depth": 1, "split": "f0", "split_condition": 0.132313237, "yes": 5, "no": 6, "missing": 6, "children": [{"nodeid": 5, "leaf": -0.000249648729}, {"nodeid": 6, "leaf": 0.00127898157}]}]}, {"nodeid": 0, "depth": 0, "split": "f5", "split_condition": 0.274250001, "yes": 1, "no": 2, "missing": 2, "children": [{"nodeid": 1, "depth": 1, "split": "f67", "split_condition": 0.51700002, "yes": 3, "no": 4, "missing": 4, "children": [{"nodeid": 3, "depth": 2, "split": "f10", "split_condition": 0.047365386, "yes": 7, "no": 8, "missing": 8, "children": [{"nodeid": 7, "leaf": -0.0016068921}, {"nodeid": 8, "leaf": -0.000429789798}]}, {"nodeid": 4, "leaf": -8.53688616e-05}]}, {"nodeid": 2, "depth": 1, "split": "f93", "split_condition": 0.375999987, "yes": 5, "no": 6, "missing": 6, "children": [{"nodeid": 5, "depth": 2, "split": "f93", "split_condition": 0.333333343, "yes": 9, "no": 10, "missing": 10, "children": [{"nodeid": 9, "leaf": 0.000833662692}, {"nodeid": 10, "leaf": 0}]}, {"nodeid": 6, "depth": 2, "split": "f90", "split_condition": 0.250409544, "yes": 11, "no": 12, "missing": 12, "children": [{"nodeid": 11, "leaf": 0.00259896787}, {"nodeid": 12, "leaf": 0.000770320999}]}]}]}, {"nodeid": 0, "depth": 0, "split": "f7", "split_condition": 0.468857139, "yes": 1, "no": 2, "missing": 2, "children": [{"nodeid": 1, "depth": 1, "split": "f7", "split_condition": 0.242769226, "yes": 3, "no": 4, "missing": 4, "children": [{"nodeid": 3, "leaf": -0.00123751117}, {"nodeid": 4, "depth": 2, "split": "f130", "split_condition": 1, "yes": 7, "no": 8, "missing": 8, "children": [{"nodeid": 7, "depth": 3, "split": "f18", "split_condition": 1, "yes": 9, "no": 10, "missing": 10, "children": [{"nodeid": 9, "leaf": -0.000860333792}, {"nodeid": 10, "leaf": 0.000184433564}]}, {"nodeid": 8, "leaf": 0.000599657767}]}]}, {"nodeid": 2, "depth": 1, "split": "f61", "split_condition": 0.219999999, "yes": 5, "no": 6, "missing": 6, "children": [{"nodeid": 5, "leaf": 0.000326453795}, {"nodeid": 6, "leaf": 0.00222150004}]}]}, {"nodeid": 0, "depth": 0, "split": "f5", "split_condition": 0.304250002, "yes": 1, "no": 2, "missing": 2, "children": [{"nodeid": 1, "depth": 1, "split": "f136", "split_condition": 0.233799994, "yes": 3, "no": 4, "missing": 4, "children": [{"nodeid": 3, "leaf": -0.00148754625}, {"nodeid": 4, "leaf": -0.000104781124}]}, {"nodeid": 2, "depth": 1, "split": "f93", "split_condition": 0.375999987, "yes": 5, "no": 6, "missing": 6, "children": [{"nodeid": 5, "depth": 2, "split": "f0", "split_condition": 0.132313237, "yes": 7, "no": 8, "missing": 8, "children": [{"nodeid": 7, "leaf": -4.82465912e-05}, {"nodeid": 8, "leaf": 0.000944151194}]}, {"nodeid": 6, "leaf": 0.00255466136}]}]}, {"nodeid": 0, "depth": 0, "split": "f5", "split_condition": 0.304250002, "yes": 1, "no": 2, "missing": 2, "children": [{"nodeid": 1, "depth": 1, "split": "f78", "split_condition": 0.375, "yes": 3, "no": 4, "missing": 4, "children": [{"nodeid": 3, "depth": 2, "split": "f77", "split_condition": 0.234999999, "yes": 7, "no": 8, "missing": 8, "children": [{"nodeid": 7, "depth": 3, "split": "f10", "split_condition": -0.164509088, "yes": 13, "no": 14, "missing": 14, "children": [{"nodeid": 13, "leaf": -0.000449183106}, {"nodeid": 14, "leaf": -0.00168772251}]}, {"nodeid": 8, "leaf": -0.000422485406}]}, {"nodeid": 4, "depth": 2, "split": "f90", "split_condition": 0.0270707067, "yes": 9, "no": 10, "missing": 10, "children": [{"nodeid": 9, "leaf": -0.000390012225}, {"nodeid": 10, "leaf": 0.000522650837}]}]}, {"nodeid": 2, "depth": 1, "split": "f1", "split_condition": -0.296499997, "yes": 5, "no": 6, "missing": 6, "children": [{"nodeid": 5, "leaf": -0.000333897449}, {"nodeid": 6, "depth": 2, "split": "f91", "split_condition": 0.391137958, "yes": 11, "no": 12, "missing": 12, "children": [{"nodeid": 11, "leaf": 0.000721246179}, {"nodeid": 12, "leaf": 0.00173934479}]}]}]}, {"nodeid": 0, "depth": 0, "split": "f0", "split_condition": 0.151015103, "yes": 1, "no": 2, "missing": 2, "children": [{"nodeid": 1, "depth": 1, "split": "f139", "split_condition": 0.02474433, "yes": 3, "no": 4, "missing": 4, "children": [{"nodeid": 3, "leaf": -0.00133689749}, {"nodeid": 4, "leaf": -0.00018065433}]}, {"nodeid": 2, "depth": 1, "split": "f92", "split_condition": -0.0150093809, "yes": 5, "no": 6, "missing": 6, "children": [{"nodeid": 5, "leaf": -0.000676994619}, {"nodeid": 6, "depth": 2, "split": "f106", "split_condition": 0.147714287, "yes": 7, "no": 8, "missing": 8, "children": [{"nodeid": 7, "leaf": 0.000628008042}, {"nodeid": 8, "leaf": 0.00154791947}]}]}]}, {"nodeid": 0, "depth": 0, "split": "f5", "split_condition": 0.304250002, "yes": 1, "no": 2, "missing": 2, "children": [{"nodeid": 1, "depth": 1, "split": "f130", "split_condition": 1, "yes": 3, "no": 4, "missing": 4, "children": [{"nodeid": 3, "depth": 2, "split": "f91", "split_condition": 0.109743439, "yes": 7, "no": 8, "missing": 8, "children": [{"nodeid": 7, "depth": 3, "split": "f3", "split_condition": 0.200000003, "yes": 9, "no": 10, "missing": 10, "children": [{"nodeid": 9, "leaf": -8.35488609e-05}, {"nodeid": 10, "leaf": -0.000576390128}]}, {"nodeid": 8, "depth": 3, "split": "f56", "split_condition": 0.600000024, "yes": 11, "no": 12, "missing": 12, "children": [{"nodeid": 11, "leaf": -0.00131305458}, {"nodeid": 12, "leaf": -0.000419255026}]}]}, {"nodeid": 4, "leaf": 0.000109553177}]}, {"nodeid": 2, "depth": 1, "split": "f93", "split_condition": 0.375999987, "yes": 5, "no": 6, "missing": 6, "children": [{"nodeid": 5, "leaf": 0.000734420959}, {"nodeid": 6, "leaf": 0.00212546019}]}]}, {"nodeid": 0, "depth": 0, "split": "f5", "split_condition": 0.304250002, "yes": 1, "no": 2, "missing": 2, "children": [{"nodeid": 1, "depth": 1, "split": "f78", "split_condition": 0.375, "yes": 3, "no": 4, "missing": 4, "children": [{"nodeid": 3, "depth": 2, "split": "f91", "split_condition": 0.1187746, "yes": 7, "no": 8, "missing": 8, "children": [{"nodeid": 7, "leaf": -0.000348026515}, {"nodeid": 8, "depth": 3, "split": "f56", "split_condition": 0.600000024, "yes": 13, "no": 14, "missing": 14, "children": [{"nodeid": 13, "leaf": -0.00147079211}, {"nodeid": 14, "leaf": -0.000411514862}]}]}, {"nodeid": 4, "depth": 2, "split": "f0", "split_condition": 0.148614869, "yes": 9, "no": 10, "missing": 10, "children": [{"nodeid": 9, "leaf": -0.000190525883}, {"nodeid": 10, "leaf": 0.000378265715}]}]}, {"nodeid": 2, "depth": 1, "split": "f1", "split_condition": -0.296499997, "yes": 5, "no": 6, "missing": 6, "children": [{"nodeid": 5, "leaf": -0.000328470371}, {"nodeid": 6, "depth": 2, "split": "f8", "split_condition": 0.217250004, "yes": 11, "no": 12, "missing": 12, "children": [{"nodeid": 11, "leaf": 0.000404759427}, {"nodeid": 12, "leaf": 0.0011799311}]}]}]}, {"nodeid": 0, "depth": 0, "split": "f5", "split_condition": 0.403250009, "yes": 1, "no": 2, "missing": 2, "children": [{"nodeid": 1, "depth": 1, "split": "f130", "split_condition": 1, "yes": 3, "no": 4, "missing": 4, "children": [{"nodeid": 3, "depth": 2, "split": "f136", "split_condition": 0.21085, "yes": 7, "no": 8, "missing": 8, "children": [{"nodeid": 7, "leaf": -0.00121201435}, {"nodeid": 8, "leaf": 0}]}, {"nodeid": 4, "leaf": 0.000240129506}]}, {"nodeid": 2, "depth": 1, "split": "f75", "split_condition": 0.514999986, "yes": 5, "no": 6, "missing": 6, "children": [{"nodeid": 5, "leaf": 0.00223165355}, {"nodeid": 6, "depth": 2, "split": "f11", "split_condition": 0.612133324, "yes": 9, "no": 10, "missing": 10, "children": [{"nodeid": 9, "leaf": 8.82115785e-07}, {"nodeid": 10, "leaf": 0.000638420461}]}]}]}, {"nodeid": 0, "depth": 0, "split": "f50", "split_condition": 0.305882365, "yes": 1, "no": 2, "missing": 2, "children": [{"nodeid": 1, "depth": 1, "split": "f91", "split_condition": 0.112670787, "yes": 3, "no": 4, "missing": 4, "children": [{"nodeid": 3, "depth": 2, "split": "f93", "split_condition": 0.291999996, "yes": 7, "no": 8, "missing": 8, "children": [{"nodeid": 7, "leaf": -0.000268054457}, {"nodeid": 8, "leaf": 0.000218987683}]}, {"nodeid": 4, "depth": 2, "split": "f10", "split_condition": 0.047365386, "yes": 9, "no": 10, "missing": 10, "children": [{"nodeid": 9, "leaf": -0.00135893433}, {"nodeid": 10, "depth": 3, "split": "f36", "split_condition": 0.100000001, "yes": 13, "no": 14, "missing": 14, "children": [{"nodeid": 13, "leaf": -0.000526373449}, {"nodeid": 14, "leaf": -9.51572583e-05}]}]}]}, {"nodeid": 2, "depth": 1, "split": "f106", "split_condition": 0.165714279, "yes": 5, "no": 6, "missing": 6, "children": [{"nodeid": 5, "leaf": 6.54335454e-05}, {"nodeid": 6, "depth": 2, "split": "f0", "split_condition": 0.158515856, "yes": 11, "no": 12, "missing": 12, "children": [{"nodeid": 11, "leaf": 0.00197695987}, {"nodeid": 12, "leaf": 0.000795783475}]}]}]}, {"nodeid": 0, "depth": 0, "split": "f0", "split_condition": 0.136313632, "yes": 1, "no": 2, "missing": 2, "children": [{"nodeid": 1, "depth": 1, "split": "f7", "split_condition": 0.425176471, "yes": 3, "no": 4, "missing": 4, "children": [{"nodeid": 3, "depth": 2, "split": "f10", "split_condition": 0.047365386, "yes": 7, "no": 8, "missing": 8, "children": [{"nodeid": 7, "leaf": -0.00143793062}, {"nodeid": 8, "leaf": -0.000478273461}]}, {"nodeid": 4, "leaf": 3.36085068e-05}]}, {"nodeid": 2, "depth": 1, "split": "f141", "split_condition": 0.400000006, "yes": 5, "no": 6, "missing": 6, "children": [{"nodeid": 5, "depth": 2, "split": "f1", "split_condition": -0.0353000015, "yes": 9, "no": 10, "missing": 10, "children": [{"nodeid": 9, "leaf": 0.00023935888}, {"nodeid": 10, "leaf": -0.000540592824}]}, {"nodeid": 6, "depth": 2, "split": "f13", "split_condition": 0.256099999, "yes": 11, "no": 12, "missing": 12, "children": [{"nodeid": 11, "leaf": 0.00030508262}, {"nodeid": 12, "depth": 3, "split": "f0", "split_condition": 0.158515856, "yes": 13, "no": 14, "missing": 14, "children": [{"nodeid": 13, "leaf": 0.00193742057}, {"nodeid": 14, "leaf": 0.000835833489}]}]}]}]}, {"nodeid": 0, "depth": 0, "split": "f0", "split_condition": 0.129212916, "yes": 1, "no": 2, "missing": 2, "children": [{"nodeid": 1, "depth": 1, "split": "f77", "split_condition": 0.26699999, "yes": 3, "no": 4, "missing": 4, "children": [{"nodeid": 3, "leaf": -0.00119827909}, {"nodeid": 4, "leaf": -0.000307539507}]}, {"nodeid": 2, "depth": 1, "split": "f7", "split_condition": 0.337538451, "yes": 5, "no": 6, "missing": 6, "children": [{"nodeid": 5, "depth": 2, "split": "f93", "split_condition": 0.291999996, "yes": 7, "no": 8, "missing": 8, "children": [{"nodeid": 7, "leaf": -0.000586515118}, {"nodeid": 8, "leaf": 0.000156129725}]}, {"nodeid": 6, "depth": 2, "split": "f96", "split_condition": 0.50666666, "yes": 9, "no": 10, "missing": 10, "children": [{"nodeid": 9, "leaf": 0.000801082933}, {"nodeid": 10, "leaf": 0.0018986722}]}]}]}, {"nodeid": 0, "depth": 0, "split": "f5", "split_condition": 0.274250001, "yes": 1, "no": 2, "missing": 2, "children": [{"nodeid": 1, "depth": 1, "split": "f0", "split_condition": 0.136313632, "yes": 3, "no": 4, "missing": 4, "children": [{"nodeid": 3, "depth": 2, "split": "f108", "split_condition": 0.330749989, "yes": 7, "no": 8, "missing": 8, "children": [{"nodeid": 7, "leaf": -0.000261773064}, {"nodeid": 8, "leaf": -0.00136492716}]}, {"nodeid": 4, "depth": 2, "split": "f6", "split_condition": 0.764705896, "yes": 9, "no": 10, "missing": 10, "children": [{"nodeid": 9, "leaf": -0.000435388502}, {"nodeid": 10, "leaf": 0.000130541666}]}]}, {"nodeid": 2, "depth": 1, "split": "f4", "split_condition": 0.400000006, "yes": 5, "no": 6, "missing": 6, "children": [{"nodeid": 5, "depth": 2, "split": "f5", "split_condition": 0.410250008, "yes": 11, "no": 12, "missing": 12, "children": [{"nodeid": 11, "leaf": 0.000599669409}, {"nodeid": 12, "leaf": 0.00212350977}]}, {"nodeid": 6, "depth": 2, "split": "f0", "split_condition": 0.158315837, "yes": 13, "no": 14, "missing": 14, "children": [{"nodeid": 13, "leaf": -0.000390027737}, {"nodeid": 14, "leaf": 0.000563217094}]}]}]}, {"nodeid": 0, "depth": 0, "split": "f5", "split_condition": 0.304250002, "yes": 1, "no": 2, "missing": 2, "children": [{"nodeid": 1, "depth": 1, "split": "f77", "split_condition": 0.222000003, "yes": 3, "no": 4, "missing": 4, "children": [{"nodeid": 3, "depth": 2, "split": "f56", "split_condition": 0.600000024, "yes": 7, "no": 8, "missing": 8, "children": [{"nodeid": 7, "leaf": -0.00136853266}, {"nodeid": 8, "leaf": -0.000315094483}]}, {"nodeid": 4, "depth": 2, "split": "f49", "split_condition": 0.177556813, "yes": 9, "no": 10, "missing": 10, "children": [{"nodeid": 9, "leaf": 0.000186569261}, {"nodeid": 10, "leaf": -0.000425382372}]}]}, {"nodeid": 2, "depth": 1, "split": "f91", "split_condition": 0.391137958, "yes": 5, "no": 6, "missing": 6, "children": [{"nodeid": 5, "depth": 2, "split": "f118", "split_condition": 0.0587626658, "yes": 11, "no": 12, "missing": 12, "children": [{"nodeid": 11, "leaf": 0.00056500436}, {"nodeid": 12, "leaf": 0}]}, {"nodeid": 6, "leaf": 0.00150073424}]}]}, {"nodeid": 0, "depth": 0, "split": "f61", "split_condition": 0.360000014, "yes": 1, "no": 2, "missing": 2, "children": [{"nodeid": 1, "depth": 1, "split": "f77", "split_condition": 0.175999999, "yes": 3, "no": 4, "missing": 4, "children": [{"nodeid": 3, "depth": 2, "split": "f96", "split_condition": 0.27700001, "yes": 7, "no": 8, "missing": 8, "children": [{"nodeid": 7, "leaf": -0.000366017019}, {"nodeid": 8, "leaf": -0.00114966952}]}, {"nodeid": 4, "depth": 2, "split": "f130", "split_condition": 1, "yes": 9, "no": 10, "missing": 10, "children": [{"nodeid": 9, "depth": 3, "split": "f29", "split_condition": 0.175636366, "yes": 11, "no": 12, "missing": 12, "children": [{"nodeid": 11, "leaf": -0.000600011146}, {"nodeid": 12, "leaf": 0.000427244871}]}, {"nodeid": 10, "depth": 3, "split": "f9", "split_condition": 0.224727273, "yes": 13, "no": 14, "missing": 14, "children": [{"nodeid": 13, "leaf": 0.000101741789}, {"nodeid": 14, "leaf": 0.000547006202}]}]}]}, {"nodeid": 2, "depth": 1, "split": "f1", "split_condition": -0.0353000015, "yes": 5, "no": 6, "missing": 6, "children": [{"nodeid": 5, "leaf": 0.000591274351}, {"nodeid": 6, "leaf": 0.00204898231}]}]}, {"nodeid": 0, "depth": 0, "split": "f5", "split_condition": 0.403250009, "yes": 1, "no": 2, "missing": 2, "children": [{"nodeid": 1, "depth": 1, "split": "f0", "split_condition": 0.164516449, "yes": 3, "no": 4, "missing": 4, "children": [{"nodeid": 3, "depth": 2, "split": "f136", "split_condition": 0.21085, "yes": 7, "no": 8, "missing": 8, "children": [{"nodeid": 7, "depth": 3, "split": "f24", "split_condition": 0.5, "yes": 13, "no": 14, "missing": 14, "children": [{"nodeid": 13, "leaf": -0.00119183748}, {"nodeid": 14, "leaf": -0.000438600138}]}, {"nodeid": 8, "leaf": -8.88772702e-05}]}, {"nodeid": 4, "leaf": 0.00016859654}]}, {"nodeid": 2, "depth": 1, "split": "f75", "split_condition": 0.57099998, "yes": 5, "no": 6, "missing": 6, "children": [{"nodeid": 5, "depth": 2, "split": "f3", "split_condition": 0.333333343, "yes": 9, "no": 10, "missing": 10, "children": [{"nodeid": 9, "leaf": 0.00208621682}, {"nodeid": 10, "leaf": 0.00065464311}]}, {"nodeid": 6, "depth": 2, "split": "f0", "split_condition": 0.132313237, "yes": 11, "no": 12, "missing": 12, "children": [{"nodeid": 11, "leaf": 2.61906536e-07}, {"nodeid": 12, "leaf": 0.000479896145}]}]}]}, {"nodeid": 0, "depth": 0, "split": "f5", "split_condition": 0.304250002, "yes": 1, "no": 2, "missing": 2, "children": [{"nodeid": 1, "depth": 1, "split": "f78", "split_condition": 0.375, "yes": 3, "no": 4, "missing": 4, "children": [{"nodeid": 3, "depth": 2, "split": "f77", "split_condition": 0.222000003, "yes": 7, "no": 8, "missing": 8, "children": [{"nodeid": 7, "depth": 3, "split": "f10", "split_condition": -0.164509088, "yes": 13, "no": 14, "missing": 14, "children": [{"nodeid": 13, "leaf": -0.000277753628}, {"nodeid": 14, "leaf": -0.00131765543}]}, {"nodeid": 8, "leaf": -0.000265328825}]}, {"nodeid": 4, "depth": 2, "split": "f13", "split_condition": 0.260600001, "yes": 9, "no": 10, "missing": 10, "children": [{"nodeid": 9, "leaf": -0.000269848882}, {"nodeid": 10, "leaf": 0.000484946504}]}]}, {"nodeid": 2, "depth": 1, "split": "f93", "split_condition": 0.375999987, "yes": 5, "no": 6, "missing": 6, "children": [{"nodeid": 5, "depth": 2, "split": "f13", "split_condition": 0.569599986, "yes": 11, "no": 12, "missing": 12, "children": [{"nodeid": 11, "leaf": 0.000695697672}, {"nodeid": 12, "leaf": -0.000283166126}]}, {"nodeid": 6, "leaf": 0.00180169486}]}]}, {"nodeid": 0, "depth": 0, "split": "f61", "split_condition": 0.280000001, "yes": 1, "no": 2, "missing": 2, "children": [{"nodeid": 1, "depth": 1, "split": "f0", "split_condition": 0.120312028, "yes": 3, "no": 4, "missing": 4, "children": [{"nodeid": 3, "depth": 2, "split": "f93", "split_condition": 0.302666664, "yes": 7, "no": 8, "missing": 8, "children": [{"nodeid": 7, "leaf": -0.000244463852}, {"nodeid": 8, "leaf": -0.00112516782}]}, {"nodeid": 4, "depth": 2, "split": "f13", "split_condition": 0.494399995, "yes": 9, "no": 10, "missing": 10, "children": [{"nodeid": 9, "depth": 3, "split": "f24", "split_condition": 0.3046875, "yes": 13, "no": 14, "missing": 14, "children": [{"nodeid": 13, "leaf": -0.000582431036}, {"nodeid": 14, "leaf": -1.13028673e-05}]}, {"nodeid": 10, "leaf": 0.000496203254}]}]}, {"nodeid": 2, "depth": 1, "split": "f7", "split_condition": 0.444000006, "yes": 5, "no": 6, "missing": 6, "children": [{"nodeid": 5, "depth": 2, "split": "f79", "split_condition": 0.465000004, "yes": 11, "no": 12, "missing": 12, "children": [{"nodeid": 11, "leaf": 0.00055672921}, {"nodeid": 12, "leaf": -2.00497998e-05}]}, {"nodeid": 6, "leaf": 0.0018745705}]}]}, {"nodeid": 0, "depth": 0, "split": "f61", "split_condition": 0.360000014, "yes": 1, "no": 2, "missing": 2, "children": [{"nodeid": 1, "depth": 1, "split": "f4", "split_condition": 0.300000012, "yes": 3, "no": 4, "missing": 4, "children": [{"nodeid": 3, "depth": 2, "split": "f7", "split_condition": 0.237714291, "yes": 7, "no": 8, "missing": 8, "children": [{"nodeid": 7, "depth": 3, "split": "f97", "split_condition": 0.611500025, "yes": 11, "no": 12, "missing": 12, "children": [{"nodeid": 11, "leaf": -2.98379837e-06}, {"nodeid": 12, "leaf": -0.000544502633}]}, {"nodeid": 8, "leaf": 0.00054397108}]}, {"nodeid": 4, "depth": 2, "split": "f10", "split_condition": 0.0606358983, "yes": 9, "no": 10, "missing": 10, "children": [{"nodeid": 9, "leaf": -0.00120389345}, {"nodeid": 10, "leaf": -0.000202395066}]}]}, {"nodeid": 2, "depth": 1, "split": "f0", "split_condition": 0.151815176, "yes": 5, "no": 6, "missing": 6, "children": [{"nodeid": 5, "leaf": 0.00189225643}, {"nodeid": 6, "leaf": 0.000526209013}]}]}, {"nodeid": 0, "depth": 0, "split": "f5", "split_condition": 0.403250009, "yes": 1, "no": 2, "missing": 2, "children": [{"nodeid": 1, "depth": 1, "split": "f93", "split_condition": 0.277999997, "yes": 3, "no": 4, "missing": 4, "children": [{"nodeid": 3, "leaf": -5.35715699e-05}, {"nodeid": 4, "depth": 2, "split": "f59", "split_condition": 0.875, "yes": 7, "no": 8, "missing": 8, "children": [{"nodeid": 7, "leaf": -0.000472012558}, {"nodeid": 8, "leaf": -0.00104770483}]}]}, {"nodeid": 2, "depth": 1, "split": "f93", "split_condition": 0.375999987, "yes": 5, "no": 6, "missing": 6, "children": [{"nodeid": 5, "depth": 2, "split": "f96", "split_condition": 0.319999993, "yes": 9, "no": 10, "missing": 10, "children": [{"nodeid": 9, "leaf": 0.000623607892}, {"nodeid": 10, "leaf": 5.2791107e-05}]}, {"nodeid": 6, "leaf": 0.00192969467}]}]}, {"nodeid": 0, "depth": 0, "split": "f5", "split_condition": 0.197249994, "yes": 1, "no": 2, "missing": 2, "children": [{"nodeid": 1, "depth": 1, "split": "f0", "split_condition": 0.102110215, "yes": 3, "no": 4, "missing": 4, "children": [{"nodeid": 3, "leaf": -0.00125534902}, {"nodeid": 4, "depth": 2, "split": "f90", "split_condition": -0.126244709, "yes": 7, "no": 8, "missing": 8, "children": [{"nodeid": 7, "leaf": -0.000604194065}, {"nodeid": 8, "depth": 3, "split": "f66", "split_condition": 0.225333333, "yes": 11, "no": 12, "missing": 12, "children": [{"nodeid": 11, "leaf": 2.62263311e-05}, {"nodeid": 12, "leaf": -0.000108834312}]}]}]}, {"nodeid": 2, "depth": 1, "split": "f0", "split_condition": 0.129212916, "yes": 5, "no": 6, "missing": 6, "children": [{"nodeid": 5, "leaf": -0.000504914671}, {"nodeid": 6, "depth": 2, "split": "f141", "split_condition": 0.400000006, "yes": 9, "no": 10, "missing": 10, "children": [{"nodeid": 9, "depth": 3, "split": "f2", "split_condition": -0.331200004, "yes": 13, "no": 14, "missing": 14, "children": [{"nodeid": 13, "leaf": 0.000408353342}, {"nodeid": 14, "leaf": -8.73427125e-05}]}, {"nodeid": 10, "depth": 3, "split": "f28", "split_condition": 0.74545455, "yes": 15, "no": 16, "missing": 16, "children": [{"nodeid": 15, "leaf": 0.00119653402}, {"nodeid": 16, "leaf": 0.000417405681}]}]}]}]}, {"nodeid": 0, "depth": 0, "split": "f5", "split_condition": 0.274250001, "yes": 1, "no": 2, "missing": 2, "children": [{"nodeid": 1, "depth": 1, "split": "f136", "split_condition": 0.233799994, "yes": 3, "no": 4, "missing": 4, "children": [{"nodeid": 3, "leaf": -0.000876174541}, {"nodeid": 4, "leaf": -2.52604641e-05}]}, {"nodeid": 2, "depth": 1, "split": "f96", "split_condition": 0.50666666, "yes": 5, "no": 6, "missing": 6, "children": [{"nodeid": 5, "leaf": 0.000638858532}, {"nodeid": 6, "leaf": 0.00160033279}]}]}, {"nodeid": 0, "depth": 0, "split": "f5", "split_condition": 0.304250002, "yes": 1, "no": 2, "missing": 2, "children": [{"nodeid": 1, "depth": 1, "split": "f59", "split_condition": 0.875, "yes": 3, "no": 4, "missing": 4, "children": [{"nodeid": 3, "depth": 2, "split": "f92", "split_condition": -0.0913903564, "yes": 7, "no": 8, "missing": 8, "children": [{"nodeid": 7, "leaf": -0.000527307508}, {"nodeid": 8, "leaf": 0.000152812034}]}, {"nodeid": 4, "depth": 2, "split": "f93", "split_condition": 0.26699999, "yes": 9, "no": 10, "missing": 10, "children": [{"nodeid": 9, "leaf": -0.000203556876}, {"nodeid": 10, "leaf": -0.00111132022}]}]}, {"nodeid": 2, "depth": 1, "split": "f97", "split_condition": 0.47633332, "yes": 5, "no": 6, "missing": 6, "children": [{"nodeid": 5, "depth": 2, "split": "f1", "split_condition": -0.2491, "yes": 11, "no": 12, "missing": 12, "children": [{"nodeid": 11, "leaf": -0.000315260491}, {"nodeid": 12, "leaf": 0.000418170472}]}, {"nodeid": 6, "leaf": 0.00134678138}]}]}, {"nodeid": 0, "depth": 0, "split": "f61", "split_condition": 0.200000003, "yes": 1, "no": 2, "missing": 2, "children": [{"nodeid": 1, "depth": 1, "split": "f0", "split_condition": 0.102110215, "yes": 3, "no": 4, "missing": 4, "children": [{"nodeid": 3, "depth": 2, "split": "f5", "split_condition": 0.180000007, "yes": 7, "no": 8, "missing": 8, "children": [{"nodeid": 7, "leaf": -0.00113901962}, {"nodeid": 8, "leaf": -0.000405863015}]}, {"nodeid": 4, "depth": 2, "split": "f92", "split_condition": -0.0510592088, "yes": 9, "no": 10, "missing": 10, "children": [{"nodeid": 9, "depth": 3, "split": "f61", "split_condition": 0.0199999996, "yes": 11, "no": 12, "missing": 12, "children": [{"nodeid": 11, "leaf": -0.000146796476}, {"nodeid": 12, "leaf": -0.000594005222}]}, {"nodeid": 10, "depth": 3, "split": "f5", "split_condition": 0.274250001, "yes": 13, "no": 14, "missing": 14, "children": [{"nodeid": 13, "leaf": 0}, {"nodeid": 14, "leaf": 0.000429618667}]}]}]}, {"nodeid": 2, "depth": 1, "split": "f93", "split_condition": 0.333333343, "yes": 5, "no": 6, "missing": 6, "children": [{"nodeid": 5, "leaf": 0.000513617881}, {"nodeid": 6, "leaf": 0.00171687757}]}]}, {"nodeid": 0, "depth": 0, "split": "f0", "split_condition": 0.136313632, "yes": 1, "no": 2, "missing": 2, "children": [{"nodeid": 1, "depth": 1, "split": "f7", "split_condition": 0.242769226, "yes": 3, "no": 4, "missing": 4, "children": [{"nodeid": 3, "depth": 2, "split": "f4", "split_condition": 0.300000012, "yes": 7, "no": 8, "missing": 8, "children": [{"nodeid": 7, "leaf": -0.000381601043}, {"nodeid": 8, "leaf": -0.0011173141}]}, {"nodeid": 4, "leaf": -0.000213775958}]}, {"nodeid": 2, "depth": 1, "split": "f92", "split_condition": -0.0150093809, "yes": 5, "no": 6, "missing": 6, "children": [{"nodeid": 5, "leaf": -0.000525754644}, {"nodeid": 6, "depth": 2, "split": "f96", "split_condition": 0.5, "yes": 9, "no": 10, "missing": 10, "children": [{"nodeid": 9, "depth": 3, "split": "f69", "split_condition": 0.0142857144, "yes": 11, "no": 12, "missing": 12, "children": [{"nodeid": 11, "leaf": 5.20982503e-05}, {"nodeid": 12, "leaf": 0.000468796876}]}, {"nodeid": 10, "leaf": 0.0013648083}]}]}]}, {"nodeid": 0, "depth": 0, "split": "f7", "split_condition": 0.468857139, "yes": 1, "no": 2, "missing": 2, "children": [{"nodeid": 1, "depth": 1, "split": "f0", "split_condition": 0.136313632, "yes": 3, "no": 4, "missing": 4, "children": [{"nodeid": 3, "depth": 2, "split": "f136", "split_condition": 0.21085, "yes": 7, "no": 8, "missing": 8, "children": [{"nodeid": 7, "depth": 3, "split": "f108", "split_condition": 0.330749989, "yes": 11, "no": 12, "missing": 12, "children": [{"nodeid": 11, "leaf": -0.000222491464}, {"nodeid": 12, "leaf": -0.000994322472}]}, {"nodeid": 8, "leaf": -4.18953306e-07}]}, {"nodeid": 4, "depth": 2, "split": "f91", "split_condition": 0.24427481, "yes": 9, "no": 10, "missing": 10, "children": [{"nodeid": 9, "leaf": -0.000360213453}, {"nodeid": 10, "leaf": 0.000464871817}]}]}, {"nodeid": 2, "depth": 1, "split": "f75", "split_condition": 0.514999986, "yes": 5, "no": 6, "missing": 6, "children": [{"nodeid": 5, "leaf": 0.001892042}, {"nodeid": 6, "leaf": 0.000292638637}]}]}, {"nodeid": 0, "depth": 0, "split": "f130", "split_condition": 1, "yes": 1, "no": 2, "missing": 2, "children": [{"nodeid": 1, "depth": 1, "split": "f29", "split_condition": 0.177818179, "yes": 3, "no": 4, "missing": 4, "children": [{"nodeid": 3, "depth": 2, "split": "f136", "split_condition": 0.233799994, "yes": 7, "no": 8, "missing": 8, "children": [{"nodeid": 7, "depth": 3, "split": "f56", "split_condition": 0.600000024, "yes": 11, "no": 12, "missing": 12, "children": [{"nodeid": 11, "leaf": -0.000896306534}, {"nodeid": 12, "leaf": -0.000168574246}]}, {"nodeid": 8, "leaf": 0}]}, {"nodeid": 4, "leaf": 0.000364696753}]}, {"nodeid": 2, "depth": 1, "split": "f75", "split_condition": 0.514999986, "yes": 5, "no": 6, "missing": 6, "children": [{"nodeid": 5, "leaf": 0.00185420166}, {"nodeid": 6, "depth": 2, "split": "f38", "split_condition": 0.355154097, "yes": 9, "no": 10, "missing": 10, "children": [{"nodeid": 9, "leaf": -2.33697319e-05}, {"nodeid": 10, "leaf": 0.000717881077}]}]}]}, {"nodeid": 0, "depth": 0, "split": "f5", "split_condition": 0.304250002, "yes": 1, "no": 2, "missing": 2, "children": [{"nodeid": 1, "depth": 1, "split": "f4", "split_condition": 0.300000012, "yes": 3, "no": 4, "missing": 4, "children": [{"nodeid": 3, "depth": 2, "split": "f24", "split_condition": 0.4375, "yes": 7, "no": 8, "missing": 8, "children": [{"nodeid": 7, "leaf": -0.000279057102}, {"nodeid": 8, "leaf": 0.000212456987}]}, {"nodeid": 4, "depth": 2, "split": "f108", "split_condition": 0.330749989, "yes": 9, "no": 10, "missing": 10, "children": [{"nodeid": 9, "leaf": -0.00012514698}, {"nodeid": 10, "leaf": -0.00102326914}]}]}, {"nodeid": 2, "depth": 1, "split": "f97", "split_condition": 0.47633332, "yes": 5, "no": 6, "missing": 6, "children": [{"nodeid": 5, "depth": 2, "split": "f7", "split_condition": 0.405666679, "yes": 11, "no": 12, "missing": 12, "children": [{"nodeid": 11, "leaf": -3.08053204e-05}, {"nodeid": 12, "leaf": 0.000378083525}]}, {"nodeid": 6, "depth": 2, "split": "f0", "split_condition": 0.158515856, "yes": 13, "no": 14, "missing": 14, "children": [{"nodeid": 13, "leaf": 0.00168283423}, {"nodeid": 14, "leaf": 0.000493404223}]}]}]}, {"nodeid": 0, "depth": 0, "split": "f50", "split_condition": 0.267647058, "yes": 1, "no": 2, "missing": 2, "children": [{"nodeid": 1, "depth": 1, "split": "f4", "split_condition": 0.300000012, "yes": 3, "no": 4, "missing": 4, "children": [{"nodeid": 3, "depth": 2, "split": "f92", "split_condition": -0.0913903564, "yes": 7, "no": 8, "missing": 8, "children": [{"nodeid": 7, "leaf": -0.000412398163}, {"nodeid": 8, "leaf": 0.000162883836}]}, {"nodeid": 4, "depth": 2, "split": "f10", "split_condition": 0.047365386, "yes": 9, "no": 10, "missing": 10, "children": [{"nodeid": 9, "leaf": -0.00103962864}, {"nodeid": 10, "leaf": -0.000290712138}]}]}, {"nodeid": 2, "depth": 1, "split": "f67", "split_condition": 0.51700002, "yes": 5, "no": 6, "missing": 6, "children": [{"nodeid": 5, "depth": 2, "split": "f4", "split_condition": 0.5, "yes": 11, "no": 12, "missing": 12, "children": [{"nodeid": 11, "leaf": 0.00133099197}, {"nodeid": 12, "leaf": 0.000357406039}]}, {"nodeid": 6, "leaf": 0.000225329204}]}]}, {"nodeid": 0, "depth": 0, "split": "f61", "split_condition": 0.280000001, "yes": 1, "no": 2, "missing": 2, "children": [{"nodeid": 1, "depth": 1, "split": "f40", "split_condition": 0.840266645, "yes": 3, "no": 4, "missing": 4, "children": [{"nodeid": 3, "depth": 2, "split": "f34", "split_condition": 0.000716666691, "yes": 7, "no": 8, "missing": 8, "children": [{"nodeid": 7, "leaf": -5.62637251e-05}, {"nodeid": 8, "depth": 3, "split": "f61", "split_condition": 0.0599999987, "yes": 9, "no": 10, "missing": 10, "children": [{"nodeid": 9, "leaf": -0.000212731698}, {"nodeid": 10, "leaf": -0.000754349225}]}]}, {"nodeid": 4, "leaf": 8.6649452e-05}]}, {"nodeid": 2, "depth": 1, "split": "f38", "split_condition": 0.478260875, "yes": 5, "no": 6, "missing": 6, "children": [{"nodeid": 5, "leaf": 0.000223750641}, {"nodeid": 6, "leaf": 0.0011566038}]}]}, {"nodeid": 0, "depth": 0, "split": "f5", "split_condition": 0.403250009, "yes": 1, "no": 2, "missing": 2, "children": [{"nodeid": 1, "depth": 1, "split": "f130", "split_condition": 1, "yes": 3, "no": 4, "missing": 4, "children": [{"nodeid": 3, "depth": 2, "split": "f136", "split_condition": 0.21085, "yes": 7, "no": 8, "missing": 8, "children": [{"nodeid": 7, "depth": 3, "split": "f51", "split_condition": 0.0169491526, "yes": 9, "no": 10, "missing": 10, "children": [{"nodeid": 9, "leaf": -0.000218310393}, {"nodeid": 10, "leaf": -0.000743786455}]}, {"nodeid": 8, "leaf": 1.84575833e-06}]}, {"nodeid": 4, "leaf": 0.000428977888}]}, {"nodeid": 2, "depth": 1, "split": "f78", "split_condition": 0.166999996, "yes": 5, "no": 6, "missing": 6, "children": [{"nodeid": 5, "leaf": 0.00175925402}, {"nodeid": 6, "leaf": 0.000576363469}]}]}, {"nodeid": 0, "depth": 0, "split": "f50", "split_condition": 0.38529411, "yes": 1, "no": 2, "missing": 2, "children": [{"nodeid": 1, "depth": 1, "split": "f59", "split_condition": 0.875, "yes": 3, "no": 4, "missing": 4, "children": [{"nodeid": 3, "depth": 2, "split": "f92", "split_condition": -0.109333336, "yes": 7, "no": 8, "missing": 8, "children": [{"nodeid": 7, "leaf": -0.000421733072}, {"nodeid": 8, "depth": 3, "split": "f5", "split_condition": 0.194250003, "yes": 11, "no": 12, "missing": 12, "children": [{"nodeid": 11, "leaf": 0}, {"nodeid": 12, "leaf": 0.00033724375}]}]}, {"nodeid": 4, "depth": 2, "split": "f10", "split_condition": 0.047365386, "yes": 9, "no": 10, "missing": 10, "children": [{"nodeid": 9, "leaf": -0.000985810533}, {"nodeid": 10, "leaf": -0.000184692748}]}]}, {"nodeid": 2, "depth": 1, "split": "f75", "split_condition": 0.5, "yes": 5, "no": 6, "missing": 6, "children": [{"nodeid": 5, "leaf": 0.00129171426}, {"nodeid": 6, "leaf": 0.000390858448}]}]}, {"nodeid": 0, "depth": 0, "split": "f0", "split_condition": 0.133913398, "yes": 1, "no": 2, "missing": 2, "children": [{"nodeid": 1, "depth": 1, "split": "f136", "split_condition": 0.21085, "yes": 3, "no": 4, "missing": 4, "children": [{"nodeid": 3, "depth": 2, "split": "f9", "split_condition": 0.615199983, "yes": 7, "no": 8, "missing": 8, "children": [{"nodeid": 7, "depth": 3, "split": "f59", "split_condition": 0.875, "yes": 13, "no": 14, "missing": 14, "children": [{"nodeid": 13, "leaf": -0.000295536622}, {"nodeid": 14, "leaf": -0.00101467362}]}, {"nodeid": 8, "leaf": -0.000203338393}]}, {"nodeid": 4, "leaf": 0}]}, {"nodeid": 2, "depth": 1, "split": "f141", "split_condition": 0.400000006, "yes": 5, "no": 6, "missing": 6, "children": [{"nodeid": 5, "depth": 2, "split": "f79", "split_condition": 0.619000018, "yes": 9, "no": 10, "missing": 10, "children": [{"nodeid": 9, "leaf": -0.000369874353}, {"nodeid": 10, "leaf": 0.000146353326}]}, {"nodeid": 6, "depth": 2, "split": "f92", "split_condition": 0.491379321, "yes": 11, "no": 12, "missing": 12, "children": [{"nodeid": 11, "leaf": 0.000445510901}, {"nodeid": 12, "depth": 3, "split": "f0", "split_condition": 0.158515856, "yes": 15, "no": 16, "missing": 16, "children": [{"nodeid": 15, "leaf": 0.00123519008}, {"nodeid": 16, "leaf": 0.000385701569}]}]}]}]}, {"nodeid": 0, "depth": 0, "split": "f0", "split_condition": 0.129212916, "yes": 1, "no": 2, "missing": 2, "children": [{"nodeid": 1, "depth": 1, "split": "f0", "split_condition": 0.102110215, "yes": 3, "no": 4, "missing": 4, "children": [{"nodeid": 3, "leaf": -0.000853635138}, {"nodeid": 4, "leaf": -0.000142927718}]}, {"nodeid": 2, "depth": 1, "split": "f5", "split_condition": 0.304250002, "yes": 5, "no": 6, "missing": 6, "children": [{"nodeid": 5, "depth": 2, "split": "f93", "split_condition": 0.291999996, "yes": 7, "no": 8, "missing": 8, "children": [{"nodeid": 7, "leaf": -0.000430967455}, {"nodeid": 8, "leaf": 0.000275426748}]}, {"nodeid": 6, "depth": 2, "split": "f97", "split_condition": 0.47633332, "yes": 9, "no": 10, "missing": 10, "children": [{"nodeid": 9, "leaf": 0.000443872152}, {"nodeid": 10, "leaf": 0.00119584426}]}]}]}, {"nodeid": 0, "depth": 0, "split": "f61", "split_condition": 0.360000014, "yes": 1, "no": 2, "missing": 2, "children": [{"nodeid": 1, "depth": 1, "split": "f37", "split_condition": 0.742999971, "yes": 3, "no": 4, "missing": 4, "children": [{"nodeid": 3, "depth": 2, "split": "f4", "split_condition": 0.300000012, "yes": 7, "no": 8, "missing": 8, "children": [{"nodeid": 7, "depth": 3, "split": "f67", "split_condition": 0.536000013, "yes": 11, "no": 12, "missing": 12, "children": [{"nodeid": 11, "leaf": -0.000312851189}, {"nodeid": 12, "leaf": 0.000162773998}]}, {"nodeid": 8, "depth": 3, "split": "f4", "split_condition": 0.5, "yes": 13, "no": 14, "missing": 14, "children": [{"nodeid": 13, "leaf": -0.000945218722}, {"nodeid": 14, "leaf": -0.000268123549}]}]}, {"nodeid": 4, "depth": 2, "split": "f96", "split_condition": 0.296499997, "yes": 9, "no": 10, "missing": 10, "children": [{"nodeid": 9, "leaf": -7.6966171e-05}, {"nodeid": 10, "leaf": 0.000420202268}]}]}, {"nodeid": 2, "depth": 1, "split": "f6", "split_condition": 0.882352948, "yes": 5, "no": 6, "missing": 6, "children": [{"nodeid": 5, "leaf": 0.00166437775}, {"nodeid": 6, "leaf": 0.000473381107}]}]}, {"nodeid": 0, "depth": 0, "split": "f0", "split_condition": 0.129212916, "yes": 1, "no": 2, "missing": 2, "children": [{"nodeid": 1, "depth": 1, "split": "f0", "split_condition": 0.102110215, "yes": 3, "no": 4, "missing": 4, "children": [{"nodeid": 3, "depth": 2, "split": "f59", "split_condition": 0.875, "yes": 7, "no": 8, "missing": 8, "children": [{"nodeid": 7, "leaf": -0.000217804321}, {"nodeid": 8, "leaf": -0.000854958547}]}, {"nodeid": 4, "leaf": -0.000218126122}]}, {"nodeid": 2, "depth": 1, "split": "f5", "split_condition": 0.197249994, "yes": 5, "no": 6, "missing": 6, "children": [{"nodeid": 5, "depth": 2, "split": "f90", "split_condition": -0.126244709, "yes": 9, "no": 10, "missing": 10, "children": [{"nodeid": 9, "leaf": -0.000428565399}, {"nodeid": 10, "leaf": -8.22688253e-06}]}, {"nodeid": 6, "depth": 2, "split": "f38", "split_condition": 0.535246313, "yes": 11, "no": 12, "missing": 12, "children": [{"nodeid": 11, "depth": 3, "split": "f4", "split_condition": 0.5, "yes": 13, "no": 14, "missing": 14, "children": [{"nodeid": 13, "leaf": 0.000410336565}, {"nodeid": 14, "leaf": 6.31358271e-05}]}, {"nodeid": 12, "leaf": 0.0010651917}]}]}]}, {"nodeid": 0, "depth": 0, "split": "f5", "split_condition": 0.274250001, "yes": 1, "no": 2, "missing": 2, "children": [{"nodeid": 1, "depth": 1, "split": "f24", "split_condition": 0.365384609, "yes": 3, "no": 4, "missing": 4, "children": [{"nodeid": 3, "depth": 2, "split": "f136", "split_condition": 0.20645, "yes": 7, "no": 8, "missing": 8, "children": [{"nodeid": 7, "depth": 3, "split": "f72", "split_condition": 0.377999991, "yes": 15, "no": 16, "missing": 16, "children": [{"nodeid": 15, "leaf": -0.000879501225}, {"nodeid": 16, "leaf": -0.000197544563}]}, {"nodeid": 8, "leaf": -0.000187553946}]}, {"nodeid": 4, "depth": 2, "split": "f51", "split_condition": 0.0384615399, "yes": 9, "no": 10, "missing": 10, "children": [{"nodeid": 9, "leaf": -0.000138594609}, {"nodeid": 10, "leaf": 0}]}]}, {"nodeid": 2, "depth": 1, "split": "f97", "split_condition": 0.47633332, "yes": 5, "no": 6, "missing": 6, "children": [{"nodeid": 5, "depth": 2, "split": "f7", "split_condition": 0.444000006, "yes": 11, "no": 12, "missing": 12, "children": [{"nodeid": 11, "leaf": -0.000305495632}, {"nodeid": 12, "leaf": 0.000330521696}]}, {"nodeid": 6, "depth": 2, "split": "f5", "split_condition": 0.391000003, "yes": 13, "no": 14, "missing": 14, "children": [{"nodeid": 13, "leaf": 0.000470049185}, {"nodeid": 14, "leaf": 0.00147356943}]}]}]}, {"nodeid": 0, "depth": 0, "split": "f5", "split_condition": 0.268999994, "yes": 1, "no": 2, "missing": 2, "children": [{"nodeid": 1, "depth": 1, "split": "f84", "split_condition": 0.455357134, "yes": 3, "no": 4, "missing": 4, "children": [{"nodeid": 3, "depth": 2, "split": "f4", "split_condition": 0.300000012, "yes": 7, "no": 8, "missing": 8, "children": [{"nodeid": 7, "depth": 3, "split": "f84", "split_condition": 0.267857134, "yes": 11, "no": 12, "missing": 12, "children": [{"nodeid": 11, "leaf": -0.000453991262}, {"nodeid": 12, "leaf": -3.9415474e-05}]}, {"nodeid": 8, "leaf": -0.000935035991}]}, {"nodeid": 4, "leaf": -7.66636149e-05}]}, {"nodeid": 2, "depth": 1, "split": "f4", "split_condition": 0.5, "yes": 5, "no": 6, "missing": 6, "children": [{"nodeid": 5, "leaf": 0.000586426992}, {"nodeid": 6, "depth": 2, "split": "f0", "split_condition": 0.151015103, "yes": 9, "no": 10, "missing": 10, "children": [{"nodeid": 9, "leaf": -0.000350129412}, {"nodeid": 10, "leaf": 0.000263551017}]}]}]}, {"nodeid": 0, "depth": 0, "split": "f5", "split_condition": 0.304250002, "yes": 1, "no": 2, "missing": 2, "children": [{"nodeid": 1, "depth": 1, "split": "f4", "split_condition": 0.300000012, "yes": 3, "no": 4, "missing": 4, "children": [{"nodeid": 3, "depth": 2, "split": "f90", "split_condition": -0.0264128949, "yes": 7, "no": 8, "missing": 8, "children": [{"nodeid": 7, "leaf": -0.000319055456}, {"nodeid": 8, "leaf": 0.00032596293}]}, {"nodeid": 4, "depth": 2, "split": "f11", "split_condition": 0.918933332, "yes": 9, "no": 10, "missing": 10, "children": [{"nodeid": 9, "leaf": -0.000919759681}, {"nodeid": 10, "leaf": -0.000111468798}]}]}, {"nodeid": 2, "depth": 1, "split": "f23", "split_condition": 0.641025662, "yes": 5, "no": 6, "missing": 6, "children": [{"nodeid": 5, "depth": 2, "split": "f1", "split_condition": -0.0353000015, "yes": 11, "no": 12, "missing": 12, "children": [{"nodeid": 11, "leaf": 0.000382140366}, {"nodeid": 12, "leaf": 0.000985247199}]}, {"nodeid": 6, "leaf": 0}]}]}, {"nodeid": 0, "depth": 0, "split": "f50", "split_condition": 0.305882365, "yes": 1, "no": 2, "missing": 2, "children": [{"nodeid": 1, "depth": 1, "split": "f66", "split_condition": 0.438666672, "yes": 3, "no": 4, "missing": 4, "children": [{"nodeid": 3, "depth": 2, "split": "f136", "split_condition": 0.233799994, "yes": 7, "no": 8, "missing": 8, "children": [{"nodeid": 7, "depth": 3, "split": "f81", "split_condition": 1, "yes": 9, "no": 10, "missing": 10, "children": [{"nodeid": 9, "leaf": -4.72939755e-05}, {"nodeid": 10, "leaf": -0.000575296988}]}, {"nodeid": 8, "leaf": 3.80745814e-06}]}, {"nodeid": 4, "leaf": 0.000305892318}]}, {"nodeid": 2, "depth": 1, "split": "f4", "split_condition": 0.5, "yes": 5, "no": 6, "missing": 6, "children": [{"nodeid": 5, "leaf": 0.000997036579}, {"nodeid": 6, "leaf": 5.77262435e-05}]}]}, {"nodeid": 0, "depth": 0, "split": "f7", "split_condition": 0.468857139, "yes": 1, "no": 2, "missing": 2, "children": [{"nodeid": 1, "depth": 1, "split": "f77", "split_condition": 0.222000003, "yes": 3, "no": 4, "missing": 4, "children": [{"nodeid": 3, "depth": 2, "split": "f108", "split_condition": 0.409000009, "yes": 7, "no": 8, "missing": 8, "children": [{"nodeid": 7, "depth": 3, "split": "f37", "split_condition": 0.579999983, "yes": 13, "no": 14, "missing": 14, "children": [{"nodeid": 13, "leaf": -0.000235495492}, {"nodeid": 14, "leaf": 0}]}, {"nodeid": 8, "depth": 3, "split": "f38", "split_condition": 0.66698736, "yes": 15, "no": 16, "missing": 16, "children": [{"nodeid": 15, "leaf": -0.000987176318}, {"nodeid": 16, "leaf": -0.000301136693}]}]}, {"nodeid": 4, "depth": 2, "split": "f0", "split_condition": 0.15051505, "yes": 9, "no": 10, "missing": 10, "children": [{"nodeid": 9, "depth": 3, "split": "f3", "split_condition": 0.266666681, "yes": 17, "no": 18, "missing": 18, "children": [{"nodeid": 17, "leaf": 0}, {"nodeid": 18, "leaf": -0.000380645244}]}, {"nodeid": 10, "leaf": 0.000453206332}]}]}, {"nodeid": 2, "depth": 1, "split": "f67", "split_condition": 0.156000003, "yes": 5, "no": 6, "missing": 6, "children": [{"nodeid": 5, "leaf": 0.000163247518}, {"nodeid": 6, "depth": 2, "split": "f5", "split_condition": 0.42050001, "yes": 11, "no": 12, "missing": 12, "children": [{"nodeid": 11, "leaf": 0.00154542178}, {"nodeid": 12, "leaf": 0.000536377251}]}]}]}, {"nodeid": 0, "depth": 0, "split": "f130", "split_condition": 1, "yes": 1, "no": 2, "missing": 2, "children": [{"nodeid": 1, "depth": 1, "split": "f29", "split_condition": 0.177818179, "yes": 3, "no": 4, "missing": 4, "children": [{"nodeid": 3, "depth": 2, "split": "f13", "split_condition": 0.36559999, "yes": 7, "no": 8, "missing": 8, "children": [{"nodeid": 7, "depth": 3, "split": "f24", "split_condition": 0.270833343, "yes": 9, "no": 10, "missing": 10, "children": [{"nodeid": 9, "leaf": -0.000429936394}, {"nodeid": 10, "leaf": -1.17577329e-05}]}, {"nodeid": 8, "depth": 3, "split": "f9", "split_condition": 0.418285728, "yes": 11, "no": 12, "missing": 12, "children": [{"nodeid": 11, "leaf": -0.00100625469}, {"nodeid": 12, "leaf": -0.000265867653}]}]}, {"nodeid": 4, "leaf": 0.000288948097}]}, {"nodeid": 2, "depth": 1, "split": "f0", "split_condition": 0.152115211, "yes": 5, "no": 6, "missing": 6, "children": [{"nodeid": 5, "leaf": 8.29632263e-05}, {"nodeid": 6, "leaf": 0.000556184386}]}]}, {"nodeid": 0, "depth": 0, "split": "f5", "split_condition": 0.274250001, "yes": 1, "no": 2, "missing": 2, "children": [{"nodeid": 1, "depth": 1, "split": "f78", "split_condition": 0.455000013, "yes": 3, "no": 4, "missing": 4, "children": [{"nodeid": 3, "depth": 2, "split": "f84", "split_condition": 0.391666681, "yes": 7, "no": 8, "missing": 8, "children": [{"nodeid": 7, "depth": 3, "split": "f10", "split_condition": -0.185933337, "yes": 9, "no": 10, "missing": 10, "children": [{"nodeid": 9, "leaf": -0.000123197286}, {"nodeid": 10, "leaf": -0.000827121432}]}, {"nodeid": 8, "depth": 3, "split": "f76", "split_condition": 0.184, "yes": 11, "no": 12, "missing": 12, "children": [{"nodeid": 11, "leaf": -0.000259549299}, {"nodeid": 12, "leaf": -6.66095184e-06}]}]}, {"nodeid": 4, "leaf": 0.000126879619}]}, {"nodeid": 2, "depth": 1, "split": "f96", "split_condition": 0.50666666, "yes": 5, "no": 6, "missing": 6, "children": [{"nodeid": 5, "leaf": 0.000421641133}, {"nodeid": 6, "leaf": 0.00112810824}]}]}, {"nodeid": 0, "depth": 0, "split": "f61", "split_condition": 0.360000014, "yes": 1, "no": 2, "missing": 2, "children": [{"nodeid": 1, "depth": 1, "split": "f0", "split_condition": 0.15051505, "yes": 3, "no": 4, "missing": 4, "children": [{"nodeid": 3, "depth": 2, "split": "f77", "split_condition": 0.26699999, "yes": 7, "no": 8, "missing": 8, "children": [{"nodeid": 7, "depth": 3, "split": "f13", "split_condition": 0.131799996, "yes": 11, "no": 12, "missing": 12, "children": [{"nodeid": 11, "leaf": -0.000210307015}, {"nodeid": 12, "leaf": -0.000669171335}]}, {"nodeid": 8, "leaf": -9.77046366e-05}]}, {"nodeid": 4, "depth": 2, "split": "f60", "split_condition": 0.13333334, "yes": 9, "no": 10, "missing": 10, "children": [{"nodeid": 9, "leaf": 0.000423250807}, {"nodeid": 10, "leaf": -0.000192982232}]}]}, {"nodeid": 2, "depth": 1, "split": "f3", "split_condition": 0.333333343, "yes": 5, "no": 6, "missing": 6, "children": [{"nodeid": 5, "leaf": 0.00149735634}, {"nodeid": 6, "leaf": 0.000322888547}]}]}, {"nodeid": 0, "depth": 0, "split": "f7", "split_condition": 0.468857139, "yes": 1, "no": 2, "missing": 2, "children": [{"nodeid": 1, "depth": 1, "split": "f77", "split_condition": 0.222000003, "yes": 3, "no": 4, "missing": 4, "children": [{"nodeid": 3, "depth": 2, "split": "f108", "split_condition": 0.318166673, "yes": 7, "no": 8, "missing": 8, "children": [{"nodeid": 7, "leaf": 3.81751888e-05}, {"nodeid": 8, "depth": 3, "split": "f59", "split_condition": 0.875, "yes": 11, "no": 12, "missing": 12, "children": [{"nodeid": 11, "leaf": -0.000268622505}, {"nodeid": 12, "leaf": -0.000880707172}]}]}, {"nodeid": 4, "depth": 2, "split": "f10", "split_condition": -0.06567619, "yes": 9, "no": 10, "missing": 10, "children": [{"nodeid": 9, "leaf": -0.000378838973}, {"nodeid": 10, "depth": 3, "split": "f75", "split_condition": 0.734000027, "yes": 13, "no": 14, "missing": 14, "children": [{"nodeid": 13, "leaf": 7.83209107e-05}, {"nodeid": 14, "leaf": 0.00046425339}]}]}]}, {"nodeid": 2, "depth": 1, "split": "f91", "split_condition": 0.214661613, "yes": 5, "no": 6, "missing": 6, "children": [{"nodeid": 5, "leaf": 0.000135328344}, {"nodeid": 6, "leaf": 0.0013208735}]}]}, {"nodeid": 0, "depth": 0, "split": "f5", "split_condition": 0.304250002, "yes": 1, "no": 2, "missing": 2, "children": [{"nodeid": 1, "depth": 1, "split": "f36", "split_condition": 0.100000001, "yes": 3, "no": 4, "missing": 4, "children": [{"nodeid": 3, "depth": 2, "split": "f63", "split_condition": 0.0386666656, "yes": 7, "no": 8, "missing": 8, "children": [{"nodeid": 7, "depth": 3, "split": "f38", "split_condition": 0.66698736, "yes": 9, "no": 10, "missing": 10, "children": [{"nodeid": 9, "leaf": -0.000904096989}, {"nodeid": 10, "leaf": -0.000237890054}]}, {"nodeid": 8, "depth": 3, "split": "f9", "split_condition": 0.233714283, "yes": 11, "no": 12, "missing": 12, "children": [{"nodeid": 11, "leaf": -9.87261592e-05}, {"nodeid": 12, "leaf": 0}]}]}, {"nodeid": 4, "leaf": 0}]}, {"nodeid": 2, "depth": 1, "split": "f97", "split_condition": 0.493624985, "yes": 5, "no": 6, "missing": 6, "children": [{"nodeid": 5, "leaf": 0.000408755557}, {"nodeid": 6, "leaf": 0.00120610243}]}]}, {"nodeid": 0, "depth": 0, "split": "f7", "split_condition": 0.468857139, "yes": 1, "no": 2, "missing": 2, "children": [{"nodeid": 1, "depth": 1, "split": "f85", "split_condition": 0.200000003, "yes": 3, "no": 4, "missing": 4, "children": [{"nodeid": 3, "depth": 2, "split": "f10", "split_condition": 0.0606358983, "yes": 7, "no": 8, "missing": 8, "children": [{"nodeid": 7, "depth": 3, "split": "f95", "split_condition": 0.670000017, "yes": 11, "no": 12, "missing": 12, "children": [{"nodeid": 11, "leaf": -9.9288307e-05}, {"nodeid": 12, "leaf": -0.000766110374}]}, {"nodeid": 8, "depth": 3, "split": "f0", "split_condition": 0.151015103, "yes": 13, "no": 14, "missing": 14, "children": [{"nodeid": 13, "leaf": -6.8090274e-05}, {"nodeid": 14, "leaf": 0.000131600216}]}]}, {"nodeid": 4, "leaf": 0.000395652809}]}, {"nodeid": 2, "depth": 1, "split": "f106", "split_condition": 0.170357138, "yes": 5, "no": 6, "missing": 6, "children": [{"nodeid": 5, "leaf": 0.000130402317}, {"nodeid": 6, "depth": 2, "split": "f1", "split_condition": -0.145999998, "yes": 9, "no": 10, "missing": 10, "children": [{"nodeid": 9, "leaf": 0.000397380616}, {"nodeid": 10, "leaf": 0.00141686969}]}]}]}, {"nodeid": 0, "depth": 0, "split": "f61", "split_condition": 0.280000001, "yes": 1, "no": 2, "missing": 2, "children": [{"nodeid": 1, "depth": 1, "split": "f130", "split_condition": 1, "yes": 3, "no": 4, "missing": 4, "children": [{"nodeid": 3, "depth": 2, "split": "f41", "split_condition": 0.533333361, "yes": 7, "no": 8, "missing": 8, "children": [{"nodeid": 7, "depth": 3, "split": "f49", "split_condition": 0.152322918, "yes": 11, "no": 12, "missing": 12, "children": [{"nodeid": 11, "leaf": -0.000719937903}, {"nodeid": 12, "leaf": -0.000242394162}]}, {"nodeid": 8, "leaf": 0.000189852333}]}, {"nodeid": 4, "depth": 2, "split": "f0", "split_condition": 0.148614869, "yes": 9, "no": 10, "missing": 10, "children": [{"nodeid": 9, "leaf": 0}, {"nodeid": 10, "leaf": 0.000384377199}]}]}, {"nodeid": 2, "depth": 1, "split": "f8", "split_condition": 0.193749994, "yes": 5, "no": 6, "missing": 6, "children": [{"nodeid": 5, "leaf": 0.00138853258}, {"nodeid": 6, "leaf": 0.000427304971}]}]}, {"nodeid": 0, "depth": 0, "split": "f0", "split_condition": 0.129212916, "yes": 1, "no": 2, "missing": 2, "children": [{"nodeid": 1, "depth": 1, "split": "f77", "split_condition": 0.26699999, "yes": 3, "no": 4, "missing": 4, "children": [{"nodeid": 3, "depth": 2, "split": "f0", "split_condition": 0.102110215, "yes": 7, "no": 8, "missing": 8, "children": [{"nodeid": 7, "leaf": -0.000769329956}, {"nodeid": 8, "leaf": -0.000235376021}]}, {"nodeid": 4, "leaf": 0}]}, {"nodeid": 2, "depth": 1, "split": "f141", "split_condition": 0.400000006, "yes": 5, "no": 6, "missing": 6, "children": [{"nodeid": 5, "depth": 2, "split": "f5", "split_condition": 0.304250002, "yes": 9, "no": 10, "missing": 10, "children": [{"nodeid": 9, "depth": 3, "split": "f23", "split_condition": 0.461538464, "yes": 13, "no": 14, "missing": 14, "children": [{"nodeid": 13, "leaf": -0.000508395664}, {"nodeid": 14, "leaf": -9.69510438e-07}]}, {"nodeid": 10, "leaf": 0.000229482117}]}, {"nodeid": 6, "depth": 2, "split": "f96", "split_condition": 0.5, "yes": 11, "no": 12, "missing": 12, "children": [{"nodeid": 11, "leaf": 0.000342360145}, {"nodeid": 12, "leaf": 0.000943641702}]}]}]}, {"nodeid": 0, "depth": 0, "split": "f61", "split_condition": 0.280000001, "yes": 1, "no": 2, "missing": 2, "children": [{"nodeid": 1, "depth": 1, "split": "f7", "split_condition": 0.242769226, "yes": 3, "no": 4, "missing": 4, "children": [{"nodeid": 3, "depth": 2, "split": "f79", "split_condition": 0.412999988, "yes": 7, "no": 8, "missing": 8, "children": [{"nodeid": 7, "leaf": -0.000154717549}, {"nodeid": 8, "depth": 3, "split": "f38", "split_condition": 0.665416539, "yes": 11, "no": 12, "missing": 12, "children": [{"nodeid": 11, "leaf": -0.00073568814}, {"nodeid": 12, "leaf": -0.000209399543}]}]}, {"nodeid": 4, "depth": 2, "split": "f106", "split_condition": 0.126642853, "yes": 9, "no": 10, "missing": 10, "children": [{"nodeid": 9, "depth": 3, "split": "f81", "split_condition": 1, "yes": 13, "no": 14, "missing": 14, "children": [{"nodeid": 13, "leaf": 5.07803743e-05}, {"nodeid": 14, "leaf": -0.000397223921}]}, {"nodeid": 10, "leaf": 0.000285333401}]}]}, {"nodeid": 2, "depth": 1, "split": "f78", "split_condition": 0.166999996, "yes": 5, "no": 6, "missing": 6, "children": [{"nodeid": 5, "leaf": 0.00134790211}, {"nodeid": 6, "leaf": 0.000405685103}]}]}, {"nodeid": 0, "depth": 0, "split": "f61", "split_condition": 0.280000001, "yes": 1, "no": 2, "missing": 2, "children": [{"nodeid": 1, "depth": 1, "split": "f7", "split_condition": 0.242769226, "yes": 3, "no": 4, "missing": 4, "children": [{"nodeid": 3, "depth": 2, "split": "f4", "split_condition": 0.300000012, "yes": 7, "no": 8, "missing": 8, "children": [{"nodeid": 7, "depth": 3, "split": "f6", "split_condition": 0.764705896, "yes": 11, "no": 12, "missing": 12, "children": [{"nodeid": 11, "leaf": -0.000158618132}, {"nodeid": 12, "leaf": 0}]}, {"nodeid": 8, "leaf": -0.000557001855}]}, {"nodeid": 4, "depth": 2, "split": "f93", "split_condition": 0.328000009, "yes": 9, "no": 10, "missing": 10, "children": [{"nodeid": 9, "depth": 3, "split": "f76", "split_condition": 0.250999987, "yes": 13, "no": 14, "missing": 14, "children": [{"nodeid": 13, "leaf": -0.000252541737}, {"nodeid": 14, "leaf": 3.74054907e-05}]}, {"nodeid": 10, "leaf": 0.000269704702}]}]}, {"nodeid": 2, "depth": 1, "split": "f6", "split_condition": 0.882352948, "yes": 5, "no": 6, "missing": 6, "children": [{"nodeid": 5, "leaf": 0.00132094405}, {"nodeid": 6, "leaf": 0.000400476158}]}]}, {"nodeid": 0, "depth": 0, "split": "f5", "split_condition": 0.304250002, "yes": 1, "no": 2, "missing": 2, "children": [{"nodeid": 1, "depth": 1, "split": "f78", "split_condition": 0.375, "yes": 3, "no": 4, "missing": 4, "children": [{"nodeid": 3, "depth": 2, "split": "f96", "split_condition": 0.329333335, "yes": 7, "no": 8, "missing": 8, "children": [{"nodeid": 7, "depth": 3, "split": "f8", "split_condition": 0.0324999988, "yes": 15, "no": 16, "missing": 16, "children": [{"nodeid": 15, "leaf": -0.000296602375}, {"nodeid": 16, "leaf": 2.77990584e-05}]}, {"nodeid": 8, "depth": 3, "split": "f13", "split_condition": 0.354999989, "yes": 17, "no": 18, "missing": 18, "children": [{"nodeid": 17, "leaf": -0.000234554507}, {"nodeid": 18, "leaf": -0.000858972198}]}]}, {"nodeid": 4, "depth": 2, "split": "f4", "split_condition": 0.200000003, "yes": 9, "no": 10, "missing": 10, "children": [{"nodeid": 9, "leaf": 0.000285713439}, {"nodeid": 10, "leaf": -0.000167722435}]}]}, {"nodeid": 2, "depth": 1, "split": "f97", "split_condition": 0.47633332, "yes": 5, "no": 6, "missing": 6, "children": [{"nodeid": 5, "depth": 2, "split": "f106", "split_condition": 0.119785711, "yes": 11, "no": 12, "missing": 12, "children": [{"nodeid": 11, "leaf": -3.89678789e-05}, {"nodeid": 12, "leaf": 0.000238375345}]}, {"nodeid": 6, "depth": 2, "split": "f1", "split_condition": -0.104000002, "yes": 13, "no": 14, "missing": 14, "children": [{"nodeid": 13, "leaf": 0.000384176994}, {"nodeid": 14, "leaf": 0.00129452499}]}]}]}, {"nodeid": 0, "depth": 0, "split": "f5", "split_condition": 0.403250009, "yes": 1, "no": 2, "missing": 2, "children": [{"nodeid": 1, "depth": 1, "split": "f23", "split_condition": 0.577777803, "yes": 3, "no": 4, "missing": 4, "children": [{"nodeid": 3, "depth": 2, "split": "f13", "split_condition": 0.328500003, "yes": 7, "no": 8, "missing": 8, "children": [{"nodeid": 7, "depth": 3, "split": "f24", "split_condition": 0.270833343, "yes": 11, "no": 12, "missing": 12, "children": [{"nodeid": 11, "leaf": -0.000357140379}, {"nodeid": 12, "leaf": 0}]}, {"nodeid": 8, "depth": 3, "split": "f9", "split_condition": 0.5, "yes": 13, "no": 14, "missing": 14, "children": [{"nodeid": 13, "leaf": -0.000841530098}, {"nodeid": 14, "leaf": -0.000121124285}]}]}, {"nodeid": 4, "leaf": 8.3863466e-05}]}, {"nodeid": 2, "depth": 1, "split": "f78", "split_condition": 0.166999996, "yes": 5, "no": 6, "missing": 6, "children": [{"nodeid": 5, "leaf": 0.00110041199}, {"nodeid": 6, "depth": 2, "split": "f4", "split_condition": 0.5, "yes": 9, "no": 10, "missing": 10, "children": [{"nodeid": 9, "leaf": 0.000382676866}, {"nodeid": 10, "leaf": 0}]}]}]}, {"nodeid": 0, "depth": 0, "split": "f7", "split_condition": 0.444000006, "yes": 1, "no": 2, "missing": 2, "children": [{"nodeid": 1, "depth": 1, "split": "f59", "split_condition": 0.875, "yes": 3, "no": 4, "missing": 4, "children": [{"nodeid": 3, "depth": 2, "split": "f92", "split_condition": -0.0913903564, "yes": 7, "no": 8, "missing": 8, "children": [{"nodeid": 7, "leaf": -0.000195093104}, {"nodeid": 8, "depth": 3, "split": "f67", "split_condition": 0.625, "yes": 11, "no": 12, "missing": 12, "children": [{"nodeid": 11, "leaf": 2.39090768e-05}, {"nodeid": 12, "leaf": 0.000257370615}]}]}, {"nodeid": 4, "depth": 2, "split": "f136", "split_condition": 0.20645, "yes": 9, "no": 10, "missing": 10, "children": [{"nodeid": 9, "depth": 3, "split": "f3", "split_condition": 0.266666681, "yes": 13, "no": 14, "missing": 14, "children": [{"nodeid": 13, "leaf": -0.00091514556}, {"nodeid": 14, "leaf": -0.000340192259}]}, {"nodeid": 10, "leaf": 7.01570825e-05}]}]}, {"nodeid": 2, "depth": 1, "split": "f20", "split_condition": 0.244444445, "yes": 5, "no": 6, "missing": 6, "children": [{"nodeid": 5, "leaf": 0.00010120972}, {"nodeid": 6, "leaf": 0.000753924542}]}]}, {"nodeid": 0, "depth": 0, "split": "f5", "split_condition": 0.304250002, "yes": 1, "no": 2, "missing": 2, "children": [{"nodeid": 1, "depth": 1, "split": "f91", "split_condition": 0.112670787, "yes": 3, "no": 4, "missing": 4, "children": [{"nodeid": 3, "depth": 2, "split": "f49", "split_condition": 0.152322918, "yes": 7, "no": 8, "missing": 8, "children": [{"nodeid": 7, "leaf": -0.000107754022}, {"nodeid": 8, "leaf": 0.000160400377}]}, {"nodeid": 4, "depth": 2, "split": "f13", "split_condition": 0.328500003, "yes": 9, "no": 10, "missing": 10, "children": [{"nodeid": 9, "depth": 3, "split": "f49", "split_condition": 0.0862632468, "yes": 13, "no": 14, "missing": 14, "children": [{"nodeid": 13, "leaf": -0.000398377713}, {"nodeid": 14, "leaf": -7.98118272e-05}]}, {"nodeid": 10, "leaf": -0.000804521318}]}]}, {"nodeid": 2, "depth": 1, "split": "f97", "split_condition": 0.493624985, "yes": 5, "no": 6, "missing": 6, "children": [{"nodeid": 5, "depth": 2, "split": "f79", "split_condition": 0.430999994, "yes": 11, "no": 12, "missing": 12, "children": [{"nodeid": 11, "leaf": -1.74675206e-05}, {"nodeid": 12, "leaf": 0.000338028447}]}, {"nodeid": 6, "leaf": 0.00123807462}]}]}, {"nodeid": 0, "depth": 0, "split": "f7", "split_condition": 0.44933334, "yes": 1, "no": 2, "missing": 2, "children": [{"nodeid": 1, "depth": 1, "split": "f59", "split_condition": 0.875, "yes": 3, "no": 4, "missing": 4, "children": [{"nodeid": 3, "depth": 2, "split": "f13", "split_condition": 0.181199998, "yes": 7, "no": 8, "missing": 8, "children": [{"nodeid": 7, "leaf": -0.000307011243}, {"nodeid": 8, "depth": 3, "split": "f0", "split_condition": 0.148614869, "yes": 13, "no": 14, "missing": 14, "children": [{"nodeid": 13, "leaf": 1.18156577e-05}, {"nodeid": 14, "leaf": 0.000280817854}]}]}, {"nodeid": 4, "depth": 2, "split": "f95", "split_condition": 0.621999979, "yes": 9, "no": 10, "missing": 10, "children": [{"nodeid": 9, "leaf": -0.000183162294}, {"nodeid": 10, "leaf": -0.000610439922}]}]}, {"nodeid": 2, "depth": 1, "split": "f106", "split_condition": 0.170357138, "yes": 5, "no": 6, "missing": 6, "children": [{"nodeid": 5, "leaf": 9.79506003e-05}, {"nodeid": 6, "depth": 2, "split": "f1", "split_condition": -0.145999998, "yes": 11, "no": 12, "missing": 12, "children": [{"nodeid": 11, "leaf": 0.000328726805}, {"nodeid": 12, "leaf": 0.00121331308}]}]}]}, {"nodeid": 0, "depth": 0, "split": "f5", "split_condition": 0.403250009, "yes": 1, "no": 2, "missing": 2, "children": [{"nodeid": 1, "depth": 1, "split": "f26", "split_condition": 0.207777783, "yes": 3, "no": 4, "missing": 4, "children": [{"nodeid": 3, "depth": 2, "split": "f91", "split_condition": 0.109743439, "yes": 7, "no": 8, "missing": 8, "children": [{"nodeid": 7, "depth": 3, "split": "f3", "split_condition": 0.200000003, "yes": 11, "no": 12, "missing": 12, "children": [{"nodeid": 11, "leaf": 2.80789245e-05}, {"nodeid": 12, "leaf": -0.000106011503}]}, {"nodeid": 8, "depth": 3, "split": "f9", "split_condition": 0.506461561, "yes": 13, "no": 14, "missing": 14, "children": [{"nodeid": 13, "leaf": -0.000561516499}, {"nodeid": 14, "leaf": -4.44799953e-05}]}]}, {"nodeid": 4, "leaf": 0.000352376723}]}, {"nodeid": 2, "depth": 1, "split": "f5", "split_condition": 0.42050001, "yes": 5, "no": 6, "missing": 6, "children": [{"nodeid": 5, "leaf": 0.00118904677}, {"nodeid": 6, "depth": 2, "split": "f8", "split_condition": 0.217250004, "yes": 9, "no": 10, "missing": 10, "children": [{"nodeid": 9, "leaf": 9.82433194e-05}, {"nodeid": 10, "leaf": 0.000356093311}]}]}]}, {"nodeid": 0, "depth": 0, "split": "f25", "split_condition": 0.200000003, "yes": 1, "no": 2, "missing": 2, "children": [{"nodeid": 1, "depth": 1, "split": "f0", "split_condition": 0.102110215, "yes": 3, "no": 4, "missing": 4, "children": [{"nodeid": 3, "depth": 2, "split": "f77", "split_condition": 0.26699999, "yes": 7, "no": 8, "missing": 8, "children": [{"nodeid": 7, "depth": 3, "split": "f38", "split_condition": 0.665416539, "yes": 11, "no": 12, "missing": 12, "children": [{"nodeid": 11, "leaf": -0.00075479137}, {"nodeid": 12, "leaf": -0.000226526361}]}, {"nodeid": 8, "leaf": -3.79834091e-05}]}, {"nodeid": 4, "depth": 2, "split": "f37", "split_condition": 0.43599999, "yes": 9, "no": 10, "missing": 10, "children": [{"nodeid": 9, "leaf": -0.000378355151}, {"nodeid": 10, "depth": 3, "split": "f13", "split_condition": 0.36559999, "yes": 13, "no": 14, "missing": 14, "children": [{"nodeid": 13, "leaf": -5.11617109e-05}, {"nodeid": 14, "leaf": 0.000242348338}]}]}]}, {"nodeid": 2, "depth": 1, "split": "f0", "split_condition": 0.159315929, "yes": 5, "no": 6, "missing": 6, "children": [{"nodeid": 5, "leaf": 0.000932421011}, {"nodeid": 6, "leaf": 0.000244191324}]}]}, {"nodeid": 0, "depth": 0, "split": "f5", "split_condition": 0.274250001, "yes": 1, "no": 2, "missing": 2, "children": [{"nodeid": 1, "depth": 1, "split": "f67", "split_condition": 0.536000013, "yes": 3, "no": 4, "missing": 4, "children": [{"nodeid": 3, "depth": 2, "split": "f49", "split_condition": 0.152322918, "yes": 7, "no": 8, "missing": 8, "children": [{"nodeid": 7, "depth": 3, "split": "f2", "split_condition": -0.0217000004, "yes": 13, "no": 14, "missing": 14, "children": [{"nodeid": 13, "leaf": -0.000736388087}, {"nodeid": 14, "leaf": -0.000163536693}]}, {"nodeid": 8, "leaf": -4.9140901e-05}]}, {"nodeid": 4, "depth": 2, "split": "f1", "split_condition": 0.220500007, "yes": 9, "no": 10, "missing": 10, "children": [{"nodeid": 9, "leaf": -0.000103434708}, {"nodeid": 10, "leaf": 0.000178879753}]}]}, {"nodeid": 2, "depth": 1, "split": "f78", "split_condition": 0.166999996, "yes": 5, "no": 6, "missing": 6, "children": [{"nodeid": 5, "leaf": 0.000997036579}, {"nodeid": 6, "depth": 2, "split": "f40", "split_condition": 1, "yes": 11, "no": 12, "missing": 12, "children": [{"nodeid": 11, "leaf": 0.000391087175}, {"nodeid": 12, "leaf": 7.15449496e-05}]}]}]}, {"nodeid": 0, "depth": 0, "split": "f96", "split_condition": 0.50666666, "yes": 1, "no": 2, "missing": 2, "children": [{"nodeid": 1, "depth": 1, "split": "f0", "split_condition": 0.0935093537, "yes": 3, "no": 4, "missing": 4, "children": [{"nodeid": 3, "depth": 2, "split": "f2", "split_condition": -0.0217000004, "yes": 5, "no": 6, "missing": 6, "children": [{"nodeid": 5, "leaf": -0.000627139234}, {"nodeid": 6, "leaf": -0.000176672998}]}, {"nodeid": 4, "depth": 2, "split": "f92", "split_condition": -0.0150093809, "yes": 7, "no": 8, "missing": 8, "children": [{"nodeid": 7, "depth": 3, "split": "f41", "split_condition": 0.533333361, "yes": 9, "no": 10, "missing": 10, "children": [{"nodeid": 9, "leaf": 