{"model_type": "xgboost_tier_specific", "tier": "tier1", "test_year": 2025, "train_years_list": [2021, 2022, 2023, 2024], "mae_ktc": 522.1623552704684, "signed_error": -50.78542049072123, "r2_score": 0.7853142463398761, "n_train_samples": 79, "n_test_samples": 23, "n_features": 148, "feature_names": ["start_ktc", "ktc_30d_trend", "ktc_90d_trend", "age_factor", "years_exp_normalized", "fp_normalized", "games_played_factor", "fp_per_game", "prior_fp_normalized", "prior_fp_per_game", "fp_per_game_change", "fp_change_yoy", "position_rank_normalized", "ktc_volatility", "is_breakout_candidate", "is_qb", "is_rb", "is_wr", "is_te", "receptions_normalized", "targets_normalized", "receiving_yards_normalized", "receiving_tds_normalized", "yards_per_target", "target_share", "carries_normalized", "rushing_yards_normalized", "rushing_tds_normalized", "yards_per_carry", "passing_yards_normalized", "passing_tds_normalized", "interceptions_normalized", "draft_round_value", "draft_pick_value", "age_fp_interaction", "cliff_years_penalty", "age_exp_gap", "snap_pct_normalized", "fp_per_snap", "elite_youth_premium", "fp_trajectory", "qb_td_int_ratio", "qb_rushing_bonus", "qb_age_premium", "qb_efficiency", "is_elite_tier", "elite_age_interaction", "elite_trajectory_interaction", "elite_volatility_dampener", "efficiency_volume", "workload_intensity", "td_conversion_rate", "trajectory_cliff_interaction", "draft_performance_ratio", "yoy_decline_severity", "games_played_collapse", "gap_year_penalty", "qb_age_cliff_40plus", "elite_partial_season_resilience", "career_prime_factor", "red_zone_targets_norm", "red_zone_touches_norm", "red_zone_efficiency_norm", "air_yards_normalized", "yac_normalized", "yac_per_rec_norm", "air_yards_per_tgt_norm", "drop_rate_normalized", "receiving_fd_norm", "rushing_fd_norm", "broken_tackles_norm", "rush_share_norm", "completion_rate_norm", "sack_rate_norm", "passing_fd_norm", "weekly_fp_cv", "momentum_ratio", "boom_rate", "bust_rate", "last_4_vs_season", "max_games_missed_streak", "ktc_weekly_volatility", "team_pass_factor", "team_rush_factor", "opportunity_ceiling", "rush_opportunity", "team_volume_combined", "snap_trend", "snap_collapse", "snap_consistency", "ktc_trend_acceleration", "mid_season_correction", "ktc_momentum", "pff_grade_normalized", "pff_has_data", "pff_grade_confidence", "pff_position_grade", "pff_grade_divergence", "pff_grade_trajectory", "pff_wr_separation", "pff_wr_contested_catch", "pff_rb_elusive_rating", "pff_rb_receiving_grade", "pff_qb_accuracy", "pff_qb_pressure_grade", "pff_grade_volatility", "pff_youth_premium", "pff_decline_alert", "pff_grade_snap_divergence", "pff_elite_indicator", "pff_bust_risk", "pff_breakout_probability", "pff_dynasty_score", "veteran_decline_risk", "rb_age_penalty", "wr_te_age_penalty", "age_31_plus_flag", "age_decline_signal", "value_depreciation_risk", "veteran_with_declining_fp", "mid_tier_depreciation_signal", "snap_pct_decline", "starter_to_backup_risk", "mid_tier_regression_factor", "qb_stability_premium", "qb_scarcity_factor", "rb_accelerated_decline", "position_cliff_multiplier", "elite_young_upside", "elite_momentum_amplifier", "breakout_trajectory", "tier2_hope_discount", "non_starter_depreciation", "one_hit_wonder_risk", "peak_season_risk", "buy_low_recovery", "te_upside_amplifier", "te_elite_ceiling", "te_breakout_indicator", "breakout_potential_ceiling", "rookie_draft_capital_ceiling", "momentum_ceiling_amplifier", "young_elite_ceiling_boost", "career_trajectory_boost", "veteran_steep_decline", "veteran_qb_cliff", "aging_value_compression", "position_age_interaction"], "ensemble_weights": {"xgboost": 0.4, "lightgbm": 0.6}, "xgboost_model": {"n_estimators": 400, "base_score": 0.6808226, "trees": [{"nodeid": 0, "depth": 0, "split": "f5", "split_condition": 0.590250015, "yes": 1, "no": 2, "missing": 2, "children": [{"nodeid": 1, "depth": 1, "split": "f90", "split_condition": 0.0605200939, "yes": 3, "no": 4, "missing": 4, "children": [{"nodeid": 3, "depth": 2, "split": "f93", "split_condition": 0.65866667, "yes": 7, "no": 8, "missing": 8, "children": [{"nodeid": 7, "depth": 3, "split": "f44", "split_condition": 0.0573714301, "yes": 15, "no": 16, "missing": 16, "children": [{"nodeid": 15, "leaf": -0.00345370523}, {"nodeid": 16, "leaf": -0.0004639689}]}, {"nodeid": 8, "leaf": 0.000288150914}]}, {"nodeid": 4, "depth": 2, "split": "f6", "split_condition": 0.823529422, "yes": 9, "no": 10, "missing": 10, "children": [{"nodeid": 9, "leaf": 0.000211110906}, {"nodeid": 10, "leaf": 0.0011361998}]}]}, {"nodeid": 2, "depth": 1, "split": "f139", "split_condition": 0.0781078264, "yes": 5, "no": 6, "missing": 6, "children": [{"nodeid": 5, "depth": 2, "split": "f37", "split_condition": 0.97299999, "yes": 11, "no": 12, "missing": 12, "children": [{"nodeid": 11, "depth": 3, "split": "f141", "split_condition": 0.174539119, "yes": 17, "no": 18, "missing": 18, "children": [{"nodeid": 17, "leaf": -0.000349069218}, {"nodeid": 18, "leaf": 0.00140761118}]}, {"nodeid": 12, "leaf": 0.00221585063}]}, {"nodeid": 6, "depth": 2, "split": "f79", "split_condition": 0.564999998, "yes": 13, "no": 14, "missing": 14, "children": [{"nodeid": 13, "leaf": 0.00583194802}, {"nodeid": 14, "leaf": 8.37532789e-05}]}]}]}, {"nodeid": 0, "depth": 0, "split": "f5", "split_condition": 0.590250015, "yes": 1, "no": 2, "missing": 2, "children": [{"nodeid": 1, "depth": 1, "split": "f139", "split_condition": 0.00267757941, "yes": 3, "no": 4, "missing": 4, "children": [{"nodeid": 3, "depth": 2, "split": "f41", "split_condition": 0.454545468, "yes": 7, "no": 8, "missing": 8, "children": [{"nodeid": 7, "depth": 3, "split": "f93", "split_condition": 0.344000012, "yes": 15, "no": 16, "missing": 16, "children": [{"nodeid": 15, "leaf": -0.00125931355}, {"nodeid": 16, "leaf": -0.00377666275}]}, {"nodeid": 8, "leaf": -0.000224461342}]}, {"nodeid": 4, "depth": 2, "split": "f1", "split_condition": -0.0617000014, "yes": 9, "no": 10, "missing": 10, "children": [{"nodeid": 9, "leaf": -0.0010469259}, {"nodeid": 10, "leaf": 0.000757684174}]}]}, {"nodeid": 2, "depth": 1, "split": "f139", "split_condition": 0.0781078264, "yes": 5, "no": 6, "missing": 6, "children": [{"nodeid": 5, "depth": 2, "split": "f51", "split_condition": 0.0612244904, "yes": 11, "no": 12, "missing": 12, "children": [{"nodeid": 11, "depth": 3, "split": "f77", "split_condition": 0.175999999, "yes": 17, "no": 18, "missing": 18, "children": [{"nodeid": 17, "leaf": 0.000248873141}, {"nodeid": 18, "leaf": 0.00190996751}]}, {"nodeid": 12, "leaf": -0.000815675128}]}, {"nodeid": 6, "depth": 2, "split": "f75", "split_condition": 0.499000013, "yes": 13, "no": 14, "missing": 14, "children": [{"nodeid": 13, "depth": 3, "split": "f40", "split_condition": 0.56220001, "yes": 19, "no": 20, "missing": 20, "children": [{"nodeid": 19, "leaf": 0.00528711267}, {"nodeid": 20, "leaf": 0.00178987614}]}, {"nodeid": 14, "leaf": -0.000899142062}]}]}]}, {"nodeid": 0, "depth": 0, "split": "f92", "split_condition": -0.0232558139, "yes": 1, "no": 2, "missing": 2, "children": [{"nodeid": 1, "depth": 1, "split": "f0", "split_condition": 0.749774992, "yes": 3, "no": 4, "missing": 4, "children": [{"nodeid": 3, "depth": 2, "split": "f5", "split_condition": 0.578249991, "yes": 7, "no": 8, "missing": 8, "children": [{"nodeid": 7, "leaf": -0.00333864801}, {"nodeid": 8, "leaf": -0.00123820466}]}, {"nodeid": 4, "leaf": 0.0001226475}]}, {"nodeid": 2, "depth": 1, "split": "f92", "split_condition": 0.25648436, "yes": 5, "no": 6, "missing": 6, "children": [{"nodeid": 5, "depth": 2, "split": "f7", "split_condition": 0.729090929, "yes": 9, "no": 10, "missing": 10, "children": [{"nodeid": 9, "depth": 3, "split": "f49", "split_condition": 0.601763844, "yes": 11, "no": 12, "missing": 12, "children": [{"nodeid": 11, "leaf": 0.000688291271}, {"nodeid": 12, "leaf": -0.000704263977}]}, {"nodeid": 10, "depth": 3, "split": "f90", "split_condition": -0.026457984, "yes": 13, "no": 14, "missing": 14, "children": [{"nodeid": 13, "leaf": 5.41631016e-05}, {"nodeid": 14, "leaf": 0.00231480505}]}]}, {"nodeid": 6, "leaf": 0.00478295377}]}]}, {"nodeid": 0, "depth": 0, "split": "f39", "split_condition": 0.0503040813, "yes": 1, "no": 2, "missing": 2, "children": [{"nodeid": 1, "depth": 1, "split": "f90", "split_condition": 0.0269017704, "yes": 3, "no": 4, "missing": 4, "children": [{"nodeid": 3, "depth": 2, "split": "f0", "split_condition": 0.733073294, "yes": 7, "no": 8, "missing": 8, "children": [{"nodeid": 7, "depth": 3, "split": "f97", "split_condition": 0.377958328, "yes": 13, "no": 14, "missing": 14, "children": [{"nodeid": 13, "leaf": -0.000477971946}, {"nodeid": 14, "leaf": -0.00297608064}]}, {"nodeid": 8, "depth": 3, "split": "f80", "split_condition": 0.118000001, "yes": 15, "no": 16, "missing": 16, "children": [{"nodeid": 15, "leaf": -0.000518991495}, {"nodeid": 16, "leaf": 0.000319858955}]}]}, {"nodeid": 4, "depth": 2, "split": "f1", "split_condition": 0.0309999995, "yes": 9, "no": 10, "missing": 10, "children": [{"nodeid": 9, "depth": 3, "split": "f132", "split_condition": 0.100000001, "yes": 17, "no": 18, "missing": 18, "children": [{"nodeid": 17, "leaf": 0.0017400356}, {"nodeid": 18, "leaf": 0.000201606643}]}, {"nodeid": 10, "leaf": -0.00210257433}]}]}, {"nodeid": 2, "depth": 1, "split": "f76", "split_condition": 0.589999974, "yes": 5, "no": 6, "missing": 6, "children": [{"nodeid": 5, "depth": 2, "split": "f76", "split_condition": 0.432999998, "yes": 11, "no": 12, "missing": 12, "children": [{"nodeid": 11, "depth": 3, "split": "f25", "split_condition": 0.222857147, "yes": 19, "no": 20, "missing": 20, "children": [{"nodeid": 19, "leaf": 0.00208884664}, {"nodeid": 20, "leaf": 0.000421653705}]}, {"nodeid": 12, "depth": 3, "split": "f2", "split_condition": 0.00319999992, "yes": 21, "no": 22, "missing": 22, "children": [{"nodeid": 21, "leaf": 0.00537792919}, {"nodeid": 22, "leaf": 0.00186955836}]}]}, {"nodeid": 6, "leaf": -0.000804356416}]}]}, {"nodeid": 0, "depth": 0, "split": "f92", "split_condition": -0.0232558139, "yes": 1, "no": 2, "missing": 2, "children": [{"nodeid": 1, "depth": 1, "split": "f0", "split_condition": 0.733073294, "yes": 3, "no": 4, "missing": 4, "children": [{"nodeid": 3, "depth": 2, "split": "f5", "split_condition": 0.578249991, "yes": 7, "no": 8, "missing": 8, "children": [{"nodeid": 7, "depth": 3, "split": "f10", "split_condition": -0.0874666646, "yes": 15, "no": 16, "missing": 16, "children": [{"nodeid": 15, "leaf": -0.00425761892}, {"nodeid": 16, "leaf": -0.00240208907}]}, {"nodeid": 8, "leaf": -0.00128661783}]}, {"nodeid": 4, "depth": 2, "split": "f1", "split_condition": 0.0175000001, "yes": 9, "no": 10, "missing": 10, "children": [{"nodeid": 9, "leaf": 0.000384990039}, {"nodeid": 10, "leaf": -0.000423249701}]}]}, {"nodeid": 2, "depth": 1, "split": "f39", "split_condition": 0.19815217, "yes": 5, "no": 6, "missing": 6, "children": [{"nodeid": 5, "depth": 2, "split": "f0", "split_condition": 0.610461056, "yes": 11, "no": 12, "missing": 12, "children": [{"nodeid": 11, "depth": 3, "split": "f0", "split_condition": 0.605560541, "yes": 17, "no": 18, "missing": 18, "children": [{"nodeid": 17, "leaf": 0.000262123329}, {"nodeid": 18, "leaf": -0.00119481923}]}, {"nodeid": 12, "depth": 3, "split": "f92", "split_condition": 0.0234598387, "yes": 19, "no": 20, "missing": 20, "children": [{"nodeid": 19, "leaf": 0}, {"nodeid": 20, "leaf": 0.00223273947}]}]}, {"nodeid": 6, "depth": 2, "split": "f10", "split_condition": 0.208282351, "yes": 13, "no": 14, "missing": 14, "children": [{"nodeid": 13, "leaf": 0.00518839573}, {"nodeid": 14, "leaf": 0.00184079597}]}]}]}, {"nodeid": 0, "depth": 0, "split": "f92", "split_condition": -0.0232558139, "yes": 1, "no": 2, "missing": 2, "children": [{"nodeid": 1, "depth": 1, "split": "f0", "split_condition": 0.749774992, "yes": 3, "no": 4, "missing": 4, "children": [{"nodeid": 3, "depth": 2, "split": "f5", "split_condition": 0.578249991, "yes": 7, "no": 8, "missing": 8, "children": [{"nodeid": 7, "leaf": -0.003246604}, {"nodeid": 8, "leaf": -0.0012151734}]}, {"nodeid": 4, "leaf": 0.00011329681}]}, {"nodeid": 2, "depth": 1, "split": "f39", "split_condition": 0.19815217, "yes": 5, "no": 6, "missing": 6, "children": [{"nodeid": 5, "depth": 2, "split": "f0", "split_condition": 0.610461056, "yes": 9, "no": 10, "missing": 10, "children": [{"nodeid": 9, "depth": 3, "split": "f0", "split_condition": 0.605560541, "yes": 11, "no": 12, "missing": 12, "children": [{"nodeid": 11, "leaf": 0.00025854868}, {"nodeid": 12, "leaf": -0.00117241603}]}, {"nodeid": 10, "depth": 3, "split": "f92", "split_condition": 0.0412658788, "yes": 13, "no": 14, "missing": 14, "children": [{"nodeid": 13, "leaf": 0.000406199368}, {"nodeid": 14, "leaf": 0.00239305827}]}]}, {"nodeid": 6, "leaf": 0.00442645466}]}]}, {"nodeid": 0, "depth": 0, "split": "f92", "split_condition": -0.0113247214, "yes": 1, "no": 2, "missing": 2, "children": [{"nodeid": 1, "depth": 1, "split": "f0", "split_condition": 0.749774992, "yes": 3, "no": 4, "missing": 4, "children": [{"nodeid": 3, "depth": 2, "split": "f21", "split_condition": 0.599444449, "yes": 7, "no": 8, "missing": 8, "children": [{"nodeid": 7, "depth": 3, "split": "f97", "split_condition": 0.383875012, "yes": 13, "no": 14, "missing": 14, "children": [{"nodeid": 13, "leaf": -0.000897811726}, {"nodeid": 14, "leaf": -0.00358493137}]}, {"nodeid": 8, "leaf": -0.00101216056}]}, {"nodeid": 4, "depth": 2, "split": "f75", "split_condition": 0.423000008, "yes": 9, "no": 10, "missing": 10, "children": [{"nodeid": 9, "leaf": -0.00036305}, {"nodeid": 10, "leaf": 0.000430910586}]}]}, {"nodeid": 2, "depth": 1, "split": "f39", "split_condition": 0.19815217, "yes": 5, "no": 6, "missing": 6, "children": [{"nodeid": 5, "depth": 2, "split": "f118", "split_condition": 0.0620922074, "yes": 11, "no": 12, "missing": 12, "children": [{"nodeid": 11, "leaf": -0.00106820196}, {"nodeid": 12, "depth": 3, "split": "f112", "split_condition": 0.511314273, "yes": 15, "no": 16, "missing": 16, "children": [{"nodeid": 15, "leaf": 0.000961543701}, {"nodeid": 16, "leaf": 0.00309883407}]}]}, {"nodeid": 6, "leaf": 0.00496345432}]}]}, {"nodeid": 0, "depth": 0, "split": "f7", "split_condition": 0.729600012, "yes": 1, "no": 2, "missing": 2, "children": [{"nodeid": 1, "depth": 1, "split": "f11", "split_condition": 0.307133347, "yes": 3, "no": 4, "missing": 4, "children": [{"nodeid": 3, "depth": 2, "split": "f81", "split_condition": 0.252999991, "yes": 7, "no": 8, "missing": 8, "children": [{"nodeid": 7, "depth": 3, "split": "f7", "split_condition": 0.568799973, "yes": 15, "no": 16, "missing": 16, "children": [{"nodeid": 15, "leaf": -0.000794056978}, {"nodeid": 16, "leaf": -8.4774445e-05}]}, {"nodeid": 8, "depth": 3, "split": "f0", "split_condition": 0.732173204, "yes": 17, "no": 18, "missing": 18, "children": [{"nodeid": 17, "leaf": -0.00353702041}, {"nodeid": 18, "leaf": -0.000713279005}]}]}, {"nodeid": 4, "depth": 2, "split": "f37", "split_condition": 0.643999994, "yes": 9, "no": 10, "missing": 10, "children": [{"nodeid": 9, "leaf": -0.0017536853}, {"nodeid": 10, "depth": 3, "split": "f137", "split_condition": 0.239999995, "yes": 19, "no": 20, "missing": 20, "children": [{"nodeid": 19, "leaf": -5.38199347e-05}, {"nodeid": 20, "leaf": 0.00155298528}]}]}]}, {"nodeid": 2, "depth": 1, "split": "f39", "split_condition": 0.150433168, "yes": 5, "no": 6, "missing": 6, "children": [{"nodeid": 5, "depth": 2, "split": "f37", "split_condition": 0.851000011, "yes": 11, "no": 12, "missing": 12, "children": [{"nodeid": 11, "depth": 3, "split": "f81", "split_condition": 0.301999986, "yes": 21, "no": 22, "missing": 22, "children": [{"nodeid": 21, "leaf": 0.000756380206}, {"nodeid": 22, "leaf": -0.00121906982}]}, {"nodeid": 12, "leaf": 0.0022946219}]}, {"nodeid": 6, "depth": 2, "split": "f10", "split_condition": 0.208282351, "yes": 13, "no": 14, "missing": 14, "children": [{"nodeid": 13, "leaf": 0.00487600267}, {"nodeid": 14, "leaf": 0.00166801584}]}]}]}, {"nodeid": 0, "depth": 0, "split": "f92", "split_condition": -0.0215261877, "yes": 1, "no": 2, "missing": 2, "children": [{"nodeid": 1, "depth": 1, "split": "f0", "split_condition": 0.749774992, "yes": 3, "no": 4, "missing": 4, "children": [{"nodeid": 3, "depth": 2, "split": "f5", "split_condition": 0.578249991, "yes": 7, "no": 8, "missing": 8, "children": [{"nodeid": 7, "leaf": -0.00297687738}, {"nodeid": 8, "leaf": -0.00123829301}]}, {"nodeid": 4, "depth": 2, "split": "f8", "split_condition": 0.318749994, "yes": 9, "no": 10, "missing": 10, "children": [{"nodeid": 9, "leaf": 0.000373053394}, {"nodeid": 10, "leaf": -0.000352868956}]}]}, {"nodeid": 2, "depth": 1, "split": "f39", "split_condition": 0.19815217, "yes": 5, "no": 6, "missing": 6, "children": [{"nodeid": 5, "depth": 2, "split": "f90", "split_condition": 0.0673920587, "yes": 11, "no": 12, "missing": 12, "children": [{"nodeid": 11, "depth": 3, "split": "f81", "split_condition": 0.488000005, "yes": 13, "no": 14, "missing": 14, "children": [{"nodeid": 13, "leaf": -0.000309190102}, {"nodeid": 14, "leaf": 0.00138320157}]}, {"nodeid": 12, "depth": 3, "split": "f67", "split_condition": 0.416999996, "yes": 15, "no": 16, "missing": 16, "children": [{"nodeid": 15, "leaf": 0.00314961863}, {"nodeid": 16, "leaf": 0.000786872697}]}]}, {"nodeid": 6, "leaf": 0.00484215422}]}]}, {"nodeid": 0, "depth": 0, "split": "f92", "split_condition": -0.0215261877, "yes": 1, "no": 2, "missing": 2, "children": [{"nodeid": 1, "depth": 1, "split": "f0", "split_condition": 0.733073294, "yes": 3, "no": 4, "missing": 4, "children": [{"nodeid": 3, "depth": 2, "split": "f5", "split_condition": 0.578249991, "yes": 7, "no": 8, "missing": 8, "children": [{"nodeid": 7, "depth": 3, "split": "f10", "split_condition": -0.0597857125, "yes": 13, "no": 14, "missing": 14, "children": [{"nodeid": 13, "leaf": -0.00364020886}, {"nodeid": 14, "leaf": -0.00177728094}]}, {"nodeid": 8, "leaf": -0.00114843517}]}, {"nodeid": 4, "depth": 2, "split": "f5", "split_condition": 0.629750013, "yes": 9, "no": 10, "missing": 10, "children": [{"nodeid": 9, "depth": 3, "split": "f2", "split_condition": 0.0291000009, "yes": 15, "no": 16, "missing": 16, "children": [{"nodeid": 15, "leaf": 0.000367966131}, {"nodeid": 16, "leaf": 0}]}, {"nodeid": 10, "leaf": -0.000572111341}]}]}, {"nodeid": 2, "depth": 1, "split": "f92", "split_condition": 0.25648436, "yes": 5, "no": 6, "missing": 6, "children": [{"nodeid": 5, "depth": 2, "split": "f0", "split_condition": 0.744174421, "yes": 11, "no": 12, "missing": 12, "children": [{"nodeid": 11, "depth": 3, "split": "f0", "split_condition": 0.609761, "yes": 17, "no": 18, "missing": 18, "children": [{"nodeid": 17, "leaf": -0.00062370114}, {"nodeid": 18, "leaf": 0.000791579019}]}, {"nodeid": 12, "leaf": 0.00313109788}]}, {"nodeid": 6, "leaf": 0.004669216}]}]}, {"nodeid": 0, "depth": 0, "split": "f92", "split_condition": -0.0215261877, "yes": 1, "no": 2, "missing": 2, "children": [{"nodeid": 1, "depth": 1, "split": "f0", "split_condition": 0.749774992, "yes": 3, "no": 4, "missing": 4, "children": [{"nodeid": 3, "depth": 2, "split": "f5", "split_condition": 0.724250019, "yes": 7, "no": 8, "missing": 8, "children": [{"nodeid": 7, "depth": 3, "split": "f8", "split_condition": 0.0384999998, "yes": 15, "no": 16, "missing": 16, "children": [{"nodeid": 15, "leaf": -0.00117879862}, {"nodeid": 16, "leaf": -0.00318018231}]}, {"nodeid": 8, "leaf": -0.000713860674}]}, {"nodeid": 4, "depth": 2, "split": "f75", "split_condition": 0.423000008, "yes": 9, "no": 10, "missing": 10, "children": [{"nodeid": 9, "leaf": -0.000344156666}, {"nodeid": 10, "leaf": 0.000406220846}]}]}, {"nodeid": 2, "depth": 1, "split": "f39", "split_condition": 0.19815217, "yes": 5, "no": 6, "missing": 6, "children": [{"nodeid": 5, "depth": 2, "split": "f0", "split_condition": 0.610461056, "yes": 11, "no": 12, "missing": 12, "children": [{"nodeid": 11, "depth": 3, "split": "f0", "split_condition": 0.605560541, "yes": 17, "no": 18, "missing": 18, "children": [{"nodeid": 17, "leaf": 0.000240419395}, {"nodeid": 18, "leaf": -0.00112840428}]}, {"nodeid": 12, "depth": 3, "split": "f11", "split_condition": 0.421999991, "yes": 19, "no": 20, "missing": 20, "children": [{"nodeid": 19, "leaf": 0.000122488229}, {"nodeid": 20, "leaf": 0.00212445273}]}]}, {"nodeid": 6, "depth": 2, "split": "f10", "split_condition": 0.208282351, "yes": 13, "no": 14, "missing": 14, "children": [{"nodeid": 13, "leaf": 0.0043424475}, {"nodeid": 14, "leaf": 0.0015376847}]}]}]}, {"nodeid": 0, "depth": 0, "split": "f92", "split_condition": -0.0215261877, "yes": 1, "no": 2, "missing": 2, "children": [{"nodeid": 1, "depth": 1, "split": "f0", "split_condition": 0.749774992, "yes": 3, "no": 4, "missing": 4, "children": [{"nodeid": 3, "depth": 2, "split": "f5", "split_condition": 0.724250019, "yes": 7, "no": 8, "missing": 8, "children": [{"nodeid": 7, "depth": 3, "split": "f24", "split_condition": 0.3125, "yes": 13, "no": 14, "missing": 14, "children": [{"nodeid": 13, "leaf": -0.00130032783}, {"nodeid": 14, "leaf": -0.00303350459}]}, {"nodeid": 8, "leaf": -0.000702387537}]}, {"nodeid": 4, "depth": 2, "split": "f2", "split_condition": 0.0291000009, "yes": 9, "no": 10, "missing": 10, "children": [{"nodeid": 9, "leaf": 0.000357409619}, {"nodeid": 10, "leaf": 0}]}]}, {"nodeid": 2, "depth": 1, "split": "f92", "split_condition": 0.25648436, "yes": 5, "no": 6, "missing": 6, "children": [{"nodeid": 5, "depth": 2, "split": "f0", "split_condition": 0.744174421, "yes": 11, "no": 12, "missing": 12, "children": [{"nodeid": 11, "depth": 3, "split": "f106", "split_condition": 0.0979047641, "yes": 15, "no": 16, "missing": 16, "children": [{"nodeid": 15, "leaf": -0.000666259381}, {"nodeid": 16, "leaf": 0.000801608432}]}, {"nodeid": 12, "leaf": 0.00293614226}]}, {"nodeid": 6, "leaf": 0.00440463331}]}]}, {"nodeid": 0, "depth": 0, "split": "f92", "split_condition": -0.0232558139, "yes": 1, "no": 2, "missing": 2, "children": [{"nodeid": 1, "depth": 1, "split": "f39", "split_condition": 0.000477734691, "yes": 3, "no": 4, "missing": 4, "children": [{"nodeid": 3, "depth": 2, "split": "f23", "split_condition": 0.612623274, "yes": 7, "no": 8, "missing": 8, "children": [{"nodeid": 7, "depth": 3, "split": "f93", "split_condition": 0.404000014, "yes": 15, "no": 16, "missing": 16, "children": [{"nodeid": 15, "leaf": -0.00126347248}, {"nodeid": 16, "leaf": -0.00330184097}]}, {"nodeid": 8, "leaf": -0.000727729581}]}, {"nodeid": 4, "depth": 2, "split": "f3", "split_condition": 0.200000003, "yes": 9, "no": 10, "missing": 10, "children": [{"nodeid": 9, "leaf": 3.53474279e-05}, {"nodeid": 10, "leaf": -0.00110188627}]}]}, {"nodeid": 2, "depth": 1, "split": "f91", "split_condition": 0.1096306, "yes": 5, "no": 6, "missing": 6, "children": [{"nodeid": 5, "depth": 2, "split": "f0", "split_condition": 0.610461056, "yes": 11, "no": 12, "missing": 12, "children": [{"nodeid": 11, "depth": 3, "split": "f0", "split_condition": 0.605560541, "yes": 17, "no": 18, "missing": 18, "children": [{"nodeid": 17, "leaf": 0.000226209362}, {"nodeid": 18, "leaf": -0.00111493829}]}, {"nodeid": 12, "depth": 3, "split": "f92", "split_condition": 0.0412658788, "yes": 19, "no": 20, "missing": 20, "children": [{"nodeid": 19, "leaf": 0.000162334007}, {"nodeid": 20, "leaf": 0.00161566772}]}]}, {"nodeid": 6, "depth": 2, "split": "f2", "split_condition": 0.0833000019, "yes": 13, "no": 14, "missing": 14, "children": [{"nodeid": 13, "leaf": 0.0045853327}, {"nodeid": 14, "leaf": 0.00127045054}]}]}]}, {"nodeid": 0, "depth": 0, "split": "f92", "split_condition": -0.0215261877, "yes": 1, "no": 2, "missing": 2, "children": [{"nodeid": 1, "depth": 1, "split": "f5", "split_condition": 0.575500011, "yes": 3, "no": 4, "missing": 4, "children": [{"nodeid": 3, "depth": 2, "split": "f10", "split_condition": -0.0906461552, "yes": 7, "no": 8, "missing": 8, "children": [{"nodeid": 7, "leaf": -0.00366299599}, {"nodeid": 8, "depth": 3, "split": "f0", "split_condition": 0.692969322, "yes": 15, "no": 16, "missing": 16, "children": [{"nodeid": 15, "leaf": -0.00197430653}, {"nodeid": 16, "leaf": -0.000495031709}]}]}, {"nodeid": 4, "depth": 2, "split": "f0", "split_condition": 0.733073294, "yes": 9, "no": 10, "missing": 10, "children": [{"nodeid": 9, "leaf": -0.00103612326}, {"nodeid": 10, "leaf": -1.32785399e-05}]}]}, {"nodeid": 2, "depth": 1, "split": "f39", "split_condition": 0.150433168, "yes": 5, "no": 6, "missing": 6, "children": [{"nodeid": 5, "depth": 2, "split": "f22", "split_condition": 0.200000003, "yes": 11, "no": 12, "missing": 12, "children": [{"nodeid": 11, "depth": 3, "split": "f92", "split_condition": 0.0412658788, "yes": 17, "no": 18, "missing": 18, "children": [{"nodeid": 17, "leaf": 0.000229224941}, {"nodeid": 18, "leaf": 0.00204187422}]}, {"nodeid": 12, "depth": 3, "split": "f0", "split_condition": 0.610461056, "yes": 19, "no": 20, "missing": 20, "children": [{"nodeid": 19, "leaf": -0.000978953671}, {"nodeid": 20, "leaf": 0.000360532315}]}]}, {"nodeid": 6, "depth": 2, "split": "f77", "split_condition": 0.063000001, "yes": 13, "no": 14, "missing": 14, "children": [{"nodeid": 13, "leaf": 0.00164495991}, {"nodeid": 14, "leaf": 0.00444293348}]}]}]}, {"nodeid": 0, "depth": 0, "split": "f92", "split_condition": -0.0215261877, "yes": 1, "no": 2, "missing": 2, "children": [{"nodeid": 1, "depth": 1, "split": "f10", "split_condition": -0.0597857125, "yes": 3, "no": 4, "missing": 4, "children": [{"nodeid": 3, "depth": 2, "split": "f5", "split_condition": 0.578249991, "yes": 7, "no": 8, "missing": 8, "children": [{"nodeid": 7, "leaf": -0.00314614433}, {"nodeid": 8, "leaf": -0.00114000333}]}, {"nodeid": 4, "depth": 2, "split": "f77", "split_condition": 0.175999999, "yes": 9, "no": 10, "missing": 10, "children": [{"nodeid": 9, "depth": 3, "split": "f13", "split_condition": 0.0417000018, "yes": 15, "no": 16, "missing": 16, "children": [{"nodeid": 15, "leaf": 0.000401496975}, {"nodeid": 16, "leaf": -0.000706704916}]}, {"nodeid": 10, "leaf": -0.00149926799}]}]}, {"nodeid": 2, "depth": 1, "split": "f11", "split_condition": 0.421999991, "yes": 5, "no": 6, "missing": 6, "children": [{"nodeid": 5, "depth": 2, "split": "f106", "split_condition": 0.0979047641, "yes": 11, "no": 12, "missing": 12, "children": [{"nodeid": 11, "leaf": -0.00073900586}, {"nodeid": 12, "depth": 3, "split": "f1", "split_condition": -0.0335000008, "yes": 17, "no": 18, "missing": 18, "children": [{"nodeid": 17, "leaf": 4.63488032e-05}, {"nodeid": 18, "leaf": 0.000302618922}]}]}, {"nodeid": 6, "depth": 2, "split": "f11", "split_condition": 0.666000009, "yes": 13, "no": 14, "missing": 14, "children": [{"nodeid": 13, "depth": 3, "split": "f6", "split_condition": 1, "yes": 19, "no": 20, "missing": 20, "children": [{"nodeid": 19, "leaf": 0.00161713292}, {"nodeid": 20, "leaf": 0.00446939887}]}, {"nodeid": 14, "depth": 3, "split": "f118", "split_condition": 0.0620922074, "yes": 21, "no": 22, "missing": 22, "children": [{"nodeid": 21, "leaf": -0.00101421692}, {"nodeid": 22, "leaf": 0.00115828856}]}]}]}]}, {"nodeid": 0, "depth": 0, "split": "f92", "split_condition": -0.0215261877, "yes": 1, "no": 2, "missing": 2, "children": [{"nodeid": 1, "depth": 1, "split": "f92", "split_condition": -0.183935195, "yes": 3, "no": 4, "missing": 4, "children": [{"nodeid": 3, "leaf": -0.0035459816}, {"nodeid": 4, "depth": 2, "split": "f0", "split_condition": 0.749774992, "yes": 7, "no": 8, "missing": 8, "children": [{"nodeid": 7, "depth": 3, "split": "f20", "split_condition": 0.766666651, "yes": 13, "no": 14, "missing": 14, "children": [{"nodeid": 13, "leaf": -0.00194532459}, {"nodeid": 14, "leaf": -0.000596174621}]}, {"nodeid": 8, "depth": 3, "split": "f8", "split_condition": 0.318749994, "yes": 15, "no": 16, "missing": 16, "children": [{"nodeid": 15, "leaf": 0.000355247612}, {"nodeid": 16, "leaf": -0.000329081406}]}]}]}, {"nodeid": 2, "depth": 1, "split": "f108", "split_condition": 0.385166675, "yes": 5, "no": 6, "missing": 6, "children": [{"nodeid": 5, "depth": 2, "split": "f112", "split_condition": 0.426819056, "yes": 9, "no": 10, "missing": 10, "children": [{"nodeid": 9, "depth": 3, "split": "f39", "split_condition": 0.00222244905, "yes": 17, "no": 18, "missing": 18, "children": [{"nodeid": 17, "leaf": -1.48920317e-05}, {"nodeid": 18, "leaf": 0.00125559536}]}, {"nodeid": 10, "depth": 3, "split": "f26", "split_condition": 0.00277777785, "yes": 19, "no": 20, "missing": 20, "children": [{"nodeid": 19, "leaf": 0.00135706528}, {"nodeid": 20, "leaf": 0.004164082}]}]}, {"nodeid": 6, "depth": 2, "split": "f0", "split_condition": 0.631263137, "yes": 11, "no": 12, "missing": 12, "children": [{"nodeid": 11, "leaf": -0.000995173468}, {"nodeid": 12, "depth": 3, "split": "f10", "split_condition": 0.149230763, "yes": 21, "no": 22, "missing": 22, "children": [{"nodeid": 21, "leaf": 0.000245065603}, {"nodeid": 22, "leaf": 0.000900056679}]}]}]}]}, {"nodeid": 0, "depth": 0, "split": "f92", "split_condition": -0.0215261877, "yes": 1, "no": 2, "missing": 2, "children": [{"nodeid": 1, "depth": 1, "split": "f0", "split_condition": 0.749774992, "yes": 3, "no": 4, "missing": 4, "children": [{"nodeid": 3, "depth": 2, "split": "f5", "split_condition": 0.578249991, "yes": 7, "no": 8, "missing": 8, "children": [{"nodeid": 7, "depth": 3, "split": "f96", "split_condition": 0.357333332, "yes": 13, "no": 14, "missing": 14, "children": [{"nodeid": 13, "leaf": -0.000986464205}, {"nodeid": 14, "leaf": -0.00272519817}]}, {"nodeid": 8, "leaf": -0.000935275108}]}, {"nodeid": 4, "depth": 2, "split": "f22", "split_condition": 0.266666681, "yes": 9, "no": 10, "missing": 10, "children": [{"nodeid": 9, "leaf": -0.000324594002}, {"nodeid": 10, "leaf": 0.000350403367}]}]}, {"nodeid": 2, "depth": 1, "split": "f92", "split_condition": 0.152607456, "yes": 5, "no": 6, "missing": 6, "children": [{"nodeid": 5, "depth": 2, "split": "f0", "split_condition": 0.744174421, "yes": 11, "no": 12, "missing": 12, "children": [{"nodeid": 11, "depth": 3, "split": "f67", "split_condition": 0.331, "yes": 15, "no": 16, "missing": 16, "children": [{"nodeid": 15, "leaf": 0.000637910271}, {"nodeid": 16, "leaf": -0.000560478366}]}, {"nodeid": 12, "leaf": 0.00213821279}]}, {"nodeid": 6, "leaf": 0.00414291304}]}]}, {"nodeid": 0, "depth": 0, "split": "f7", "split_condition": 0.61811763, "yes": 1, "no": 2, "missing": 2, "children": [{"nodeid": 1, "depth": 1, "split": "f0", "split_condition": 0.749774992, "yes": 3, "no": 4, "missing": 4, "children": [{"nodeid": 3, "depth": 2, "split": "f78", "split_condition": 0.294, "yes": 7, "no": 8, "missing": 8, "children": [{"nodeid": 7, "depth": 3, "split": "f10", "split_condition": -0.0874666646, "yes": 13, "no": 14, "missing": 14, "children": [{"nodeid": 13, "leaf": -0.00339218485}, {"nodeid": 14, "leaf": -0.00174784369}]}, {"nodeid": 8, "leaf": -0.000748557912}]}, {"nodeid": 4, "leaf": 2.39277215e-05}]}, {"nodeid": 2, "depth": 1, "split": "f50", "split_condition": 0.466666669, "yes": 5, "no": 6, "missing": 6, "children": [{"nodeid": 5, "depth": 2, "split": "f139", "split_condition": 0.00267757941, "yes": 9, "no": 10, "missing": 10, "children": [{"nodeid": 9, "depth": 3, "split": "f5", "split_condition": 0.751749992, "yes": 15, "no": 16, "missing": 16, "children": [{"nodeid": 15, "leaf": 1.36173758e-05}, {"nodeid": 16, "leaf": 0.00175380672}]}, {"nodeid": 10, "depth": 3, "split": "f0", "split_condition": 0.621762156, "yes": 17, "no": 18, "missing": 18, "children": [{"nodeid": 17, "leaf": 0.00113819703}, {"nodeid": 18, "leaf": 0.004198418}]}]}, {"nodeid": 6, "depth": 2, "split": "f4", "split_condition": 0.600000024, "yes": 11, "no": 12, "missing": 12, "children": [{"nodeid": 11, "depth": 3, "split": "f7", "split_condition": 0.726999998, "yes": 19, "no": 20, "missing": 20, "children": [{"nodeid": 19, "leaf": -0.000370922004}, {"nodeid": 20, "leaf": 0.00165597524}]}, {"nodeid": 12, "depth": 3, "split": "f4", "split_condition": 0.800000012, "yes": 21, "no": 22, "missing": 22, "children": [{"nodeid": 21, "leaf": -0.00167521636}, {"nodeid": 22, "leaf": -0.000490823004}]}]}]}]}, {"nodeid": 0, "depth": 0, "split": "f92", "split_condition": 0.0412658788, "yes": 1, "no": 2, "missing": 2, "children": [{"nodeid": 1, "depth": 1, "split": "f92", "split_condition": -0.0510710254, "yes": 3, "no": 4, "missing": 4, "children": [{"nodeid": 3, "depth": 2, "split": "f10", "split_condition": -0.0597857125, "yes": 7, "no": 8, "missing": 8, "children": [{"nodeid": 7, "depth": 3, "split": "f5", "split_condition": 0.578249991, "yes": 15, "no": 16, "missing": 16, "children": [{"nodeid": 15, "leaf": -0.00294058863}, {"nodeid": 16, "leaf": -0.000541153946}]}, {"nodeid": 8, "depth": 3, "split": "f60", "split_condition": 0.300000012, "yes": 17, "no": 18, "missing": 18, "children": [{"nodeid": 17, "leaf": -0.00151260186}, {"nodeid": 18, "leaf": 2.23948537e-05}]}]}, {"nodeid": 4, "depth": 2, "split": "f66", "split_condition": 0.356666654, "yes": 9, "no": 10, "missing": 10, "children": [{"nodeid": 9, "depth": 3, "split": "f10", "split_condition": -0.103426471, "yes": 19, "no": 20, "missing": 20, "children": [{"nodeid": 19, "leaf": 1.16671818e-05}, {"nodeid": 20, "leaf": 0.000454113877}]}, {"nodeid": 10, "leaf": -0.000600149389}]}]}, {"nodeid": 2, "depth": 1, "split": "f93", "split_condition": 0.540000021, "yes": 5, "no": 6, "missing": 6, "children": [{"nodeid": 5, "depth": 2, "split": "f77", "split_condition": 0.166999996, "yes": 11, "no": 12, "missing": 12, "children": [{"nodeid": 11, "depth": 3, "split": "f5", "split_condition": 0.532999992, "yes": 21, "no": 22, "missing": 22, "children": [{"nodeid": 21, "leaf": 0.000139921074}, {"nodeid": 22, "leaf": -0.000360368285}]}, {"nodeid": 12, "leaf": 0.00127297116}]}, {"nodeid": 6, "depth": 2, "split": "f3", "split_condition": 0.200000003, "yes": 13, "no": 14, "missing": 14, "children": [{"nodeid": 13, "leaf": 0.00426937221}, {"nodeid": 14, "leaf": 0.00155973446}]}]}]}, {"nodeid": 0, "depth": 0, "split": "f7", "split_condition": 0.729600012, "yes": 1, "no": 2, "missing": 2, "children": [{"nodeid": 1, "depth": 1, "split": "f11", "split_condition": 0.307133347, "yes": 3, "no": 4, "missing": 4, "children": [{"nodeid": 3, "depth": 2, "split": "f75", "split_condition": 0.61500001, "yes": 7, "no": 8, "missing": 8, "children": [{"nodeid": 7, "depth": 3, "split": "f50", "split_condition": 0.38529411, "yes": 15, "no": 16, "missing": 16, "children": [{"nodeid": 15, "leaf": -0.00119175622}, {"nodeid": 16, "leaf": -0.00290598604}]}, {"nodeid": 8, "leaf": -0.00038828468}]}, {"nodeid": 4, "depth": 2, "split": "f136", "split_condition": 0.301899999, "yes": 9, "no": 10, "missing": 10, "children": [{"nodeid": 9, "depth": 3, "split": "f90", "split_condition": 0.0457274616, "yes": 17, "no": 18, "missing": 18, "children": [{"nodeid": 17, "leaf": -0.00103912922}, {"nodeid": 18, "leaf": 0.000237489628}]}, {"nodeid": 10, "leaf": 0.00125005713}]}]}, {"nodeid": 2, "depth": 1, "split": "f8", "split_condition": 0.832750022, "yes": 5, "no": 6, "missing": 6, "children": [{"nodeid": 5, "depth": 2, "split": "f97", "split_condition": 0.413249999, "yes": 11, "no": 12, "missing": 12, "children": [{"nodeid": 11, "leaf": 0.00360419275}, {"nodeid": 12, "leaf": 0.00113965932}]}, {"nodeid": 6, "depth": 2, "split": "f0", "split_condition": 0.63086307, "yes": 13, "no": 14, "missing": 14, "children": [{"nodeid": 13, "leaf": -0.00144164322}, {"nodeid": 14, "leaf": -1.97183163e-05}]}]}]}, {"nodeid": 0, "depth": 0, "split": "f130", "split_condition": 1, "yes": 1, "no": 2, "missing": 2, "children": [{"nodeid": 1, "depth": 1, "split": "f5", "split_condition": 0.578249991, "yes": 3, "no": 4, "missing": 4, "children": [{"nodeid": 3, "depth": 2, "split": "f93", "split_condition": 0.65866667, "yes": 7, "no": 8, "missing": 8, "children": [{"nodeid": 7, "depth": 3, "split": "f96", "split_condition": 0.357333332, "yes": 15, "no": 16, "missing": 16, "children": [{"nodeid": 15, "leaf": -0.000871250872}, {"nodeid": 16, "leaf": -0.00260464009}]}, {"nodeid": 8, "leaf": 0.000666774518}]}, {"nodeid": 4, "depth": 2, "split": "f10", "split_condition": 0.139661759, "yes": 9, "no": 10, "missing": 10, "children": [{"nodeid": 9, "depth": 3, "split": "f41", "split_condition": 0.400000006, "yes": 17, "no": 18, "missing": 18, "children": [{"nodeid": 17, "leaf": -0.000889193092}, {"nodeid": 18, "leaf": 0.000702307967}]}, {"nodeid": 10, "leaf": 0.00117774855}]}]}, {"nodeid": 2, "depth": 1, "split": "f93", "split_condition": 0.460000008, "yes": 5, "no": 6, "missing": 6, "children": [{"nodeid": 5, "depth": 2, "split": "f3", "split_condition": 0.0666666701, "yes": 11, "no": 12, "missing": 12, "children": [{"nodeid": 11, "leaf": 0.000963412051}, {"nodeid": 12, "leaf": 0.000146794308}]}, {"nodeid": 6, "depth": 2, "split": "f97", "split_condition": 0.446981072, "yes": 13, "no": 14, "missing": 14, "children": [{"nodeid": 13, "leaf": 0.00397058995}, {"nodeid": 14, "leaf": 0.0014032874}]}]}]}, {"nodeid": 0, "depth": 0, "split": "f92", "split_condition": -0.0215261877, "yes": 1, "no": 2, "missing": 2, "children": [{"nodeid": 1, "depth": 1, "split": "f9", "split_condition": 0.508000016, "yes": 3, "no": 4, "missing": 4, "children": [{"nodeid": 3, "depth": 2, "split": "f50", "split_condition": 0.462500006, "yes": 7, "no": 8, "missing": 8, "children": [{"nodeid": 7, "leaf": -0.000584194669}, {"nodeid": 8, "leaf": 7.74182845e-05}]}, {"nodeid": 4, "depth": 2, "split": "f5", "split_condition": 0.575500011, "yes": 9, "no": 10, "missing": 10, "children": [{"nodeid": 9, "depth": 3, "split": "f50", "split_condition": 0.382352948, "yes": 15, "no": 16, "missing": 16, "children": [{"nodeid": 15, "leaf": -0.00107815838}, {"nodeid": 16, "leaf": -0.00272730528}]}, {"nodeid": 10, "leaf": -0.000924114895}]}]}, {"nodeid": 2, "depth": 1, "split": "f39", "split_condition": 0.0503040813, "yes": 5, "no": 6, "missing": 6, "children": [{"nodeid": 5, "depth": 2, "split": "f1", "split_condition": 0.0124000004, "yes": 11, "no": 12, "missing": 12, "children": [{"nodeid": 11, "depth": 3, "split": "f91", "split_condition": 0.0461498871, "yes": 17, "no": 18, "missing": 18, "children": [{"nodeid": 17, "leaf": 0.00135476014}, {"nodeid": 18, "leaf": 0.000269109674}]}, {"nodeid": 12, "depth": 3, "split": "f20", "split_condition": 0.544444442, "yes": 19, "no": 20, "missing": 20, "children": [{"nodeid": 19, "leaf": -4.12061599e-05}, {"nodeid": 20, "leaf": -0.000874325284}]}]}, {"nodeid": 6, "depth": 2, "split": "f25", "split_condition": 0.0142857144, "yes": 13, "no": 14, "missing": 14, "children": [{"nodeid": 13, "leaf": -5.75733202e-06}, {"nodeid": 14, "depth": 3, "split": "f13", "split_condition": 0.122599997, "yes": 21, "no": 22, "missing": 22, "children": [{"nodeid": 21, "leaf": 0.00403862586}, {"nodeid": 22, "leaf": 0.00159806141}]}]}]}]}, {"nodeid": 0, "depth": 0, "split": "f92", "split_condition": -0.0215261877, "yes": 1, "no": 2, "missing": 2, "children": [{"nodeid": 1, "depth": 1, "split": "f5", "split_condition": 0.578249991, "yes": 3, "no": 4, "missing": 4, "children": [{"nodeid": 3, "depth": 2, "split": "f92", "split_condition": -0.183935195, "yes": 7, "no": 8, "missing": 8, "children": [{"nodeid": 7, "leaf": -0.00303116231}, {"nodeid": 8, "depth": 3, "split": "f4", "split_condition": 0.300000012, "yes": 15, "no": 16, "missing": 16, "children": [{"nodeid": 15, "leaf": -0.000639530888}, {"nodeid": 16, "leaf": -0.00184663327}]}]}, {"nodeid": 4, "depth": 2, "split": "f51", "split_condition": 0.0273972601, "yes": 9, "no": 10, "missing": 10, "children": [{"nodeid": 9, "leaf": 0.000313165772}, {"nodeid": 10, "leaf": -0.000896582846}]}]}, {"nodeid": 2, "depth": 1, "split": "f4", "split_condition": 0.300000012, "yes": 5, "no": 6, "missing": 6, "children": [{"nodeid": 5, "depth": 2, "split": "f37", "split_condition": 0.837000012, "yes": 11, "no": 12, "missing": 12, "children": [{"nodeid": 11, "depth": 3, "split": "f1", "split_condition": 0.0108000003, "yes": 17, "no": 18, "missing": 18, "children": [{"nodeid": 17, "leaf": 0.00117992691}, {"nodeid": 18, "leaf": 0.000221778013}]}, {"nodeid": 12, "depth": 3, "split": "f1", "split_condition": -0.0662999973, "yes": 19, "no": 20, "missing": 20, "children": [{"nodeid": 19, "leaf": 0.00104493904}, {"nodeid": 20, "leaf": 0.00405022549}]}]}, {"nodeid": 6, "depth": 2, "split": "f27", "split_condition": 0.055555556, "yes": 13, "no": 14, "missing": 14, "children": [{"nodeid": 13, "depth": 3, "split": "f9", "split_condition": 0.583999991, "yes": 21, "no": 22, "missing": 22, "children": [{"nodeid": 21, "leaf": -0.000871924392}, {"nodeid": 22, "leaf": 0.000106509244}]}, {"nodeid": 14, "depth": 3, "split": "f4", "split_condition": 0.5, "yes": 23, "no": 24, "missing": 24, "children": [{"nodeid": 23, "leaf": 0.00176524278}, {"nodeid": 24, "leaf": 0.000401520316}]}]}]}]}, {"nodeid": 0, "depth": 0, "split": "f92", "split_condition": -0.0232558139, "yes": 1, "no": 2, "missing": 2, "children": [{"nodeid": 1, "depth": 1, "split": "f0", "split_condition": 0.732173204, "yes": 3, "no": 4, "missing": 4, "children": [{"nodeid": 3, "depth": 2, "split": "f5", "split_condition": 0.575500011, "yes": 7, "no": 8, "missing": 8, "children": [{"nodeid": 7, "depth": 3, "split": "f96", "split_condition": 0.334666669, "yes": 13, "no": 14, "missing": 14, "children": [{"nodeid": 13, "leaf": -0.000797187095}, {"nodeid": 14, "leaf": -0.00271090819}]}, {"nodeid": 8, "leaf": -0.000741256867}]}, {"nodeid": 4, "depth": 2, "split": "f8", "split_condition": 0.559499979, "yes": 9, "no": 10, "missing": 10, "children": [{"nodeid": 9, "leaf": -2.99130024e-05}, {"nodeid": 10, "leaf": -0.000783938158}]}]}, {"nodeid": 2, "depth": 1, "split": "f39", "split_condition": 0.150433168, "yes": 5, "no": 6, "missing": 6, "children": [{"nodeid": 5, "depth": 2, "split": "f11", "split_condition": 0.421999991, "yes": 11, "no": 12, "missing": 12, "children": [{"nodeid": 11, "depth": 3, "split": "f111", "split_condition": 0.00847619027, "yes": 15, "no": 16, "missing": 16, "children": [{"nodeid": 15, "leaf": -0.000499024929}, {"nodeid": 16, "leaf": 0.000486671779}]}, {"nodeid": 12, "depth": 3, "split": "f92", "split_condition": 0.0234598387, "yes": 17, "no": 18, "missing": 18, "children": [{"nodeid": 17, "leaf": 9.85165389e-05}, {"nodeid": 18, "leaf": 0.00201168167}]}]}, {"nodeid": 6, "leaf": 0.00373382471}]}]}, {"nodeid": 0, "depth": 0, "split": "f92", "split_condition": 0.0325878374, "yes": 1, "no": 2, "missing": 2, "children": [{"nodeid": 1, "depth": 1, "split": "f5", "split_condition": 0.578249991, "yes": 3, "no": 4, "missing": 4, "children": [{"nodeid": 3, "depth": 2, "split": "f75", "split_condition": 0.702000022, "yes": 7, "no": 8, "missing": 8, "children": [{"nodeid": 7, "depth": 3, "split": "f10", "split_condition": -0.0771904737, "yes": 15, "no": 16, "missing": 16, "children": [{"nodeid": 15, "leaf": -0.0026452064}, {"nodeid": 16, "leaf": -0.001202869}]}, {"nodeid": 8, "leaf": 0.000181749318}]}, {"nodeid": 4, "depth": 2, "split": "f73", "split_condition": 0.602409661, "yes": 9, "no": 10, "missing": 10, "children": [{"nodeid": 9, "depth": 3, "split": "f3", "split_condition": 0.0666666701, "yes": 17, "no": 18, "missing": 18, "children": [{"nodeid": 17, "leaf": 0.000272530306}, {"nodeid": 18, "leaf": -0.000733926892}]}, {"nodeid": 10, "leaf": 0.00113609526}]}]}, {"nodeid": 2, "depth": 1, "split": "f75", "split_condition": 0.499000013, "yes": 5, "no": 6, "missing": 6, "children": [{"nodeid": 5, "depth": 2, "split": "f76", "split_condition": 0.319000006, "yes": 11, "no": 12, "missing": 12, "children": [{"nodeid": 11, "depth": 3, "split": "f3", "split_condition": 0.200000003, "yes": 19, "no": 20, "missing": 20, "children": [{"nodeid": 19, "leaf": 9.94469665e-05}, {"nodeid": 20, "leaf": 0.000811167003}]}, {"nodeid": 12, "depth": 3, "split": "f118", "split_condition": 0.0860145986, "yes": 21, "no": 22, "missing": 22, "children": [{"nodeid": 21, "leaf": 0.0013002659}, {"nodeid": 22, "leaf": 0.00409218669}]}]}, {"nodeid": 6, "depth": 2, "split": "f0", "split_condition": 0.60796082, "yes": 13, "no": 14, "missing": 14, "children": [{"nodeid": 13, "leaf": -0.000929886592}, {"nodeid": 14, "depth": 3, "split": "f6", "split_condition": 0.764705896, "yes": 23, "no": 24, "missing": 24, "children": [{"nodeid": 23, "leaf": 0.000918796868}, {"nodeid": 24, "leaf": 0.000148245454}]}]}]}]}, {"nodeid": 0, "depth": 0, "split": "f92", "split_condition": -0.0215261877, "yes": 1, "no": 2, "missing": 2, "children": [{"nodeid": 1, "depth": 1, "split": "f10", "split_condition": -0.0597857125, "yes": 3, "no": 4, "missing": 4, "children": [{"nodeid": 3, "depth": 2, "split": "f7", "split_condition": 0.615142882, "yes": 7, "no": 8, "missing": 8, "children": [{"nodeid": 7, "leaf": -0.00284691155}, {"nodeid": 8, "leaf": -0.000925808796}]}, {"nodeid": 4, "depth": 2, "split": "f112", "split_condition": 0.361980945, "yes": 9, "no": 10, "missing": 10, "children": [{"nodeid": 9, "leaf": -0.00127678912}, {"nodeid": 10, "depth": 3, "split": "f8", "split_condition": 0.318749994, "yes": 15, "no": 16, "missing": 16, "children": [{"nodeid": 15, "leaf": 0.000375269068}, {"nodeid": 16, "leaf": -0.000345657172}]}]}]}, {"nodeid": 2, "depth": 1, "split": "f7", "split_condition": 0.729090929, "yes": 5, "no": 6, "missing": 6, "children": [{"nodeid": 5, "depth": 2, "split": "f136", "split_condition": 0.278649986, "yes": 11, "no": 12, "missing": 12, "children": [{"nodeid": 11, "depth": 3, "split": "f49", "split_condition": 0.601763844, "yes": 17, "no": 18, "missing": 18, "children": [{"nodeid": 17, "leaf": 0.000238432694}, {"nodeid": 18, "leaf": -0.000673552859}]}, {"nodeid": 12, "leaf": 0.00115405396}]}, {"nodeid": 6, "depth": 2, "split": "f37", "split_condition": 0.681999981, "yes": 13, "no": 14, "missing": 14, "children": [{"nodeid": 13, "leaf": 0.000408855965}, {"nodeid": 14, "depth": 3, "split": "f28", "split_condition": 0.778005481, "yes": 19, "no": 20, "missing": 20, "children": [{"nodeid": 19, "leaf": 0.00153767399}, {"nodeid": 20, "leaf": 0.00327878748}]}]}]}]}, {"nodeid": 0, "depth": 0, "split": "f39", "split_condition": 0.0503040813, "yes": 1, "no": 2, "missing": 2, "children": [{"nodeid": 1, "depth": 1, "split": "f90", "split_condition": 0.0605200939, "yes": 3, "no": 4, "missing": 4, "children": [{"nodeid": 3, "depth": 2, "split": "f7", "split_condition": 0.708470583, "yes": 7, "no": 8, "missing": 8, "children": [{"nodeid": 7, "depth": 3, "split": "f97", "split_condition": 0.510416687, "yes": 13, "no": 14, "missing": 14, "children": [{"nodeid": 13, "leaf": -0.00133779133}, {"nodeid": 14, "leaf": -0.00256385468}]}, {"nodeid": 8, "depth": 3, "split": "f40", "split_condition": 0.311333328, "yes": 15, "no": 16, "missing": 16, "children": [{"nodeid": 15, "leaf": -0.00109942525}, {"nodeid": 16, "leaf": 0.000511088234}]}]}, {"nodeid": 4, "depth": 2, "split": "f91", "split_condition": 0.0438302755, "yes": 9, "no": 10, "missing": 10, "children": [{"nodeid": 9, "depth": 3, "split": "f0", "split_condition": 0.691169143, "yes": 17, "no": 18, "missing": 18, "children": [{"nodeid": 17, "leaf": 0.000485240947}, {"nodeid": 18, "leaf": 0.00149466679}]}, {"nodeid": 10, "depth": 3, "split": "f49", "split_condition": 0.648553193, "yes": 19, "no": 20, "missing": 20, "children": [{"nodeid": 19, "leaf": 0.00019636545}, {"nodeid": 20, "leaf": -0.000509086123}]}]}]}, {"nodeid": 2, "depth": 1, "split": "f2", "split_condition": 0.00319999992, "yes": 5, "no": 6, "missing": 6, "children": [{"nodeid": 5, "leaf": 0.00384844141}, {"nodeid": 6, "depth": 2, "split": "f7", "split_condition": 0.722153842, "yes": 11, "no": 12, "missing": 12, "children": [{"nodeid": 11, "depth": 3, "split": "f0", "split_condition": 0.649764955, "yes": 21, "no": 22, "missing": 22, "children": [{"nodeid": 21, "leaf": -0.000710068736}, {"nodeid": 22, "leaf": 0.000184828517}]}, {"nodeid": 12, "leaf": 0.00132775505}]}]}]}, {"nodeid": 0, "depth": 0, "split": "f92", "split_condition": -0.0215261877, "yes": 1, "no": 2, "missing": 2, "children": [{"nodeid": 1, "depth": 1, "split": "f0", "split_condition": 0.732173204, "yes": 3, "no": 4, "missing": 4, "children": [{"nodeid": 3, "depth": 2, "split": "f92", "split_condition": -0.141148701, "yes": 7, "no": 8, "missing": 8, "children": [{"nodeid": 7, "leaf": -0.00244833436}, {"nodeid": 8, "depth": 3, "split": "f93", "split_condition": 0.534666657, "yes": 15, "no": 16, "missing": 16, "children": [{"nodeid": 15, "leaf": -0.00154326798}, {"nodeid": 16, "leaf": -0.000608008762}]}]}, {"nodeid": 4, "depth": 2, "split": "f8", "split_condition": 0.60374999, "yes": 9, "no": 10, "missing": 10, "children": [{"nodeid": 9, "leaf": 0.000129770051}, {"nodeid": 10, "leaf": -0.000677384785}]}]}, {"nodeid": 2, "depth": 1, "split": "f4", "split_condition": 0.300000012, "yes": 5, "no": 6, "missing": 6, "children": [{"nodeid": 5, "depth": 2, "split": "f139", "split_condition": 0.0731440634, "yes": 11, "no": 12, "missing": 12, "children": [{"nodeid": 11, "depth": 3, "split": "f26", "split_condition": 0.026111111, "yes": 17, "no": 18, "missing": 18, "children": [{"nodeid": 17, "leaf": 0.00115493475}, {"nodeid": 18, "leaf": 0.000118337994}]}, {"nodeid": 12, "depth": 3, "split": "f11", "split_condition": 0.53033334, "yes": 19, "no": 20, "missing": 20, "children": [{"nodeid": 19, "leaf": 0.00369899091}, {"nodeid": 20, "leaf": 0.000978676253}]}]}, {"nodeid": 6, "depth": 2, "split": "f67", "split_condition": 0.38499999, "yes": 13, "no": 14, "missing": 14, "children": [{"nodeid": 13, "depth": 3, "split": "f93", "split_condition": 0.593333304, "yes": 21, "no": 22, "missing": 22, "children": [{"nodeid": 21, "leaf": 0.00126333837}, {"nodeid": 22, "leaf": -0.000167607941}]}, {"nodeid": 14, "depth": 3, "split": "f96", "split_condition": 0.596000016, "yes": 23, "no": 24, "missing": 24, "children": [{"nodeid": 23, "leaf": -0.000826852105}, {"nodeid": 24, "leaf": 0.000315718236}]}]}]}]}, {"nodeid": 0, "depth": 0, "split": "f92", "split_condition": -0.0232558139, "yes": 1, "no": 2, "missing": 2, "children": [{"nodeid": 1, "depth": 1, "split": "f39", "split_condition": 0.000477734691, "yes": 3, "no": 4, "missing": 4, "children": [{"nodeid": 3, "depth": 2, "split": "f23", "split_condition": 0.612623274, "yes": 7, "no": 8, "missing": 8, "children": [{"nodeid": 7, "depth": 3, "split": "f61", "split_condition": 0.180000007, "yes": 15, "no": 16, "missing": 16, "children": [{"nodeid": 15, "leaf": -0.000612770964}, {"nodeid": 16, "leaf": -0.00246082665}]}, {"nodeid": 8, "leaf": -0.000469618622}]}, {"nodeid": 4, "depth": 2, "split": "f51", "split_condition": 0.0267857146, "yes": 9, "no": 10, "missing": 10, "children": [{"nodeid": 9, "leaf": 9.1228816e-05}, {"nodeid": 10, "leaf": -0.000677688455}]}]}, {"nodeid": 2, "depth": 1, "split": "f0", "split_condition": 0.610461056, "yes": 5, "no": 6, "missing": 6, "children": [{"nodeid": 5, "depth": 2, "split": "f0", "split_condition": 0.605560541, "yes": 11, "no": 12, "missing": 12, "children": [{"nodeid": 11, "leaf": 4.86520003e-05}, {"nodeid": 12, "leaf": -0.00118193286}]}, {"nodeid": 6, "depth": 2, "split": "f92", "split_condition": 0.0412658788, "yes": 13, "no": 14, "missing": 14, "children": [{"nodeid": 13, "depth": 3, "split": "f0", "split_condition": 0.744174421, "yes": 17, "no": 18, "missing": 18, "children": [{"nodeid": 17, "leaf": -0.000216458066}, {"nodeid": 18, "leaf": 0.00122795324}]}, {"nodeid": 14, "depth": 3, "split": "f37", "split_condition": 0.837000012, "yes": 19, "no": 20, "missing": 20, "children": [{"nodeid": 19, "leaf": 0.000827696931}, {"nodeid": 20, "leaf": 0.00277618924}]}]}]}]}, {"nodeid": 0, "depth": 0, "split": "f5", "split_condition": 0.582000017, "yes": 1, "no": 2, "missing": 2, "children": [{"nodeid": 1, "depth": 1, "split": "f10", "split_condition": -0.0597857125, "yes": 3, "no": 4, "missing": 4, "children": [{"nodeid": 3, "depth": 2, "split": "f78", "split_condition": 0.214000002, "yes": 7, "no": 8, "missing": 8, "children": [{"nodeid": 7, "depth": 3, "split": "f20", "split_condition": 0.00555555569, "yes": 13, "no": 14, "missing": 14, "children": [{"nodeid": 13, "leaf": -0.000719212811}, {"nodeid": 14, "leaf": -0.00271696458}]}, {"nodeid": 8, "leaf": -0.000751042797}]}, {"nodeid": 4, "depth": 2, "split": "f97", "split_condition": 0.563208342, "yes": 9, "no": 10, "missing": 10, "children": [{"nodeid": 9, "depth": 3, "split": "f39", "split_condition": 0.00101033167, "yes": 15, "no": 16, "missing": 16, "children": [{"nodeid": 15, "leaf": -0.00117705797}, {"nodeid": 16, "leaf": -0.000129933818}]}, {"nodeid": 10, "leaf": 0.00057046552}]}]}, {"nodeid": 2, "depth": 1, "split": "f141", "split_condition": 0.384726554, "yes": 5, "no": 6, "missing": 6, "children": [{"nodeid": 5, "depth": 2, "split": "f67", "split_condition": 0.210999995, "yes": 11, "no": 12, "missing": 12, "children": [{"nodeid": 11, "depth": 3, "split": "f90", "split_condition": 0.0182569157, "yes": 17, "no": 18, "missing": 18, "children": [{"nodeid": 17, "leaf": -9.24775304e-05}, {"nodeid": 18, "leaf": 0.00136923557}]}, {"nodeid": 12, "depth": 3, "split": "f0", "split_condition": 0.677467763, "yes": 19, "no": 20, "missing": 20, "children": [{"nodeid": 19, "leaf": -0.000866074581}, {"nodeid": 20, "leaf": 0.000226046264}]}]}, {"nodeid": 6, "leaf": 0.00307231746}]}]}, {"nodeid": 0, "depth": 0, "split": "f130", "split_condition": 1, "yes": 1, "no": 2, "missing": 2, "children": [{"nodeid": 1, "depth": 1, "split": "f10", "split_condition": 0.158250004, "yes": 3, "no": 4, "missing": 4, "children": [{"nodeid": 3, "depth": 2, "split": "f10", "split_condition": -0.0597857125, "yes": 7, "no": 8, "missing": 8, "children": [{"nodeid": 7, "depth": 3, "split": "f112", "split_condition": 0.484935075, "yes": 11, "no": 12, "missing": 12, "children": [{"nodeid": 11, "leaf": -0.00204301951}, {"nodeid": 12, "leaf": 9.1860762e-05}]}, {"nodeid": 8, "depth": 3, "split": "f40", "split_condition": 0.400400013, "yes": 13, "no": 14, "missing": 14, "children": [{"nodeid": 13, "leaf": -0.000113346206}, {"nodeid": 14, "leaf": -0.00127154205}]}]}, {"nodeid": 4, "leaf": 0.00120162242}]}, {"nodeid": 2, "depth": 1, "split": "f93", "split_condition": 0.498666674, "yes": 5, "no": 6, "missing": 6, "children": [{"nodeid": 5, "depth": 2, "split": "f1", "split_condition": -0.0162000004, "yes": 9, "no": 10, "missing": 10, "children": [{"nodeid": 9, "leaf": 4.97606488e-05}, {"nodeid": 10, "leaf": 0.000845922099}]}, {"nodeid": 6, "leaf": 0.00307632773}]}]}, {"nodeid": 0, "depth": 0, "split": "f92", "split_condition": -0.0215261877, "yes": 1, "no": 2, "missing": 2, "children": [{"nodeid": 1, "depth": 1, "split": "f0", "split_condition": 0.732173204, "yes": 3, "no": 4, "missing": 4, "children": [{"nodeid": 3, "depth": 2, "split": "f11", "split_condition": 0.307133347, "yes": 7, "no": 8, "missing": 8, "children": [{"nodeid": 7, "depth": 3, "split": "f93", "split_condition": 0.360000014, "yes": 15, "no": 16, "missing": 16, "children": [{"nodeid": 15, "leaf": -0.000535463158}, {"nodeid": 16, "leaf": -0.00229055621}]}, {"nodeid": 8, "depth": 3, "split": "f8", "split_condition": 0.512250006, "yes": 17, "no": 18, "missing": 18, "children": [{"nodeid": 17, "leaf": -0.00107096112}, {"nodeid": 18, "leaf": -0.000266656687}]}]}, {"nodeid": 4, "depth": 2, "split": "f75", "split_condition": 0.518999994, "yes": 9, "no": 10, "missing": 10, "children": [{"nodeid": 9, "leaf": -0.000483166281}, {"nodeid": 10, "depth": 3, "split": "f7", "split_condition": 0.582000017, "yes": 19, "no": 20, "missing": 20, "children": [{"nodeid": 19, "leaf": 0.000391194451}, {"nodeid": 20, "leaf": -1.86167586e-06}]}]}]}, {"nodeid": 2, "depth": 1, "split": "f49", "split_condition": 0.430389881, "yes": 5, "no": 6, "missing": 6, "children": [{"nodeid": 5, "depth": 2, "split": "f92", "split_condition": 0.00731355604, "yes": 11, "no": 12, "missing": 12, "children": [{"nodeid": 11, "leaf": 0.000242491398}, {"nodeid": 12, "depth": 3, "split": "f73", "split_condition": 0.89316988, "yes": 21, "no": 22, "missing": 22, "children": [{"nodeid": 21, "leaf": 0.00268043648}, {"nodeid": 22, "leaf": 0.000950826507}]}]}, {"nodeid": 6, "depth": 2, "split": "f0", "split_condition": 0.610461056, "yes": 13, "no": 14, "missing": 14, "children": [{"nodeid": 13, "depth": 3, "split": "f0", "split_condition": 0.605560541, "yes": 23, "no": 24, "missing": 24, "children": [{"nodeid": 23, "leaf": 4.90819621e-05}, {"nodeid": 24, "leaf": -0.00114566623}]}, {"nodeid": 14, "depth": 3, "split": "f10", "split_condition": 0.139661759, "yes": 25, "no": 26, "missing": 26, "children": [{"nodeid": 25, "leaf": 0}, {"nodeid": 26, "leaf": 0.000964335632}]}]}]}]}, {"nodeid": 0, "depth": 0, "split": "f92", "split_condition": -0.0215261877, "yes": 1, "no": 2, "missing": 2, "children": [{"nodeid": 1, "depth": 1, "split": "f0", "split_condition": 0.729072928, "yes": 3, "no": 4, "missing": 4, "children": [{"nodeid": 3, "depth": 2, "split": "f106", "split_condition": 0.351999998, "yes": 7, "no": 8, "missing": 8, "children": [{"nodeid": 7, "depth": 3, "split": "f97", "split_condition": 0.377958328, "yes": 15, "no": 16, "missing": 16, "children": [{"nodeid": 15, "leaf": -0.000394800416}, {"nodeid": 16, "leaf": -0.00202157698}]}, {"nodeid": 8, "leaf": -0.000368107547}]}, {"nodeid": 4, "depth": 2, "split": "f8", "split_condition": 0.318749994, "yes": 9, "no": 10, "missing": 10, "children": [{"nodeid": 9, "leaf": 0.000385860127}, {"nodeid": 10, "leaf": -0.000524897769}]}]}, {"nodeid": 2, "depth": 1, "split": "f39", "split_condition": 0.19815217, "yes": 5, "no": 6, "missing": 6, "children": [{"nodeid": 5, "depth": 2, "split": "f22", "split_condition": 0.266666681, "yes": 11, "no": 12, "missing": 12, "children": [{"nodeid": 11, "depth": 3, "split": "f92", "split_condition": 0.0225303285, "yes": 17, "no": 18, "missing": 18, "children": [{"nodeid": 17, "leaf": 0.00017249315}, {"nodeid": 18, "leaf": 0.00137231208}]}, {"nodeid": 12, "depth": 3, "split": "f51", "split_condition": 0.0571428575, "yes": 19, "no": 20, "missing": 20, "children": [{"nodeid": 19, "leaf": -0.000932598894}, {"nodeid": 20, "leaf": 0.000203668256}]}]}, {"nodeid": 6, "depth": 2, "split": "f25", "split_condition": 0.431428581, "yes": 13, "no": 14, "missing": 14, "children": [{"nodeid": 13, "leaf": 0.00312457141}, {"nodeid": 14, "leaf": 0.00101139129}]}]}]}, {"nodeid": 0, "depth": 0, "split": "f92", "split_condition": 0.0325878374, "yes": 1, "no": 2, "missing": 2, "children": [{"nodeid": 1, "depth": 1, "split": "f92", "split_condition": -0.183935195, "yes": 3, "no": 4, "missing": 4, "children": [{"nodeid": 3, "leaf": -0.00264288508}, {"nodeid": 4, "depth": 2, "split": "f106", "split_condition": 0.398857147, "yes": 7, "no": 8, "missing": 8, "children": [{"nodeid": 7, "depth": 3, "split": "f0", "split_condition": 0.749774992, "yes": 13, "no": 14, "missing": 14, "children": [{"nodeid": 13, "leaf": -0.001177634}, {"nodeid": 14, "leaf": 5.39603352e-05}]}, {"nodeid": 8, "leaf": 0.000242230046}]}]}, {"nodeid": 2, "depth": 1, "split": "f39", "split_condition": 0.19815217, "yes": 5, "no": 6, "missing": 6, "children": [{"nodeid": 5, "depth": 2, "split": "f19", "split_condition": 0.899999976, "yes": 9, "no": 10, "missing": 10, "children": [{"nodeid": 9, "depth": 3, "split": "f118", "split_condition": 0.0615921579, "yes": 15, "no": 16, "missing": 16, "children": [{"nodeid": 15, "leaf": -0.000886000635}, {"nodeid": 16, "leaf": 0.000449543557}]}, {"nodeid": 10, "depth": 3, "split": "f0", "split_condition": 0.633663356, "yes": 17, "no": 18, "missing": 18, "children": [{"nodeid": 17, "leaf": 0.00258826348}, {"nodeid": 18, "leaf": 0.000875106663}]}]}, {"nodeid": 6, "depth": 2, "split": "f51", "split_condition": 0.0580645166, "yes": 11, "no": 12, "missing": 12, "children": [{"nodeid": 11, "leaf": 0.00335211237}, {"nodeid": 12, "leaf": 0.000994535047}]}]}]}, {"nodeid": 0, "depth": 0, "split": "f92", "split_condition": -0.0215261877, "yes": 1, "no": 2, "missing": 2, "children": [{"nodeid": 1, "depth": 1, "split": "f0", "split_condition": 0.733073294, "yes": 3, "no": 4, "missing": 4, "children": [{"nodeid": 3, "depth": 2, "split": "f92", "split_condition": -0.141148701, "yes": 7, "no": 8, "missing": 8, "children": [{"nodeid": 7, "depth": 3, "split": "f5", "split_condition": 0.483249992, "yes": 11, "no": 12, "missing": 12, "children": [{"nodeid": 11, "leaf": -0.00242943666}, {"nodeid": 12, "leaf": -0.000887564966}]}, {"nodeid": 8, "depth": 3, "split": "f1", "split_condition": -0.0577000007, "yes": 13, "no": 14, "missing": 14, "children": [{"nodeid": 13, "leaf": -0.000295205129}, {"nodeid": 14, "leaf": -0.00122559594}]}]}, {"nodeid": 4, "leaf": -3.3572298e-05}]}, {"nodeid": 2, "depth": 1, "split": "f118", "split_condition": 0.0620922074, "yes": 5, "no": 6, "missing": 6, "children": [{"nodeid": 5, "leaf": -0.00104376592}, {"nodeid": 6, "depth": 2, "split": "f92", "split_condition": 0.0682746544, "yes": 9, "no": 10, "missing": 10, "children": [{"nodeid": 9, "depth": 3, "split": "f27", "split_condition": 0.055555556, "yes": 15, "no": 16, "missing": 16, "children": [{"nodeid": 15, "leaf": -0.000426696293}, {"nodeid": 16, "leaf": 0.00108753878}]}, {"nodeid": 10, "depth": 3, "split": "f16", "split_condition": 1, "yes": 17, "no": 18, "missing": 18, "children": [{"nodeid": 17, "leaf": 0.00252368022}, {"nodeid": 18, "leaf": 0.000281703455}]}]}]}]}, {"nodeid": 0, "depth": 0, "split": "f5", "split_condition": 0.590250015, "yes": 1, "no": 2, "missing": 2, "children": [{"nodeid": 1, "depth": 1, "split": "f90", "split_condition": 0.0605200939, "yes": 3, "no": 4, "missing": 4, "children": [{"nodeid": 3, "depth": 2, "split": "f81", "split_condition": 0.256000012, "yes": 7, "no": 8, "missing": 8, "children": [{"nodeid": 7, "depth": 3, "split": "f10", "split_condition": -0.103426471, "yes": 13, "no": 14, "missing": 14, "children": [{"nodeid": 13, "leaf": -4.11950532e-05}, {"nodeid": 14, "leaf": -0.000384634506}]}, {"nodeid": 8, "depth": 3, "split": "f96", "split_condition": 0.357333332, "yes": 15, "no": 16, "missing": 16, "children": [{"nodeid": 15, "leaf": -0.00063599227}, {"nodeid": 16, "leaf": -0.00211444846}]}]}, {"nodeid": 4, "depth": 2, "split": "f48", "split_condition": 0.952300012, "yes": 9, "no": 10, "missing": 10, "children": [{"nodeid": 9, "leaf": 7.48328748e-05}, {"nodeid": 10, "leaf": 0.000953600451}]}]}, {"nodeid": 2, "depth": 1, "split": "f141", "split_condition": 0.384726554, "yes": 5, "no": 6, "missing": 6, "children": [{"nodeid": 5, "depth": 2, "split": "f0", "split_condition": 0.744174421, "yes": 11, "no": 12, "missing": 12, "children": [{"nodeid": 11, "depth": 3, "split": "f0", "split_condition": 0.609761, "yes": 17, "no": 18, "missing": 18, "children": [{"nodeid": 17, "leaf": -0.00102582667}, {"nodeid": 18, "leaf": 0.0002656297}]}, {"nodeid": 12, "depth": 3, "split": "f90", "split_condition": -0.0371949002, "yes": 19, "no": 20, "missing": 20, "children": [{"nodeid": 19, "leaf": -2.06690538e-06}, {"nodeid": 20, "leaf": 0.00197345833}]}]}, {"nodeid": 6, "leaf": 0.00278788502}]}]}, {"nodeid": 0, "depth": 0, "split": "f39", "split_condition": 0.0503040813, "yes": 1, "no": 2, "missing": 2, "children": [{"nodeid": 1, "depth": 1, "split": "f90", "split_condition": 0.0269017704, "yes": 3, "no": 4, "missing": 4, "children": [{"nodeid": 3, "depth": 2, "split": "f10", "split_condition": -0.0621176474, "yes": 7, "no": 8, "missing": 8, "children": [{"nodeid": 7, "depth": 3, "split": "f97", "split_condition": 0.443333328, "yes": 15, "no": 16, "missing": 16, "children": [{"nodeid": 15, "leaf": -0.000618481252}, {"nodeid": 16, "leaf": -0.00221738801}]}, {"nodeid": 8, "depth": 3, "split": "f28", "split_condition": 0.833333313, "yes": 17, "no": 18, "missing": 18, "children": [{"nodeid": 17, "leaf": -0.000829126395}, {"nodeid": 18, "leaf": 0.000156507958}]}]}, {"nodeid": 4, "depth": 2, "split": "f48", "split_condition": 0.907700002, "yes": 9, "no": 10, "missing": 10, "children": [{"nodeid": 9, "depth": 3, "split": "f1", "split_condition": -0.0621999986, "yes": 19, "no": 20, "missing": 20, "children": [{"nodeid": 19, "leaf": 0.000110993511}, {"nodeid": 20, "leaf": -0.000567493669}]}, {"nodeid": 10, "depth": 3, "split": "f19", "split_condition": 0.675000012, "yes": 21, "no": 22, "missing": 22, "children": [{"nodeid": 21, "leaf": 0.00125148788}, {"nodeid": 22, "leaf": 0.000393530499}]}]}]}, {"nodeid": 2, "depth": 1, "split": "f79", "split_condition": 0.564999998, "yes": 5, "no": 6, "missing": 6, "children": [{"nodeid": 5, "depth": 2, "split": "f51", "split_condition": 0.0267857146, "yes": 11, "no": 12, "missing": 12, "children": [{"nodeid": 11, "leaf": 0.000137340263}, {"nodeid": 12, "depth": 3, "split": "f4", "split_condition": 0.300000012, "yes": 23, "no": 24, "missing": 24, "children": [{"nodeid": 23, "leaf": 0.00343227456}, {"nodeid": 24, "leaf": 0.00116151455}]}]}, {"nodeid": 6, "depth": 2, "split": "f1", "split_condition": 0.00350000011, "yes": 13, "no": 14, "missing": 14, "children": [{"nodeid": 13, "leaf": -0.000839801505}, {"nodeid": 14, "leaf": 0.000749351631}]}]}]}, {"nodeid": 0, "depth": 0, "split": "f92", "split_condition": -0.0215261877, "yes": 1, "no": 2, "missing": 2, "children": [{"nodeid": 1, "depth": 1, "split": "f54", "split_condition": 0.346500009, "yes": 3, "no": 4, "missing": 4, "children": [{"nodeid": 3, "depth": 2, "split": "f34", "split_condition": 0.178000003, "yes": 7, "no": 8, "missing": 8, "children": [{"nodeid": 7, "depth": 3, "split": "f77", "split_condition": 0.187999994, "yes": 15, "no": 16, "missing": 16, "children": [{"nodeid": 15, "leaf": -0.000363915722}, {"nodeid": 16, "leaf": -0.00137585448}]}, {"nodeid": 8, "depth": 3, "split": "f6", "split_condition": 0.882352948, "yes": 17, "no": 18, "missing": 18, "children": [{"nodeid": 17, "leaf": 0.000113363545}, {"nodeid": 18, "leaf": -0.000374486495}]}]}, {"nodeid": 4, "depth": 2, "split": "f93", "split_condition": 0.360000014, "yes": 9, "no": 10, "missing": 10, "children": [{"nodeid": 9, "leaf": -0.00048944744}, {"nodeid": 10, "depth": 3, "split": "f30", "split_condition": 0.0199999996, "yes": 19, "no": 20, "missing": 20, "children": [{"nodeid": 19, "leaf": -0.00249553728}, {"nodeid": 20, "leaf": -0.000725570077}]}]}]}, {"nodeid": 2, "depth": 1, "split": "f39", "split_condition": 0.19815217, "yes": 5, "no": 6, "missing": 6, "children": [{"nodeid": 5, "depth": 2, "split": "f49", "split_condition": 0.60973227, "yes": 11, "no": 12, "missing": 12, "children": [{"nodeid": 11, "depth": 3, "split": "f11", "split_condition": 0.490999997, "yes": 21, "no": 22, "missing": 22, "children": [{"nodeid": 21, "leaf": 0.000261149573}, {"nodeid": 22, "leaf": 0.00164977647}]}, {"nodeid": 12, "depth": 3, "split": "f8", "split_condition": 0.585500002, "yes": 23, "no": 24, "missing": 24, "children": [{"nodeid": 23, "leaf": -0.00105521688}, {"nodeid": 24, "leaf": 0.000251338526}]}]}, {"nodeid": 6, "depth": 2, "split": "f51", "split_condition": 0.0580645166, "yes": 13, "no": 14, "missing": 14, "children": [{"nodeid": 13, "leaf": 0.00312187336}, {"nodeid": 14, "leaf": 0.00112274964}]}]}]}, {"nodeid": 0, "depth": 0, "split": "f92", "split_condition": -0.0215261877, "yes": 1, "no": 2, "missing": 2, "children": [{"nodeid": 1, "depth": 1, "split": "f92", "split_condition": -0.183935195, "yes": 3, "no": 4, "missing": 4, "children": [{"nodeid": 3, "leaf": -0.00220595836}, {"nodeid": 4, "depth": 2, "split": "f58", "split_condition": 0.169221357, "yes": 7, "no": 8, "missing": 8, "children": [{"nodeid": 7, "depth": 3, "split": "f19", "split_condition": 0.875, "yes": 11, "no": 12, "missing": 12, "children": [{"nodeid": 11, "leaf": -0.00106521312}, {"nodeid": 12, "leaf": -0.000211488907}]}, {"nodeid": 8, "leaf": 0.000314464618}]}]}, {"nodeid": 2, "depth": 1, "split": "f92", "split_condition": 0.295729727, "yes": 5, "no": 6, "missing": 6, "children": [{"nodeid": 5, "depth": 2, "split": "f0", "split_condition": 0.744174421, "yes": 9, "no": 10, "missing": 10, "children": [{"nodeid": 9, "depth": 3, "split": "f47", "split_condition": 0.877399981, "yes": 13, "no": 14, "missing": 14, "children": [{"nodeid": 13, "leaf": 0.000500210212}, {"nodeid": 14, "leaf": -0.000847541727}]}, {"nodeid": 10, "leaf": 0.00197558105}]}, {"nodeid": 6, "leaf": 0.0028848506}]}]}, {"nodeid": 0, "depth": 0, "split": "f92", "split_condition": -0.00823711138, "yes": 1, "no": 2, "missing": 2, "children": [{"nodeid": 1, "depth": 1, "split": "f11", "split_condition": 0.307133347, "yes": 3, "no": 4, "missing": 4, "children": [{"nodeid": 3, "depth": 2, "split": "f92", "split_condition": -0.0936517715, "yes": 7, "no": 8, "missing": 8, "children": [{"nodeid": 7, "depth": 3, "split": "f23", "split_condition": 0.612623274, "yes": 15, "no": 16, "missing": 16, "children": [{"nodeid": 15, "leaf": -0.00219270471}, {"nodeid": 16, "leaf": -0.000525231415}]}, {"nodeid": 8, "depth": 3, "split": "f48", "split_condition": 0.973699987, "yes": 17, "no": 18, "missing": 18, "children": [{"nodeid": 17, "leaf": -0.000896832731}, {"nodeid": 18, "leaf": -0.000215977547}]}]}, {"nodeid": 4, "depth": 2, "split": "f77", "split_condition": 0.175999999, "yes": 9, "no": 10, "missing": 10, "children": [{"nodeid": 9, "depth": 3, "split": "f1", "split_condition": 0.0175000001, "yes": 19, "no": 20, "missing": 20, "children": [{"nodeid": 19, "leaf": 0.000372407492}, {"nodeid": 20, "leaf": -0.000179544208}]}, {"nodeid": 10, "depth": 3, "split": "f8", "split_condition": 0.512250006, "yes": 21, "no": 22, "missing": 22, "children": [{"nodeid": 21, "leaf": -0.00106635538}, {"nodeid": 22, "leaf": -0.00022093291}]}]}]}, {"nodeid": 2, "depth": 1, "split": "f39", "split_condition": 0.19815217, "yes": 5, "no": 6, "missing": 6, "children": [{"nodeid": 5, "depth": 2, "split": "f38", "split_condition": 0.926125169, "yes": 11, "no": 12, "missing": 12, "children": [{"nodeid": 11, "depth": 3, "split": "f11", "split_condition": 0.402133346, "yes": 23, "no": 24, "missing": 24, "children": [{"nodeid": 23, "leaf": 9.3026274e-06}, {"nodeid": 24, "leaf": 0.00104523543}]}, {"nodeid": 12, "leaf": -0.00073166535}]}, {"nodeid": 6, "depth": 2, "split": "f51", "split_condition": 0.0580645166, "yes": 13, "no": 14, "missing": 14, "children": [{"nodeid": 13, "leaf": 0.00300700264}, {"nodeid": 14, "leaf": 0.000877534156}]}]}]}, {"nodeid": 0, "depth": 0, "split": "f92", "split_condition": -0.0232558139, "yes": 1, "no": 2, "missing": 2, "children": [{"nodeid": 1, "depth": 1, "split": "f0", "split_condition": 0.732173204, "yes": 3, "no": 4, "missing": 4, "children": [{"nodeid": 3, "depth": 2, "split": "f39", "split_condition": 0.000477734691, "yes": 7, "no": 8, "missing": 8, "children": [{"nodeid": 7, "depth": 3, "split": "f92", "split_condition": -0.0850542784, "yes": 13, "no": 14, "missing": 14, "children": [{"nodeid": 13, "leaf": -0.00218225108}, {"nodeid": 14, "leaf": -0.000862883579}]}, {"nodeid": 8, "leaf": -0.000705321028}]}, {"nodeid": 4, "depth": 2, "split": "f8", "split_condition": 0.559499979, "yes": 9, "no": 10, "missing": 10, "children": [{"nodeid": 9, "leaf": 4.2201671e-05}, {"nodeid": 10, "leaf": -0.000491673185}]}]}, {"nodeid": 2, "depth": 1, "split": "f92", "split_condition": 0.25648436, "yes": 5, "no": 6, "missing": 6, "children": [{"nodeid": 5, "depth": 2, "split": "f0", "split_condition": 0.610461056, "yes": 11, "no": 12, "missing": 12, "children": [{"nodeid": 11, "leaf": -0.000882663589}, {"nodeid": 12, "depth": 3, "split": "f11", "split_condition": 0.421999991, "yes": 15, "no": 16, "missing": 16, "children": [{"nodeid": 15, "leaf": 3.77474898e-05}, {"nodeid": 16, "leaf": 0.000901439227}]}]}, {"nodeid": 6, "leaf": 0.00215734658}]}]}, {"nodeid": 0, "depth": 0, "split": "f92", "split_condition": -0.0215261877, "yes": 1, "no": 2, "missing": 2, "children": [{"nodeid": 1, "depth": 1, "split": "f0", "split_condition": 0.729072928, "yes": 3, "no": 4, "missing": 4, "children": [{"nodeid": 3, "depth": 2, "split": "f5", "split_condition": 0.724250019, "yes": 7, "no": 8, "missing": 8, "children": [{"nodeid": 7, "depth": 3, "split": "f23", "split_condition": 0.612623274, "yes": 13, "no": 14, "missing": 14, "children": [{"nodeid": 13, "leaf": -0.00172420556}, {"nodeid": 14, "leaf": -0.000498381269}]}, {"nodeid": 8, "leaf": -0.000323838118}]}, {"nodeid": 4, "depth": 2, "split": "f0", "split_condition": 0.781278133, "yes": 9, "no": 10, "missing": 10, "children": [{"nodeid": 9, "leaf": -0.000433918845}, {"nodeid": 10, "leaf": 0.000277060783}]}]}, {"nodeid": 2, "depth": 1, "split": "f92", "split_condition": 0.295729727, "yes": 5, "no": 6, "missing": 6, "children": [{"nodeid": 5, "depth": 2, "split": "f29", "split_condition": 0.00636363635, "yes": 11, "no": 12, "missing": 12, "children": [{"nodeid": 11, "depth": 3, "split": "f0", "split_condition": 0.610461056, "yes": 15, "no": 16, "missing": 16, "children": [{"nodeid": 15, "leaf": -0.000774741813}, {"nodeid": 16, "leaf": 0.000278383697}]}, {"nodeid": 12, "depth": 3, "split": "f7", "split_condition": 0.729090929, "yes": 17, "no": 18, "missing": 18, "children": [{"nodeid": 17, "leaf": 0.000202722265}, {"nodeid": 18, "leaf": 0.00170024659}]}]}, {"nodeid": 6, "leaf": 0.00274016079}]}]}, {"nodeid": 0, "depth": 0, "split": "f92", "split_condition": -0.0215261877, "yes": 1, "no": 2, "missing": 2, "children": [{"nodeid": 1, "depth": 1, "split": "f0", "split_condition": 0.732173204, "yes": 3, "no": 4, "missing": 4, "children": [{"nodeid": 3, "depth": 2, "split": "f10", "split_condition": -0.0597857125, "yes": 7, "no": 8, "missing": 8, "children": [{"nodeid": 7, "depth": 3, "split": "f5", "split_condition": 0.572749972, "yes": 15, "no": 16, "missing": 16, "children": [{"nodeid": 15, "leaf": -0.00214326358}, {"nodeid": 16, "leaf": -0.000749283237}]}, {"nodeid": 8, "depth": 3, "split": "f93", "split_condition": 0.534666657, "yes": 17, "no": 18, "missing": 18, "children": [{"nodeid": 17, "leaf": -0.00100785389}, {"nodeid": 18, "leaf": -0.000260704604}]}]}, {"nodeid": 4, "depth": 2, "split": "f1", "split_condition": 0.0175000001, "yes": 9, "no": 10, "missing": 10, "children": [{"nodeid": 9, "depth": 3, "split": "f1", "split_condition": 0.00469999993, "yes": 19, "no": 20, "missing": 20, "children": [{"nodeid": 19, "leaf": 0}, {"nodeid": 20, "leaf": 0.000393706432}]}, {"nodeid": 10, "leaf": -0.000414562237}]}]}, {"nodeid": 2, "depth": 1, "split": "f142", "split_condition": 0.00342891086, "yes": 5, "no": 6, "missing": 6, "children": [{"nodeid": 5, "depth": 2, "split": "f91", "split_condition": 0.1096306, "yes": 11, "no": 12, "missing": 12, "children": [{"nodeid": 11, "depth": 3, "split": "f0", "split_condition": 0.610461056, "yes": 21, "no": 22, "missing": 22, "children": [{"nodeid": 21, "leaf": -0.00075909798}, {"nodeid": 22, "leaf": 0.000601737818}]}, {"nodeid": 12, "depth": 3, "split": "f0", "split_condition": 0.633663356, "yes": 23, "no": 24, "missing": 24, "children": [{"nodeid": 23, "leaf": 0.00200984441}, {"nodeid": 24, "leaf": 0.000579194573}]}]}, {"nodeid": 6, "depth": 2, "split": "f79", "split_condition": 0.476000011, "yes": 13, "no": 14, "missing": 14, "children": [{"nodeid": 13, "leaf": 0.00303240842}, {"nodeid": 14, "leaf": 0.00101903186}]}]}]}, {"nodeid": 0, "depth": 0, "split": "f92", "split_condition": 0.0325878374, "yes": 1, "no": 2, "missing": 2, "children": [{"nodeid": 1, "depth": 1, "split": "f5", "split_condition": 0.578249991, "yes": 3, "no": 4, "missing": 4, "children": [{"nodeid": 3, "depth": 2, "split": "f75", "split_condition": 0.720000029, "yes": 7, "no": 8, "missing": 8, "children": [{"nodeid": 7, "depth": 3, "split": "f92", "split_condition": -0.0936517715, "yes": 15, "no": 16, "missing": 16, "children": [{"nodeid": 15, "leaf": -0.00176021073}, {"nodeid": 16, "leaf": -0.000724093639}]}, {"nodeid": 8, "leaf": 0.000220198766}]}, {"nodeid": 4, "depth": 2, "split": "f28", "split_condition": 0.833333313, "yes": 9, "no": 10, "missing": 10, "children": [{"nodeid": 9, "depth": 3, "split": "f2", "split_condition": 0.0291000009, "yes": 17, "no": 18, "missing": 18, "children": [{"nodeid": 17, "leaf": 1.38600535e-05}, {"nodeid": 18, "leaf": -0.000671552843}]}, {"nodeid": 10, "depth": 3, "split": "f5", "split_condition": 0.751749992, "yes": 19, "no": 20, "missing": 20, "children": [{"nodeid": 19, "leaf": -1.34408319e-05}, {"nodeid": 20, "leaf": 0.0011663473}]}]}]}, {"nodeid": 2, "depth": 1, "split": "f5", "split_condition": 0.801500022, "yes": 5, "no": 6, "missing": 6, "children": [{"nodeid": 5, "depth": 2, "split": "f79", "split_condition": 0.43900001, "yes": 11, "no": 12, "missing": 12, "children": [{"nodeid": 11, "depth": 3, "split": "f2", "split_condition": 0.0322999991, "yes": 21, "no": 22, "missing": 22, "children": [{"nodeid": 21, "leaf": 0.000219950482}, {"nodeid": 22, "leaf": -0.000406219391}]}, {"nodeid": 12, "leaf": 0.00104058778}]}, {"nodeid": 6, "depth": 2, "split": "f79", "split_condition": 0.476000011, "yes": 13, "no": 14, "missing": 14, "children": [{"nodeid": 13, "leaf": 0.00278492714}, {"nodeid": 14, "leaf": 0.00126971409}]}]}]}, {"nodeid": 0, "depth": 0, "split": "f141", "split_condition": 0.174539119, "yes": 1, "no": 2, "missing": 2, "children": [{"nodeid": 1, "depth": 1, "split": "f10", "split_condition": 0.158250004, "yes": 3, "no": 4, "missing": 4, "children": [{"nodeid": 3, "depth": 2, "split": "f0", "split_condition": 0.749774992, "yes": 7, "no": 8, "missing": 8, "children": [{"nodeid": 7, "depth": 3, "split": "f78", "split_condition": 0.25, "yes": 13, "no": 14, "missing": 14, "children": [{"nodeid": 13, "leaf": -0.00120389194}, {"nodeid": 14, "leaf": -0.00033264808}]}, {"nodeid": 8, "leaf": 0.000656702614}]}, {"nodeid": 4, "leaf": 0.000904586574}]}, {"nodeid": 2, "depth": 1, "split": "f0", "split_condition": 0.621762156, "yes": 5, "no": 6, "missing": 6, "children": [{"nodeid": 5, "depth": 2, "split": "f7", "split_condition": 0.667384624, "yes": 9, "no": 10, "missing": 10, "children": [{"nodeid": 9, "leaf": -0.000229819794}, {"nodeid": 10, "leaf": 0.000909091614}]}, {"nodeid": 6, "depth": 2, "split": "f39", "split_condition": 0.0186712705, "yes": 11, "no": 12, "missing": 12, "children": [{"nodeid": 11, "leaf": 0.000644434069}, {"nodeid": 12, "leaf": 0.00291059632}]}]}]}, {"nodeid": 0, "depth": 0, "split": "f92", "split_condition": 0.0325878374, "yes": 1, "no": 2, "missing": 2, "children": [{"nodeid": 1, "depth": 1, "split": "f10", "split_condition": -0.0621176474, "yes": 3, "no": 4, "missing": 4, "children": [{"nodeid": 3, "depth": 2, "split": "f97", "split_condition": 0.480874985, "yes": 7, "no": 8, "missing": 8, "children": [{"nodeid": 7, "leaf": -0.000472874992}, {"nodeid": 8, "depth": 3, "split": "f66", "split_condition": 0.367333323, "yes": 15, "no": 16, "missing": 16, "children": [{"nodeid": 15, "leaf": -0.00215302291}, {"nodeid": 16, "leaf": -0.00042098487}]}]}, {"nodeid": 4, "depth": 2, "split": "f37", "split_condition": 0.888999999, "yes": 9, "no": 10, "missing": 10, "children": [{"nodeid": 9, "depth": 3, "split": "f106", "split_condition": 0.385714293, "yes": 17, "no": 18, "missing": 18, "children": [{"nodeid": 17, "leaf": -0.000940160768}, {"nodeid": 18, "leaf": -6.95075141e-06}]}, {"nodeid": 10, "depth": 3, "split": "f3", "split_condition": 0.266666681, "yes": 19, "no": 20, "missing": 20, "children": [{"nodeid": 19, "leaf": -0.000235460262}, {"nodeid": 20, "leaf": 0.00028376549}]}]}]}, {"nodeid": 2, "depth": 1, "split": "f0", "split_condition": 0.611161113, "yes": 5, "no": 6, "missing": 6, "children": [{"nodeid": 5, "depth": 2, "split": "f5", "split_condition": 0.741249979, "yes": 11, "no": 12, "missing": 12, "children": [{"nodeid": 11, "leaf": -0.000880814623}, {"nodeid": 12, "leaf": 0.000750043429}]}, {"nodeid": 6, "depth": 2, "split": "f139", "split_condition": 0.0731440634, "yes": 13, "no": 14, "missing": 14, "children": [{"nodeid": 13, "depth": 3, "split": "f67", "split_condition": 0.565999985, "yes": 21, "no": 22, "missing": 22, "children": [{"nodeid": 21, "leaf": 0.000999000622}, {"nodeid": 22, "leaf": -1.65228485e-05}]}, {"nodeid": 14, "depth": 3, "split": "f2", "split_condition": 0.00319999992, "yes": 23, "no": 24, "missing": 24, "children": [{"nodeid": 23, "leaf": 0.00312797353}, {"nodeid": 24, "leaf": 0.00115522149}]}]}]}]}, {"nodeid": 0, "depth": 0, "split": "f130", "split_condition": 1, "yes": 1, "no": 2, "missing": 2, "children": [{"nodeid": 1, "depth": 1, "split": "f92", "split_condition": -0.0215261877, "yes": 3, "no": 4, "missing": 4, "children": [{"nodeid": 3, "depth": 2, "split": "f92", "split_condition": -0.183935195, "yes": 7, "no": 8, "missing": 8, "children": [{"nodeid": 7, "depth": 3, "split": "f5", "split_condition": 0.569000006, "yes": 15, "no": 16, "missing": 16, "children": [{"nodeid": 15, "leaf": -0.00225585699}, {"nodeid": 16, "leaf": -0.000560130982}]}, {"nodeid": 8, "depth": 3, "split": "f0", "split_condition": 0.749774992, "yes": 17, "no": 18, "missing": 18, "children": [{"nodeid": 17, "leaf": -0.000979740056}, {"nodeid": 18, "leaf": 0.000162399607}]}]}, {"nodeid": 4, "depth": 2, "split": "f0", "split_condition": 0.631263137, "yes": 9, "no": 10, "missing": 10, "children": [{"nodeid": 9, "leaf": -0.000900103536}, {"nodeid": 10, "depth": 3, "split": "f96", "split_condition": 0.630666673, "yes": 19, "no": 20, "missing": 20, "children": [{"nodeid": 19, "leaf": -4.32111756e-06}, {"nodeid": 20, "leaf": 0.000730352011}]}]}]}, {"nodeid": 2, "depth": 1, "split": "f79", "split_condition": 0.564999998, "yes": 5, "no": 6, "missing": 6, "children": [{"nodeid": 5, "depth": 2, "split": "f134", "split_condition": 0.100000001, "yes": 11, "no": 12, "missing": 12, "children": [{"nodeid": 11, "leaf": 0.000982188736}, {"nodeid": 12, "leaf": 0.00279586366}]}, {"nodeid": 6, "depth": 2, "split": "f1", "split_condition": -0.0662999973, "yes": 13, "no": 14, "missing": 14, "children": [{"nodeid": 13, "leaf": 0.000579368498}, {"nodeid": 14, "leaf": 9.82361889e-05}]}]}]}, {"nodeid": 0, "depth": 0, "split": "f92", "split_condition": -0.0215261877, "yes": 1, "no": 2, "missing": 2, "children": [{"nodeid": 1, "depth": 1, "split": "f0", "split_condition": 0.732173204, "yes": 3, "no": 4, "missing": 4, "children": [{"nodeid": 3, "depth": 2, "split": "f10", "split_condition": -0.0906461552, "yes": 7, "no": 8, "missing": 8, "children": [{"nodeid": 7, "depth": 3, "split": "f97", "split_condition": 0.480874985, "yes": 15, "no": 16, "missing": 16, "children": [{"nodeid": 15, "leaf": -0.000658285629}, {"nodeid": 16, "leaf": -0.00213888334}]}, {"nodeid": 8, "depth": 3, "split": "f93", "split_condition": 0.534666657, "yes": 17, "no": 18, "missing": 18, "children": [{"nodeid": 17, "leaf": -0.000843151123}, {"nodeid": 18, "leaf": -0.000181032025}]}]}, {"nodeid": 4, "depth": 2, "split": "f0", "split_condition": 0.743574381, "yes": 9, "no": 10, "missing": 10, "children": [{"nodeid": 9, "leaf": -0.000145323691}, {"nodeid": 10, "leaf": 0.000373684539}]}]}, {"nodeid": 2, "depth": 1, "split": "f118", "split_condition": 0.0888348818, "yes": 5, "no": 6, "missing": 6, "children": [{"nodeid": 5, "depth": 2, "split": "f67", "split_condition": 0.210999995, "yes": 11, "no": 12, "missing": 12, "children": [{"nodeid": 11, "depth": 3, "split": "f4", "split_condition": 0.5, "yes": 19, "no": 20, "missing": 20, "children": [{"nodeid": 19, "leaf": 0.000879611471}, {"nodeid": 20, "leaf": -9.2012732e-07}]}, {"nodeid": 12, "depth": 3, "split": "f0", "split_condition": 0.649764955, "yes": 21, "no": 22, "missing": 22, "children": [{"nodeid": 21, "leaf": -0.000886512164}, {"nodeid": 22, "leaf": 0.000431801251}]}]}, {"nodeid": 6, "depth": 2, "split": "f76", "split_condition": 0.331, "yes": 13, "no": 14, "missing": 14, "children": [{"nodeid": 13, "depth": 3, "split": "f0", "split_condition": 0.712871313, "yes": 23, "no": 24, "missing": 24, "children": [{"nodeid": 23, "leaf": 0.000151340384}, {"nodeid": 24, "leaf": 0.000973473128}]}, {"nodeid": 14, "depth": 3, "split": "f39", "split_condition": 0.000736734713, "yes": 25, "no": 26, "missing": 26, "children": [{"nodeid": 25, "leaf": 0.000817363558}, {"nodeid": 26, "leaf": 0.0025344342}]}]}]}]}, {"nodeid": 0, "depth": 0, "split": "f92", "split_condition": -0.0232558139, "yes": 1, "no": 2, "missing": 2, "children": [{"nodeid": 1, "depth": 1, "split": "f92", "split_condition": -0.183935195, "yes": 3, "no": 4, "missing": 4, "children": [{"nodeid": 3, "depth": 2, "split": "f38", "split_condition": 0.668131888, "yes": 7, "no": 8, "missing": 8, "children": [{"nodeid": 7, "leaf": -0.00217512529}, {"nodeid": 8, "leaf": -0.000621675921}]}, {"nodeid": 4, "depth": 2, "split": "f0", "split_condition": 0.749774992, "yes": 9, "no": 10, "missing": 10, "children": [{"nodeid": 9, "depth": 3, "split": "f39", "split_condition": 0.000429081643, "yes": 15, "no": 16, "missing": 16, "children": [{"nodeid": 15, "leaf": -0.000993329915}, {"nodeid": 16, "leaf": -0.000318483944}]}, {"nodeid": 10, "depth": 3, "split": "f40", "split_condition": 0.333333343, "yes": 17, "no": 18, "missing": 18, "children": [{"nodeid": 17, "leaf": -0.000121800309}, {"nodeid": 18, "leaf": 0.000368589157}]}]}]}, {"nodeid": 2, "depth": 1, "split": "f0", "split_condition": 0.730073035, "yes": 5, "no": 6, "missing": 6, "children": [{"nodeid": 5, "depth": 2, "split": "f92", "split_condition": 0.25648436, "yes": 11, "no": 12, "missing": 12, "children": [{"nodeid": 11, "depth": 3, "split": "f0", "split_condition": 0.610461056, "yes": 19, "no": 20, "missing": 20, "children": [{"nodeid": 19, "leaf": -0.000859738037}, {"nodeid": 20, "leaf": 0.000526248303}]}, {"nodeid": 12, "leaf": 0.00185658119}]}, {"nodeid": 6, "depth": 2, "split": "f40", "split_condition": 0.429333329, "yes": 13, "no": 14, "missing": 14, "children": [{"nodeid": 13, "leaf": 0.000956741744}, {"nodeid": 14, "leaf": 0.00250541372}]}]}]}, {"nodeid": 0, "depth": 0, "split": "f39", "split_condition": 0.0503040813, "yes": 1, "no": 2, "missing": 2, "children": [{"nodeid": 1, "depth": 1, "split": "f10", "split_condition": -0.0597857125, "yes": 3, "no": 4, "missing": 4, "children": [{"nodeid": 3, "depth": 2, "split": "f41", "split_condition": 0.381818175, "yes": 7, "no": 8, "missing": 8, "children": [{"nodeid": 7, "depth": 3, "split": "f97", "split_condition": 0.443333328, "yes": 15, "no": 16, "missing": 16, "children": [{"nodeid": 15, "leaf": -0.000505202217}, {"nodeid": 16, "leaf": -0.00175926264}]}, {"nodeid": 8, "leaf": 0}]}, {"nodeid": 4, "depth": 2, "split": "f90", "split_condition": 0.024972856, "yes": 9, "no": 10, "missing": 10, "children": [{"nodeid": 9, "depth": 3, "split": "f73", "split_condition": 0.602409661, "yes": 17, "no": 18, "missing": 18, "children": [{"nodeid": 17, "leaf": -0.000563897309}, {"nodeid": 18, "leaf": 0.000200954179}]}, {"nodeid": 10, "depth": 3, "split": "f1", "split_condition": 0.0309999995, "yes": 19, "no": 20, "missing": 20, "children": [{"nodeid": 19, "leaf": 0.000716730719}, {"nodeid": 20, "leaf": -0.000488885038}]}]}]}, {"nodeid": 2, "depth": 1, "split": "f93", "split_condition": 0.540000021, "yes": 5, "no": 6, "missing": 6, "children": [{"nodeid": 5, "depth": 2, "split": "f39", "split_condition": 0.135424003, "yes": 11, "no": 12, "missing": 12, "children": [{"nodeid": 11, "leaf": -0.000191889412}, {"nodeid": 12, "leaf": 0.00111919479}]}, {"nodeid": 6, "depth": 2, "split": "f51", "split_condition": 0.0580645166, "yes": 13, "no": 14, "missing": 14, "children": [{"nodeid": 13, "leaf": 0.00292985328}, {"nodeid": 14, "leaf": 0.000834488485}]}]}]}, {"nodeid": 0, "depth": 0, "split": "f92", "split_condition": -0.0215261877, "yes": 1, "no": 2, "missing": 2, "children": [{"nodeid": 1, "depth": 1, "split": "f92", "split_condition": -0.183935195, "yes": 3, "no": 4, "missing": 4, "children": [{"nodeid": 3, "depth": 2, "split": "f10", "split_condition": -0.129480526, "yes": 7, "no": 8, "missing": 8, "children": [{"nodeid": 7, "leaf": -0.00218038284}, {"nodeid": 8, "leaf": -0.00059735839}]}, {"nodeid": 4, "depth": 2, "split": "f0", "split_condition": 0.749774992, "yes": 9, "no": 10, "missing": 10, "children": [{"nodeid": 9, "depth": 3, "split": "f25", "split_condition": 0.637142837, "yes": 13, "no": 14, "missing": 14, "children": [{"nodeid": 13, "leaf": -0.000856767991}, {"nodeid": 14, "leaf": -0.000152370179}]}, {"nodeid": 10, "depth": 3, "split": "f75", "split_condition": 0.423000008, "yes": 15, "no": 16, "missing": 16, "children": [{"nodeid": 15, "leaf": -0.000112449976}, {"nodeid": 16, "leaf": 0.000357350684}]}]}]}, {"nodeid": 2, "depth": 1, "split": "f92", "split_condition": 0.295729727, "yes": 5, "no": 6, "missing": 6, "children": [{"nodeid": 5, "depth": 2, "split": "f0", "split_condition": 0.744174421, "yes": 11, "no": 12, "missing": 12, "children": [{"nodeid": 11, "depth": 3, "split": "f47", "split_condition": 0.721800029, "yes": 17, "no": 18, "missing": 18, "children": [{"nodeid": 17, "leaf": 0.000167802064}, {"nodeid": 18, "leaf": -0.000845308707}]}, {"nodeid": 12, "leaf": 0.00158187689}]}, {"nodeid": 6, "leaf": 0.00233473117}]}]}, {"nodeid": 0, "depth": 0, "split": "f92", "split_condition": -0.0232558139, "yes": 1, "no": 2, "missing": 2, "children": [{"nodeid": 1, "depth": 1, "split": "f92", "split_condition": -0.189237162, "yes": 3, "no": 4, "missing": 4, "children": [{"nodeid": 3, "depth": 2, "split": "f5", "split_condition": 0.569000006, "yes": 7, "no": 8, "missing": 8, "children": [{"nodeid": 7, "leaf": -0.0019458927}, {"nodeid": 8, "leaf": -0.000506490876}]}, {"nodeid": 4, "depth": 2, "split": "f76", "split_condition": 0.432000011, "yes": 9, "no": 10, "missing": 10, "children": [{"nodeid": 9, "depth": 3, "split": "f142", "split_condition": 0.0013694329, "yes": 15, "no": 16, "missing": 16, "children": [{"nodeid": 15, "leaf": -0.00101243518}, {"nodeid": 16, "leaf": -0.000133406676}]}, {"nodeid": 10, "depth": 3, "split": "f76", "split_condition": 0.442000002, "yes": 17, "no": 18, "missing": 18, "children": [{"nodeid": 17, "leaf": 0.000363843254}, {"nodeid": 18, "leaf": -0.000376410404}]}]}]}, {"nodeid": 2, "depth": 1, "split": "f142", "split_condition": 0.00342891086, "yes": 5, "no": 6, "missing": 6, "children": [{"nodeid": 5, "depth": 2, "split": "f92", "split_condition": 0.25648436, "yes": 11, "no": 12, "missing": 12, "children": [{"nodeid": 11, "depth": 3, "split": "f67", "split_condition": 0.203999996, "yes": 19, "no": 20, "missing": 20, "children": [{"nodeid": 19, "leaf": 0.000758717651}, {"nodeid": 20, "leaf": -0.000211725826}]}, {"nodeid": 12, "leaf": 0.00175686087}]}, {"nodeid": 6, "depth": 2, "split": "f8", "split_condition": 0.632000029, "yes": 13, "no": 14, "missing": 14, "children": [{"nodeid": 13, "leaf": 0.000643882377}, {"nodeid": 14, "leaf": 0.00260062865}]}]}]}, {"nodeid": 0, "depth": 0, "split": "f7", "split_condition": 0.726999998, "yes": 1, "no": 2, "missing": 2, "children": [{"nodeid": 1, "depth": 1, "split": "f10", "split_condition": -0.0597857125, "yes": 3, "no": 4, "missing": 4, "children": [{"nodeid": 3, "depth": 2, "split": "f34", "split_condition": 0.178000003, "yes": 7, "no": 8, "missing": 8, "children": [{"nodeid": 7, "depth": 3, "split": "f37", "split_condition": 0.930999994, "yes": 15, "no": 16, "missing": 16, "children": [{"nodeid": 15, "leaf": -0.00181434734}, {"nodeid": 16, "leaf": -0.000484020449}]}, {"nodeid": 8, "depth": 3, "split": "f10", "split_condition": -0.140000001, "yes": 17, "no": 18, "missing": 18, "children": [{"nodeid": 17, "leaf": -0.000598682265}, {"nodeid": 18, "leaf": 2.16409353e-05}]}]}, {"nodeid": 4, "depth": 2, "split": "f139", "split_condition": 0.239634275, "yes": 9, "no": 10, "missing": 10, "children": [{"nodeid": 9, "depth": 3, "split": "f10", "split_condition": 0.133750007, "yes": 19, "no": 20, "missing": 20, "children": [{"nodeid": 19, "leaf": -0.000265087176}, {"nodeid": 20, "leaf": 0.00057469029}]}, {"nodeid": 10, "leaf": -0.00112301519}]}]}, {"nodeid": 2, "depth": 1, "split": "f4", "split_condition": 0.600000024, "yes": 5, "no": 6, "missing": 6, "children": [{"nodeid": 5, "depth": 2, "split": "f142", "split_condition": 0.0346194766, "yes": 11, "no": 12, "missing": 12, "children": [{"nodeid": 11, "depth": 3, "split": "f51", "split_condition": 0.0522193201, "yes": 21, "no": 22, "missing": 22, "children": [{"nodeid": 21, "leaf": 0.00102596299}, {"nodeid": 22, "leaf": 0.000397926196}]}, {"nodeid": 12, "leaf": 0.00231028814}]}, {"nodeid": 6, "depth": 2, "split": "f76", "split_condition": 0.349000007, "yes": 13, "no": 14, "missing": 14, "children": [{"nodeid": 13, "leaf": -0.000734689937}, {"nodeid": 14, "leaf": 0.000523184834}]}]}]}, {"nodeid": 0, "depth": 0, "split": "f92", "split_condition": -0.0232558139, "yes": 1, "no": 2, "missing": 2, "children": [{"nodeid": 1, "depth": 1, "split": "f92", "split_condition": -0.183935195, "yes": 3, "no": 4, "missing": 4, "children": [{"nodeid": 3, "leaf": -0.00183244608}, {"nodeid": 4, "depth": 2, "split": "f61", "split_condition": 0.419999987, "yes": 7, "no": 8, "missing": 8, "children": [{"nodeid": 7, "depth": 3, "split": "f20", "split_condition": 0.716666639, "yes": 13, "no": 14, "missing": 14, "children": [{"nodeid": 13, "leaf": -0.000869751559}, {"nodeid": 14, "leaf": -0.000102643644}]}, {"nodeid": 8, "depth": 3, "split": "f5", "split_condition": 0.629750013, "yes": 15, "no": 16, "missing": 16, "children": [{"nodeid": 15, "leaf": 0.00015993361}, {"nodeid": 16, "leaf": -0.000130208457}]}]}]}, {"nodeid": 2, "depth": 1, "split": "f39", "split_condition": 0.150433168, "yes": 5, "no": 6, "missing": 6, "children": [{"nodeid": 5, "depth": 2, "split": "f137", "split_condition": 0.319999993, "yes": 9, "no": 10, "missing": 10, "children": [{"nodeid": 9, "depth": 3, "split": "f0", "split_condition": 0.738873899, "yes": 17, "no": 18, "missing": 18, "children": [{"nodeid": 17, "leaf": -0.000151827073}, {"nodeid": 18, "leaf": 0.000950607879}]}, {"nodeid": 10, "leaf": 0.00168087485}]}, {"nodeid": 6, "depth": 2, "split": "f77", "split_condition": 0.063000001, "yes": 11, "no": 12, "missing": 12, "children": [{"nodeid": 11, "leaf": 0.000644453161}, {"nodeid": 12, "leaf": 0.00225647492}]}]}]}, {"nodeid": 0, "depth": 0, "split": "f7", "split_condition": 0.724250019, "yes": 1, "no": 2, "missing": 2, "children": [{"nodeid": 1, "depth": 1, "split": "f5", "split_condition": 0.578249991, "yes": 3, "no": 4, "missing": 4, "children": [{"nodeid": 3, "depth": 2, "split": "f51", "split_condition": 0.0476190485, "yes": 7, "no": 8, "missing": 8, "children": [{"nodeid": 7, "depth": 3, "split": "f2", "split_condition": 0.0953999981, "yes": 15, "no": 16, "missing": 16, "children": [{"nodeid": 15, "leaf": -0.00144802814}, {"nodeid": 16, "leaf": -0.000154754496}]}, {"nodeid": 8, "depth": 3, "split": "f2", "split_condition": -0.0258000009, "yes": 17, "no": 18, "missing": 18, "children": [{"nodeid": 17, "leaf": 0.000117362884}, {"nodeid": 18, "leaf": -0.000386891712}]}]}, {"nodeid": 4, "depth": 2, "split": "f7", "split_condition": 0.65625, "yes": 9, "no": 10, "missing": 10, "children": [{"nodeid": 9, "depth": 3, "split": "f9", "split_condition": 0.501647055, "yes": 19, "no": 20, "missing": 20, "children": [{"nodeid": 19, "leaf": 0.000439029856}, {"nodeid": 20, "leaf": -3.90121386e-05}]}, {"nodeid": 10, "depth": 3, "split": "f79", "split_condition": 0.444999993, "yes": 21, "no": 22, "missing": 22, "children": [{"nodeid": 21, "leaf": -0.000253223552}, {"nodeid": 22, "leaf": -0.000869373616}]}]}]}, {"nodeid": 2, "depth": 1, "split": "f9", "split_condition": 0.832750022, "yes": 5, "no": 6, "missing": 6, "children": [{"nodeid": 5, "depth": 2, "split": "f22", "split_condition": 0.266666681, "yes": 11, "no": 12, "missing": 12, "children": [{"nodeid": 11, "depth": 3, "split": "f5", "split_condition": 0.801500022, "yes": 23, "no": 24, "missing": 24, "children": [{"nodeid": 23, "leaf": 0.000549652206}, {"nodeid": 24, "leaf": 0.00154229021}]}, {"nodeid": 12, "depth": 3, "split": "f3", "split_condition": 0.266666681, "yes": 25, "no": 26, "missing": 26, "children": [{"nodeid": 25, "leaf": 0.000549065589}, {"nodeid": 26, "leaf": -0.000302251661}]}]}, {"nodeid": 6, "depth": 2, "split": "f36", "split_condition": 0.100000001, "yes": 13, "no": 14, "missing": 14, "children": [{"nodeid": 13, "leaf": -3.29060204e-05}, {"nodeid": 14, "leaf": -0.000669536355}]}]}]}, {"nodeid": 0, "depth": 0, "split": "f92", "split_condition": -0.0215261877, "yes": 1, "no": 2, "missing": 2, "children": [{"nodeid": 1, "depth": 1, "split": "f10", "split_condition": -0.0874666646, "yes": 3, "no": 4, "missing": 4, "children": [{"nodeid": 3, "depth": 2, "split": "f97", "split_condition": 0.383875012, "yes": 7, "no": 8, "missing": 8, "children": [{"nodeid": 7, "leaf": -0.000195479792}, {"nodeid": 8, "leaf": -0.001641482}]}, {"nodeid": 4, "depth": 2, "split": "f0", "split_condition": 0.713771403, "yes": 9, "no": 10, "missing": 10, "children": [{"nodeid": 9, "depth": 3, "split": "f25", "split_condition": 0.00285714283, "yes": 15, "no": 16, "missing": 16, "children": [{"nodeid": 15, "leaf": -0.000152515262}, {"nodeid": 16, "leaf": -0.000734108617}]}, {"nodeid": 10, "depth": 3, "split": "f1", "split_condition": 0.0120000001, "yes": 17, "no": 18, "missing": 18, "children": [{"nodeid": 17, "leaf": 0.000252018304}, {"nodeid": 18, "leaf": -5.88878756e-05}]}]}]}, {"nodeid": 2, "depth": 1, "split": "f5", "split_condition": 0.825999975, "yes": 5, "no": 6, "missing": 6, "children": [{"nodeid": 5, "depth": 2, "split": "f0", "split_condition": 0.610461056, "yes": 11, "no": 12, "missing": 12, "children": [{"nodeid": 11, "depth": 3, "split": "f0", "split_condition": 0.605560541, "yes": 19, "no": 20, "missing": 20, "children": [{"nodeid": 19, "leaf": 6.29083515e-05}, {"nodeid": 20, "leaf": -0.000841435627}]}, {"nodeid": 12, "depth": 3, "split": "f106", "split_condition": 0.458666652, "yes": 21, "no": 22, "missing": 22, "children": [{"nodeid": 21, "leaf": 3.70653797e-05}, {"nodeid": 22, "leaf": 0.000650549482}]}]}, {"nodeid": 6, "depth": 2, "split": "f25", "split_condition": 0.431428581, "yes": 13, "no": 14, "missing": 14, "children": [{"nodeid": 13, "leaf": 0.00161820278}, {"nodeid": 14, "leaf": 0.000614629185}]}]}]}, {"nodeid": 0, "depth": 0, "split": "f92", "split_condition": 0.0412658788, "yes": 1, "no": 2, "missing": 2, "children": [{"nodeid": 1, "depth": 1, "split": "f5", "split_condition": 0.578249991, "yes": 3, "no": 4, "missing": 4, "children": [{"nodeid": 3, "depth": 2, "split": "f67", "split_condition": 0.163000003, "yes": 7, "no": 8, "missing": 8, "children": [{"nodeid": 7, "depth": 3, "split": "f28", "split_condition": 0.893995106, "yes": 13, "no": 14, "missing": 14, "children": [{"nodeid": 13, "leaf": -0.000470748084}, {"nodeid": 14, "leaf": 0}]}, {"nodeid": 8, "depth": 3, "split": "f51", "split_condition": 0.0465116277, "yes": 15, "no": 16, "missing": 16, "children": [{"nodeid": 15, "leaf": -0.00161678053}, {"nodeid": 16, "leaf": -0.000239736473}]}]}, {"nodeid": 4, "depth": 2, "split": "f142", "split_condition": 0.0013694329, "yes": 9, "no": 10, "missing": 10, "children": [{"nodeid": 9, "depth": 3, "split": "f21", "split_condition": 0.200000003, "yes": 17, "no": 18, "missing": 18, "children": [{"nodeid": 17, "leaf": 5.90874988e-05}, {"nodeid": 18, "leaf": -0.000519320776}]}, {"nodeid": 10, "depth": 3, "split": "f5", "split_condition": 0.65625, "yes": 19, "no": 20, "missing": 20, "children": [{"nodeid": 19, "leaf": 9.16482168e-05}, {"nodeid": 20, "leaf": 0.000600220577}]}]}]}, {"nodeid": 2, "depth": 1, "split": "f118", "split_condition": 0.0615921579, "yes": 5, "no": 6, "missing": 6, "children": [{"nodeid": 5, "leaf": -0.000745962199}, {"nodeid": 6, "depth": 2, "split": "f6", "split_condition": 1, "yes": 11, "no": 12, "missing": 12, "children": [{"nodeid": 11, "depth": 3, "split": "f67", "split_condition": 0.537999988, "yes": 21, "no": 22, "missing": 22, "children": [{"nodeid": 21, "leaf": 0.000785877288}, {"nodeid": 22, "leaf": 7.05311541e-05}]}, {"nodeid": 12, "leaf": 0.00233645714}]}]}]}, {"nodeid": 0, "depth": 0, "split": "f39", "split_condition": 0.19815217, "yes": 1, "no": 2, "missing": 2, "children": [{"nodeid": 1, "depth": 1, "split": "f92", "split_condition": -0.0215261877, "yes": 3, "no": 4, "missing": 4, "children": [{"nodeid": 3, "depth": 2, "split": "f39", "split_condition": 0.000477734691, "yes": 7, "no": 8, "missing": 8, "children": [{"nodeid": 7, "depth": 3, "split": "f23", "split_condition": 0.580769241, "yes": 11, "no": 12, "missing": 12, 